network "unnamedBN" {
// written by aGrUM 0.22.2
}

variable asma_pre {
   type discrete[3] {0, 1, 2};
}

variable cardiopatia_pre {
   type discrete[3] {0, 1, 2};
}

variable diabetes_pre {
   type discrete[3] {0, 1, 2};
}

variable doenca_hematologica_pre {
   type discrete[3] {0, 1, 2};
}

variable doenca_hepatica_pre {
   type discrete[3] {0, 1, 2};
}

variable doenca_neurologica_pre {
   type discrete[3] {0, 1, 2};
}

variable doenca_renal_pre {
   type discrete[3] {0, 1, 2};
}

variable imunodepressao_pre {
   type discrete[3] {0, 1, 2};
}

variable obesidade_pre {
   type discrete[3] {0, 1, 2};
}

variable outros_fatores_de_risco_pre {
   type discrete[3] {0, 1, 2};
}

variable pneumopatia_pre {
   type discrete[3] {0, 1, 2};
}

variable puerpera_pre {
   type discrete[3] {0, 1, 2};
}

variable sindrome_de_down_pre {
   type discrete[3] {0, 1, 2};
}

variable idade_pre {
   type discrete[5] {0, 1, 2, 3, 4};
}

variable cs_sexo_pre {
   type discrete[2] {0, 1};
}

variable obito_pre {
   type discrete[2] {0, 1};
}

probability (asma_pre | cs_sexo_pre, pneumopatia_pre) {
   (0, 0) 0.997705 0.000260187 0.00203498;
   (1, 0) 0.997891 0.000467764 0.00164085;
   (0, 1) 0.00850652 0.935714 0.0557796;
   (1, 1) 0.00815072 0.955155 0.0366945;
   (0, 2) 0.467747 0.44779 0.0844634;
   (1, 2) 0.490962 0.450454 0.0585847;
}
probability (cardiopatia_pre | diabetes_pre, doenca_renal_pre, doenca_neurologica_pre, idade_pre, outros_fatores_de_risco_pre, obesidade_pre) {
   (0, 0, 0, 0, 0, 0) 0.994453 5.75006e-06 0.00554154;
   (1, 0, 0, 0, 0, 0) 0.333333 0.333333 0.333333;
   (2, 0, 0, 0, 0, 0) 0.862385 0.00152947 0.136086;
   (0, 1, 0, 0, 0, 0) 0.333333 0.333333 0.333333;
   (1, 1, 0, 0, 0, 0) 0.250017 0.499966 0.250017;
   (2, 1, 0, 0, 0, 0) 0.333333 0.333333 0.333333;
   (0, 2, 0, 0, 0, 0) 0.898874 0.00561949 0.0955067;
   (1, 2, 0, 0, 0, 0) 0.333333 0.333333 0.333333;
   (2, 2, 0, 0, 0, 0) 0.545439 0.0909272 0.363634;
   (0, 0, 1, 0, 0, 0) 0.333333 0.333333 0.333333;
   (1, 0, 1, 0, 0, 0) 0.333333 0.333333 0.333333;
   (2, 0, 1, 0, 0, 0) 0.333333 0.333333 0.333333;
   (0, 1, 1, 0, 0, 0) 0.333333 0.333333 0.333333;
   (1, 1, 1, 0, 0, 0) 0.0909272 0.545439 0.363634;
   (2, 1, 1, 0, 0, 0) 0.250017 0.499966 0.250017;
   (0, 2, 1, 0, 0, 0) 0.333333 0.333333 0.333333;
   (1, 2, 1, 0, 0, 0) 0.250017 0.499966 0.250017;
   (2, 2, 1, 0, 0, 0) 0.333333 0.333333 0.333333;
   (0, 0, 2, 0, 0, 0) 0.914272 0.0285786 0.0571494;
   (1, 0, 2, 0, 0, 0) 0.333333 0.333333 0.333333;
   (2, 0, 2, 0, 0, 0) 0.499966 0.250017 0.250017;
   (0, 1, 2, 0, 0, 0) 0.333333 0.333333 0.333333;
   (1, 1, 2, 0, 0, 0) 0.333333 0.333333 0.333333;
   (2, 1, 2, 0, 0, 0) 0.333333 0.333333 0.333333;
   (0, 2, 2, 0, 0, 0) 0.333333 0.333333 0.333333;
   (1, 2, 2, 0, 0, 0) 0.333333 0.333333 0.333333;
   (2, 2, 2, 0, 0, 0) 0.333333 0.333333 0.333333;
   (0, 0, 0, 1, 0, 0) 0.986217 6.12748e-06 0.0137769;
   (1, 0, 0, 1, 0, 0) 0.333333 0.333333 0.333333;
   (2, 0, 0, 1, 0, 0) 0.834769 0.00234947 0.162882;
   (0, 1, 0, 1, 0, 0) 0.499966 0.250017 0.250017;
   (1, 1, 0, 1, 0, 0) 0.333333 0.333333 0.333333;
   (2, 1, 0, 1, 0, 0) 0.333333 0.333333 0.333333;
   (0, 2, 0, 1, 0, 0) 0.856538 0.00422055 0.139241;
   (1, 2, 0, 1, 0, 0) 0.333333 0.333333 0.333333;
   (2, 2, 0, 1, 0, 0) 0.685706 0.0285786 0.285715;
   (0, 0, 1, 1, 0, 0) 0.333333 0.333333 0.333333;
   (1, 0, 1, 1, 0, 0) 0.16669 0.333333 0.499977;
   (2, 0, 1, 1, 0, 0) 0.200022 0.399989 0.399989;
   (0, 1, 1, 1, 0, 0) 0.250017 0.499966 0.250017;
   (1, 1, 1, 1, 0, 0) 0.16669 0.333333 0.499977;
   (2, 1, 1, 1, 0, 0) 0.250017 0.250017 0.499966;
   (0, 2, 1, 1, 0, 0) 0.333333 0.333333 0.333333;
   (1, 2, 1, 1, 0, 0) 0.200022 0.599956 0.200022;
   (2, 2, 1, 1, 0, 0) 0.333333 0.333333 0.333333;
   (0, 0, 2, 1, 0, 0) 0.874986 0.0312578 0.0937562;
   (1, 0, 2, 1, 0, 0) 0.333333 0.333333 0.333333;
   (2, 0, 2, 1, 0, 0) 0.200022 0.200022 0.599956;
   (0, 1, 2, 1, 0, 0) 0.333333 0.333333 0.333333;
   (1, 1, 2, 1, 0, 0) 0.333333 0.333333 0.333333;
   (2, 1, 2, 1, 0, 0) 0.333333 0.333333 0.333333;
   (0, 2, 2, 1, 0, 0) 0.333333 0.333333 0.333333;
   (1, 2, 2, 1, 0, 0) 0.333333 0.333333 0.333333;
   (2, 2, 2, 1, 0, 0) 0.333333 0.333333 0.333333;
   (0, 0, 0, 2, 0, 0) 0.96592 6.01969e-06 0.0340742;
   (1, 0, 0, 2, 0, 0) 0.200022 0.399989 0.399989;
   (2, 0, 0, 2, 0, 0) 0.736157 0.000605227 0.263238;
   (0, 1, 0, 2, 0, 0) 0.499966 0.250017 0.250017;
   (1, 1, 0, 2, 0, 0) 0.333333 0.333333 0.333333;
   (2, 1, 0, 2, 0, 0) 0.333333 0.333333 0.333333;
   (0, 2, 0, 2, 0, 0) 0.831521 0.00271813 0.165761;
   (1, 2, 0, 2, 0, 0) 0.333333 0.333333 0.333333;
   (2, 2, 0, 2, 0, 0) 0.474574 0.0339025 0.491523;
   (0, 0, 1, 2, 0, 0) 0.333333 0.333333 0.333333;
   (1, 0, 1, 2, 0, 0) 0.16669 0.333333 0.499977;
   (2, 0, 1, 2, 0, 0) 0.200022 0.399989 0.399989;
   (0, 1, 1, 2, 0, 0) 0.333333 0.333333 0.333333;
   (1, 1, 1, 2, 0, 0) 0.125021 0.499983 0.374996;
   (2, 1, 1, 2, 0, 0) 0.200022 0.399989 0.399989;
   (0, 2, 1, 2, 0, 0) 0.333333 0.333333 0.333333;
   (1, 2, 1, 2, 0, 0) 0.250017 0.499966 0.250017;
   (2, 2, 1, 2, 0, 0) 0.333333 0.333333 0.333333;
   (0, 0, 2, 2, 0, 0) 0.714278 0.0238156 0.261906;
   (1, 0, 2, 2, 0, 0) 0.333333 0.333333 0.333333;
   (2, 0, 2, 2, 0, 0) 0.444434 0.111131 0.444434;
   (0, 1, 2, 2, 0, 0) 0.333333 0.333333 0.333333;
   (1, 1, 2, 2, 0, 0) 0.333333 0.333333 0.333333;
   (2, 1, 2, 2, 0, 0) 0.333333 0.333333 0.333333;
   (0, 2, 2, 2, 0, 0) 0.499966 0.250017 0.250017;
   (1, 2, 2, 2, 0, 0) 0.333333 0.333333 0.333333;
   (2, 2, 2, 2, 0, 0) 0.333333 0.333333 0.333333;
   (0, 0, 0, 3, 0, 0) 0.926175 1.37649e-05 0.073811;
   (1, 0, 0, 3, 0, 0) 0.14288 0.14288 0.714241;
   (2, 0, 0, 3, 0, 0) 0.621888 0.000926494 0.377186;
   (0, 1, 0, 3, 0, 0) 0.250017 0.250017 0.499966;
   (1, 1, 0, 3, 0, 0) 0.333333 0.333333 0.333333;
   (2, 1, 0, 3, 0, 0) 0.28572 0.28572 0.42856;
   (0, 2, 0, 3, 0, 0) 0.766114 0.00184212 0.232044;
   (1, 2, 0, 3, 0, 0) 0.333333 0.333333 0.333333;
   (2, 2, 0, 3, 0, 0) 0.448484 0.00606224 0.545453;
   (0, 0, 1, 3, 0, 0) 0.250017 0.250017 0.499966;
   (1, 0, 1, 3, 0, 0) 0.100019 0.300003 0.599978;
   (2, 0, 1, 3, 0, 0) 0.176478 0.29412 0.529402;
   (0, 1, 1, 3, 0, 0) 0.333333 0.333333 0.333333;
   (1, 1, 1, 3, 0, 0) 0.0312578 0.406248 0.562494;
   (2, 1, 1, 3, 0, 0) 0.0526437 0.263161 0.684195;
   (0, 2, 1, 3, 0, 0) 0.333333 0.333333 0.333333;
   (1, 2, 1, 3, 0, 0) 0.125021 0.499983 0.374996;
   (2, 2, 1, 3, 0, 0) 0.250017 0.250017 0.499966;
   (0, 0, 2, 3, 0, 0) 0.5974 0.0129904 0.38961;
   (1, 0, 2, 3, 0, 0) 0.250017 0.250017 0.499966;
   (2, 0, 2, 3, 0, 0) 0.35294 0.117658 0.529402;
   (0, 1, 2, 3, 0, 0) 0.333333 0.333333 0.333333;
   (1, 1, 2, 3, 0, 0) 0.250017 0.499966 0.250017;
   (2, 1, 2, 3, 0, 0) 0.250017 0.250017 0.499966;
   (0, 2, 2, 3, 0, 0) 0.250017 0.250017 0.499966;
   (1, 2, 2, 3, 0, 0) 0.333333 0.333333 0.333333;
   (2, 2, 2, 3, 0, 0) 0.333333 0.16669 0.499977;
   (0, 0, 0, 4, 0, 0) 0.847304 5.72742e-05 0.152638;
   (1, 0, 0, 4, 0, 0) 0.0909182 0.0454653 0.863617;
   (2, 0, 0, 4, 0, 0) 0.464913 0.000520247 0.534566;
   (0, 1, 0, 4, 0, 0) 0.200022 0.399989 0.399989;
   (1, 1, 0, 4, 0, 0) 0.14288 0.14288 0.714241;
   (2, 1, 0, 4, 0, 0) 0.125011 0.250004 0.624985;
   (0, 2, 0, 4, 0, 0) 0.594339 0.00209672 0.403564;
   (1, 2, 0, 4, 0, 0) 0.14288 0.14288 0.714241;
   (2, 2, 0, 4, 0, 0) 0.27924 0.00146239 0.719298;
   (0, 0, 1, 4, 0, 0) 0.333333 0.16669 0.499977;
   (1, 0, 1, 4, 0, 0) 0.0416767 0.125007 0.833316;
   (2, 0, 1, 4, 0, 0) 0.0312578 0.34375 0.624992;
   (0, 1, 1, 4, 0, 0) 0.250017 0.250017 0.499966;
   (1, 1, 1, 4, 0, 0) 0.0163977 0.18033 0.803272;
   (2, 1, 1, 4, 0, 0) 0.0238126 0.261905 0.714282;
   (0, 2, 1, 4, 0, 0) 0.250017 0.250017 0.499966;
   (1, 2, 1, 4, 0, 0) 0.100019 0.300003 0.599978;
   (2, 2, 1, 4, 0, 0) 0.0625139 0.312501 0.624985;
   (0, 0, 2, 4, 0, 0) 0.491749 0.00220052 0.50605;
   (1, 0, 2, 4, 0, 0) 0.200011 0.200011 0.599978;
   (2, 0, 2, 4, 0, 0) 0.214068 0.0152913 0.770641;
   (0, 1, 2, 4, 0, 0) 0.333333 0.333333 0.333333;
   (1, 1, 2, 4, 0, 0) 0.0434886 0.391302 0.565209;
   (2, 1, 2, 4, 0, 0) 0.0588368 0.176478 0.764685;
   (0, 2, 2, 4, 0, 0) 0.300001 0.0250063 0.674993;
   (1, 2, 2, 4, 0, 0) 0.250017 0.250017 0.499966;
   (2, 2, 2, 4, 0, 0) 0.125005 0.0312578 0.843737;
   (0, 0, 0, 0, 1, 0) 0.571401 0.14288 0.28572;
   (1, 0, 0, 0, 1, 0) 0.333333 0.333333 0.333333;
   (2, 0, 0, 0, 1, 0) 0.333333 0.333333 0.333333;
   (0, 1, 0, 0, 1, 0) 0.333333 0.333333 0.333333;
   (1, 1, 0, 0, 1, 0) 0.333333 0.333333 0.333333;
   (2, 1, 0, 0, 1, 0) 0.333333 0.333333 0.333333;
   (0, 2, 0, 0, 1, 0) 0.333333 0.333333 0.333333;
   (1, 2, 0, 0, 1, 0) 0.333333 0.333333 0.333333;
   (2, 2, 0, 0, 1, 0) 0.333333 0.333333 0.333333;
   (0, 0, 1, 0, 1, 0) 0.333333 0.333333 0.333333;
   (1, 0, 1, 0, 1, 0) 0.200022 0.599956 0.200022;
   (2, 0, 1, 0, 1, 0) 0.333333 0.333333 0.333333;
   (0, 1, 1, 0, 1, 0) 0.333333 0.333333 0.333333;
   (1, 1, 1, 0, 1, 0) 0.16669 0.666621 0.16669;
   (2, 1, 1, 0, 1, 0) 0.250017 0.499966 0.250017;
   (0, 2, 1, 0, 1, 0) 0.333333 0.333333 0.333333;
   (1, 2, 1, 0, 1, 0) 0.333333 0.333333 0.333333;
   (2, 2, 1, 0, 1, 0) 0.333333 0.333333 0.333333;
   (0, 0, 2, 0, 1, 0) 0.333333 0.333333 0.333333;
   (1, 0, 2, 0, 1, 0) 0.250017 0.499966 0.250017;
   (2, 0, 2, 0, 1, 0) 0.333333 0.333333 0.333333;
   (0, 1, 2, 0, 1, 0) 0.333333 0.333333 0.333333;
   (1, 1, 2, 0, 1, 0) 0.333333 0.333333 0.333333;
   (2, 1, 2, 0, 1, 0) 0.333333 0.333333 0.333333;
   (0, 2, 2, 0, 1, 0) 0.333333 0.333333 0.333333;
   (1, 2, 2, 0, 1, 0) 0.333333 0.333333 0.333333;
   (2, 2, 2, 0, 1, 0) 0.333333 0.333333 0.333333;
   (0, 0, 0, 1, 1, 0) 0.399989 0.200022 0.399989;
   (1, 0, 0, 1, 1, 0) 0.333333 0.333333 0.333333;
   (2, 0, 0, 1, 1, 0) 0.599956 0.200022 0.200022;
   (0, 1, 0, 1, 1, 0) 0.333333 0.333333 0.333333;
   (1, 1, 0, 1, 1, 0) 0.333333 0.333333 0.333333;
   (2, 1, 0, 1, 1, 0) 0.333333 0.333333 0.333333;
   (0, 2, 0, 1, 1, 0) 0.333333 0.333333 0.333333;
   (1, 2, 0, 1, 1, 0) 0.333333 0.333333 0.333333;
   (2, 2, 0, 1, 1, 0) 0.333333 0.333333 0.333333;
   (0, 0, 1, 1, 1, 0) 0.333333 0.333333 0.333333;
   (1, 0, 1, 1, 1, 0) 0.333333 0.333333 0.333333;
   (2, 0, 1, 1, 1, 0) 0.333333 0.333333 0.333333;
   (0, 1, 1, 1, 1, 0) 0.333333 0.333333 0.333333;
   (1, 1, 1, 1, 1, 0) 0.0909272 0.727243 0.18183;
   (2, 1, 1, 1, 1, 0) 0.250017 0.499966 0.250017;
   (0, 2, 1, 1, 1, 0) 0.333333 0.333333 0.333333;
   (1, 2, 1, 1, 1, 0) 0.333333 0.333333 0.333333;
   (2, 2, 1, 1, 1, 0) 0.333333 0.333333 0.333333;
   (0, 0, 2, 1, 1, 0) 0.333333 0.333333 0.333333;
   (1, 0, 2, 1, 1, 0) 0.333333 0.333333 0.333333;
   (2, 0, 2, 1, 1, 0) 0.333333 0.333333 0.333333;
   (0, 1, 2, 1, 1, 0) 0.333333 0.333333 0.333333;
   (1, 1, 2, 1, 1, 0) 0.250017 0.250017 0.499966;
   (2, 1, 2, 1, 1, 0) 0.333333 0.333333 0.333333;
   (0, 2, 2, 1, 1, 0) 0.333333 0.333333 0.333333;
   (1, 2, 2, 1, 1, 0) 0.333333 0.333333 0.333333;
   (2, 2, 2, 1, 1, 0) 0.333333 0.333333 0.333333;
   (0, 0, 0, 2, 1, 0) 0.333333 0.111131 0.555535;
   (1, 0, 0, 2, 1, 0) 0.333333 0.333333 0.333333;
   (2, 0, 0, 2, 1, 0) 0.777737 0.111131 0.111131;
   (0, 1, 0, 2, 1, 0) 0.333333 0.333333 0.333333;
   (1, 1, 0, 2, 1, 0) 0.333333 0.333333 0.333333;
   (2, 1, 0, 2, 1, 0) 0.250017 0.499966 0.250017;
   (0, 2, 0, 2, 1, 0) 0.333333 0.333333 0.333333;
   (1, 2, 0, 2, 1, 0) 0.333333 0.333333 0.333333;
   (2, 2, 0, 2, 1, 0) 0.333333 0.333333 0.333333;
   (0, 0, 1, 2, 1, 0) 0.333333 0.333333 0.333333;
   (1, 0, 1, 2, 1, 0) 0.333333 0.333333 0.333333;
   (2, 0, 1, 2, 1, 0) 0.499966 0.250017 0.250017;
   (0, 1, 1, 2, 1, 0) 0.333333 0.333333 0.333333;
   (1, 1, 1, 2, 1, 0) 0.0500117 0.399997 0.549991;
   (2, 1, 1, 2, 1, 0) 0.0833505 0.666644 0.250006;
   (0, 2, 1, 2, 1, 0) 0.333333 0.333333 0.333333;
   (1, 2, 1, 2, 1, 0) 0.333333 0.333333 0.333333;
   (2, 2, 1, 2, 1, 0) 0.333333 0.333333 0.333333;
   (0, 0, 2, 2, 1, 0) 0.333333 0.333333 0.333333;
   (1, 0, 2, 2, 1, 0) 0.333333 0.333333 0.333333;
   (2, 0, 2, 2, 1, 0) 0.333333 0.333333 0.333333;
   (0, 1, 2, 2, 1, 0) 0.333333 0.333333 0.333333;
   (1, 1, 2, 2, 1, 0) 0.333333 0.333333 0.333333;
   (2, 1, 2, 2, 1, 0) 0.250017 0.250017 0.499966;
   (0, 2, 2, 2, 1, 0) 0.333333 0.333333 0.333333;
   (1, 2, 2, 2, 1, 0) 0.333333 0.333333 0.333333;
   (2, 2, 2, 2, 1, 0) 0.333333 0.333333 0.333333;
   (0, 0, 0, 3, 1, 0) 0.176478 0.0588368 0.764685;
   (1, 0, 0, 3, 1, 0) 0.499966 0.250017 0.250017;
   (2, 0, 0, 3, 1, 0) 0.333333 0.133344 0.533322;
   (0, 1, 0, 3, 1, 0) 0.499966 0.250017 0.250017;
   (1, 1, 0, 3, 1, 0) 0.333333 0.333333 0.333333;
   (2, 1, 0, 3, 1, 0) 0.333333 0.333333 0.333333;
   (0, 2, 0, 3, 1, 0) 0.333333 0.333333 0.333333;
   (1, 2, 0, 3, 1, 0) 0.333333 0.333333 0.333333;
   (2, 2, 0, 3, 1, 0) 0.499966 0.250017 0.250017;
   (0, 0, 1, 3, 1, 0) 0.333333 0.333333 0.333333;
   (1, 0, 1, 3, 1, 0) 0.250017 0.499966 0.250017;
   (2, 0, 1, 3, 1, 0) 0.125021 0.499983 0.374996;
   (0, 1, 1, 3, 1, 0) 0.250017 0.250017 0.499966;
   (1, 1, 1, 3, 1, 0) 0.0454653 0.136371 0.818164;
   (2, 1, 1, 3, 1, 0) 0.068973 0.448273 0.482754;
   (0, 2, 1, 3, 1, 0) 0.333333 0.333333 0.333333;
   (1, 2, 1, 3, 1, 0) 0.333333 0.333333 0.333333;
   (2, 2, 1, 3, 1, 0) 0.14288 0.42856 0.42856;
   (0, 0, 2, 3, 1, 0) 0.499966 0.250017 0.250017;
   (1, 0, 2, 3, 1, 0) 0.333333 0.333333 0.333333;
   (2, 0, 2, 3, 1, 0) 0.333333 0.333333 0.333333;
   (0, 1, 2, 3, 1, 0) 0.333333 0.333333 0.333333;
   (1, 1, 2, 3, 1, 0) 0.250017 0.250017 0.499966;
   (2, 1, 2, 3, 1, 0) 0.333333 0.333333 0.333333;
   (0, 2, 2, 3, 1, 0) 0.333333 0.333333 0.333333;
   (1, 2, 2, 3, 1, 0) 0.333333 0.333333 0.333333;
   (2, 2, 2, 3, 1, 0) 0.333333 0.333333 0.333333;
   (0, 0, 0, 4, 1, 0) 0.187503 0.0208387 0.791659;
   (1, 0, 0, 4, 1, 0) 0.333333 0.333333 0.333333;
   (2, 0, 0, 4, 1, 0) 0.240002 0.0600045 0.699994;
   (0, 1, 0, 4, 1, 0) 0.250017 0.250017 0.499966;
   (1, 1, 0, 4, 1, 0) 0.333333 0.333333 0.333333;
   (2, 1, 0, 4, 1, 0) 0.16669 0.333333 0.499977;
   (0, 2, 0, 4, 1, 0) 0.250017 0.250017 0.499966;
   (1, 2, 0, 4, 1, 0) 0.333333 0.333333 0.333333;
   (2, 2, 0, 4, 1, 0) 0.200022 0.200022 0.599956;
   (0, 0, 1, 4, 1, 0) 0.499966 0.250017 0.250017;
   (1, 0, 1, 4, 1, 0) 0.16669 0.16669 0.666621;
   (2, 0, 1, 4, 1, 0) 0.125021 0.499983 0.374996;
   (0, 1, 1, 4, 1, 0) 0.200022 0.200022 0.599956;
   (1, 1, 1, 4, 1, 0) 0.0232617 0.162794 0.813944;
   (2, 1, 1, 4, 1, 0) 0.0439587 0.23077 0.725271;
   (0, 2, 1, 4, 1, 0) 0.333333 0.333333 0.333333;
   (1, 2, 1, 4, 1, 0) 0.125021 0.250009 0.62497;
   (2, 2, 1, 4, 1, 0) 0.111131 0.111131 0.777737;
   (0, 0, 2, 4, 1, 0) 0.538449 0.0769393 0.384612;
   (1, 0, 2, 4, 1, 0) 0.250017 0.250017 0.499966;
   (2, 0, 2, 4, 1, 0) 0.200022 0.200022 0.599956;
   (0, 1, 2, 4, 1, 0) 0.250017 0.250017 0.499966;
   (1, 1, 2, 4, 1, 0) 0.18183 0.272732 0.545439;
   (2, 1, 2, 4, 1, 0) 0.100019 0.200011 0.69997;
   (0, 2, 2, 4, 1, 0) 0.333333 0.333333 0.333333;
   (1, 2, 2, 4, 1, 0) 0.333333 0.333333 0.333333;
   (2, 2, 2, 4, 1, 0) 0.250017 0.250017 0.499966;
   (0, 0, 0, 0, 2, 0) 0.947089 0.00264622 0.0502652;
   (1, 0, 0, 0, 2, 0) 0.333333 0.333333 0.333333;
   (2, 0, 0, 0, 2, 0) 0.730757 0.0384709 0.230772;
   (0, 1, 0, 0, 2, 0) 0.333333 0.333333 0.333333;
   (1, 1, 0, 0, 2, 0) 0.250017 0.499966 0.250017;
   (2, 1, 0, 0, 2, 0) 0.333333 0.333333 0.333333;
   (0, 2, 0, 0, 2, 0) 0.583316 0.0833505 0.333333;
   (1, 2, 0, 0, 2, 0) 0.333333 0.333333 0.333333;
   (2, 2, 0, 0, 2, 0) 0.571401 0.14288 0.28572;
   (0, 0, 1, 0, 2, 0) 0.499966 0.250017 0.250017;
   (1, 0, 1, 0, 2, 0) 0.333333 0.333333 0.333333;
   (2, 0, 1, 0, 2, 0) 0.333333 0.333333 0.333333;
   (0, 1, 1, 0, 2, 0) 0.333333 0.333333 0.333333;
   (1, 1, 1, 0, 2, 0) 0.0909272 0.818146 0.0909272;
   (2, 1, 1, 0, 2, 0) 0.333333 0.333333 0.333333;
   (0, 2, 1, 0, 2, 0) 0.333333 0.333333 0.333333;
   (1, 2, 1, 0, 2, 0) 0.333333 0.333333 0.333333;
   (2, 2, 1, 0, 2, 0) 0.333333 0.333333 0.333333;
   (0, 0, 2, 0, 2, 0) 0.842083 0.0526437 0.105273;
   (1, 0, 2, 0, 2, 0) 0.333333 0.333333 0.333333;
   (2, 0, 2, 0, 2, 0) 0.499966 0.250017 0.250017;
   (0, 1, 2, 0, 2, 0) 0.333333 0.333333 0.333333;
   (1, 1, 2, 0, 2, 0) 0.333333 0.333333 0.333333;
   (2, 1, 2, 0, 2, 0) 0.333333 0.333333 0.333333;
   (0, 2, 2, 0, 2, 0) 0.499966 0.250017 0.250017;
   (1, 2, 2, 0, 2, 0) 0.333333 0.333333 0.333333;
   (2, 2, 2, 0, 2, 0) 0.333333 0.333333 0.333333;
   (0, 0, 0, 1, 2, 0) 0.915314 0.00360409 0.0810815;
   (1, 0, 0, 1, 2, 0) 0.333333 0.333333 0.333333;
   (2, 0, 0, 1, 2, 0) 0.71428 0.0357187 0.250001;
   (0, 1, 0, 1, 2, 0) 0.333333 0.333333 0.333333;
   (1, 1, 0, 1, 2, 0) 0.250017 0.499966 0.250017;
   (2, 1, 0, 1, 2, 0) 0.333333 0.333333 0.333333;
   (0, 2, 0, 1, 2, 0) 0.799981 0.0500117 0.150008;
   (1, 2, 0, 1, 2, 0) 0.333333 0.333333 0.333333;
   (2, 2, 0, 1, 2, 0) 0.499966 0.250017 0.250017;
   (0, 0, 1, 1, 2, 0) 0.499966 0.250017 0.250017;
   (1, 0, 1, 1, 2, 0) 0.16669 0.666621 0.16669;
   (2, 0, 1, 1, 2, 0) 0.250017 0.250017 0.499966;
   (0, 1, 1, 1, 2, 0) 0.333333 0.333333 0.333333;
   (1, 1, 1, 1, 2, 0) 0.071444 0.785688 0.142868;
   (2, 1, 1, 1, 2, 0) 0.333333 0.333333 0.333333;
   (0, 2, 1, 1, 2, 0) 0.333333 0.333333 0.333333;
   (1, 2, 1, 1, 2, 0) 0.250017 0.250017 0.499966;
   (2, 2, 1, 1, 2, 0) 0.333333 0.333333 0.333333;
   (0, 0, 2, 1, 2, 0) 0.812475 0.0625139 0.125011;
   (1, 0, 2, 1, 2, 0) 0.333333 0.333333 0.333333;
   (2, 0, 2, 1, 2, 0) 0.250017 0.250017 0.499966;
   (0, 1, 2, 1, 2, 0) 0.333333 0.333333 0.333333;
   (1, 1, 2, 1, 2, 0) 0.250017 0.250017 0.499966;
   (2, 1, 2, 1, 2, 0) 0.333333 0.333333 0.333333;
   (0, 2, 2, 1, 2, 0) 0.499966 0.250017 0.250017;
   (1, 2, 2, 1, 2, 0) 0.333333 0.333333 0.333333;
   (2, 2, 2, 1, 2, 0) 0.250017 0.250017 0.499966;
   (0, 0, 0, 2, 2, 0) 0.870206 0.00196684 0.127827;
   (1, 0, 0, 2, 2, 0) 0.499966 0.250017 0.250017;
   (2, 0, 0, 2, 2, 0) 0.687498 0.00568335 0.306818;
   (0, 1, 0, 2, 2, 0) 0.250017 0.250017 0.499966;
   (1, 1, 0, 2, 2, 0) 0.333333 0.333333 0.333333;
   (2, 1, 0, 2, 2, 0) 0.333333 0.333333 0.333333;
   (0, 2, 0, 2, 2, 0) 0.749979 0.0625139 0.187508;
   (1, 2, 0, 2, 2, 0) 0.333333 0.333333 0.333333;
   (2, 2, 0, 2, 2, 0) 0.499977 0.16669 0.333333;
   (0, 0, 1, 2, 2, 0) 0.250017 0.499966 0.250017;
   (1, 0, 1, 2, 2, 0) 0.250017 0.499966 0.250017;
   (2, 0, 1, 2, 2, 0) 0.333333 0.333333 0.333333;
   (0, 1, 1, 2, 2, 0) 0.250017 0.499966 0.250017;
   (1, 1, 1, 2, 2, 0) 0.074082 0.8148 0.111118;
   (2, 1, 1, 2, 2, 0) 0.250017 0.250017 0.499966;
   (0, 2, 1, 2, 2, 0) 0.250017 0.499966 0.250017;
   (1, 2, 1, 2, 2, 0) 0.16669 0.499977 0.333333;
   (2, 2, 1, 2, 2, 0) 0.250017 0.250017 0.499966;
   (0, 0, 2, 2, 2, 0) 0.749979 0.0625139 0.187508;
   (1, 0, 2, 2, 2, 0) 0.333333 0.333333 0.333333;
   (2, 0, 2, 2, 2, 0) 0.16669 0.16669 0.666621;
   (0, 1, 2, 2, 2, 0) 0.333333 0.333333 0.333333;
   (1, 1, 2, 2, 2, 0) 0.333333 0.333333 0.333333;
   (2, 1, 2, 2, 2, 0) 0.333333 0.333333 0.333333;
   (0, 2, 2, 2, 2, 0) 0.333333 0.333333 0.333333;
   (1, 2, 2, 2, 2, 0) 0.333333 0.333333 0.333333;
   (2, 2, 2, 2, 2, 0) 0.333333 0.333333 0.333333;
   (0, 0, 0, 3, 2, 0) 0.785714 0.000985356 0.213301;
   (1, 0, 0, 3, 2, 0) 0.571401 0.28572 0.14288;
   (2, 0, 0, 3, 2, 0) 0.627717 0.00135907 0.370924;
   (0, 1, 0, 3, 2, 0) 0.333333 0.333333 0.333333;
   (1, 1, 0, 3, 2, 0) 0.333333 0.499977 0.16669;
   (2, 1, 0, 3, 2, 0) 0.250017 0.250017 0.499966;
   (0, 2, 0, 3, 2, 0) 0.491226 0.0175484 0.491226;
   (1, 2, 0, 3, 2, 0) 0.200022 0.200022 0.599956;
   (2, 2, 0, 3, 2, 0) 0.510201 0.0204134 0.469385;
   (0, 0, 1, 3, 2, 0) 0.333333 0.333333 0.333333;
   (1, 0, 1, 3, 2, 0) 0.200022 0.399989 0.399989;
   (2, 0, 1, 3, 2, 0) 0.125021 0.250009 0.62497;
   (0, 1, 1, 3, 2, 0) 0.250017 0.250017 0.499966;
   (1, 1, 1, 3, 2, 0) 0.129038 0.580639 0.290324;
   (2, 1, 1, 3, 2, 0) 0.0454653 0.545447 0.409088;
   (0, 2, 1, 3, 2, 0) 0.333333 0.333333 0.333333;
   (1, 2, 1, 3, 2, 0) 0.125021 0.62497 0.250009;
   (2, 2, 1, 3, 2, 0) 0.14288 0.42856 0.42856;
   (0, 0, 2, 3, 2, 0) 0.717384 0.0217447 0.260871;
   (1, 0, 2, 3, 2, 0) 0.333333 0.333333 0.333333;
   (2, 0, 2, 3, 2, 0) 0.399995 0.100019 0.499986;
   (0, 1, 2, 3, 2, 0) 0.333333 0.333333 0.333333;
   (1, 1, 2, 3, 2, 0) 0.200022 0.399989 0.399989;
   (2, 1, 2, 3, 2, 0) 0.333333 0.333333 0.333333;
   (0, 2, 2, 3, 2, 0) 0.499966 0.250017 0.250017;
   (1, 2, 2, 3, 2, 0) 0.333333 0.333333 0.333333;
   (2, 2, 2, 3, 2, 0) 0.250017 0.250017 0.499966;
   (0, 0, 0, 4, 2, 0) 0.668949 0.00193514 0.329116;
   (1, 0, 0, 4, 2, 0) 0.555545 0.0555683 0.388886;
   (2, 0, 0, 4, 2, 0) 0.536427 0.00323807 0.460335;
   (0, 1, 0, 4, 2, 0) 0.16669 0.16669 0.666621;
   (1, 1, 0, 4, 2, 0) 0.0769393 0.384612 0.538449;
   (2, 1, 0, 4, 2, 0) 0.333333 0.166678 0.499989;
   (0, 2, 0, 4, 2, 0) 0.405512 0.00787507 0.586613;
   (1, 2, 0, 4, 2, 0) 0.333333 0.333333 0.333333;
   (2, 2, 0, 4, 2, 0) 0.365188 0.0034139 0.631398;
   (0, 0, 1, 4, 2, 0) 0.28572 0.28572 0.42856;
   (1, 0, 1, 4, 2, 0) 0.0769312 0.384614 0.538455;
   (2, 0, 1, 4, 2, 0) 0.0769393 0.384612 0.538449;
   (0, 1, 1, 4, 2, 0) 0.200022 0.399989 0.399989;
   (1, 1, 1, 4, 2, 0) 0.0246945 0.567899 0.407407;
   (2, 1, 1, 4, 2, 0) 0.0389642 0.454544 0.506492;
   (0, 2, 1, 4, 2, 0) 0.499966 0.250017 0.250017;
   (1, 2, 1, 4, 2, 0) 0.071444 0.357141 0.571415;
   (2, 2, 1, 4, 2, 0) 0.0588368 0.235299 0.705864;
   (0, 0, 2, 4, 2, 0) 0.582499 0.00500068 0.4125;
   (1, 0, 2, 4, 2, 0) 0.0769393 0.230776 0.692285;
   (2, 0, 2, 4, 2, 0) 0.290503 0.0055881 0.703909;
   (0, 1, 2, 4, 2, 0) 0.16669 0.16669 0.666621;
   (1, 1, 2, 4, 2, 0) 0.0769393 0.384612 0.538449;
   (2, 1, 2, 4, 2, 0) 0.0909272 0.272732 0.636341;
   (0, 2, 2, 4, 2, 0) 0.349999 0.0500117 0.599989;
   (1, 2, 2, 4, 2, 0) 0.200022 0.200022 0.599956;
   (2, 2, 2, 4, 2, 0) 0.142868 0.071444 0.785688;
   (0, 0, 0, 0, 0, 1) 0.499966 0.250017 0.250017;
   (1, 0, 0, 0, 0, 1) 0.333333 0.333333 0.333333;
   (2, 0, 0, 0, 0, 1) 0.333333 0.333333 0.333333;
   (0, 1, 0, 0, 0, 1) 0.333333 0.333333 0.333333;
   (1, 1, 0, 0, 0, 1) 0.333333 0.333333 0.333333;
   (2, 1, 0, 0, 0, 1) 0.333333 0.333333 0.333333;
   (0, 2, 0, 0, 0, 1) 0.333333 0.333333 0.333333;
   (1, 2, 0, 0, 0, 1) 0.333333 0.333333 0.333333;
   (2, 2, 0, 0, 0, 1) 0.333333 0.333333 0.333333;
   (0, 0, 1, 0, 0, 1) 0.333333 0.333333 0.333333;
   (1, 0, 1, 0, 0, 1) 0.250017 0.250017 0.499966;
   (2, 0, 1, 0, 0, 1) 0.333333 0.333333 0.333333;
   (0, 1, 1, 0, 0, 1) 0.333333 0.333333 0.333333;
   (1, 1, 1, 0, 0, 1) 0.0294191 0.823518 0.147063;
   (2, 1, 1, 0, 0, 1) 0.16669 0.499977 0.333333;
   (0, 2, 1, 0, 0, 1) 0.333333 0.333333 0.333333;
   (1, 2, 1, 0, 0, 1) 0.111131 0.666636 0.222232;
   (2, 2, 1, 0, 0, 1) 0.200022 0.399989 0.399989;
   (0, 0, 2, 0, 0, 1) 0.333333 0.333333 0.333333;
   (1, 0, 2, 0, 0, 1) 0.333333 0.333333 0.333333;
   (2, 0, 2, 0, 0, 1) 0.333333 0.333333 0.333333;
   (0, 1, 2, 0, 0, 1) 0.333333 0.333333 0.333333;
   (1, 1, 2, 0, 0, 1) 0.14288 0.571401 0.28572;
   (2, 1, 2, 0, 0, 1) 0.333333 0.333333 0.333333;
   (0, 2, 2, 0, 0, 1) 0.333333 0.333333 0.333333;
   (1, 2, 2, 0, 0, 1) 0.333333 0.333333 0.333333;
   (2, 2, 2, 0, 0, 1) 0.333333 0.333333 0.333333;
   (0, 0, 0, 1, 0, 1) 0.333333 0.333333 0.333333;
   (1, 0, 0, 1, 0, 1) 0.333333 0.333333 0.333333;
   (2, 0, 0, 1, 0, 1) 0.499966 0.250017 0.250017;
   (0, 1, 0, 1, 0, 1) 0.250017 0.250017 0.499966;
   (1, 1, 0, 1, 0, 1) 0.250017 0.499966 0.250017;
   (2, 1, 0, 1, 0, 1) 0.250017 0.250017 0.499966;
   (0, 2, 0, 1, 0, 1) 0.333333 0.333333 0.333333;
   (1, 2, 0, 1, 0, 1) 0.333333 0.333333 0.333333;
   (2, 2, 0, 1, 0, 1) 0.333333 0.333333 0.333333;
   (0, 0, 1, 1, 0, 1) 0.333333 0.333333 0.333333;
   (1, 0, 1, 1, 0, 1) 0.250017 0.499966 0.250017;
   (2, 0, 1, 1, 0, 1) 0.333333 0.333333 0.333333;
   (0, 1, 1, 1, 0, 1) 0.250017 0.499966 0.250017;
   (1, 1, 1, 1, 0, 1) 0.0277848 0.583328 0.388888;
   (2, 1, 1, 1, 0, 1) 0.0625139 0.624985 0.312501;
   (0, 2, 1, 1, 0, 1) 0.333333 0.333333 0.333333;
   (1, 2, 1, 1, 0, 1) 0.250017 0.499966 0.250017;
   (2, 2, 1, 1, 0, 1) 0.200022 0.200022 0.599956;
   (0, 0, 2, 1, 0, 1) 0.333333 0.333333 0.333333;
   (1, 0, 2, 1, 0, 1) 0.333333 0.333333 0.333333;
   (2, 0, 2, 1, 0, 1) 0.333333 0.333333 0.333333;
   (0, 1, 2, 1, 0, 1) 0.333333 0.333333 0.333333;
   (1, 1, 2, 1, 0, 1) 0.333333 0.333333 0.333333;
   (2, 1, 2, 1, 0, 1) 0.333333 0.333333 0.333333;
   (0, 2, 2, 1, 0, 1) 0.333333 0.333333 0.333333;
   (1, 2, 2, 1, 0, 1) 0.333333 0.333333 0.333333;
   (2, 2, 2, 1, 0, 1) 0.333333 0.333333 0.333333;
   (0, 0, 0, 2, 0, 1) 0.399989 0.200022 0.399989;
   (1, 0, 0, 2, 0, 1) 0.333333 0.333333 0.333333;
   (2, 0, 0, 2, 0, 1) 0.250017 0.250017 0.499966;
   (0, 1, 0, 2, 0, 1) 0.333333 0.333333 0.333333;
   (1, 1, 0, 2, 0, 1) 0.250017 0.250017 0.499966;
   (2, 1, 0, 2, 0, 1) 0.250017 0.499966 0.250017;
   (0, 2, 0, 2, 0, 1) 0.333333 0.333333 0.333333;
   (1, 2, 0, 2, 0, 1) 0.333333 0.333333 0.333333;
   (2, 2, 0, 2, 0, 1) 0.333333 0.333333 0.333333;
   (0, 0, 1, 2, 0, 1) 0.333333 0.333333 0.333333;
   (1, 0, 1, 2, 0, 1) 0.200022 0.399989 0.399989;
   (2, 0, 1, 2, 0, 1) 0.200022 0.399989 0.399989;
   (0, 1, 1, 2, 0, 1) 0.200022 0.399989 0.399989;
   (1, 1, 1, 2, 0, 1) 0.02667 0.426666 0.546664;
   (2, 1, 1, 2, 0, 1) 0.0208387 0.562496 0.416665;
   (0, 2, 1, 2, 0, 1) 0.333333 0.333333 0.333333;
   (1, 2, 1, 2, 0, 1) 0.071444 0.571415 0.357141;
   (2, 2, 1, 2, 0, 1) 0.14288 0.571401 0.28572;
   (0, 0, 2, 2, 0, 1) 0.333333 0.333333 0.333333;
   (1, 0, 2, 2, 0, 1) 0.333333 0.333333 0.333333;
   (2, 0, 2, 2, 0, 1) 0.333333 0.333333 0.333333;
   (0, 1, 2, 2, 0, 1) 0.333333 0.333333 0.333333;
   (1, 1, 2, 2, 0, 1) 0.250017 0.499966 0.250017;
   (2, 1, 2, 2, 0, 1) 0.250017 0.250017 0.499966;
   (0, 2, 2, 2, 0, 1) 0.333333 0.333333 0.333333;
   (1, 2, 2, 2, 0, 1) 0.333333 0.333333 0.333333;
   (2, 2, 2, 2, 0, 1) 0.250017 0.250017 0.499966;
   (0, 0, 0, 3, 0, 1) 0.399989 0.200022 0.399989;
   (1, 0, 0, 3, 0, 1) 0.200022 0.200022 0.599956;
   (2, 0, 0, 3, 0, 1) 0.444434 0.222232 0.333333;
   (0, 1, 0, 3, 0, 1) 0.250017 0.250017 0.499966;
   (1, 1, 0, 3, 0, 1) 0.125021 0.250009 0.62497;
   (2, 1, 0, 3, 0, 1) 0.333333 0.333333 0.333333;
   (0, 2, 0, 3, 0, 1) 0.333333 0.333333 0.333333;
   (1, 2, 0, 3, 0, 1) 0.250017 0.499966 0.250017;
   (2, 2, 0, 3, 0, 1) 0.333333 0.333333 0.333333;
   (0, 0, 1, 3, 0, 1) 0.333333 0.333333 0.333333;
   (1, 0, 1, 3, 0, 1) 0.333333 0.333333 0.333333;
   (2, 0, 1, 3, 0, 1) 0.16669 0.499977 0.333333;
   (0, 1, 1, 3, 0, 1) 0.333333 0.333333 0.333333;
   (1, 1, 1, 3, 0, 1) 0.00578191 0.260116 0.734102;
   (2, 1, 1, 3, 0, 1) 0.00552635 0.392265 0.602209;
   (0, 2, 1, 3, 0, 1) 0.250017 0.499966 0.250017;
   (1, 2, 1, 3, 0, 1) 0.0476302 0.571419 0.380951;
   (2, 2, 1, 3, 0, 1) 0.0588368 0.29412 0.647044;
   (0, 0, 2, 3, 0, 1) 0.333333 0.333333 0.333333;
   (1, 0, 2, 3, 0, 1) 0.333333 0.333333 0.333333;
   (2, 0, 2, 3, 0, 1) 0.333333 0.333333 0.333333;
   (0, 1, 2, 3, 0, 1) 0.499966 0.250017 0.250017;
   (1, 1, 2, 3, 0, 1) 0.0769393 0.538449 0.384612;
   (2, 1, 2, 3, 0, 1) 0.100019 0.300003 0.599978;
   (0, 2, 2, 3, 0, 1) 0.333333 0.333333 0.333333;
   (1, 2, 2, 3, 0, 1) 0.16669 0.499977 0.333333;
   (2, 2, 2, 3, 0, 1) 0.250017 0.250017 0.499966;
   (0, 0, 0, 4, 0, 1) 0.263161 0.0526437 0.684195;
   (1, 0, 0, 4, 0, 1) 0.0833505 0.0833505 0.833299;
   (2, 0, 0, 4, 0, 1) 0.148154 0.222226 0.629621;
   (0, 1, 0, 4, 0, 1) 0.250017 0.499966 0.250017;
   (1, 1, 0, 4, 0, 1) 0.0833505 0.166678 0.749971;
   (2, 1, 0, 4, 0, 1) 0.187508 0.187508 0.624985;
   (0, 2, 0, 4, 0, 1) 0.571401 0.28572 0.14288;
   (1, 2, 0, 4, 0, 1) 0.200022 0.399989 0.399989;
   (2, 2, 0, 4, 0, 1) 0.0555683 0.111121 0.83331;
   (0, 0, 1, 4, 0, 1) 0.333333 0.333333 0.333333;
   (1, 0, 1, 4, 0, 1) 0.0666813 0.133344 0.799974;
   (2, 0, 1, 4, 0, 1) 0.0416767 0.250003 0.70832;
   (0, 1, 1, 4, 0, 1) 0.18183 0.272732 0.545439;
   (1, 1, 1, 4, 0, 1) 0.00365013 0.145986 0.850364;
   (2, 1, 1, 4, 0, 1) 0.0062602 0.292645 0.701095;
   (0, 2, 1, 4, 0, 1) 0.200022 0.200022 0.599956;
   (1, 2, 1, 4, 0, 1) 0.0217447 0.391303 0.586952;
   (2, 2, 1, 4, 0, 1) 0.0129904 0.18182 0.80519;
   (0, 0, 2, 4, 0, 1) 0.399989 0.200022 0.399989;
   (1, 0, 2, 4, 0, 1) 0.14288 0.28572 0.571401;
   (2, 0, 2, 4, 0, 1) 0.14288 0.28572 0.571401;
   (0, 1, 2, 4, 0, 1) 0.250017 0.250017 0.499966;
   (1, 1, 2, 4, 0, 1) 0.0312526 0.416666 0.552081;
   (2, 1, 2, 4, 0, 1) 0.0181865 0.254547 0.727267;
   (0, 2, 2, 4, 0, 1) 0.333333 0.333333 0.333333;
   (1, 2, 2, 4, 0, 1) 0.0833505 0.416661 0.499989;
   (2, 2, 2, 4, 0, 1) 0.0769393 0.230776 0.692285;
   (0, 0, 0, 0, 1, 1) 0.333333 0.333333 0.333333;
   (1, 0, 0, 0, 1, 1) 0.333333 0.333333 0.333333;
   (2, 0, 0, 0, 1, 1) 0.333333 0.333333 0.333333;
   (0, 1, 0, 0, 1, 1) 0.333333 0.333333 0.333333;
   (1, 1, 0, 0, 1, 1) 0.333333 0.333333 0.333333;
   (2, 1, 0, 0, 1, 1) 0.250017 0.499966 0.250017;
   (0, 2, 0, 0, 1, 1) 0.333333 0.333333 0.333333;
   (1, 2, 0, 0, 1, 1) 0.333333 0.333333 0.333333;
   (2, 2, 0, 0, 1, 1) 0.333333 0.333333 0.333333;
   (0, 0, 1, 0, 1, 1) 0.333333 0.333333 0.333333;
   (1, 0, 1, 0, 1, 1) 0.333333 0.333333 0.333333;
   (2, 0, 1, 0, 1, 1) 0.250017 0.250017 0.499966;
   (0, 1, 1, 0, 1, 1) 0.200022 0.599956 0.200022;
   (1, 1, 1, 0, 1, 1) 0.00433018 0.835496 0.160174;
   (2, 1, 1, 0, 1, 1) 0.0243964 0.804869 0.170735;
   (0, 2, 1, 0, 1, 1) 0.333333 0.333333 0.333333;
   (1, 2, 1, 0, 1, 1) 0.0555683 0.555545 0.388886;
   (2, 2, 1, 0, 1, 1) 0.16669 0.16669 0.666621;
   (0, 0, 2, 0, 1, 1) 0.333333 0.333333 0.333333;
   (1, 0, 2, 0, 1, 1) 0.333333 0.333333 0.333333;
   (2, 0, 2, 0, 1, 1) 0.333333 0.333333 0.333333;
   (0, 1, 2, 0, 1, 1) 0.200022 0.599956 0.200022;
   (1, 1, 2, 0, 1, 1) 0.0243964 0.902428 0.073176;
   (2, 1, 2, 0, 1, 1) 0.250017 0.250017 0.499966;
   (0, 2, 2, 0, 1, 1) 0.333333 0.333333 0.333333;
   (1, 2, 2, 0, 1, 1) 0.250017 0.499966 0.250017;
   (2, 2, 2, 0, 1, 1) 0.333333 0.333333 0.333333;
   (0, 0, 0, 1, 1, 1) 0.333333 0.333333 0.333333;
   (1, 0, 0, 1, 1, 1) 0.499966 0.250017 0.250017;
   (2, 0, 0, 1, 1, 1) 0.333333 0.333333 0.333333;
   (0, 1, 0, 1, 1, 1) 0.333333 0.333333 0.333333;
   (1, 1, 0, 1, 1, 1) 0.333333 0.333333 0.333333;
   (2, 1, 0, 1, 1, 1) 0.250017 0.499966 0.250017;
   (0, 2, 0, 1, 1, 1) 0.333333 0.333333 0.333333;
   (1, 2, 0, 1, 1, 1) 0.333333 0.333333 0.333333;
   (2, 2, 0, 1, 1, 1) 0.333333 0.333333 0.333333;
   (0, 0, 1, 1, 1, 1) 0.333333 0.333333 0.333333;
   (1, 0, 1, 1, 1, 1) 0.100019 0.499986 0.399995;
   (2, 0, 1, 1, 1, 1) 0.250017 0.499966 0.250017;
   (0, 1, 1, 1, 1, 1) 0.200022 0.200022 0.599956;
   (1, 1, 1, 1, 1, 1) 0.00655826 0.563934 0.429508;
   (2, 1, 1, 1, 1, 1) 0.00769437 0.723074 0.269231;
   (0, 2, 1, 1, 1, 1) 0.333333 0.333333 0.333333;
   (1, 2, 1, 1, 1, 1) 0.0333416 0.666658 0.300001;
   (2, 2, 1, 1, 1, 1) 0.100019 0.399995 0.499986;
   (0, 0, 2, 1, 1, 1) 0.333333 0.333333 0.333333;
   (1, 0, 2, 1, 1, 1) 0.333333 0.333333 0.333333;
   (2, 0, 2, 1, 1, 1) 0.333333 0.333333 0.333333;
   (0, 1, 2, 1, 1, 1) 0.333333 0.333333 0.333333;
   (1, 1, 2, 1, 1, 1) 0.0454653 0.727258 0.227277;
   (2, 1, 2, 1, 1, 1) 0.16669 0.666621 0.16669;
   (0, 2, 2, 1, 1, 1) 0.333333 0.333333 0.333333;
   (1, 2, 2, 1, 1, 1) 0.250017 0.499966 0.250017;
   (2, 2, 2, 1, 1, 1) 0.333333 0.333333 0.333333;
   (0, 0, 0, 2, 1, 1) 0.333333 0.333333 0.333333;
   (1, 0, 0, 2, 1, 1) 0.333333 0.333333 0.333333;
   (2, 0, 0, 2, 1, 1) 0.333333 0.333333 0.333333;
   (0, 1, 0, 2, 1, 1) 0.333333 0.333333 0.333333;
   (1, 1, 0, 2, 1, 1) 0.200022 0.200022 0.599956;
   (2, 1, 0, 2, 1, 1) 0.16669 0.666621 0.16669;
   (0, 2, 0, 2, 1, 1) 0.333333 0.333333 0.333333;
   (1, 2, 0, 2, 1, 1) 0.333333 0.333333 0.333333;
   (2, 2, 0, 2, 1, 1) 0.333333 0.333333 0.333333;
   (0, 0, 1, 2, 1, 1) 0.333333 0.333333 0.333333;
   (1, 0, 1, 2, 1, 1) 0.16669 0.666621 0.16669;
   (2, 0, 1, 2, 1, 1) 0.333333 0.333333 0.333333;
   (0, 1, 1, 2, 1, 1) 0.16669 0.333333 0.499977;
   (1, 1, 1, 2, 1, 1) 0.00129068 0.305806 0.692903;
   (2, 1, 1, 2, 1, 1) 0.00235358 0.597647 0.4;
   (0, 2, 1, 2, 1, 1) 0.250017 0.499966 0.250017;
   (1, 2, 1, 2, 1, 1) 0.0185233 0.57407 0.407406;
   (2, 2, 1, 2, 1, 1) 0.0400097 0.32 0.63999;
   (0, 0, 2, 2, 1, 1) 0.333333 0.333333 0.333333;
   (1, 0, 2, 2, 1, 1) 0.333333 0.333333 0.333333;
   (2, 0, 2, 2, 1, 1) 0.333333 0.333333 0.333333;
   (0, 1, 2, 2, 1, 1) 0.333333 0.333333 0.333333;
   (1, 1, 2, 2, 1, 1) 0.0250063 0.674993 0.300001;
   (2, 1, 2, 2, 1, 1) 0.0909272 0.272732 0.636341;
   (0, 2, 2, 2, 1, 1) 0.333333 0.333333 0.333333;
   (1, 2, 2, 2, 1, 1) 0.200022 0.399989 0.399989;
   (2, 2, 2, 2, 1, 1) 0.333333 0.333333 0.333333;
   (0, 0, 0, 3, 1, 1) 0.333333 0.333333 0.333333;
   (1, 0, 0, 3, 1, 1) 0.250017 0.250017 0.499966;
   (2, 0, 0, 3, 1, 1) 0.250017 0.250017 0.499966;
   (0, 1, 0, 3, 1, 1) 0.250017 0.250017 0.499966;
   (1, 1, 0, 3, 1, 1) 0.16669 0.333333 0.499977;
   (2, 1, 0, 3, 1, 1) 0.14288 0.42856 0.42856;
   (0, 2, 0, 3, 1, 1) 0.333333 0.333333 0.333333;
   (1, 2, 0, 3, 1, 1) 0.333333 0.333333 0.333333;
   (2, 2, 0, 3, 1, 1) 0.200022 0.200022 0.599956;
   (0, 0, 1, 3, 1, 1) 0.333333 0.333333 0.333333;
   (1, 0, 1, 3, 1, 1) 0.0833505 0.0833505 0.833299;
   (2, 0, 1, 3, 1, 1) 0.133344 0.26667 0.599985;
   (0, 1, 1, 3, 1, 1) 0.125021 0.125021 0.749957;
   (1, 1, 1, 3, 1, 1) 0.00113911 0.147494 0.851366;
   (2, 1, 1, 3, 1, 1) 0.0013488 0.459879 0.538773;
   (0, 2, 1, 3, 1, 1) 0.333333 0.333333 0.333333;
   (1, 2, 1, 3, 1, 1) 0.00781459 0.507811 0.484374;
   (2, 2, 1, 3, 1, 1) 0.0156291 0.296875 0.687495;
   (0, 0, 2, 3, 1, 1) 0.333333 0.333333 0.333333;
   (1, 0, 2, 3, 1, 1) 0.333333 0.333333 0.333333;
   (2, 0, 2, 3, 1, 1) 0.333333 0.333333 0.333333;
   (0, 1, 2, 3, 1, 1) 0.333333 0.333333 0.333333;
   (1, 1, 2, 3, 1, 1) 0.0125033 0.649997 0.3375;
   (2, 1, 2, 3, 1, 1) 0.0333416 0.466663 0.499995;
   (0, 2, 2, 3, 1, 1) 0.333333 0.333333 0.333333;
   (1, 2, 2, 3, 1, 1) 0.16669 0.333333 0.499977;
   (2, 2, 2, 3, 1, 1) 0.333333 0.333333 0.333333;
   (0, 0, 0, 4, 1, 1) 0.499966 0.250017 0.250017;
   (1, 0, 0, 4, 1, 1) 0.333333 0.333333 0.333333;
   (2, 0, 0, 4, 1, 1) 0.250017 0.499966 0.250017;
   (0, 1, 0, 4, 1, 1) 0.333333 0.333333 0.333333;
   (1, 1, 0, 4, 1, 1) 0.0526437 0.0526437 0.894713;
   (2, 1, 0, 4, 1, 1) 0.0666813 0.399996 0.533322;
   (0, 2, 0, 4, 1, 1) 0.333333 0.333333 0.333333;
   (1, 2, 0, 4, 1, 1) 0.16669 0.333333 0.499977;
   (2, 2, 0, 4, 1, 1) 0.125021 0.125021 0.749957;
   (0, 0, 1, 4, 1, 1) 0.200022 0.200022 0.599956;
   (1, 0, 1, 4, 1, 1) 0.0322661 0.193552 0.774182;
   (2, 0, 1, 4, 1, 1) 0.0400048 0.34 0.619995;
   (0, 1, 1, 4, 1, 1) 0.0500117 0.10001 0.849979;
   (1, 1, 1, 4, 1, 1) 0.000591887 0.112054 0.887354;
   (2, 1, 1, 4, 1, 1) 0.00162972 0.305561 0.692809;
   (0, 2, 1, 4, 1, 1) 0.200022 0.399989 0.399989;
   (1, 2, 1, 4, 1, 1) 0.00261168 0.37859 0.618798;
   (2, 2, 1, 4, 1, 1) 0.00302197 0.202417 0.794561;
   (0, 0, 2, 4, 1, 1) 0.333333 0.333333 0.333333;
   (1, 0, 2, 4, 1, 1) 0.14288 0.42856 0.42856;
   (2, 0, 2, 4, 1, 1) 0.200022 0.200022 0.599956;
   (0, 1, 2, 4, 1, 1) 0.16669 0.333333 0.499977;
   (1, 1, 2, 4, 1, 1) 0.00464438 0.475232 0.520124;
   (2, 1, 2, 4, 1, 1) 0.0041678 0.2375 0.758332;
   (0, 2, 2, 4, 1, 1) 0.333333 0.333333 0.333333;
   (1, 2, 2, 4, 1, 1) 0.0263224 0.342105 0.631572;
   (2, 2, 2, 4, 1, 1) 0.0277848 0.305556 0.666659;
   (0, 0, 0, 0, 2, 1) 0.571401 0.14288 0.28572;
   (1, 0, 0, 0, 2, 1) 0.333333 0.333333 0.333333;
   (2, 0, 0, 0, 2, 1) 0.333333 0.333333 0.333333;
   (0, 1, 0, 0, 2, 1) 0.333333 0.333333 0.333333;
   (1, 1, 0, 0, 2, 1) 0.16669 0.499977 0.333333;
   (2, 1, 0, 0, 2, 1) 0.333333 0.333333 0.333333;
   (0, 2, 0, 0, 2, 1) 0.333333 0.333333 0.333333;
   (1, 2, 0, 0, 2, 1) 0.333333 0.333333 0.333333;
   (2, 2, 0, 0, 2, 1) 0.333333 0.333333 0.333333;
   (0, 0, 1, 0, 2, 1) 0.333333 0.333333 0.333333;
   (1, 0, 1, 0, 2, 1) 0.200022 0.599956 0.200022;
   (2, 0, 1, 0, 2, 1) 0.333333 0.333333 0.333333;
   (0, 1, 1, 0, 2, 1) 0.250017 0.499966 0.250017;
   (1, 1, 1, 0, 2, 1) 0.00387702 0.922479 0.0736442;
   (2, 1, 1, 0, 2, 1) 0.0666813 0.733311 0.200007;
   (0, 2, 1, 0, 2, 1) 0.333333 0.333333 0.333333;
   (1, 2, 1, 0, 2, 1) 0.0666813 0.466659 0.466659;
   (2, 2, 1, 0, 2, 1) 0.16669 0.333333 0.499977;
   (0, 0, 2, 0, 2, 1) 0.333333 0.333333 0.333333;
   (1, 0, 2, 0, 2, 1) 0.250017 0.499966 0.250017;
   (2, 0, 2, 0, 2, 1) 0.333333 0.333333 0.333333;
   (0, 1, 2, 0, 2, 1) 0.333333 0.333333 0.333333;
   (1, 1, 2, 0, 2, 1) 0.0400097 0.839983 0.120007;
   (2, 1, 2, 0, 2, 1) 0.333333 0.333333 0.333333;
   (0, 2, 2, 0, 2, 1) 0.333333 0.333333 0.333333;
   (1, 2, 2, 0, 2, 1) 0.250017 0.499966 0.250017;
   (2, 2, 2, 0, 2, 1) 0.333333 0.333333 0.333333;
   (0, 0, 0, 1, 2, 1) 0.399989 0.200022 0.399989;
   (1, 0, 0, 1, 2, 1) 0.333333 0.333333 0.333333;
   (2, 0, 0, 1, 2, 1) 0.499966 0.250017 0.250017;
   (0, 1, 0, 1, 2, 1) 0.333333 0.333333 0.333333;
   (1, 1, 0, 1, 2, 1) 0.16669 0.499977 0.333333;
   (2, 1, 0, 1, 2, 1) 0.333333 0.333333 0.333333;
   (0, 2, 0, 1, 2, 1) 0.333333 0.333333 0.333333;
   (1, 2, 0, 1, 2, 1) 0.333333 0.333333 0.333333;
   (2, 2, 0, 1, 2, 1) 0.333333 0.333333 0.333333;
   (0, 0, 1, 1, 2, 1) 0.499966 0.250017 0.250017;
   (1, 0, 1, 1, 2, 1) 0.333333 0.333333 0.333333;
   (2, 0, 1, 1, 2, 1) 0.250017 0.250017 0.499966;
   (0, 1, 1, 1, 2, 1) 0.250017 0.499966 0.250017;
   (1, 1, 1, 1, 2, 1) 0.00277084 0.847644 0.149585;
   (2, 1, 1, 1, 2, 1) 0.062507 0.562494 0.374999;
   (0, 2, 1, 1, 2, 1) 0.333333 0.333333 0.333333;
   (1, 2, 1, 1, 2, 1) 0.0454653 0.727258 0.227277;
   (2, 2, 1, 1, 2, 1) 0.16669 0.499977 0.333333;
   (0, 0, 2, 1, 2, 1) 0.333333 0.333333 0.333333;
   (1, 0, 2, 1, 2, 1) 0.333333 0.333333 0.333333;
   (2, 0, 2, 1, 2, 1) 0.333333 0.333333 0.333333;
   (0, 1, 2, 1, 2, 1) 0.333333 0.333333 0.333333;
   (1, 1, 2, 1, 2, 1) 0.071444 0.857112 0.071444;
   (2, 1, 2, 1, 2, 1) 0.16669 0.666621 0.16669;
   (0, 2, 2, 1, 2, 1) 0.333333 0.333333 0.333333;
   (1, 2, 2, 1, 2, 1) 0.333333 0.333333 0.333333;
   (2, 2, 2, 1, 2, 1) 0.333333 0.333333 0.333333;
   (0, 0, 0, 2, 2, 1) 0.571401 0.14288 0.28572;
   (1, 0, 0, 2, 2, 1) 0.200022 0.399989 0.399989;
   (2, 0, 0, 2, 2, 1) 0.333333 0.333333 0.333333;
   (0, 1, 0, 2, 2, 1) 0.399989 0.399989 0.200022;
   (1, 1, 0, 2, 2, 1) 0.250017 0.250017 0.499966;
   (2, 1, 0, 2, 2, 1) 0.333333 0.333333 0.333333;
   (0, 2, 0, 2, 2, 1) 0.333333 0.333333 0.333333;
   (1, 2, 0, 2, 2, 1) 0.333333 0.333333 0.333333;
   (2, 2, 0, 2, 2, 1) 0.250017 0.499966 0.250017;
   (0, 0, 1, 2, 2, 1) 0.333333 0.333333 0.333333;
   (1, 0, 1, 2, 2, 1) 0.16669 0.666621 0.16669;
   (2, 0, 1, 2, 2, 1) 0.250017 0.250017 0.499966;
   (0, 1, 1, 2, 2, 1) 0.16669 0.666621 0.16669;
   (1, 1, 1, 2, 2, 1) 0.00264586 0.813492 0.183863;
   (2, 1, 1, 2, 2, 1) 0.00613662 0.613496 0.380368;
   (0, 2, 1, 2, 2, 1) 0.333333 0.333333 0.333333;
   (1, 2, 1, 2, 2, 1) 0.0384709 0.576915 0.384614;
   (2, 2, 1, 2, 2, 1) 0.0769393 0.384612 0.538449;
   (0, 0, 2, 2, 2, 1) 0.333333 0.333333 0.333333;
   (1, 0, 2, 2, 2, 1) 0.333333 0.333333 0.333333;
   (2, 0, 2, 2, 2, 1) 0.333333 0.333333 0.333333;
   (0, 1, 2, 2, 2, 1) 0.250017 0.499966 0.250017;
   (1, 1, 2, 2, 2, 1) 0.0555683 0.83331 0.111121;
   (2, 1, 2, 2, 2, 1) 0.111131 0.444434 0.444434;
   (0, 2, 2, 2, 2, 1) 0.333333 0.333333 0.333333;
   (1, 2, 2, 2, 2, 1) 0.250017 0.499966 0.250017;
   (2, 2, 2, 2, 2, 1) 0.250017 0.250017 0.499966;
   (0, 0, 0, 3, 2, 1) 0.666644 0.0833505 0.250006;
   (1, 0, 0, 3, 2, 1) 0.16669 0.333333 0.499977;
   (2, 0, 0, 3, 2, 1) 0.399995 0.100019 0.499986;
   (0, 1, 0, 3, 2, 1) 0.333333 0.333333 0.333333;
   (1, 1, 0, 3, 2, 1) 0.0833505 0.749971 0.166678;
   (2, 1, 0, 3, 2, 1) 0.200022 0.399989 0.399989;
   (0, 2, 0, 3, 2, 1) 0.499966 0.250017 0.250017;
   (1, 2, 0, 3, 2, 1) 0.333333 0.333333 0.333333;
   (2, 2, 0, 3, 2, 1) 0.250017 0.250017 0.499966;
   (0, 0, 1, 3, 2, 1) 0.250017 0.499966 0.250017;
   (1, 0, 1, 3, 2, 1) 0.100019 0.499986 0.399995;
   (2, 0, 1, 3, 2, 1) 0.14288 0.571401 0.28572;
   (0, 1, 1, 3, 2, 1) 0.14288 0.28572 0.571401;
   (1, 1, 1, 3, 2, 1) 0.00250017 0.74375 0.25375;
   (2, 1, 1, 3, 2, 1) 0.00655782 0.588524 0.404918;
   (0, 2, 1, 3, 2, 1) 0.200022 0.399989 0.399989;
   (1, 2, 1, 3, 2, 1) 0.0277813 0.555553 0.416666;
   (2, 2, 1, 3, 2, 1) 0.0204134 0.448978 0.530609;
   (0, 0, 2, 3, 2, 1) 0.333333 0.333333 0.333333;
   (1, 0, 2, 3, 2, 1) 0.250017 0.250017 0.499966;
   (2, 0, 2, 3, 2, 1) 0.399989 0.200022 0.399989;
   (0, 1, 2, 3, 2, 1) 0.333333 0.333333 0.333333;
   (1, 1, 2, 3, 2, 1) 0.0212821 0.659569 0.319149;
   (2, 1, 2, 3, 2, 1) 0.0833505 0.499989 0.416661;
   (0, 2, 2, 3, 2, 1) 0.333333 0.333333 0.333333;
   (1, 2, 2, 3, 2, 1) 0.250017 0.499966 0.250017;
   (2, 2, 2, 3, 2, 1) 0.14288 0.28572 0.571401;
   (0, 0, 0, 4, 2, 1) 0.499993 0.0500117 0.449995;
   (1, 0, 0, 4, 2, 1) 0.0256475 0.358974 0.615379;
   (2, 0, 0, 4, 2, 1) 0.256412 0.051288 0.6923;
   (0, 1, 0, 4, 2, 1) 0.16669 0.666621 0.16669;
   (1, 1, 0, 4, 2, 1) 0.0285786 0.657135 0.314286;
   (2, 1, 0, 4, 2, 1) 0.111118 0.259262 0.629621;
   (0, 2, 0, 4, 2, 1) 0.333333 0.333333 0.333333;
   (1, 2, 0, 4, 2, 1) 0.100019 0.200011 0.69997;
   (2, 2, 0, 4, 2, 1) 0.100019 0.200011 0.69997;
   (0, 0, 1, 4, 2, 1) 0.250017 0.499966 0.250017;
   (1, 0, 1, 4, 2, 1) 0.0526377 0.526312 0.421051;
   (2, 0, 1, 4, 2, 1) 0.0434886 0.173919 0.782593;
   (0, 1, 1, 4, 2, 1) 0.0416767 0.499994 0.458329;
   (1, 1, 1, 4, 2, 1) 0.00167756 0.615643 0.38268;
   (2, 1, 1, 4, 2, 1) 0.00299748 0.493069 0.503934;
   (0, 2, 1, 4, 2, 1) 0.333333 0.333333 0.333333;
   (1, 2, 1, 4, 2, 1) 0.00873479 0.458515 0.53275;
   (2, 2, 1, 4, 2, 1) 0.00442598 0.331858 0.663716;
   (0, 0, 2, 4, 2, 1) 0.200011 0.100019 0.69997;
   (1, 0, 2, 4, 2, 1) 0.0250063 0.35 0.624994;
   (2, 0, 2, 4, 2, 1) 0.200007 0.200007 0.599985;
   (0, 1, 2, 4, 2, 1) 0.16669 0.333333 0.499977;
   (1, 1, 2, 4, 2, 1) 0.00522264 0.493472 0.501305;
   (2, 1, 2, 4, 2, 1) 0.00584953 0.333333 0.660817;
   (0, 2, 2, 4, 2, 1) 0.250017 0.499966 0.250017;
   (1, 2, 2, 4, 2, 1) 0.0294191 0.352941 0.61764;
   (2, 2, 2, 4, 2, 1) 0.0344912 0.2069 0.758609;
   (0, 0, 0, 0, 0, 2) 0.876102 0.00885192 0.115046;
   (1, 0, 0, 0, 0, 2) 0.333333 0.333333 0.333333;
   (2, 0, 0, 0, 0, 2) 0.777737 0.111131 0.111131;
   (0, 1, 0, 0, 0, 2) 0.333333 0.333333 0.333333;
   (1, 1, 0, 0, 0, 2) 0.333333 0.333333 0.333333;
   (2, 1, 0, 0, 0, 2) 0.333333 0.333333 0.333333;
   (0, 2, 0, 0, 0, 2) 0.499966 0.250017 0.250017;
   (1, 2, 0, 0, 0, 2) 0.333333 0.333333 0.333333;
   (2, 2, 0, 0, 0, 2) 0.333333 0.333333 0.333333;
   (0, 0, 1, 0, 0, 2) 0.333333 0.333333 0.333333;
   (1, 0, 1, 0, 0, 2) 0.499966 0.250017 0.250017;
   (2, 0, 1, 0, 0, 2) 0.333333 0.333333 0.333333;
   (0, 1, 1, 0, 0, 2) 0.333333 0.333333 0.333333;
   (1, 1, 1, 0, 0, 2) 0.0625139 0.812475 0.125011;
   (2, 1, 1, 0, 0, 2) 0.125021 0.749957 0.125021;
   (0, 2, 1, 0, 0, 2) 0.333333 0.333333 0.333333;
   (1, 2, 1, 0, 0, 2) 0.333333 0.333333 0.333333;
   (2, 2, 1, 0, 0, 2) 0.333333 0.333333 0.333333;
   (0, 0, 2, 0, 0, 2) 0.499966 0.250017 0.250017;
   (1, 0, 2, 0, 0, 2) 0.333333 0.333333 0.333333;
   (2, 0, 2, 0, 0, 2) 0.333333 0.333333 0.333333;
   (0, 1, 2, 0, 0, 2) 0.333333 0.333333 0.333333;
   (1, 1, 2, 0, 0, 2) 0.333333 0.333333 0.333333;
   (2, 1, 2, 0, 0, 2) 0.333333 0.333333 0.333333;
   (0, 2, 2, 0, 0, 2) 0.333333 0.333333 0.333333;
   (1, 2, 2, 0, 0, 2) 0.333333 0.333333 0.333333;
   (2, 2, 2, 0, 0, 2) 0.250017 0.499966 0.250017;
   (0, 0, 0, 1, 0, 2) 0.844443 0.00317547 0.152381;
   (1, 0, 0, 1, 0, 2) 0.250017 0.499966 0.250017;
   (2, 0, 0, 1, 0, 2) 0.499996 0.062507 0.437497;
   (0, 1, 0, 1, 0, 2) 0.333333 0.333333 0.333333;
   (1, 1, 0, 1, 0, 2) 0.200022 0.599956 0.200022;
   (2, 1, 0, 1, 0, 2) 0.333333 0.333333 0.333333;
   (0, 2, 0, 1, 0, 2) 0.250017 0.250017 0.499966;
   (1, 2, 0, 1, 0, 2) 0.333333 0.333333 0.333333;
   (2, 2, 0, 1, 0, 2) 0.333333 0.333333 0.333333;
   (0, 0, 1, 1, 0, 2) 0.499966 0.250017 0.250017;
   (1, 0, 1, 1, 0, 2) 0.333333 0.333333 0.333333;
   (2, 0, 1, 1, 0, 2) 0.250017 0.250017 0.499966;
   (0, 1, 1, 1, 0, 2) 0.250017 0.499966 0.250017;
   (1, 1, 1, 1, 0, 2) 0.0222279 0.866657 0.111115;
   (2, 1, 1, 1, 0, 2) 0.100019 0.399995 0.499986;
   (0, 2, 1, 1, 0, 2) 0.333333 0.333333 0.333333;
   (1, 2, 1, 1, 0, 2) 0.250017 0.250017 0.499966;
   (2, 2, 1, 1, 0, 2) 0.333333 0.333333 0.333333;
   (0, 0, 2, 1, 0, 2) 0.666636 0.111131 0.222232;
   (1, 0, 2, 1, 0, 2) 0.333333 0.333333 0.333333;
   (2, 0, 2, 1, 0, 2) 0.499966 0.250017 0.250017;
   (0, 1, 2, 1, 0, 2) 0.333333 0.333333 0.333333;
   (1, 1, 2, 1, 0, 2) 0.333333 0.333333 0.333333;
   (2, 1, 2, 1, 0, 2) 0.333333 0.333333 0.333333;
   (0, 2, 2, 1, 0, 2) 0.333333 0.333333 0.333333;
   (1, 2, 2, 1, 0, 2) 0.200022 0.399989 0.399989;
   (2, 2, 2, 1, 0, 2) 0.333333 0.333333 0.333333;
   (0, 0, 0, 2, 0, 2) 0.774946 0.00849314 0.216561;
   (1, 0, 0, 2, 0, 2) 0.333333 0.333333 0.333333;
   (2, 0, 0, 2, 0, 2) 0.385714 0.0571461 0.55714;
   (0, 1, 0, 2, 0, 2) 0.499966 0.250017 0.250017;
   (1, 1, 0, 2, 0, 2) 0.200022 0.599956 0.200022;
   (2, 1, 0, 2, 0, 2) 0.16669 0.333333 0.499977;
   (0, 2, 0, 2, 0, 2) 0.599956 0.200022 0.200022;
   (1, 2, 0, 2, 0, 2) 0.333333 0.333333 0.333333;
   (2, 2, 0, 2, 0, 2) 0.499977 0.16669 0.333333;
   (0, 0, 1, 2, 0, 2) 0.399989 0.200022 0.399989;
   (1, 0, 1, 2, 0, 2) 0.16669 0.333333 0.499977;
   (2, 0, 1, 2, 0, 2) 0.333333 0.333333 0.333333;
   (0, 1, 1, 2, 0, 2) 0.399989 0.399989 0.200022;
   (1, 1, 1, 2, 0, 2) 0.03175 0.666662 0.301588;
   (2, 1, 1, 2, 0, 2) 0.0400097 0.439996 0.519994;
   (0, 2, 1, 2, 0, 2) 0.333333 0.333333 0.333333;
   (1, 2, 1, 2, 0, 2) 0.16669 0.499977 0.333333;
   (2, 2, 1, 2, 0, 2) 0.250017 0.250017 0.499966;
   (0, 0, 2, 2, 0, 2) 0.374996 0.125021 0.499983;
   (1, 0, 2, 2, 0, 2) 0.333333 0.333333 0.333333;
   (2, 0, 2, 2, 0, 2) 0.499966 0.250017 0.250017;
   (0, 1, 2, 2, 0, 2) 0.333333 0.333333 0.333333;
   (1, 1, 2, 2, 0, 2) 0.333333 0.333333 0.333333;
   (2, 1, 2, 2, 0, 2) 0.250017 0.499966 0.250017;
   (0, 2, 2, 2, 0, 2) 0.333333 0.333333 0.333333;
   (1, 2, 2, 2, 0, 2) 0.333333 0.333333 0.333333;
   (2, 2, 2, 2, 0, 2) 0.333333 0.333333 0.333333;
   (0, 0, 0, 3, 0, 2) 0.658333 0.00416723 0.3375;
   (1, 0, 0, 3, 0, 2) 0.100019 0.399995 0.499986;
   (2, 0, 0, 3, 0, 2) 0.389671 0.00469611 0.605633;
   (0, 1, 0, 3, 0, 2) 0.399989 0.200022 0.399989;
   (1, 1, 0, 3, 0, 2) 0.200022 0.200022 0.599956;
   (2, 1, 0, 3, 0, 2) 0.250017 0.250017 0.499966;
   (0, 2, 0, 3, 0, 2) 0.374996 0.125021 0.499983;
   (1, 2, 0, 3, 0, 2) 0.333333 0.333333 0.333333;
   (2, 2, 0, 3, 0, 2) 0.153858 0.153858 0.692285;
   (0, 0, 1, 3, 0, 2) 0.250017 0.250017 0.499966;
   (1, 0, 1, 3, 0, 2) 0.250017 0.250017 0.499966;
   (2, 0, 1, 3, 0, 2) 0.200022 0.200022 0.599956;
   (0, 1, 1, 3, 0, 2) 0.200022 0.200022 0.599956;
   (1, 1, 1, 3, 0, 2) 0.0243933 0.548778 0.426828;
   (2, 1, 1, 3, 0, 2) 0.0540603 0.297298 0.648642;
   (0, 2, 1, 3, 0, 2) 0.333333 0.333333 0.333333;
   (1, 2, 1, 3, 0, 2) 0.250017 0.250017 0.499966;
   (2, 2, 1, 3, 0, 2) 0.200022 0.200022 0.599956;
   (0, 0, 2, 3, 0, 2) 0.499977 0.16669 0.333333;
   (1, 0, 2, 3, 0, 2) 0.333333 0.333333 0.333333;
   (2, 0, 2, 3, 0, 2) 0.28572 0.28572 0.42856;
   (0, 1, 2, 3, 0, 2) 0.333333 0.333333 0.333333;
   (1, 1, 2, 3, 0, 2) 0.16669 0.499977 0.333333;
   (2, 1, 2, 3, 0, 2) 0.250017 0.499966 0.250017;
   (0, 2, 2, 3, 0, 2) 0.333333 0.333333 0.333333;
   (1, 2, 2, 3, 0, 2) 0.250017 0.250017 0.499966;
   (2, 2, 2, 3, 0, 2) 0.250017 0.250017 0.499966;
   (0, 0, 0, 4, 0, 2) 0.473913 0.00217451 0.523913;
   (1, 0, 0, 4, 0, 2) 0.200022 0.200022 0.599956;
   (2, 0, 0, 4, 0, 2) 0.205956 0.00496345 0.789081;
   (0, 1, 0, 4, 0, 2) 0.250017 0.250017 0.499966;
   (1, 1, 0, 4, 0, 2) 0.14288 0.14288 0.714241;
   (2, 1, 0, 4, 0, 2) 0.125021 0.250009 0.62497;
   (0, 2, 0, 4, 0, 2) 0.0588368 0.0588368 0.882326;
   (1, 2, 0, 4, 0, 2) 0.333333 0.333333 0.333333;
   (2, 2, 0, 4, 0, 2) 0.186049 0.0465171 0.767434;
   (0, 0, 1, 4, 0, 2) 0.333333 0.333333 0.333333;
   (1, 0, 1, 4, 0, 2) 0.200022 0.399989 0.399989;
   (2, 0, 1, 4, 0, 2) 0.16669 0.333333 0.499977;
   (0, 1, 1, 4, 0, 2) 0.200022 0.399989 0.399989;
   (1, 1, 1, 4, 0, 2) 0.0222251 0.311111 0.666664;
   (2, 1, 1, 4, 0, 2) 0.0238126 0.250001 0.726187;
   (0, 2, 1, 4, 0, 2) 0.333333 0.333333 0.333333;
   (1, 2, 1, 4, 0, 2) 0.16669 0.499977 0.333333;
   (2, 2, 1, 4, 0, 2) 0.0526437 0.210532 0.736825;
   (0, 0, 2, 4, 0, 2) 0.357141 0.071444 0.571415;
   (1, 0, 2, 4, 0, 2) 0.333333 0.333333 0.333333;
   (2, 0, 2, 4, 0, 2) 0.230776 0.0769393 0.692285;
   (0, 1, 2, 4, 0, 2) 0.333333 0.333333 0.333333;
   (1, 1, 2, 4, 0, 2) 0.125021 0.374996 0.499983;
   (2, 1, 2, 4, 0, 2) 0.125021 0.374996 0.499983;
   (0, 2, 2, 4, 0, 2) 0.250017 0.250017 0.499966;
   (1, 2, 2, 4, 0, 2) 0.250017 0.250017 0.499966;
   (2, 2, 2, 4, 0, 2) 0.250017 0.250017 0.499966;
   (0, 0, 0, 0, 1, 2) 0.599956 0.200022 0.200022;
   (1, 0, 0, 0, 1, 2) 0.333333 0.333333 0.333333;
   (2, 0, 0, 0, 1, 2) 0.333333 0.333333 0.333333;
   (0, 1, 0, 0, 1, 2) 0.333333 0.333333 0.333333;
   (1, 1, 0, 0, 1, 2) 0.250017 0.499966 0.250017;
   (2, 1, 0, 0, 1, 2) 0.333333 0.333333 0.333333;
   (0, 2, 0, 0, 1, 2) 0.333333 0.333333 0.333333;
   (1, 2, 0, 0, 1, 2) 0.333333 0.333333 0.333333;
   (2, 2, 0, 0, 1, 2) 0.333333 0.333333 0.333333;
   (0, 0, 1, 0, 1, 2) 0.333333 0.333333 0.333333;
   (1, 0, 1, 0, 1, 2) 0.250017 0.499966 0.250017;
   (2, 0, 1, 0, 1, 2) 0.250017 0.499966 0.250017;
   (0, 1, 1, 0, 1, 2) 0.250017 0.499966 0.250017;
   (1, 1, 1, 0, 1, 2) 0.00909334 0.909087 0.0818201;
   (2, 1, 1, 0, 1, 2) 0.100019 0.599978 0.300003;
   (0, 2, 1, 0, 1, 2) 0.333333 0.333333 0.333333;
   (1, 2, 1, 0, 1, 2) 0.200022 0.399989 0.399989;
   (2, 2, 1, 0, 1, 2) 0.333333 0.333333 0.333333;
   (0, 0, 2, 0, 1, 2) 0.333333 0.333333 0.333333;
   (1, 0, 2, 0, 1, 2) 0.333333 0.333333 0.333333;
   (2, 0, 2, 0, 1, 2) 0.333333 0.333333 0.333333;
   (0, 1, 2, 0, 1, 2) 0.333333 0.333333 0.333333;
   (1, 1, 2, 0, 1, 2) 0.250017 0.499966 0.250017;
   (2, 1, 2, 0, 1, 2) 0.333333 0.333333 0.333333;
   (0, 2, 2, 0, 1, 2) 0.333333 0.333333 0.333333;
   (1, 2, 2, 0, 1, 2) 0.333333 0.333333 0.333333;
   (2, 2, 2, 0, 1, 2) 0.333333 0.333333 0.333333;
   (0, 0, 0, 1, 1, 2) 0.749971 0.0833505 0.166678;
   (1, 0, 0, 1, 1, 2) 0.333333 0.333333 0.333333;
   (2, 0, 0, 1, 1, 2) 0.333333 0.333333 0.333333;
   (0, 1, 0, 1, 1, 2) 0.333333 0.333333 0.333333;
   (1, 1, 0, 1, 1, 2) 0.200022 0.599956 0.200022;
   (2, 1, 0, 1, 1, 2) 0.333333 0.333333 0.333333;
   (0, 2, 0, 1, 1, 2) 0.333333 0.333333 0.333333;
   (1, 2, 0, 1, 1, 2) 0.333333 0.333333 0.333333;
   (2, 2, 0, 1, 1, 2) 0.333333 0.333333 0.333333;
   (0, 0, 1, 1, 1, 2) 0.250017 0.499966 0.250017;
   (1, 0, 1, 1, 1, 2) 0.250017 0.499966 0.250017;
   (2, 0, 1, 1, 1, 2) 0.333333 0.333333 0.333333;
   (0, 1, 1, 1, 1, 2) 0.250017 0.499966 0.250017;
   (1, 1, 1, 1, 1, 2) 0.00763461 0.820609 0.171756;
   (2, 1, 1, 1, 1, 2) 0.0476246 0.595233 0.357142;
   (0, 2, 1, 1, 1, 2) 0.333333 0.333333 0.333333;
   (1, 2, 1, 1, 1, 2) 0.111131 0.333333 0.555535;
   (2, 2, 1, 1, 1, 2) 0.333333 0.333333 0.333333;
   (0, 0, 2, 1, 1, 2) 0.333333 0.333333 0.333333;
   (1, 0, 2, 1, 1, 2) 0.333333 0.333333 0.333333;
   (2, 0, 2, 1, 1, 2) 0.333333 0.333333 0.333333;
   (0, 1, 2, 1, 1, 2) 0.333333 0.333333 0.333333;
   (1, 1, 2, 1, 1, 2) 0.200022 0.399989 0.399989;
   (2, 1, 2, 1, 1, 2) 0.250017 0.499966 0.250017;
   (0, 2, 2, 1, 1, 2) 0.333333 0.333333 0.333333;
   (1, 2, 2, 1, 1, 2) 0.333333 0.333333 0.333333;
   (2, 2, 2, 1, 1, 2) 0.333333 0.333333 0.333333;
   (0, 0, 0, 2, 1, 2) 0.374996 0.125021 0.499983;
   (1, 0, 0, 2, 1, 2) 0.333333 0.333333 0.333333;
   (2, 0, 0, 2, 1, 2) 0.200022 0.200022 0.599956;
   (0, 1, 0, 2, 1, 2) 0.333333 0.333333 0.333333;
   (1, 1, 0, 2, 1, 2) 0.125021 0.499983 0.374996;
   (2, 1, 0, 2, 1, 2) 0.250017 0.499966 0.250017;
   (0, 2, 0, 2, 1, 2) 0.333333 0.333333 0.333333;
   (1, 2, 0, 2, 1, 2) 0.333333 0.333333 0.333333;
   (2, 2, 0, 2, 1, 2) 0.333333 0.333333 0.333333;
   (0, 0, 1, 2, 1, 2) 0.333333 0.333333 0.333333;
   (1, 0, 1, 2, 1, 2) 0.0833505 0.666644 0.250006;
   (2, 0, 1, 2, 1, 2) 0.250017 0.499966 0.250017;
   (0, 1, 1, 2, 1, 2) 0.399989 0.200022 0.399989;
   (1, 1, 1, 2, 1, 2) 0.00519551 0.714285 0.28052;
   (2, 1, 1, 2, 1, 2) 0.00971132 0.407766 0.582522;
   (0, 2, 1, 2, 1, 2) 0.333333 0.333333 0.333333;
   (1, 2, 1, 2, 1, 2) 0.14288 0.42856 0.42856;
   (2, 2, 1, 2, 1, 2) 0.200022 0.399989 0.399989;
   (0, 0, 2, 2, 1, 2) 0.333333 0.333333 0.333333;
   (1, 0, 2, 2, 1, 2) 0.333333 0.333333 0.333333;
   (2, 0, 2, 2, 1, 2) 0.333333 0.333333 0.333333;
   (0, 1, 2, 2, 1, 2) 0.333333 0.333333 0.333333;
   (1, 1, 2, 2, 1, 2) 0.16669 0.499977 0.333333;
   (2, 1, 2, 2, 1, 2) 0.333333 0.333333 0.333333;
   (0, 2, 2, 2, 1, 2) 0.333333 0.333333 0.333333;
   (1, 2, 2, 2, 1, 2) 0.333333 0.333333 0.333333;
   (2, 2, 2, 2, 1, 2) 0.250017 0.250017 0.499966;
   (0, 0, 0, 3, 1, 2) 0.399995 0.100019 0.499986;
   (1, 0, 0, 3, 1, 2) 0.250017 0.250017 0.499966;
   (2, 0, 0, 3, 1, 2) 0.374996 0.125021 0.499983;
   (0, 1, 0, 3, 1, 2) 0.250017 0.250017 0.499966;
   (1, 1, 0, 3, 1, 2) 0.14288 0.28572 0.571401;
   (2, 1, 0, 3, 1, 2) 0.200022 0.200022 0.599956;
   (0, 2, 0, 3, 1, 2) 0.333333 0.333333 0.333333;
   (1, 2, 0, 3, 1, 2) 0.250017 0.499966 0.250017;
   (2, 2, 0, 3, 1, 2) 0.250017 0.250017 0.499966;
   (0, 0, 1, 3, 1, 2) 0.333333 0.333333 0.333333;
   (1, 0, 1, 3, 1, 2) 0.100019 0.499986 0.399995;
   (2, 0, 1, 3, 1, 2) 0.16669 0.16669 0.666621;
   (0, 1, 1, 3, 1, 2) 0.16669 0.16669 0.666621;
   (1, 1, 1, 3, 1, 2) 0.00223775 0.606263 0.391499;
   (2, 1, 1, 3, 1, 2) 0.0105834 0.291005 0.698411;
   (0, 2, 1, 3, 1, 2) 0.333333 0.333333 0.333333;
   (1, 2, 1, 3, 1, 2) 0.0555683 0.444439 0.499992;
   (2, 2, 1, 3, 1, 2) 0.0909272 0.18183 0.727243;
   (0, 0, 2, 3, 1, 2) 0.333333 0.333333 0.333333;
   (1, 0, 2, 3, 1, 2) 0.333333 0.333333 0.333333;
   (2, 0, 2, 3, 1, 2) 0.333333 0.333333 0.333333;
   (0, 1, 2, 3, 1, 2) 0.333333 0.333333 0.333333;
   (1, 1, 2, 3, 1, 2) 0.111131 0.444434 0.444434;
   (2, 1, 2, 3, 1, 2) 0.111131 0.111131 0.777737;
   (0, 2, 2, 3, 1, 2) 0.333333 0.333333 0.333333;
   (1, 2, 2, 3, 1, 2) 0.333333 0.333333 0.333333;
   (2, 2, 2, 3, 1, 2) 0.200022 0.200022 0.599956;
   (0, 0, 0, 4, 1, 2) 0.428566 0.071444 0.49999;
   (1, 0, 0, 4, 1, 2) 0.333333 0.333333 0.333333;
   (2, 0, 0, 4, 1, 2) 0.18183 0.272732 0.545439;
   (0, 1, 0, 4, 1, 2) 0.250017 0.499966 0.250017;
   (1, 1, 0, 4, 1, 2) 0.125021 0.499983 0.374996;
   (2, 1, 0, 4, 1, 2) 0.111131 0.111131 0.777737;
   (0, 2, 0, 4, 1, 2) 0.200022 0.200022 0.599956;
   (1, 2, 0, 4, 1, 2) 0.250017 0.499966 0.250017;
   (2, 2, 0, 4, 1, 2) 0.333333 0.333333 0.333333;
   (0, 0, 1, 4, 1, 2) 0.333333 0.333333 0.333333;
   (1, 0, 1, 4, 1, 2) 0.250017 0.250017 0.499966;
   (2, 0, 1, 4, 1, 2) 0.0833505 0.250006 0.666644;
   (0, 1, 1, 4, 1, 2) 0.250009 0.250009 0.499983;
   (1, 1, 1, 4, 1, 2) 0.00227335 0.377273 0.620454;
   (2, 1, 1, 4, 1, 2) 0.00511578 0.196931 0.797953;
   (0, 2, 1, 4, 1, 2) 0.333333 0.333333 0.333333;
   (1, 2, 1, 4, 1, 2) 0.0333416 0.266668 0.69999;
   (2, 2, 1, 4, 1, 2) 0.0222279 0.155559 0.822213;
   (0, 0, 2, 4, 1, 2) 0.333333 0.333333 0.333333;
   (1, 0, 2, 4, 1, 2) 0.333333 0.333333 0.333333;
   (2, 0, 2, 4, 1, 2) 0.333333 0.333333 0.333333;
   (0, 1, 2, 4, 1, 2) 0.333333 0.333333 0.333333;
   (1, 1, 2, 4, 1, 2) 0.071444 0.428566 0.49999;
   (2, 1, 2, 4, 1, 2) 0.0400097 0.0400097 0.919981;
   (0, 2, 2, 4, 1, 2) 0.333333 0.333333 0.333333;
   (1, 2, 2, 4, 1, 2) 0.200022 0.399989 0.399989;
   (2, 2, 2, 4, 1, 2) 0.100019 0.499986 0.399995;
   (0, 0, 0, 0, 2, 2) 0.722204 0.0555683 0.222227;
   (1, 0, 0, 0, 2, 2) 0.333333 0.333333 0.333333;
   (2, 0, 0, 0, 2, 2) 0.333333 0.333333 0.333333;
   (0, 1, 0, 0, 2, 2) 0.333333 0.333333 0.333333;
   (1, 1, 0, 0, 2, 2) 0.333333 0.333333 0.333333;
   (2, 1, 0, 0, 2, 2) 0.333333 0.333333 0.333333;
   (0, 2, 0, 0, 2, 2) 0.499966 0.250017 0.250017;
   (1, 2, 0, 0, 2, 2) 0.333333 0.333333 0.333333;
   (2, 2, 0, 0, 2, 2) 0.333333 0.333333 0.333333;
   (0, 0, 1, 0, 2, 2) 0.333333 0.333333 0.333333;
   (1, 0, 1, 0, 2, 2) 0.333333 0.333333 0.333333;
   (2, 0, 1, 0, 2, 2) 0.333333 0.333333 0.333333;
   (0, 1, 1, 0, 2, 2) 0.333333 0.333333 0.333333;
   (1, 1, 1, 0, 2, 2) 0.0434886 0.739116 0.217395;
   (2, 1, 1, 0, 2, 2) 0.125021 0.499983 0.374996;
   (0, 2, 1, 0, 2, 2) 0.333333 0.333333 0.333333;
   (1, 2, 1, 0, 2, 2) 0.250017 0.499966 0.250017;
   (2, 2, 1, 0, 2, 2) 0.333333 0.333333 0.333333;
   (0, 0, 2, 0, 2, 2) 0.333333 0.333333 0.333333;
   (1, 0, 2, 0, 2, 2) 0.333333 0.333333 0.333333;
   (2, 0, 2, 0, 2, 2) 0.333333 0.333333 0.333333;
   (0, 1, 2, 0, 2, 2) 0.333333 0.333333 0.333333;
   (1, 1, 2, 0, 2, 2) 0.250017 0.499966 0.250017;
   (2, 1, 2, 0, 2, 2) 0.333333 0.333333 0.333333;
   (0, 2, 2, 0, 2, 2) 0.333333 0.333333 0.333333;
   (1, 2, 2, 0, 2, 2) 0.333333 0.333333 0.333333;
   (2, 2, 2, 0, 2, 2) 0.333333 0.333333 0.333333;
   (0, 0, 0, 1, 2, 2) 0.711104 0.0222279 0.266668;
   (1, 0, 0, 1, 2, 2) 0.333333 0.333333 0.333333;
   (2, 0, 0, 1, 2, 2) 0.666636 0.111131 0.222232;
   (0, 1, 0, 1, 2, 2) 0.333333 0.333333 0.333333;
   (1, 1, 0, 1, 2, 2) 0.250017 0.250017 0.499966;
   (2, 1, 0, 1, 2, 2) 0.333333 0.333333 0.333333;
   (0, 2, 0, 1, 2, 2) 0.599956 0.200022 0.200022;
   (1, 2, 0, 1, 2, 2) 0.333333 0.333333 0.333333;
   (2, 2, 0, 1, 2, 2) 0.499966 0.250017 0.250017;
   (0, 0, 1, 1, 2, 2) 0.333333 0.333333 0.333333;
   (1, 0, 1, 1, 2, 2) 0.250017 0.499966 0.250017;
   (2, 0, 1, 1, 2, 2) 0.333333 0.333333 0.333333;
   (0, 1, 1, 1, 2, 2) 0.333333 0.333333 0.333333;
   (1, 1, 1, 1, 2, 2) 0.0149293 0.776114 0.208957;
   (2, 1, 1, 1, 2, 2) 0.100019 0.599978 0.300003;
   (0, 2, 1, 1, 2, 2) 0.333333 0.333333 0.333333;
   (1, 2, 1, 1, 2, 2) 0.250017 0.499966 0.250017;
   (2, 2, 1, 1, 2, 2) 0.333333 0.333333 0.333333;
   (0, 0, 2, 1, 2, 2) 0.599956 0.200022 0.200022;
   (1, 0, 2, 1, 2, 2) 0.333333 0.333333 0.333333;
   (2, 0, 2, 1, 2, 2) 0.333333 0.333333 0.333333;
   (0, 1, 2, 1, 2, 2) 0.333333 0.333333 0.333333;
   (1, 1, 2, 1, 2, 2) 0.200022 0.399989 0.399989;
   (2, 1, 2, 1, 2, 2) 0.333333 0.333333 0.333333;
   (0, 2, 2, 1, 2, 2) 0.333333 0.333333 0.333333;
   (1, 2, 2, 1, 2, 2) 0.250017 0.499966 0.250017;
   (2, 2, 2, 1, 2, 2) 0.250017 0.250017 0.499966;
   (0, 0, 0, 2, 2, 2) 0.799995 0.0117678 0.188237;
   (1, 0, 0, 2, 2, 2) 0.333333 0.333333 0.333333;
   (2, 0, 0, 2, 2, 2) 0.512192 0.0243964 0.463412;
   (0, 1, 0, 2, 2, 2) 0.499966 0.250017 0.250017;
   (1, 1, 0, 2, 2, 2) 0.250017 0.499966 0.250017;
   (2, 1, 0, 2, 2, 2) 0.200022 0.399989 0.399989;
   (0, 2, 0, 2, 2, 2) 0.499966 0.250017 0.250017;
   (1, 2, 0, 2, 2, 2) 0.250017 0.250017 0.499966;
   (2, 2, 0, 2, 2, 2) 0.333333 0.333333 0.333333;
   (0, 0, 1, 2, 2, 2) 0.250017 0.499966 0.250017;
   (1, 0, 1, 2, 2, 2) 0.16669 0.499977 0.333333;
   (2, 0, 1, 2, 2, 2) 0.333333 0.333333 0.333333;
   (0, 1, 1, 2, 2, 2) 0.499966 0.250017 0.250017;
   (1, 1, 1, 2, 2, 2) 0.00819891 0.745899 0.245902;
   (2, 1, 1, 2, 2, 2) 0.0588302 0.441174 0.499996;
   (0, 2, 1, 2, 2, 2) 0.333333 0.333333 0.333333;
   (1, 2, 1, 2, 2, 2) 0.16669 0.499977 0.333333;
   (2, 2, 1, 2, 2, 2) 0.200022 0.599956 0.200022;
   (0, 0, 2, 2, 2, 2) 0.499966 0.250017 0.250017;
   (1, 0, 2, 2, 2, 2) 0.333333 0.333333 0.333333;
   (2, 0, 2, 2, 2, 2) 0.333333 0.333333 0.333333;
   (0, 1, 2, 2, 2, 2) 0.333333 0.333333 0.333333;
   (1, 1, 2, 2, 2, 2) 0.16669 0.499977 0.333333;
   (2, 1, 2, 2, 2, 2) 0.200022 0.399989 0.399989;
   (0, 2, 2, 2, 2, 2) 0.333333 0.333333 0.333333;
   (1, 2, 2, 2, 2, 2) 0.250017 0.499966 0.250017;
   (2, 2, 2, 2, 2, 2) 0.250017 0.250017 0.499966;
   (0, 0, 0, 3, 2, 2) 0.68243 0.0135153 0.304054;
   (1, 0, 0, 3, 2, 2) 0.333333 0.333333 0.333333;
   (2, 0, 0, 3, 2, 2) 0.426469 0.0147097 0.558821;
   (0, 1, 0, 3, 2, 2) 0.333333 0.333333 0.333333;
   (1, 1, 0, 3, 2, 2) 0.200022 0.599956 0.200022;
   (2, 1, 0, 3, 2, 2) 0.14288 0.42856 0.42856;
   (0, 2, 0, 3, 2, 2) 0.333333 0.333333 0.333333;
   (1, 2, 0, 3, 2, 2) 0.333333 0.333333 0.333333;
   (2, 2, 0, 3, 2, 2) 0.200022 0.200022 0.599956;
   (0, 0, 1, 3, 2, 2) 0.499966 0.250017 0.250017;
   (1, 0, 1, 3, 2, 2) 0.200022 0.399989 0.399989;
   (2, 0, 1, 3, 2, 2) 0.16669 0.499977 0.333333;
   (0, 1, 1, 3, 2, 2) 0.200022 0.599956 0.200022;
   (1, 1, 1, 3, 2, 2) 0.00463088 0.634258 0.361111;
   (2, 1, 1, 3, 2, 2) 0.00917676 0.541283 0.44954;
   (0, 2, 1, 3, 2, 2) 0.333333 0.333333 0.333333;
   (1, 2, 1, 3, 2, 2) 0.111131 0.666636 0.222232;
   (2, 2, 1, 3, 2, 2) 0.0833505 0.333333 0.583316;
   (0, 0, 2, 3, 2, 2) 0.250017 0.250017 0.499966;
   (1, 0, 2, 3, 2, 2) 0.333333 0.333333 0.333333;
   (2, 0, 2, 3, 2, 2) 0.399989 0.200022 0.399989;
   (0, 1, 2, 3, 2, 2) 0.333333 0.333333 0.333333;
   (1, 1, 2, 3, 2, 2) 0.125021 0.499983 0.374996;
   (2, 1, 2, 3, 2, 2) 0.16669 0.333333 0.499977;
   (0, 2, 2, 3, 2, 2) 0.333333 0.333333 0.333333;
   (1, 2, 2, 3, 2, 2) 0.333333 0.333333 0.333333;
   (2, 2, 2, 3, 2, 2) 0.250017 0.250017 0.499966;
   (0, 0, 0, 4, 2, 2) 0.45933 0.00957065 0.5311;
   (1, 0, 0, 4, 2, 2) 0.200022 0.200022 0.599956;
   (2, 0, 0, 4, 2, 2) 0.416243 0.0101536 0.573603;
   (0, 1, 0, 4, 2, 2) 0.333333 0.333333 0.333333;
   (1, 1, 0, 4, 2, 2) 0.16669 0.16669 0.666621;
   (2, 1, 0, 4, 2, 2) 0.111131 0.222232 0.666636;
   (0, 2, 0, 4, 2, 2) 0.499989 0.0833505 0.416661;
   (1, 2, 0, 4, 2, 2) 0.333333 0.333333 0.333333;
   (2, 2, 0, 4, 2, 2) 0.166672 0.0416767 0.791651;
   (0, 0, 1, 4, 2, 2) 0.250017 0.250017 0.499966;
   (1, 0, 1, 4, 2, 2) 0.0909272 0.454536 0.454536;
   (2, 0, 1, 4, 2, 2) 0.0833505 0.166678 0.749971;
   (0, 1, 1, 4, 2, 2) 0.250017 0.250017 0.499966;
   (1, 1, 1, 4, 2, 2) 0.00332316 0.481727 0.51495;
   (2, 1, 1, 4, 2, 2) 0.0097096 0.333333 0.656957;
   (0, 2, 1, 4, 2, 2) 0.250017 0.499966 0.250017;
   (1, 2, 1, 4, 2, 2) 0.0454653 0.636352 0.318182;
   (2, 2, 1, 4, 2, 2) 0.0227331 0.250002 0.727265;
   (0, 0, 2, 4, 2, 2) 0.384612 0.0769393 0.538449;
   (1, 0, 2, 4, 2, 2) 0.16669 0.16669 0.666621;
   (2, 0, 2, 4, 2, 2) 0.499986 0.100019 0.399995;
   (0, 1, 2, 4, 2, 2) 0.250017 0.250017 0.499966;
   (1, 1, 2, 4, 2, 2) 0.0526437 0.263161 0.684195;
   (2, 1, 2, 4, 2, 2) 0.0476302 0.190482 0.761888;
   (0, 2, 2, 4, 2, 2) 0.333333 0.333333 0.333333;
   (1, 2, 2, 4, 2, 2) 0.333333 0.333333 0.333333;
   (2, 2, 2, 4, 2, 2) 0.125021 0.125021 0.749957;
}
probability (diabetes_pre | idade_pre) {
   (0) 0.991071 0.00450444 0.00442503;
   (1) 0.982879 0.00721308 0.00990812;
   (2) 0.960306 0.0137873 0.0259072;
   (3) 0.893701 0.0290188 0.0772806;
   (4) 0.705731 0.0843839 0.209885;
}
probability (doenca_hematologica_pre | diabetes_pre, doenca_renal_pre, doenca_neurologica_pre, asma_pre, sindrome_de_down_pre, doenca_hepatica_pre) {
   (0, 0, 0, 0, 0, 0) 0.999695 6.53601e-06 0.000298015;
   (1, 0, 0, 0, 0, 0) 0.957438 0.0212811 0.0212811;
   (2, 0, 0, 0, 0, 0) 0.997783 0.00019162 0.00202558;
   (0, 1, 0, 0, 0, 0) 0.727224 0.181837 0.0909393;
   (1, 1, 0, 0, 0, 0) 0.250029 0.499943 0.250029;
   (2, 1, 0, 0, 0, 0) 0.818121 0.0909393 0.0909393;
   (0, 2, 0, 0, 0, 0) 0.990061 0.0007647 0.00917448;
   (1, 2, 0, 0, 0, 0) 0.866618 0.0666911 0.0666911;
   (2, 2, 0, 0, 0, 0) 0.98952 0.00224585 0.00823387;
   (0, 0, 1, 0, 0, 0) 0.874954 0.0625232 0.0625232;
   (1, 0, 1, 0, 0, 0) 0.599927 0.200037 0.200037;
   (2, 0, 1, 0, 0, 0) 0.714248 0.214297 0.0714542;
   (0, 1, 1, 0, 0, 0) 0.499962 0.333333 0.166705;
   (1, 1, 1, 0, 0, 0) 0.499943 0.250029 0.250029;
   (2, 1, 1, 0, 0, 0) 0.62495 0.250014 0.125036;
   (0, 2, 1, 0, 0, 0) 0.499943 0.250029 0.250029;
   (1, 2, 1, 0, 0, 0) 0.333333 0.333333 0.333333;
   (2, 2, 1, 0, 0, 0) 0.200037 0.599927 0.200037;
   (0, 0, 2, 0, 0, 0) 0.993042 0.00189782 0.00506037;
   (1, 0, 2, 0, 0, 0) 0.934765 0.0217484 0.0434869;
   (2, 0, 2, 0, 0, 0) 0.994573 0.00180914 0.00361745;
   (0, 1, 2, 0, 0, 0) 0.499943 0.250029 0.250029;
   (1, 1, 2, 0, 0, 0) 0.499943 0.250029 0.250029;
   (2, 1, 2, 0, 0, 0) 0.499943 0.250029 0.250029;
   (0, 2, 2, 0, 0, 0) 0.964897 0.0175515 0.0175515;
   (1, 2, 2, 0, 0, 0) 0.66659 0.166705 0.166705;
   (2, 2, 2, 0, 0, 0) 0.899981 0.0250106 0.0750089;
   (0, 0, 0, 1, 0, 0) 0.799936 0.100032 0.100032;
   (1, 0, 0, 1, 0, 0) 0.555522 0.333333 0.111145;
   (2, 0, 0, 1, 0, 0) 0.874954 0.0625232 0.0625232;
   (0, 1, 0, 1, 0, 0) 0.499943 0.250029 0.250029;
   (1, 1, 0, 1, 0, 0) 0.736813 0.210535 0.0526518;
   (2, 1, 0, 1, 0, 0) 0.714248 0.214297 0.0714542;
   (0, 2, 0, 1, 0, 0) 0.499943 0.250029 0.250029;
   (1, 2, 0, 1, 0, 0) 0.499943 0.250029 0.250029;
   (2, 2, 0, 1, 0, 0) 0.499962 0.166705 0.333333;
   (0, 0, 1, 1, 0, 0) 0.333333 0.333333 0.333333;
   (1, 0, 1, 1, 0, 0) 0.599927 0.200037 0.200037;
   (2, 0, 1, 1, 0, 0) 0.499977 0.399991 0.100032;
   (0, 1, 1, 1, 0, 0) 0.333333 0.333333 0.333333;
   (1, 1, 1, 1, 0, 0) 0.437491 0.499986 0.0625232;
   (2, 1, 1, 1, 0, 0) 0.250005 0.708312 0.0416833;
   (0, 2, 1, 1, 0, 0) 0.333333 0.333333 0.333333;
   (1, 2, 1, 1, 0, 0) 0.142894 0.714211 0.142894;
   (2, 2, 1, 1, 0, 0) 0.399982 0.399982 0.200037;
   (0, 0, 2, 1, 0, 0) 0.333333 0.333333 0.333333;
   (1, 0, 2, 1, 0, 0) 0.499943 0.250029 0.250029;
   (2, 0, 2, 1, 0, 0) 0.499943 0.250029 0.250029;
   (0, 1, 2, 1, 0, 0) 0.333333 0.333333 0.333333;
   (1, 1, 2, 1, 0, 0) 0.571382 0.285724 0.142894;
   (2, 1, 2, 1, 0, 0) 0.333333 0.333333 0.333333;
   (0, 2, 2, 1, 0, 0) 0.499943 0.250029 0.250029;
   (1, 2, 2, 1, 0, 0) 0.333333 0.333333 0.333333;
   (2, 2, 2, 1, 0, 0) 0.499962 0.333333 0.166705;
   (0, 0, 0, 2, 0, 0) 0.987592 0.000827507 0.0115802;
   (1, 0, 0, 2, 0, 0) 0.66659 0.166705 0.166705;
   (2, 0, 0, 2, 0, 0) 0.99032 0.00322727 0.00645306;
   (0, 1, 0, 2, 0, 0) 0.66659 0.166705 0.166705;
   (1, 1, 0, 2, 0, 0) 0.333333 0.333333 0.333333;
   (2, 1, 0, 2, 0, 0) 0.499943 0.250029 0.250029;
   (0, 2, 0, 2, 0, 0) 0.8461 0.0769501 0.0769501;
   (1, 2, 0, 2, 0, 0) 0.333333 0.333333 0.333333;
   (2, 2, 0, 2, 0, 0) 0.8461 0.0769501 0.0769501;
   (0, 0, 1, 2, 0, 0) 0.333333 0.333333 0.333333;
   (1, 0, 1, 2, 0, 0) 0.333333 0.333333 0.333333;
   (2, 0, 1, 2, 0, 0) 0.599927 0.200037 0.200037;
   (0, 1, 1, 2, 0, 0) 0.333333 0.333333 0.333333;
   (1, 1, 1, 2, 0, 0) 0.250014 0.62495 0.125036;
   (2, 1, 1, 2, 0, 0) 0.333333 0.333333 0.333333;
   (0, 2, 1, 2, 0, 0) 0.333333 0.333333 0.333333;
   (1, 2, 1, 2, 0, 0) 0.333333 0.333333 0.333333;
   (2, 2, 1, 2, 0, 0) 0.333333 0.333333 0.333333;
   (0, 0, 2, 2, 0, 0) 0.833305 0.0416833 0.125012;
   (1, 0, 2, 2, 0, 0) 0.499943 0.250029 0.250029;
   (2, 0, 2, 2, 0, 0) 0.818121 0.0909393 0.0909393;
   (0, 1, 2, 2, 0, 0) 0.333333 0.333333 0.333333;
   (1, 1, 2, 2, 0, 0) 0.333333 0.333333 0.333333;
   (2, 1, 2, 2, 0, 0) 0.333333 0.333333 0.333333;
   (0, 2, 2, 2, 0, 0) 0.599927 0.200037 0.200037;
   (1, 2, 2, 2, 0, 0) 0.333333 0.333333 0.333333;
   (2, 2, 2, 2, 0, 0) 0.499943 0.250029 0.250029;
   (0, 0, 0, 0, 1, 0) 0.78786 0.0909192 0.121221;
   (1, 0, 0, 0, 1, 0) 0.571382 0.142894 0.285724;
   (2, 0, 0, 0, 1, 0) 0.774174 0.0967847 0.129041;
   (0, 1, 0, 0, 1, 0) 0.499962 0.333333 0.166705;
   (1, 1, 0, 0, 1, 0) 0.333333 0.333333 0.333333;
   (2, 1, 0, 0, 1, 0) 0.333333 0.333333 0.333333;
   (0, 2, 0, 0, 1, 0) 0.333333 0.333333 0.333333;
   (1, 2, 0, 0, 1, 0) 0.333333 0.333333 0.333333;
   (2, 2, 0, 0, 1, 0) 0.499943 0.250029 0.250029;
   (0, 0, 1, 0, 1, 0) 0.285724 0.571382 0.142894;
   (1, 0, 1, 0, 1, 0) 0.250029 0.499943 0.250029;
   (2, 0, 1, 0, 1, 0) 0.200037 0.599927 0.200037;
   (0, 1, 1, 0, 1, 0) 0.333333 0.333333 0.333333;
   (1, 1, 1, 0, 1, 0) 0.166705 0.66659 0.166705;
   (2, 1, 1, 0, 1, 0) 0.333333 0.333333 0.333333;
   (0, 2, 1, 0, 1, 0) 0.333333 0.333333 0.333333;
   (1, 2, 1, 0, 1, 0) 0.333333 0.333333 0.333333;
   (2, 2, 1, 0, 1, 0) 0.333333 0.333333 0.333333;
   (0, 0, 2, 0, 1, 0) 0.66659 0.166705 0.166705;
   (1, 0, 2, 0, 1, 0) 0.499943 0.250029 0.250029;
   (2, 0, 2, 0, 1, 0) 0.599927 0.200037 0.200037;
   (0, 1, 2, 0, 1, 0) 0.333333 0.333333 0.333333;
   (1, 1, 2, 0, 1, 0) 0.200037 0.599927 0.200037;
   (2, 1, 2, 0, 1, 0) 0.333333 0.333333 0.333333;
   (0, 2, 2, 0, 1, 0) 0.333333 0.333333 0.333333;
   (1, 2, 2, 0, 1, 0) 0.333333 0.333333 0.333333;
   (2, 2, 2, 0, 1, 0) 0.333333 0.333333 0.333333;
   (0, 0, 0, 1, 1, 0) 0.250029 0.499943 0.250029;
   (1, 0, 0, 1, 1, 0) 0.333333 0.333333 0.333333;
   (2, 0, 0, 1, 1, 0) 0.499962 0.166705 0.333333;
   (0, 1, 0, 1, 1, 0) 0.499943 0.250029 0.250029;
   (1, 1, 0, 1, 1, 0) 0.333333 0.499962 0.166705;
   (2, 1, 0, 1, 1, 0) 0.428553 0.428553 0.142894;
   (0, 2, 0, 1, 1, 0) 0.333333 0.333333 0.333333;
   (1, 2, 0, 1, 1, 0) 0.333333 0.333333 0.333333;
   (2, 2, 0, 1, 1, 0) 0.333333 0.333333 0.333333;
   (0, 0, 1, 1, 1, 0) 0.250029 0.499943 0.250029;
   (1, 0, 1, 1, 1, 0) 0.142894 0.714211 0.142894;
   (2, 0, 1, 1, 1, 0) 0.111145 0.77771 0.111145;
   (0, 1, 1, 1, 1, 0) 0.200037 0.599927 0.200037;
   (1, 1, 1, 1, 1, 0) 0.0183526 0.954121 0.0275268;
   (2, 1, 1, 1, 1, 0) 0.0250053 0.949989 0.0250053;
   (0, 2, 1, 1, 1, 0) 0.333333 0.333333 0.333333;
   (1, 2, 1, 1, 1, 0) 0.0714542 0.78567 0.142876;
   (2, 2, 1, 1, 1, 0) 0.0909393 0.818121 0.0909393;
   (0, 0, 2, 1, 1, 0) 0.333333 0.333333 0.333333;
   (1, 0, 2, 1, 1, 0) 0.333333 0.333333 0.333333;
   (2, 0, 2, 1, 1, 0) 0.333333 0.333333 0.333333;
   (0, 1, 2, 1, 1, 0) 0.333333 0.333333 0.333333;
   (1, 1, 2, 1, 1, 0) 0.0666911 0.866618 0.0666911;
   (2, 1, 2, 1, 1, 0) 0.285724 0.428553 0.285724;
   (0, 2, 2, 1, 1, 0) 0.333333 0.333333 0.333333;
   (1, 2, 2, 1, 1, 0) 0.333333 0.333333 0.333333;
   (2, 2, 2, 1, 1, 0) 0.333333 0.333333 0.333333;
   (0, 0, 0, 2, 1, 0) 0.333333 0.333333 0.333333;
   (1, 0, 0, 2, 1, 0) 0.333333 0.333333 0.333333;
   (2, 0, 0, 2, 1, 0) 0.499943 0.250029 0.250029;
   (0, 1, 0, 2, 1, 0) 0.333333 0.333333 0.333333;
   (1, 1, 0, 2, 1, 0) 0.333333 0.333333 0.333333;
   (2, 1, 0, 2, 1, 0) 0.333333 0.333333 0.333333;
   (0, 2, 0, 2, 1, 0) 0.333333 0.333333 0.333333;
   (1, 2, 0, 2, 1, 0) 0.333333 0.333333 0.333333;
   (2, 2, 0, 2, 1, 0) 0.333333 0.333333 0.333333;
   (0, 0, 1, 2, 1, 0) 0.333333 0.333333 0.333333;
   (1, 0, 1, 2, 1, 0) 0.250029 0.499943 0.250029;
   (2, 0, 1, 2, 1, 0) 0.200037 0.599927 0.200037;
   (0, 1, 1, 2, 1, 0) 0.333333 0.333333 0.333333;
   (1, 1, 1, 2, 1, 0) 0.0909393 0.818121 0.0909393;
   (2, 1, 1, 2, 1, 0) 0.333333 0.333333 0.333333;
   (0, 2, 1, 2, 1, 0) 0.333333 0.333333 0.333333;
   (1, 2, 1, 2, 1, 0) 0.333333 0.333333 0.333333;
   (2, 2, 1, 2, 1, 0) 0.333333 0.333333 0.333333;
   (0, 0, 2, 2, 1, 0) 0.333333 0.333333 0.333333;
   (1, 0, 2, 2, 1, 0) 0.333333 0.333333 0.333333;
   (2, 0, 2, 2, 1, 0) 0.333333 0.333333 0.333333;
   (0, 1, 2, 2, 1, 0) 0.333333 0.333333 0.333333;
   (1, 1, 2, 2, 1, 0) 0.250029 0.499943 0.250029;
   (2, 1, 2, 2, 1, 0) 0.333333 0.333333 0.333333;
   (0, 2, 2, 2, 1, 0) 0.333333 0.333333 0.333333;
   (1, 2, 2, 2, 1, 0) 0.333333 0.333333 0.333333;
   (2, 2, 2, 2, 1, 0) 0.333333 0.333333 0.333333;
   (0, 0, 0, 0, 2, 0) 0.938449 0.0153913 0.0461599;
   (1, 0, 0, 0, 2, 0) 0.333333 0.333333 0.333333;
   (2, 0, 0, 0, 2, 0) 0.857092 0.0714542 0.0714542;
   (0, 1, 0, 0, 2, 0) 0.333333 0.333333 0.333333;
   (1, 1, 0, 0, 2, 0) 0.333333 0.333333 0.333333;
   (2, 1, 0, 0, 2, 0) 0.333333 0.333333 0.333333;
   (0, 2, 0, 0, 2, 0) 0.399982 0.200037 0.399982;
   (1, 2, 0, 0, 2, 0) 0.333333 0.333333 0.333333;
   (2, 2, 0, 0, 2, 0) 0.333333 0.333333 0.333333;
   (0, 0, 1, 0, 2, 0) 0.333333 0.333333 0.333333;
   (1, 0, 1, 0, 2, 0) 0.333333 0.333333 0.333333;
   (2, 0, 1, 0, 2, 0) 0.333333 0.333333 0.333333;
   (0, 1, 1, 0, 2, 0) 0.333333 0.333333 0.333333;
   (1, 1, 1, 0, 2, 0) 0.333333 0.333333 0.333333;
   (2, 1, 1, 0, 2, 0) 0.333333 0.333333 0.333333;
   (0, 2, 1, 0, 2, 0) 0.333333 0.333333 0.333333;
   (1, 2, 1, 0, 2, 0) 0.333333 0.333333 0.333333;
   (2, 2, 1, 0, 2, 0) 0.333333 0.333333 0.333333;
   (0, 0, 2, 0, 2, 0) 0.599927 0.200037 0.200037;
   (1, 0, 2, 0, 2, 0) 0.333333 0.333333 0.333333;
   (2, 0, 2, 0, 2, 0) 0.333333 0.333333 0.333333;
   (0, 1, 2, 0, 2, 0) 0.333333 0.333333 0.333333;
   (1, 1, 2, 0, 2, 0) 0.333333 0.333333 0.333333;
   (2, 1, 2, 0, 2, 0) 0.333333 0.333333 0.333333;
   (0, 2, 2, 0, 2, 0) 0.333333 0.333333 0.333333;
   (1, 2, 2, 0, 2, 0) 0.333333 0.333333 0.333333;
   (2, 2, 2, 0, 2, 0) 0.333333 0.333333 0.333333;
   (0, 0, 0, 1, 2, 0) 0.333333 0.333333 0.333333;
   (1, 0, 0, 1, 2, 0) 0.333333 0.333333 0.333333;
   (2, 0, 0, 1, 2, 0) 0.333333 0.333333 0.333333;
   (0, 1, 0, 1, 2, 0) 0.333333 0.333333 0.333333;
   (1, 1, 0, 1, 2, 0) 0.333333 0.333333 0.333333;
   (2, 1, 0, 1, 2, 0) 0.333333 0.333333 0.333333;
   (0, 2, 0, 1, 2, 0) 0.333333 0.333333 0.333333;
   (1, 2, 0, 1, 2, 0) 0.333333 0.333333 0.333333;
   (2, 2, 0, 1, 2, 0) 0.333333 0.333333 0.333333;
   (0, 0, 1, 1, 2, 0) 0.333333 0.333333 0.333333;
   (1, 0, 1, 1, 2, 0) 0.333333 0.333333 0.333333;
   (2, 0, 1, 1, 2, 0) 0.333333 0.333333 0.333333;
   (0, 1, 1, 1, 2, 0) 0.333333 0.333333 0.333333;
   (1, 1, 1, 1, 2, 0) 0.333333 0.499962 0.166705;
   (2, 1, 1, 1, 2, 0) 0.200037 0.599927 0.200037;
   (0, 2, 1, 1, 2, 0) 0.333333 0.333333 0.333333;
   (1, 2, 1, 1, 2, 0) 0.333333 0.333333 0.333333;
   (2, 2, 1, 1, 2, 0) 0.333333 0.333333 0.333333;
   (0, 0, 2, 1, 2, 0) 0.333333 0.333333 0.333333;
   (1, 0, 2, 1, 2, 0) 0.333333 0.333333 0.333333;
   (2, 0, 2, 1, 2, 0) 0.333333 0.333333 0.333333;
   (0, 1, 2, 1, 2, 0) 0.333333 0.333333 0.333333;
   (1, 1, 2, 1, 2, 0) 0.333333 0.333333 0.333333;
   (2, 1, 2, 1, 2, 0) 0.333333 0.333333 0.333333;
   (0, 2, 2, 1, 2, 0) 0.333333 0.333333 0.333333;
   (1, 2, 2, 1, 2, 0) 0.333333 0.333333 0.333333;
   (2, 2, 2, 1, 2, 0) 0.333333 0.333333 0.333333;
   (0, 0, 0, 2, 2, 0) 0.599927 0.200037 0.200037;
   (1, 0, 0, 2, 2, 0) 0.333333 0.333333 0.333333;
   (2, 0, 0, 2, 2, 0) 0.499943 0.250029 0.250029;
   (0, 1, 0, 2, 2, 0) 0.333333 0.333333 0.333333;
   (1, 1, 0, 2, 2, 0) 0.333333 0.333333 0.333333;
   (2, 1, 0, 2, 2, 0) 0.333333 0.333333 0.333333;
   (0, 2, 0, 2, 2, 0) 0.333333 0.333333 0.333333;
   (1, 2, 0, 2, 2, 0) 0.333333 0.333333 0.333333;
   (2, 2, 0, 2, 2, 0) 0.333333 0.333333 0.333333;
   (0, 0, 1, 2, 2, 0) 0.333333 0.333333 0.333333;
   (1, 0, 1, 2, 2, 0) 0.333333 0.333333 0.333333;
   (2, 0, 1, 2, 2, 0) 0.333333 0.333333 0.333333;
   (0, 1, 1, 2, 2, 0) 0.333333 0.333333 0.333333;
   (1, 1, 1, 2, 2, 0) 0.333333 0.333333 0.333333;
   (2, 1, 1, 2, 2, 0) 0.333333 0.333333 0.333333;
   (0, 2, 1, 2, 2, 0) 0.333333 0.333333 0.333333;
   (1, 2, 1, 2, 2, 0) 0.333333 0.333333 0.333333;
   (2, 2, 1, 2, 2, 0) 0.333333 0.333333 0.333333;
   (0, 0, 2, 2, 2, 0) 0.333333 0.333333 0.333333;
   (1, 0, 2, 2, 2, 0) 0.333333 0.333333 0.333333;
   (2, 0, 2, 2, 2, 0) 0.333333 0.333333 0.333333;
   (0, 1, 2, 2, 2, 0) 0.333333 0.333333 0.333333;
   (1, 1, 2, 2, 2, 0) 0.333333 0.333333 0.333333;
   (2, 1, 2, 2, 2, 0) 0.333333 0.333333 0.333333;
   (0, 2, 2, 2, 2, 0) 0.333333 0.333333 0.333333;
   (1, 2, 2, 2, 2, 0) 0.333333 0.333333 0.333333;
   (2, 2, 2, 2, 2, 0) 0.333333 0.333333 0.333333;
   (0, 0, 0, 0, 0, 1) 0.499962 0.333333 0.166705;
   (1, 0, 0, 0, 0, 1) 0.250029 0.499943 0.250029;
   (2, 0, 0, 0, 0, 1) 0.599927 0.200037 0.200037;
   (0, 1, 0, 0, 0, 1) 0.333333 0.333333 0.333333;
   (1, 1, 0, 0, 0, 1) 0.200018 0.69995 0.100032;
   (2, 1, 0, 0, 0, 1) 0.111145 0.666616 0.222239;
   (0, 2, 0, 0, 0, 1) 0.499943 0.250029 0.250029;
   (1, 2, 0, 0, 0, 1) 0.333333 0.333333 0.333333;
   (2, 2, 0, 0, 0, 1) 0.285724 0.571382 0.142894;
   (0, 0, 1, 0, 0, 1) 0.250029 0.499943 0.250029;
   (1, 0, 1, 0, 0, 1) 0.499943 0.250029 0.250029;
   (2, 0, 1, 0, 0, 1) 0.333333 0.333333 0.333333;
   (0, 1, 1, 0, 0, 1) 0.499943 0.250029 0.250029;
   (1, 1, 1, 0, 0, 1) 0.250029 0.499943 0.250029;
   (2, 1, 1, 0, 0, 1) 0.250029 0.499943 0.250029;
   (0, 2, 1, 0, 0, 1) 0.333333 0.333333 0.333333;
   (1, 2, 1, 0, 0, 1) 0.333333 0.333333 0.333333;
   (2, 2, 1, 0, 0, 1) 0.250029 0.499943 0.250029;
   (0, 0, 2, 0, 0, 1) 0.333333 0.333333 0.333333;
   (1, 0, 2, 0, 0, 1) 0.250029 0.499943 0.250029;
   (2, 0, 2, 0, 0, 1) 0.333333 0.333333 0.333333;
   (0, 1, 2, 0, 0, 1) 0.333333 0.333333 0.333333;
   (1, 1, 2, 0, 0, 1) 0.250029 0.499943 0.250029;
   (2, 1, 2, 0, 0, 1) 0.250029 0.499943 0.250029;
   (0, 2, 2, 0, 0, 1) 0.333333 0.333333 0.333333;
   (1, 2, 2, 0, 0, 1) 0.333333 0.333333 0.333333;
   (2, 2, 2, 0, 0, 1) 0.499943 0.250029 0.250029;
   (0, 0, 0, 1, 0, 1) 0.333333 0.333333 0.333333;
   (1, 0, 0, 1, 0, 1) 0.499943 0.250029 0.250029;
   (2, 0, 0, 1, 0, 1) 0.250029 0.499943 0.250029;
   (0, 1, 0, 1, 0, 1) 0.200037 0.599927 0.200037;
   (1, 1, 0, 1, 0, 1) 0.20834 0.708312 0.0833476;
   (2, 1, 0, 1, 0, 1) 0.153865 0.769185 0.0769501;
   (0, 2, 0, 1, 0, 1) 0.333333 0.333333 0.333333;
   (1, 2, 0, 1, 0, 1) 0.200037 0.599927 0.200037;
   (2, 2, 0, 1, 0, 1) 0.200037 0.599927 0.200037;
   (0, 0, 1, 1, 0, 1) 0.333333 0.333333 0.333333;
   (1, 0, 1, 1, 0, 1) 0.333333 0.499962 0.166705;
   (2, 0, 1, 1, 0, 1) 0.250029 0.499943 0.250029;
   (0, 1, 1, 1, 0, 1) 0.250029 0.499943 0.250029;
   (1, 1, 1, 1, 0, 1) 0.0681901 0.886346 0.0454635;
   (2, 1, 1, 1, 0, 1) 0.04879 0.829252 0.121958;
   (0, 2, 1, 1, 0, 1) 0.200037 0.599927 0.200037;
   (1, 2, 1, 1, 0, 1) 0.166705 0.66659 0.166705;
   (2, 2, 1, 1, 0, 1) 0.153865 0.69227 0.153865;
   (0, 0, 2, 1, 0, 1) 0.333333 0.333333 0.333333;
   (1, 0, 2, 1, 0, 1) 0.499943 0.250029 0.250029;
   (2, 0, 2, 1, 0, 1) 0.333333 0.333333 0.333333;
   (0, 1, 2, 1, 0, 1) 0.333333 0.333333 0.333333;
   (1, 1, 2, 1, 0, 1) 0.153865 0.769185 0.0769501;
   (2, 1, 2, 1, 0, 1) 0.111145 0.77771 0.111145;
   (0, 2, 2, 1, 0, 1) 0.333333 0.333333 0.333333;
   (1, 2, 2, 1, 0, 1) 0.333333 0.333333 0.333333;
   (2, 2, 2, 1, 0, 1) 0.250029 0.499943 0.250029;
   (0, 0, 0, 2, 0, 1) 0.333333 0.333333 0.333333;
   (1, 0, 0, 2, 0, 1) 0.333333 0.333333 0.333333;
   (2, 0, 0, 2, 0, 1) 0.333333 0.333333 0.333333;
   (0, 1, 0, 2, 0, 1) 0.333333 0.333333 0.333333;
   (1, 1, 0, 2, 0, 1) 0.333333 0.333333 0.333333;
   (2, 1, 0, 2, 0, 1) 0.250029 0.499943 0.250029;
   (0, 2, 0, 2, 0, 1) 0.333333 0.333333 0.333333;
   (1, 2, 0, 2, 0, 1) 0.333333 0.333333 0.333333;
   (2, 2, 0, 2, 0, 1) 0.333333 0.333333 0.333333;
   (0, 0, 1, 2, 0, 1) 0.333333 0.333333 0.333333;
   (1, 0, 1, 2, 0, 1) 0.250029 0.499943 0.250029;
   (2, 0, 1, 2, 0, 1) 0.333333 0.333333 0.333333;
   (0, 1, 1, 2, 0, 1) 0.333333 0.333333 0.333333;
   (1, 1, 1, 2, 0, 1) 0.200037 0.599927 0.200037;
   (2, 1, 1, 2, 0, 1) 0.333333 0.333333 0.333333;
   (0, 2, 1, 2, 0, 1) 0.333333 0.333333 0.333333;
   (1, 2, 1, 2, 0, 1) 0.333333 0.333333 0.333333;
   (2, 2, 1, 2, 0, 1) 0.333333 0.333333 0.333333;
   (0, 0, 2, 2, 0, 1) 0.333333 0.333333 0.333333;
   (1, 0, 2, 2, 0, 1) 0.333333 0.333333 0.333333;
   (2, 0, 2, 2, 0, 1) 0.333333 0.333333 0.333333;
   (0, 1, 2, 2, 0, 1) 0.333333 0.333333 0.333333;
   (1, 1, 2, 2, 0, 1) 0.250029 0.499943 0.250029;
   (2, 1, 2, 2, 0, 1) 0.333333 0.333333 0.333333;
   (0, 2, 2, 2, 0, 1) 0.333333 0.333333 0.333333;
   (1, 2, 2, 2, 0, 1) 0.333333 0.333333 0.333333;
   (2, 2, 2, 2, 0, 1) 0.333333 0.333333 0.333333;
   (0, 0, 0, 0, 1, 1) 0.285724 0.571382 0.142894;
   (1, 0, 0, 0, 1, 1) 0.399982 0.399982 0.200037;
   (2, 0, 0, 0, 1, 1) 0.428553 0.428553 0.142894;
   (0, 1, 0, 0, 1, 1) 0.200037 0.399982 0.399982;
   (1, 1, 0, 0, 1, 1) 0.200037 0.599927 0.200037;
   (2, 1, 0, 0, 1, 1) 0.100032 0.799936 0.100032;
   (0, 2, 0, 0, 1, 1) 0.333333 0.499962 0.166705;
   (1, 2, 0, 0, 1, 1) 0.333333 0.333333 0.333333;
   (2, 2, 0, 0, 1, 1) 0.333333 0.333333 0.333333;
   (0, 0, 1, 0, 1, 1) 0.200037 0.599927 0.200037;
   (1, 0, 1, 0, 1, 1) 0.100032 0.799936 0.100032;
   (2, 0, 1, 0, 1, 1) 0.10528 0.842069 0.0526518;
   (0, 1, 1, 0, 1, 1) 0.0625232 0.812459 0.125018;
   (1, 1, 1, 0, 1, 1) 0.0408204 0.897951 0.0612283;
   (2, 1, 1, 0, 1, 1) 0.0208378 0.958324 0.0208378;
   (0, 2, 1, 0, 1, 1) 0.333333 0.333333 0.333333;
   (1, 2, 1, 0, 1, 1) 0.0909393 0.818121 0.0909393;
   (2, 2, 1, 0, 1, 1) 0.266673 0.599976 0.133352;
   (0, 0, 2, 0, 1, 1) 0.499943 0.250029 0.250029;
   (1, 0, 2, 0, 1, 1) 0.200037 0.399982 0.399982;
   (2, 0, 2, 0, 1, 1) 0.333333 0.333333 0.333333;
   (0, 1, 2, 0, 1, 1) 0.166705 0.66659 0.166705;
   (1, 1, 2, 0, 1, 1) 0.0666911 0.799957 0.133352;
   (2, 1, 2, 0, 1, 1) 0.333333 0.555522 0.111145;
   (0, 2, 2, 0, 1, 1) 0.333333 0.333333 0.333333;
   (1, 2, 2, 0, 1, 1) 0.250029 0.499943 0.250029;
   (2, 2, 2, 0, 1, 1) 0.399982 0.399982 0.200037;
   (0, 0, 0, 1, 1, 1) 0.399982 0.399982 0.200037;
   (1, 0, 0, 1, 1, 1) 0.0909393 0.818121 0.0909393;
   (2, 0, 0, 1, 1, 1) 0.0625232 0.874954 0.0625232;
   (0, 1, 0, 1, 1, 1) 0.333333 0.555522 0.111145;
   (1, 1, 0, 1, 1, 1) 0.174421 0.802318 0.0232608;
   (2, 1, 0, 1, 1, 1) 0.120004 0.866657 0.0133392;
   (0, 2, 0, 1, 1, 1) 0.200037 0.399982 0.399982;
   (1, 2, 0, 1, 1, 1) 0.300005 0.599963 0.100032;
   (2, 2, 0, 1, 1, 1) 0.176483 0.764671 0.0588457;
   (0, 0, 1, 1, 1, 1) 0.142894 0.714211 0.142894;
   (1, 0, 1, 1, 1, 1) 0.0182953 0.957312 0.0243928;
   (2, 0, 1, 1, 1, 1) 0.0188706 0.943391 0.0377384;
   (0, 1, 1, 1, 1, 1) 0.0277836 0.930544 0.0416722;
   (1, 1, 1, 1, 1, 1) 0.0021387 0.979007 0.0188541;
   (2, 1, 1, 1, 1, 1) 0.00254582 0.989242 0.00821224;
   (0, 2, 1, 1, 1, 1) 0.0909393 0.818121 0.0909393;
   (1, 2, 1, 1, 1, 1) 0.00378115 0.977315 0.018904;
   (2, 2, 1, 1, 1, 1) 0.00227583 0.974971 0.0227536;
   (0, 0, 2, 1, 1, 1) 0.250029 0.250029 0.499943;
   (1, 0, 2, 1, 1, 1) 0.0909242 0.863603 0.0454725;
   (2, 0, 2, 1, 1, 1) 0.100032 0.799936 0.100032;
   (0, 1, 2, 1, 1, 1) 0.142876 0.714248 0.142876;
   (1, 1, 2, 1, 1, 1) 0.00285951 0.984989 0.0121519;
   (2, 1, 2, 1, 1, 1) 0.0106769 0.978646 0.0106769;
   (0, 2, 2, 1, 1, 1) 0.200037 0.599927 0.200037;
   (1, 2, 2, 1, 1, 1) 0.011116 0.88888 0.100004;
   (2, 2, 2, 1, 1, 1) 0.0400054 0.919989 0.0400054;
   (0, 0, 0, 2, 1, 1) 0.333333 0.333333 0.333333;
   (1, 0, 0, 2, 1, 1) 0.200037 0.599927 0.200037;
   (2, 0, 0, 2, 1, 1) 0.250029 0.499943 0.250029;
   (0, 1, 0, 2, 1, 1) 0.250029 0.499943 0.250029;
   (1, 1, 0, 2, 1, 1) 0.333333 0.499962 0.166705;
   (2, 1, 0, 2, 1, 1) 0.333333 0.499962 0.166705;
   (0, 2, 0, 2, 1, 1) 0.333333 0.333333 0.333333;
   (1, 2, 0, 2, 1, 1) 0.333333 0.333333 0.333333;
   (2, 2, 0, 2, 1, 1) 0.333333 0.333333 0.333333;
   (0, 0, 1, 2, 1, 1) 0.333333 0.333333 0.333333;
   (1, 0, 1, 2, 1, 1) 0.029424 0.941152 0.029424;
   (2, 0, 1, 2, 1, 1) 0.0588457 0.882309 0.0588457;
   (0, 1, 1, 2, 1, 1) 0.0714542 0.857092 0.0714542;
   (1, 1, 1, 2, 1, 1) 0.00243346 0.986212 0.0113548;
   (2, 1, 1, 2, 1, 1) 0.00290829 0.976742 0.0203501;
   (0, 2, 1, 2, 1, 1) 0.333333 0.333333 0.333333;
   (1, 2, 1, 2, 1, 1) 0.0263269 0.894717 0.0789566;
   (2, 2, 1, 2, 1, 1) 0.0400161 0.839972 0.120012;
   (0, 0, 2, 2, 1, 1) 0.333333 0.333333 0.333333;
   (1, 0, 2, 2, 1, 1) 0.499943 0.250029 0.250029;
   (2, 0, 2, 2, 1, 1) 0.250029 0.499943 0.250029;
   (0, 1, 2, 2, 1, 1) 0.250029 0.499943 0.250029;
   (1, 1, 2, 2, 1, 1) 0.0277894 0.916644 0.0555661;
   (2, 1, 2, 2, 1, 1) 0.0526518 0.894696 0.0526518;
   (0, 2, 2, 2, 1, 1) 0.333333 0.333333 0.333333;
   (1, 2, 2, 2, 1, 1) 0.125036 0.62495 0.250014;
   (2, 2, 2, 2, 1, 1) 0.111145 0.555522 0.333333;
   (0, 0, 0, 0, 2, 1) 0.333333 0.333333 0.333333;
   (1, 0, 0, 0, 2, 1) 0.333333 0.333333 0.333333;
   (2, 0, 0, 0, 2, 1) 0.333333 0.333333 0.333333;
   (0, 1, 0, 0, 2, 1) 0.333333 0.333333 0.333333;
   (1, 1, 0, 0, 2, 1) 0.333333 0.333333 0.333333;
   (2, 1, 0, 0, 2, 1) 0.333333 0.333333 0.333333;
   (0, 2, 0, 0, 2, 1) 0.333333 0.333333 0.333333;
   (1, 2, 0, 0, 2, 1) 0.333333 0.333333 0.333333;
   (2, 2, 0, 0, 2, 1) 0.333333 0.333333 0.333333;
   (0, 0, 1, 0, 2, 1) 0.333333 0.333333 0.333333;
   (1, 0, 1, 0, 2, 1) 0.333333 0.333333 0.333333;
   (2, 0, 1, 0, 2, 1) 0.333333 0.333333 0.333333;
   (0, 1, 1, 0, 2, 1) 0.333333 0.333333 0.333333;
   (1, 1, 1, 0, 2, 1) 0.333333 0.333333 0.333333;
   (2, 1, 1, 0, 2, 1) 0.250029 0.499943 0.250029;
   (0, 2, 1, 0, 2, 1) 0.333333 0.333333 0.333333;
   (1, 2, 1, 0, 2, 1) 0.333333 0.333333 0.333333;
   (2, 2, 1, 0, 2, 1) 0.333333 0.333333 0.333333;
   (0, 0, 2, 0, 2, 1) 0.333333 0.333333 0.333333;
   (1, 0, 2, 0, 2, 1) 0.333333 0.333333 0.333333;
   (2, 0, 2, 0, 2, 1) 0.333333 0.333333 0.333333;
   (0, 1, 2, 0, 2, 1) 0.333333 0.333333 0.333333;
   (1, 1, 2, 0, 2, 1) 0.333333 0.333333 0.333333;
   (2, 1, 2, 0, 2, 1) 0.333333 0.333333 0.333333;
   (0, 2, 2, 0, 2, 1) 0.333333 0.333333 0.333333;
   (1, 2, 2, 0, 2, 1) 0.333333 0.333333 0.333333;
   (2, 2, 2, 0, 2, 1) 0.333333 0.333333 0.333333;
   (0, 0, 0, 1, 2, 1) 0.333333 0.333333 0.333333;
   (1, 0, 0, 1, 2, 1) 0.333333 0.333333 0.333333;
   (2, 0, 0, 1, 2, 1) 0.333333 0.333333 0.333333;
   (0, 1, 0, 1, 2, 1) 0.333333 0.333333 0.333333;
   (1, 1, 0, 1, 2, 1) 0.250029 0.499943 0.250029;
   (2, 1, 0, 1, 2, 1) 0.333333 0.333333 0.333333;
   (0, 2, 0, 1, 2, 1) 0.333333 0.333333 0.333333;
   (1, 2, 0, 1, 2, 1) 0.333333 0.333333 0.333333;
   (2, 2, 0, 1, 2, 1) 0.333333 0.333333 0.333333;
   (0, 0, 1, 1, 2, 1) 0.333333 0.333333 0.333333;
   (1, 0, 1, 1, 2, 1) 0.250029 0.499943 0.250029;
   (2, 0, 1, 1, 2, 1) 0.333333 0.333333 0.333333;
   (0, 1, 1, 1, 2, 1) 0.250029 0.499943 0.250029;
   (1, 1, 1, 1, 2, 1) 0.0232608 0.953478 0.0232608;
   (2, 1, 1, 1, 2, 1) 0.0312629 0.906225 0.0625116;
   (0, 2, 1, 1, 2, 1) 0.333333 0.333333 0.333333;
   (1, 2, 1, 1, 2, 1) 0.142894 0.714211 0.142894;
   (2, 2, 1, 1, 2, 1) 0.200037 0.599927 0.200037;
   (0, 0, 2, 1, 2, 1) 0.333333 0.333333 0.333333;
   (1, 0, 2, 1, 2, 1) 0.333333 0.333333 0.333333;
   (2, 0, 2, 1, 2, 1) 0.250029 0.499943 0.250029;
   (0, 1, 2, 1, 2, 1) 0.333333 0.333333 0.333333;
   (1, 1, 2, 1, 2, 1) 0.111145 0.77771 0.111145;
   (2, 1, 2, 1, 2, 1) 0.200037 0.200037 0.599927;
   (0, 2, 2, 1, 2, 1) 0.333333 0.333333 0.333333;
   (1, 2, 2, 1, 2, 1) 0.333333 0.333333 0.333333;
   (2, 2, 2, 1, 2, 1) 0.250029 0.499943 0.250029;
   (0, 0, 0, 2, 2, 1) 0.333333 0.333333 0.333333;
   (1, 0, 0, 2, 2, 1) 0.333333 0.333333 0.333333;
   (2, 0, 0, 2, 2, 1) 0.333333 0.333333 0.333333;
   (0, 1, 0, 2, 2, 1) 0.333333 0.333333 0.333333;
   (1, 1, 0, 2, 2, 1) 0.333333 0.333333 0.333333;
   (2, 1, 0, 2, 2, 1) 0.333333 0.333333 0.333333;
   (0, 2, 0, 2, 2, 1) 0.333333 0.333333 0.333333;
   (1, 2, 0, 2, 2, 1) 0.333333 0.333333 0.333333;
   (2, 2, 0, 2, 2, 1) 0.333333 0.333333 0.333333;
   (0, 0, 1, 2, 2, 1) 0.333333 0.333333 0.333333;
   (1, 0, 1, 2, 2, 1) 0.250029 0.499943 0.250029;
   (2, 0, 1, 2, 2, 1) 0.333333 0.333333 0.333333;
   (0, 1, 1, 2, 2, 1) 0.333333 0.333333 0.333333;
   (1, 1, 1, 2, 2, 1) 0.111145 0.77771 0.111145;
   (2, 1, 1, 2, 2, 1) 0.250029 0.499943 0.250029;
   (0, 2, 1, 2, 2, 1) 0.333333 0.333333 0.333333;
   (1, 2, 1, 2, 2, 1) 0.250029 0.499943 0.250029;
   (2, 2, 1, 2, 2, 1) 0.333333 0.333333 0.333333;
   (0, 0, 2, 2, 2, 1) 0.333333 0.333333 0.333333;
   (1, 0, 2, 2, 2, 1) 0.333333 0.333333 0.333333;
   (2, 0, 2, 2, 2, 1) 0.333333 0.333333 0.333333;
   (0, 1, 2, 2, 2, 1) 0.333333 0.333333 0.333333;
   (1, 1, 2, 2, 2, 1) 0.333333 0.333333 0.333333;
   (2, 1, 2, 2, 2, 1) 0.333333 0.333333 0.333333;
   (0, 2, 2, 2, 2, 1) 0.333333 0.333333 0.333333;
   (1, 2, 2, 2, 2, 1) 0.333333 0.333333 0.333333;
   (2, 2, 2, 2, 2, 1) 0.333333 0.333333 0.333333;
   (0, 0, 0, 0, 0, 2) 0.948594 0.00934787 0.0420579;
   (1, 0, 0, 0, 0, 2) 0.499943 0.250029 0.250029;
   (2, 0, 0, 0, 0, 2) 0.980383 0.00980827 0.00980827;
   (0, 1, 0, 0, 0, 2) 0.333333 0.333333 0.333333;
   (1, 1, 0, 0, 0, 2) 0.250029 0.250029 0.499943;
   (2, 1, 0, 0, 0, 2) 0.333333 0.333333 0.333333;
   (0, 2, 0, 0, 0, 2) 0.833305 0.0416833 0.125012;
   (1, 2, 0, 0, 0, 2) 0.333333 0.333333 0.333333;
   (2, 2, 0, 0, 0, 2) 0.857117 0.0357289 0.107154;
   (0, 0, 1, 0, 0, 2) 0.333333 0.333333 0.333333;
   (1, 0, 1, 0, 0, 2) 0.333333 0.333333 0.333333;
   (2, 0, 1, 0, 0, 2) 0.333333 0.333333 0.333333;
   (0, 1, 1, 0, 0, 2) 0.333333 0.333333 0.333333;
   (1, 1, 1, 0, 0, 2) 0.333333 0.333333 0.333333;
   (2, 1, 1, 0, 0, 2) 0.250029 0.499943 0.250029;
   (0, 2, 1, 0, 0, 2) 0.333333 0.333333 0.333333;
   (1, 2, 1, 0, 0, 2) 0.333333 0.333333 0.333333;
   (2, 2, 1, 0, 0, 2) 0.333333 0.333333 0.333333;
   (0, 0, 2, 0, 0, 2) 0.888847 0.0555767 0.0555767;
   (1, 0, 2, 0, 0, 2) 0.333333 0.333333 0.333333;
   (2, 0, 2, 0, 0, 2) 0.727224 0.0909393 0.181837;
   (0, 1, 2, 0, 0, 2) 0.333333 0.333333 0.333333;
   (1, 1, 2, 0, 0, 2) 0.333333 0.333333 0.333333;
   (2, 1, 2, 0, 0, 2) 0.250029 0.250029 0.499943;
   (0, 2, 2, 0, 0, 2) 0.599927 0.200037 0.200037;
   (1, 2, 2, 0, 0, 2) 0.333333 0.333333 0.333333;
   (2, 2, 2, 0, 0, 2) 0.399982 0.200037 0.399982;
   (0, 0, 0, 1, 0, 2) 0.333333 0.333333 0.333333;
   (1, 0, 0, 1, 0, 2) 0.333333 0.333333 0.333333;
   (2, 0, 0, 1, 0, 2) 0.333333 0.333333 0.333333;
   (0, 1, 0, 1, 0, 2) 0.333333 0.333333 0.333333;
   (1, 1, 0, 1, 0, 2) 0.333333 0.333333 0.333333;
   (2, 1, 0, 1, 0, 2) 0.333333 0.333333 0.333333;
   (0, 2, 0, 1, 0, 2) 0.333333 0.333333 0.333333;
   (1, 2, 0, 1, 0, 2) 0.333333 0.333333 0.333333;
   (2, 2, 0, 1, 0, 2) 0.333333 0.333333 0.333333;
   (0, 0, 1, 1, 0, 2) 0.333333 0.333333 0.333333;
   (1, 0, 1, 1, 0, 2) 0.333333 0.333333 0.333333;
   (2, 0, 1, 1, 0, 2) 0.333333 0.333333 0.333333;
   (0, 1, 1, 1, 0, 2) 0.333333 0.333333 0.333333;
   (1, 1, 1, 1, 0, 2) 0.166705 0.66659 0.166705;
   (2, 1, 1, 1, 0, 2) 0.200037 0.599927 0.200037;
   (0, 2, 1, 1, 0, 2) 0.333333 0.333333 0.333333;
   (1, 2, 1, 1, 0, 2) 0.333333 0.333333 0.333333;
   (2, 2, 1, 1, 0, 2) 0.333333 0.333333 0.333333;
   (0, 0, 2, 1, 0, 2) 0.499943 0.250029 0.250029;
   (1, 0, 2, 1, 0, 2) 0.333333 0.333333 0.333333;
   (2, 0, 2, 1, 0, 2) 0.499943 0.250029 0.250029;
   (0, 1, 2, 1, 0, 2) 0.333333 0.333333 0.333333;
   (1, 1, 2, 1, 0, 2) 0.333333 0.333333 0.333333;
   (2, 1, 2, 1, 0, 2) 0.200037 0.200037 0.599927;
   (0, 2, 2, 1, 0, 2) 0.333333 0.333333 0.333333;
   (1, 2, 2, 1, 0, 2) 0.333333 0.333333 0.333333;
   (2, 2, 2, 1, 0, 2) 0.333333 0.333333 0.333333;
   (0, 0, 0, 2, 0, 2) 0.714211 0.142894 0.142894;
   (1, 0, 0, 2, 0, 2) 0.333333 0.333333 0.333333;
   (2, 0, 0, 2, 0, 2) 0.399982 0.200037 0.399982;
   (0, 1, 0, 2, 0, 2) 0.333333 0.333333 0.333333;
   (1, 1, 0, 2, 0, 2) 0.333333 0.333333 0.333333;
   (2, 1, 0, 2, 0, 2) 0.333333 0.333333 0.333333;
   (0, 2, 0, 2, 0, 2) 0.333333 0.333333 0.333333;
   (1, 2, 0, 2, 0, 2) 0.333333 0.333333 0.333333;
   (2, 2, 0, 2, 0, 2) 0.399982 0.200037 0.399982;
   (0, 0, 1, 2, 0, 2) 0.333333 0.333333 0.333333;
   (1, 0, 1, 2, 0, 2) 0.333333 0.333333 0.333333;
   (2, 0, 1, 2, 0, 2) 0.333333 0.333333 0.333333;
   (0, 1, 1, 2, 0, 2) 0.333333 0.333333 0.333333;
   (1, 1, 1, 2, 0, 2) 0.333333 0.333333 0.333333;
   (2, 1, 1, 2, 0, 2) 0.333333 0.333333 0.333333;
   (0, 2, 1, 2, 0, 2) 0.333333 0.333333 0.333333;
   (1, 2, 1, 2, 0, 2) 0.333333 0.333333 0.333333;
   (2, 2, 1, 2, 0, 2) 0.333333 0.333333 0.333333;
   (0, 0, 2, 2, 0, 2) 0.333333 0.333333 0.333333;
   (1, 0, 2, 2, 0, 2) 0.333333 0.333333 0.333333;
   (2, 0, 2, 2, 0, 2) 0.599927 0.200037 0.200037;
   (0, 1, 2, 2, 0, 2) 0.333333 0.333333 0.333333;
   (1, 1, 2, 2, 0, 2) 0.333333 0.333333 0.333333;
   (2, 1, 2, 2, 0, 2) 0.333333 0.333333 0.333333;
   (0, 2, 2, 2, 0, 2) 0.333333 0.333333 0.333333;
   (1, 2, 2, 2, 0, 2) 0.333333 0.333333 0.333333;
   (2, 2, 2, 2, 0, 2) 0.200037 0.200037 0.599927;
   (0, 0, 0, 0, 1, 2) 0.499962 0.333333 0.166705;
   (1, 0, 0, 0, 1, 2) 0.333333 0.333333 0.333333;
   (2, 0, 0, 0, 1, 2) 0.333333 0.333333 0.333333;
   (0, 1, 0, 0, 1, 2) 0.333333 0.333333 0.333333;
   (1, 1, 0, 0, 1, 2) 0.250029 0.499943 0.250029;
   (2, 1, 0, 0, 1, 2) 0.333333 0.333333 0.333333;
   (0, 2, 0, 0, 1, 2) 0.333333 0.333333 0.333333;
   (1, 2, 0, 0, 1, 2) 0.333333 0.333333 0.333333;
   (2, 2, 0, 0, 1, 2) 0.499943 0.250029 0.250029;
   (0, 0, 1, 0, 1, 2) 0.333333 0.333333 0.333333;
   (1, 0, 1, 0, 1, 2) 0.333333 0.333333 0.333333;
   (2, 0, 1, 0, 1, 2) 0.333333 0.333333 0.333333;
   (0, 1, 1, 0, 1, 2) 0.333333 0.333333 0.333333;
   (1, 1, 1, 0, 1, 2) 0.200037 0.599927 0.200037;
   (2, 1, 1, 0, 1, 2) 0.142894 0.714211 0.142894;
   (0, 2, 1, 0, 1, 2) 0.333333 0.333333 0.333333;
   (1, 2, 1, 0, 1, 2) 0.333333 0.333333 0.333333;
   (2, 2, 1, 0, 1, 2) 0.200037 0.599927 0.200037;
   (0, 0, 2, 0, 1, 2) 0.333333 0.333333 0.333333;
   (1, 0, 2, 0, 1, 2) 0.333333 0.333333 0.333333;
   (2, 0, 2, 0, 1, 2) 0.333333 0.333333 0.333333;
   (0, 1, 2, 0, 1, 2) 0.333333 0.333333 0.333333;
   (1, 1, 2, 0, 1, 2) 0.333333 0.333333 0.333333;
   (2, 1, 2, 0, 1, 2) 0.333333 0.333333 0.333333;
   (0, 2, 2, 0, 1, 2) 0.333333 0.333333 0.333333;
   (1, 2, 2, 0, 1, 2) 0.333333 0.333333 0.333333;
   (2, 2, 2, 0, 1, 2) 0.333333 0.333333 0.333333;
   (0, 0, 0, 1, 1, 2) 0.333333 0.333333 0.333333;
   (1, 0, 0, 1, 1, 2) 0.333333 0.333333 0.333333;
   (2, 0, 0, 1, 1, 2) 0.333333 0.333333 0.333333;
   (0, 1, 0, 1, 1, 2) 0.333333 0.333333 0.333333;
   (1, 1, 0, 1, 1, 2) 0.333333 0.333333 0.333333;
   (2, 1, 0, 1, 1, 2) 0.333333 0.333333 0.333333;
   (0, 2, 0, 1, 1, 2) 0.333333 0.333333 0.333333;
   (1, 2, 0, 1, 1, 2) 0.333333 0.333333 0.333333;
   (2, 2, 0, 1, 1, 2) 0.333333 0.333333 0.333333;
   (0, 0, 1, 1, 1, 2) 0.333333 0.333333 0.333333;
   (1, 0, 1, 1, 1, 2) 0.166705 0.66659 0.166705;
   (2, 0, 1, 1, 1, 2) 0.200037 0.599927 0.200037;
   (0, 1, 1, 1, 1, 2) 0.333333 0.333333 0.333333;
   (1, 1, 1, 1, 1, 2) 0.0069702 0.958185 0.0348446;
   (2, 1, 1, 1, 1, 2) 0.0250026 0.943745 0.0312526;
   (0, 2, 1, 1, 1, 2) 0.333333 0.333333 0.333333;
   (1, 2, 1, 1, 1, 2) 0.0250106 0.92498 0.0500097;
   (2, 2, 1, 1, 1, 2) 0.0312629 0.812479 0.156258;
   (0, 0, 2, 1, 1, 2) 0.333333 0.333333 0.333333;
   (1, 0, 2, 1, 1, 2) 0.333333 0.333333 0.333333;
   (2, 0, 2, 1, 1, 2) 0.250029 0.250029 0.499943;
   (0, 1, 2, 1, 1, 2) 0.333333 0.333333 0.333333;
   (1, 1, 2, 1, 1, 2) 0.100016 0.799968 0.100016;
   (2, 1, 2, 1, 1, 2) 0.0714542 0.78567 0.142876;
   (0, 2, 2, 1, 1, 2) 0.333333 0.333333 0.333333;
   (1, 2, 2, 1, 1, 2) 0.166705 0.499962 0.333333;
   (2, 2, 2, 1, 1, 2) 0.200037 0.599927 0.200037;
   (0, 0, 0, 2, 1, 2) 0.333333 0.333333 0.333333;
   (1, 0, 0, 2, 1, 2) 0.333333 0.333333 0.333333;
   (2, 0, 0, 2, 1, 2) 0.333333 0.333333 0.333333;
   (0, 1, 0, 2, 1, 2) 0.333333 0.333333 0.333333;
   (1, 1, 0, 2, 1, 2) 0.333333 0.333333 0.333333;
   (2, 1, 0, 2, 1, 2) 0.333333 0.333333 0.333333;
   (0, 2, 0, 2, 1, 2) 0.333333 0.333333 0.333333;
   (1, 2, 0, 2, 1, 2) 0.333333 0.333333 0.333333;
   (2, 2, 0, 2, 1, 2) 0.333333 0.333333 0.333333;
   (0, 0, 1, 2, 1, 2) 0.333333 0.333333 0.333333;
   (1, 0, 1, 2, 1, 2) 0.333333 0.333333 0.333333;
   (2, 0, 1, 2, 1, 2) 0.333333 0.333333 0.333333;
   (0, 1, 1, 2, 1, 2) 0.499943 0.250029 0.250029;
   (1, 1, 1, 2, 1, 2) 0.0909393 0.727224 0.181837;
   (2, 1, 1, 2, 1, 2) 0.0909393 0.818121 0.0909393;
   (0, 2, 1, 2, 1, 2) 0.333333 0.333333 0.333333;
   (1, 2, 1, 2, 1, 2) 0.250029 0.499943 0.250029;
   (2, 2, 1, 2, 1, 2) 0.200037 0.599927 0.200037;
   (0, 0, 2, 2, 1, 2) 0.333333 0.333333 0.333333;
   (1, 0, 2, 2, 1, 2) 0.333333 0.333333 0.333333;
   (2, 0, 2, 2, 1, 2) 0.333333 0.333333 0.333333;
   (0, 1, 2, 2, 1, 2) 0.333333 0.333333 0.333333;
   (1, 1, 2, 2, 1, 2) 0.333333 0.333333 0.333333;
   (2, 1, 2, 2, 1, 2) 0.333333 0.333333 0.333333;
   (0, 2, 2, 2, 1, 2) 0.333333 0.333333 0.333333;
   (1, 2, 2, 2, 1, 2) 0.333333 0.333333 0.333333;
   (2, 2, 2, 2, 1, 2) 0.166705 0.166705 0.66659;
   (0, 0, 0, 0, 2, 2) 0.499943 0.250029 0.250029;
   (1, 0, 0, 0, 2, 2) 0.333333 0.333333 0.333333;
   (2, 0, 0, 0, 2, 2) 0.333333 0.333333 0.333333;
   (0, 1, 0, 0, 2, 2) 0.333333 0.333333 0.333333;
   (1, 1, 0, 0, 2, 2) 0.333333 0.333333 0.333333;
   (2, 1, 0, 0, 2, 2) 0.333333 0.333333 0.333333;
   (0, 2, 0, 0, 2, 2) 0.333333 0.333333 0.333333;
   (1, 2, 0, 0, 2, 2) 0.333333 0.333333 0.333333;
   (2, 2, 0, 0, 2, 2) 0.333333 0.333333 0.333333;
   (0, 0, 1, 0, 2, 2) 0.333333 0.333333 0.333333;
   (1, 0, 1, 0, 2, 2) 0.333333 0.333333 0.333333;
   (2, 0, 1, 0, 2, 2) 0.333333 0.333333 0.333333;
   (0, 1, 1, 0, 2, 2) 0.333333 0.333333 0.333333;
   (1, 1, 1, 0, 2, 2) 0.333333 0.333333 0.333333;
   (2, 1, 1, 0, 2, 2) 0.333333 0.333333 0.333333;
   (0, 2, 1, 0, 2, 2) 0.333333 0.333333 0.333333;
   (1, 2, 1, 0, 2, 2) 0.333333 0.333333 0.333333;
   (2, 2, 1, 0, 2, 2) 0.333333 0.333333 0.333333;
   (0, 0, 2, 0, 2, 2) 0.333333 0.333333 0.333333;
   (1, 0, 2, 0, 2, 2) 0.333333 0.333333 0.333333;
   (2, 0, 2, 0, 2, 2) 0.333333 0.333333 0.333333;
   (0, 1, 2, 0, 2, 2) 0.333333 0.333333 0.333333;
   (1, 1, 2, 0, 2, 2) 0.333333 0.333333 0.333333;
   (2, 1, 2, 0, 2, 2) 0.333333 0.333333 0.333333;
   (0, 2, 2, 0, 2, 2) 0.333333 0.333333 0.333333;
   (1, 2, 2, 0, 2, 2) 0.333333 0.333333 0.333333;
   (2, 2, 2, 0, 2, 2) 0.333333 0.333333 0.333333;
   (0, 0, 0, 1, 2, 2) 0.333333 0.333333 0.333333;
   (1, 0, 0, 1, 2, 2) 0.333333 0.333333 0.333333;
   (2, 0, 0, 1, 2, 2) 0.333333 0.333333 0.333333;
   (0, 1, 0, 1, 2, 2) 0.333333 0.333333 0.333333;
   (1, 1, 0, 1, 2, 2) 0.333333 0.333333 0.333333;
   (2, 1, 0, 1, 2, 2) 0.333333 0.333333 0.333333;
   (0, 2, 0, 1, 2, 2) 0.333333 0.333333 0.333333;
   (1, 2, 0, 1, 2, 2) 0.333333 0.333333 0.333333;
   (2, 2, 0, 1, 2, 2) 0.333333 0.333333 0.333333;
   (0, 0, 1, 1, 2, 2) 0.333333 0.333333 0.333333;
   (1, 0, 1, 1, 2, 2) 0.333333 0.333333 0.333333;
   (2, 0, 1, 1, 2, 2) 0.333333 0.333333 0.333333;
   (0, 1, 1, 1, 2, 2) 0.333333 0.333333 0.333333;
   (1, 1, 1, 1, 2, 2) 0.125036 0.62495 0.250014;
   (2, 1, 1, 1, 2, 2) 0.100032 0.499977 0.399991;
   (0, 2, 1, 1, 2, 2) 0.333333 0.333333 0.333333;
   (1, 2, 1, 1, 2, 2) 0.333333 0.333333 0.333333;
   (2, 2, 1, 1, 2, 2) 0.333333 0.333333 0.333333;
   (0, 0, 2, 1, 2, 2) 0.333333 0.333333 0.333333;
   (1, 0, 2, 1, 2, 2) 0.333333 0.333333 0.333333;
   (2, 0, 2, 1, 2, 2) 0.333333 0.333333 0.333333;
   (0, 1, 2, 1, 2, 2) 0.333333 0.333333 0.333333;
   (1, 1, 2, 1, 2, 2) 0.333333 0.333333 0.333333;
   (2, 1, 2, 1, 2, 2) 0.200037 0.200037 0.599927;
   (0, 2, 2, 1, 2, 2) 0.333333 0.333333 0.333333;
   (1, 2, 2, 1, 2, 2) 0.333333 0.333333 0.333333;
   (2, 2, 2, 1, 2, 2) 0.333333 0.333333 0.333333;
   (0, 0, 0, 2, 2, 2) 0.333333 0.333333 0.333333;
   (1, 0, 0, 2, 2, 2) 0.333333 0.333333 0.333333;
   (2, 0, 0, 2, 2, 2) 0.333333 0.333333 0.333333;
   (0, 1, 0, 2, 2, 2) 0.333333 0.333333 0.333333;
   (1, 1, 0, 2, 2, 2) 0.333333 0.333333 0.333333;
   (2, 1, 0, 2, 2, 2) 0.333333 0.333333 0.333333;
   (0, 2, 0, 2, 2, 2) 0.333333 0.333333 0.333333;
   (1, 2, 0, 2, 2, 2) 0.333333 0.333333 0.333333;
   (2, 2, 0, 2, 2, 2) 0.333333 0.333333 0.333333;
   (0, 0, 1, 2, 2, 2) 0.333333 0.333333 0.333333;
   (1, 0, 1, 2, 2, 2) 0.333333 0.333333 0.333333;
   (2, 0, 1, 2, 2, 2) 0.333333 0.333333 0.333333;
   (0, 1, 1, 2, 2, 2) 0.333333 0.333333 0.333333;
   (1, 1, 1, 2, 2, 2) 0.333333 0.333333 0.333333;
   (2, 1, 1, 2, 2, 2) 0.142894 0.285724 0.571382;
   (0, 2, 1, 2, 2, 2) 0.250029 0.499943 0.250029;
   (1, 2, 1, 2, 2, 2) 0.333333 0.333333 0.333333;
   (2, 2, 1, 2, 2, 2) 0.333333 0.333333 0.333333;
   (0, 0, 2, 2, 2, 2) 0.333333 0.333333 0.333333;
   (1, 0, 2, 2, 2, 2) 0.333333 0.333333 0.333333;
   (2, 0, 2, 2, 2, 2) 0.333333 0.333333 0.333333;
   (0, 1, 2, 2, 2, 2) 0.333333 0.333333 0.333333;
   (1, 1, 2, 2, 2, 2) 0.333333 0.333333 0.333333;
   (2, 1, 2, 2, 2, 2) 0.250029 0.250029 0.499943;
   (0, 2, 2, 2, 2, 2) 0.333333 0.333333 0.333333;
   (1, 2, 2, 2, 2, 2) 0.333333 0.333333 0.333333;
   (2, 2, 2, 2, 2, 2) 0.0769501 0.0769501 0.8461;
}
probability (doenca_hepatica_pre | sindrome_de_down_pre, imunodepressao_pre) {
   (0, 0) 0.999512 4.35415e-05 0.000444943;
   (1, 0) 0.423292 0.560276 0.0164319;
   (2, 0) 0.953231 0.0233844 0.0233844;
   (0, 1) 0.251205 0.711433 0.0373623;
   (1, 1) 0.00312278 0.98318 0.0136973;
   (2, 1) 0.0197068 0.869743 0.11055;
   (0, 2) 0.989756 0.00186697 0.00837725;
   (1, 2) 0.0159664 0.926616 0.0574175;
   (2, 2) 0.0811209 0.320059 0.59882;
}
probability (doenca_neurologica_pre) {
   default 0.952793 0.0416627 0.00554436;
}
probability (doenca_renal_pre | diabetes_pre, asma_pre, imunodepressao_pre) {
   (0, 0, 0) 0.996707 1.70062e-05 0.00327649;
