network "unnamedBN" {
// written by aGrUM 0.22.2
}

variable asma_pre {
   type discrete[3] {0, 1, 2};
}

variable cardiopatia_pre {
   type discrete[3] {0, 1, 2};
}

variable diabetes_pre {
   type discrete[3] {0, 1, 2};
}

variable doenca_hematologica_pre {
   type discrete[3] {0, 1, 2};
}

variable doenca_hepatica_pre {
   type discrete[3] {0, 1, 2};
}

variable doenca_neurologica_pre {
   type discrete[3] {0, 1, 2};
}

variable doenca_renal_pre {
   type discrete[3] {0, 1, 2};
}

variable imunodepressao_pre {
   type discrete[3] {0, 1, 2};
}

variable obesidade_pre {
   type discrete[3] {0, 1, 2};
}

variable outros_fatores_de_risco_pre {
   type discrete[3] {0, 1, 2};
}

variable pneumopatia_pre {
   type discrete[3] {0, 1, 2};
}

variable puerpera_pre {
   type discrete[3] {0, 1, 2};
}

variable sindrome_de_down_pre {
   type discrete[3] {0, 1, 2};
}

variable idade_pre {
   type discrete[5] {0, 1, 2, 3, 4};
}

variable cs_sexo_pre {
   type discrete[2] {0, 1};
}

variable obito_pre {
   type discrete[2] {0, 1};
}

probability (asma_pre | pneumopatia_pre) {
   (0) 0.997795 0.000352722 0.00185213;
   (1) 0.00826402 0.946073 0.0456629;
   (2) 0.480434 0.449386 0.0701796;
}
probability (cardiopatia_pre | doenca_renal_pre, diabetes_pre, idade_pre, doenca_neurologica_pre, outros_fatores_de_risco_pre, obesidade_pre) {
   (0, 0, 0, 0, 0, 0) 0.994464 1.57711e-09 0.00553588;
   (1, 0, 0, 0, 0, 0) 0.333333 0.333333 0.333333;
   (2, 0, 0, 0, 0, 0) 0.908569 1.5677e-06 0.0914297;
   (0, 1, 0, 0, 0, 0) 0.333333 0.333333 0.333333;
   (1, 1, 0, 0, 0, 0) 0.000274123 0.999452 0.000274123;
   (2, 1, 0, 0, 0, 0) 0.333333 0.333333 0.333333;
   (0, 2, 0, 0, 0, 0) 0.864823 4.21426e-07 0.135177;
   (1, 2, 0, 0, 0, 0) 0.333333 0.333333 0.333333;
   (2, 2, 0, 0, 0, 0) 0.62497 3.429e-05 0.374996;
   (0, 0, 1, 0, 0, 0) 0.986229 1.68063e-09 0.0137711;
   (1, 0, 1, 0, 0, 0) 0.999452 0.000274123 0.000274123;
   (2, 0, 1, 0, 0, 0) 0.863246 1.17243e-06 0.136753;
   (0, 1, 1, 0, 0, 0) 0.333333 0.333333 0.333333;
   (1, 1, 1, 0, 0, 0) 0.333333 0.333333 0.333333;
   (2, 1, 1, 0, 0, 0) 0.333333 0.333333 0.333333;
   (0, 2, 1, 0, 0, 0) 0.835949 0.00157007 0.16248;
   (1, 2, 1, 0, 0, 0) 0.333333 0.333333 0.333333;
   (2, 2, 1, 0, 0, 0) 0.71874 8.57317e-06 0.281251;
   (0, 0, 2, 0, 0, 0) 0.965931 1.65107e-09 0.0340688;
   (1, 0, 2, 0, 0, 0) 0.999452 0.000274123 0.000274123;
   (2, 0, 2, 0, 0, 0) 0.835615 7.51638e-07 0.164384;
   (0, 1, 2, 0, 0, 0) 0.000137118 0.499931 0.499931;
   (1, 1, 2, 0, 0, 0) 0.333333 0.333333 0.333333;
   (2, 1, 2, 0, 0, 0) 0.333333 0.333333 0.333333;
   (0, 2, 2, 0, 0, 0) 0.736523 0.00030293 0.263174;
   (1, 2, 2, 0, 0, 0) 0.333333 0.333333 0.333333;
   (2, 2, 2, 0, 0, 0) 0.482141 0.0178618 0.499998;
   (0, 0, 3, 0, 0, 0) 0.926187 6.88354e-06 0.0738057;
   (1, 0, 3, 0, 0, 0) 0.000274123 0.000274123 0.999452;
   (2, 0, 3, 0, 0, 0) 0.768518 5.08052e-07 0.231482;
   (0, 1, 3, 0, 0, 0) 6.8573e-05 6.8573e-05 0.999863;
   (1, 1, 3, 0, 0, 0) 0.333333 0.333333 0.333333;
   (2, 1, 3, 0, 0, 0) 0.333333 0.333333 0.333333;
   (0, 2, 3, 0, 0, 0) 0.621988 0.000810968 0.377201;
   (1, 2, 3, 0, 0, 0) 0.250017 0.250017 0.499966;
   (2, 2, 3, 0, 0, 0) 0.450617 1.6935e-06 0.549382;
   (0, 0, 4, 0, 0, 0) 0.847319 4.77303e-05 0.152633;
   (1, 0, 4, 0, 0, 0) 0.000137118 0.499931 0.499931;
   (2, 0, 4, 0, 0, 0) 0.595163 0.00105181 0.403785;
   (0, 1, 4, 0, 0, 0) 0.0526437 1.44388e-05 0.947342;
   (1, 1, 4, 0, 0, 0) 6.8573e-05 6.8573e-05 0.999863;
   (2, 1, 4, 0, 0, 0) 6.8573e-05 6.8573e-05 0.999863;
   (0, 2, 4, 0, 0, 0) 0.464936 0.000462524 0.534601;
   (1, 2, 4, 0, 0, 0) 0.0769393 0.230776 0.692285;
   (2, 2, 4, 0, 0, 0) 0.279002 4.02861e-07 0.720998;
   (0, 0, 0, 1, 0, 0) 0.333333 0.333333 0.333333;
   (1, 0, 0, 1, 0, 0) 0.333333 0.333333 0.333333;
   (2, 0, 0, 1, 0, 0) 0.333333 0.333333 0.333333;
   (0, 1, 0, 1, 0, 0) 0.333333 0.333333 0.333333;
   (1, 1, 0, 1, 0, 0) 3.429e-05 0.62497 0.374996;
   (2, 1, 0, 1, 0, 0) 0.000274123 0.999452 0.000274123;
   (0, 2, 0, 1, 0, 0) 0.333333 0.333333 0.333333;
   (1, 2, 0, 1, 0, 0) 0.000274123 0.999452 0.000274123;
   (2, 2, 0, 1, 0, 0) 0.333333 0.333333 0.333333;
   (0, 0, 1, 1, 0, 0) 0.333333 0.333333 0.333333;
   (1, 0, 1, 1, 0, 0) 0.000274123 0.999452 0.000274123;
   (2, 0, 1, 1, 0, 0) 0.333333 0.333333 0.333333;
   (0, 1, 1, 1, 0, 0) 9.14244e-05 0.333333 0.666575;
   (1, 1, 1, 1, 0, 0) 9.14244e-05 0.333333 0.666575;
   (2, 1, 1, 1, 0, 0) 0.000137118 0.999726 0.000137118;
   (0, 2, 1, 1, 0, 0) 0.000137118 0.499931 0.499931;
   (1, 2, 1, 1, 0, 0) 0.000274123 0.000274123 0.999452;
   (2, 2, 1, 1, 0, 0) 0.333333 0.333333 0.333333;
   (0, 0, 2, 1, 0, 0) 0.333333 0.333333 0.333333;
   (1, 0, 2, 1, 0, 0) 0.333333 0.333333 0.333333;
   (2, 0, 2, 1, 0, 0) 0.333333 0.333333 0.333333;
   (0, 1, 2, 1, 0, 0) 9.14244e-05 0.333333 0.666575;
   (1, 1, 2, 1, 0, 0) 5.48607e-05 0.599956 0.399989;
   (2, 1, 2, 1, 0, 0) 0.000274123 0.999452 0.000274123;
   (0, 2, 2, 1, 0, 0) 0.000137118 0.499931 0.499931;
   (1, 2, 2, 1, 0, 0) 0.000137118 0.499931 0.499931;
   (2, 2, 2, 1, 0, 0) 0.333333 0.333333 0.333333;
   (0, 0, 3, 1, 0, 0) 0.000274123 0.000274123 0.999452;
   (1, 0, 3, 1, 0, 0) 0.333333 0.333333 0.333333;
   (2, 0, 3, 1, 0, 0) 0.333333 0.333333 0.333333;
   (0, 1, 3, 1, 0, 0) 3.9188e-05 0.28572 0.714241;
   (1, 1, 3, 1, 0, 0) 9.46002e-06 0.413791 0.5862;
   (2, 1, 3, 1, 0, 0) 5.48607e-05 0.599956 0.399989;
   (0, 2, 3, 1, 0, 0) 0.142868 0.285717 0.571415;
   (1, 2, 3, 1, 0, 0) 1.71459e-05 0.250004 0.749979;
   (2, 2, 3, 1, 0, 0) 0.000274123 0.000274123 0.999452;
   (0, 0, 4, 1, 0, 0) 0.333333 9.14244e-05 0.666575;
   (1, 0, 4, 1, 0, 0) 0.000274123 0.000274123 0.999452;
   (2, 0, 4, 1, 0, 0) 0.000274123 0.000274123 0.999452;
   (0, 1, 4, 1, 0, 0) 1.30637e-05 0.0952474 0.90474;
   (1, 1, 4, 1, 0, 0) 4.73008e-06 0.172416 0.827579;
   (2, 1, 4, 1, 0, 0) 3.9188e-05 0.28572 0.714241;
   (0, 2, 4, 1, 0, 0) 9.46002e-06 0.344827 0.655163;
   (1, 2, 4, 1, 0, 0) 0.0123489 0.25926 0.728391;
   (2, 2, 4, 1, 0, 0) 2.11024e-05 0.307694 0.692285;
   (0, 0, 0, 2, 0, 0) 0.968734 8.57317e-06 0.0312578;
   (1, 0, 0, 2, 0, 0) 0.333333 0.333333 0.333333;
   (2, 0, 0, 2, 0, 0) 0.333333 0.333333 0.333333;
   (0, 1, 0, 2, 0, 0) 0.333333 0.333333 0.333333;
   (1, 1, 0, 2, 0, 0) 0.333333 0.333333 0.333333;
   (2, 1, 0, 2, 0, 0) 0.333333 0.333333 0.333333;
   (0, 2, 0, 2, 0, 0) 0.999452 0.000274123 0.000274123;
   (1, 2, 0, 2, 0, 0) 0.333333 0.333333 0.333333;
   (2, 2, 0, 2, 0, 0) 0.333333 0.333333 0.333333;
   (0, 0, 1, 2, 0, 0) 0.931018 9.46002e-06 0.068973;
   (1, 0, 1, 2, 0, 0) 0.333333 0.333333 0.333333;
   (2, 0, 1, 2, 0, 0) 0.333333 0.333333 0.333333;
   (0, 1, 1, 2, 0, 0) 0.333333 0.333333 0.333333;
   (1, 1, 1, 2, 0, 0) 0.333333 0.333333 0.333333;
   (2, 1, 1, 2, 0, 0) 0.333333 0.333333 0.333333;
   (0, 2, 1, 2, 0, 0) 0.000137118 0.000137118 0.999726;
   (1, 2, 1, 2, 0, 0) 0.333333 0.333333 0.333333;
   (2, 2, 1, 2, 0, 0) 0.333333 0.333333 0.333333;
   (0, 0, 2, 2, 0, 0) 0.743581 7.03443e-06 0.256412;
   (1, 0, 2, 2, 0, 0) 0.333333 0.333333 0.333333;
   (2, 0, 2, 2, 0, 0) 0.999452 0.000274123 0.000274123;
   (0, 1, 2, 2, 0, 0) 0.333333 0.333333 0.333333;
   (1, 1, 2, 2, 0, 0) 0.333333 0.333333 0.333333;
   (2, 1, 2, 2, 0, 0) 0.333333 0.333333 0.333333;
   (0, 2, 2, 2, 0, 0) 0.499977 4.57185e-05 0.499977;
   (1, 2, 2, 2, 0, 0) 0.333333 0.333333 0.333333;
   (2, 2, 2, 2, 0, 0) 0.333333 0.333333 0.333333;
   (0, 0, 3, 2, 0, 0) 0.608105 3.70737e-06 0.391891;
   (1, 0, 3, 2, 0, 0) 0.333333 0.333333 0.333333;
   (2, 0, 3, 2, 0, 0) 0.000274123 0.000274123 0.999452;
   (0, 1, 3, 2, 0, 0) 0.000274123 0.000274123 0.999452;
   (1, 1, 3, 2, 0, 0) 0.000274123 0.999452 0.000274123;
   (2, 1, 3, 2, 0, 0) 0.333333 0.333333 0.333333;
   (0, 2, 3, 2, 0, 0) 0.357141 0.071444 0.571415;
   (1, 2, 3, 2, 0, 0) 0.000274123 0.000274123 0.999452;
   (2, 2, 3, 2, 0, 0) 0.333333 9.14244e-05 0.666575;
   (0, 0, 4, 2, 0, 0) 0.492274 0.00110405 0.506622;
   (1, 0, 4, 2, 0, 0) 0.333333 0.333333 0.333333;
   (2, 0, 4, 2, 0, 0) 0.297298 7.41466e-06 0.702694;
   (0, 1, 4, 2, 0, 0) 0.14288 0.14288 0.714241;
   (1, 1, 4, 2, 0, 0) 1.37169e-05 0.399997 0.599989;
   (2, 1, 4, 2, 0, 0) 0.000274123 0.000274123 0.999452;
   (0, 2, 4, 2, 0, 0) 0.212963 0.0123465 0.77469;
   (1, 2, 4, 2, 0, 0) 1.95952e-05 0.142868 0.857112;
   (2, 2, 4, 2, 0, 0) 0.103455 9.46002e-06 0.896536;
   (0, 0, 0, 0, 1, 0) 0.749914 6.8573e-05 0.250017;
   (1, 0, 0, 0, 1, 0) 0.333333 0.333333 0.333333;
   (2, 0, 0, 0, 1, 0) 0.333333 0.333333 0.333333;
   (0, 1, 0, 0, 1, 0) 0.333333 0.333333 0.333333;
   (1, 1, 0, 0, 1, 0) 0.333333 0.333333 0.333333;
   (2, 1, 0, 0, 1, 0) 0.333333 0.333333 0.333333;
   (0, 2, 0, 0, 1, 0) 0.333333 0.333333 0.333333;
   (1, 2, 0, 0, 1, 0) 0.333333 0.333333 0.333333;
   (2, 2, 0, 0, 1, 0) 0.333333 0.333333 0.333333;
   (0, 0, 1, 0, 1, 0) 0.499931 0.000137118 0.499931;
   (1, 0, 1, 0, 1, 0) 0.333333 0.333333 0.333333;
   (2, 0, 1, 0, 1, 0) 0.333333 0.333333 0.333333;
   (0, 1, 1, 0, 1, 0) 0.333333 0.333333 0.333333;
   (1, 1, 1, 0, 1, 0) 0.333333 0.333333 0.333333;
   (2, 1, 1, 0, 1, 0) 0.333333 0.333333 0.333333;
   (0, 2, 1, 0, 1, 0) 0.999726 0.000137118 0.000137118;
   (1, 2, 1, 0, 1, 0) 0.333333 0.333333 0.333333;
   (2, 2, 1, 0, 1, 0) 0.333333 0.333333 0.333333;
   (0, 0, 2, 0, 1, 0) 0.333333 4.57185e-05 0.666621;
   (1, 0, 2, 0, 1, 0) 0.333333 0.333333 0.333333;
   (2, 0, 2, 0, 1, 0) 0.333333 0.333333 0.333333;
   (0, 1, 2, 0, 1, 0) 0.333333 0.333333 0.333333;
   (1, 1, 2, 0, 1, 0) 0.333333 0.333333 0.333333;
   (2, 1, 2, 0, 1, 0) 0.333333 0.333333 0.333333;
   (0, 2, 2, 0, 1, 0) 0.999909 4.57185e-05 4.57185e-05;
   (1, 2, 2, 0, 1, 0) 0.000274123 0.999452 0.000274123;
   (2, 2, 2, 0, 1, 0) 0.333333 0.333333 0.333333;
   (0, 0, 3, 0, 1, 0) 0.142868 1.95952e-05 0.857112;
   (1, 0, 3, 0, 1, 0) 0.999452 0.000274123 0.000274123;
   (2, 0, 3, 0, 1, 0) 0.333333 0.333333 0.333333;
   (0, 1, 3, 0, 1, 0) 0.999452 0.000274123 0.000274123;
   (1, 1, 3, 0, 1, 0) 0.333333 0.333333 0.333333;
   (2, 1, 3, 0, 1, 0) 0.333333 0.333333 0.333333;
   (0, 2, 3, 0, 1, 0) 0.333333 0.0833505 0.583316;
   (1, 2, 3, 0, 1, 0) 0.333333 0.333333 0.333333;
   (2, 2, 3, 0, 1, 0) 0.999452 0.000274123 0.000274123;
   (0, 0, 4, 0, 1, 0) 0.177781 6.09652e-06 0.822213;
   (1, 0, 4, 0, 1, 0) 0.000274123 0.000274123 0.999452;
   (2, 0, 4, 0, 1, 0) 0.000274123 0.000274123 0.999452;
   (0, 1, 4, 0, 1, 0) 0.333333 0.333333 0.333333;
   (1, 1, 4, 0, 1, 0) 0.333333 0.333333 0.333333;
   (2, 1, 4, 0, 1, 0) 0.333333 0.333333 0.333333;
   (0, 2, 4, 0, 1, 0) 0.234044 0.0425583 0.723397;
   (1, 2, 4, 0, 1, 0) 9.14244e-05 0.333333 0.666575;
   (2, 2, 4, 0, 1, 0) 0.000137118 0.000137118 0.999726;
   (0, 0, 0, 1, 1, 0) 0.333333 0.333333 0.333333;
   (1, 0, 0, 1, 1, 0) 0.333333 0.333333 0.333333;
   (2, 0, 0, 1, 1, 0) 0.333333 0.333333 0.333333;
   (0, 1, 0, 1, 1, 0) 0.000137118 0.999726 0.000137118;
   (1, 1, 0, 1, 1, 0) 9.14244e-05 0.999817 9.14244e-05;
   (2, 1, 0, 1, 1, 0) 0.333333 0.333333 0.333333;
   (0, 2, 0, 1, 1, 0) 0.333333 0.333333 0.333333;
   (1, 2, 0, 1, 1, 0) 0.000274123 0.999452 0.000274123;
   (2, 2, 0, 1, 1, 0) 0.333333 0.333333 0.333333;
   (0, 0, 1, 1, 1, 0) 0.333333 0.333333 0.333333;
   (1, 0, 1, 1, 1, 0) 0.333333 0.333333 0.333333;
   (2, 0, 1, 1, 1, 0) 0.333333 0.333333 0.333333;
   (0, 1, 1, 1, 1, 0) 0.333333 0.333333 0.333333;
   (1, 1, 1, 1, 1, 0) 3.429e-05 0.874944 0.125021;
   (2, 1, 1, 1, 1, 0) 0.333333 0.333333 0.333333;
   (0, 2, 1, 1, 1, 0) 0.333333 0.333333 0.333333;
   (1, 2, 1, 1, 1, 0) 0.000274123 0.999452 0.000274123;
   (2, 2, 1, 1, 1, 0) 0.333333 0.333333 0.333333;
   (0, 0, 2, 1, 1, 0) 0.333333 0.333333 0.333333;
   (1, 0, 2, 1, 1, 0) 0.333333 0.333333 0.333333;
   (2, 0, 2, 1, 1, 0) 0.333333 0.333333 0.333333;
   (0, 1, 2, 1, 1, 0) 0.333333 0.333333 0.333333;
   (1, 1, 2, 1, 1, 0) 1.61374e-05 0.411761 0.588223;
   (2, 1, 2, 1, 1, 0) 0.333333 0.333333 0.333333;
   (0, 2, 2, 1, 1, 0) 0.999452 0.000274123 0.000274123;
   (1, 2, 2, 1, 1, 0) 3.04804e-05 0.777737 0.222232;
   (2, 2, 2, 1, 1, 0) 0.333333 0.333333 0.333333;
   (0, 0, 3, 1, 1, 0) 0.333333 0.333333 0.333333;
   (1, 0, 3, 1, 1, 0) 0.000274123 0.000274123 0.999452;
   (2, 0, 3, 1, 1, 0) 0.333333 0.333333 0.333333;
   (0, 1, 3, 1, 1, 0) 0.000274123 0.999452 0.000274123;
   (1, 1, 3, 1, 1, 0) 1.44388e-05 0.105273 0.894713;
   (2, 1, 3, 1, 1, 0) 0.333333 0.333333 0.333333;
   (0, 2, 3, 1, 1, 0) 5.48607e-05 0.599956 0.399989;
   (1, 2, 3, 1, 1, 0) 0.0384709 0.461534 0.499995;
   (2, 2, 3, 1, 1, 0) 6.8573e-05 0.499966 0.499966;
   (0, 0, 4, 1, 1, 0) 0.999452 0.000274123 0.000274123;
   (1, 0, 4, 1, 1, 0) 0.000137118 0.000137118 0.999726;
   (2, 0, 4, 1, 1, 0) 0.333333 0.333333 0.333333;
   (0, 1, 4, 1, 1, 0) 9.14244e-05 9.14244e-05 0.999817;
   (1, 1, 4, 1, 1, 0) 6.85857e-06 0.150004 0.849989;
   (2, 1, 4, 1, 1, 0) 5.48607e-05 0.200022 0.799923;
   (0, 2, 4, 1, 1, 0) 5.48607e-05 0.599956 0.399989;
   (1, 2, 4, 1, 1, 0) 0.0340937 0.227274 0.738633;
   (2, 2, 4, 1, 1, 0) 4.57185e-05 4.57185e-05 0.999909;
   (0, 0, 0, 2, 1, 0) 0.333333 0.333333 0.333333;
   (1, 0, 0, 2, 1, 0) 0.333333 0.333333 0.333333;
   (2, 0, 0, 2, 1, 0) 0.333333 0.333333 0.333333;
   (0, 1, 0, 2, 1, 0) 0.000274123 0.999452 0.000274123;
   (1, 1, 0, 2, 1, 0) 0.333333 0.333333 0.333333;
   (2, 1, 0, 2, 1, 0) 0.333333 0.333333 0.333333;
   (0, 2, 0, 2, 1, 0) 0.333333 0.333333 0.333333;
   (1, 2, 0, 2, 1, 0) 0.333333 0.333333 0.333333;
   (2, 2, 0, 2, 1, 0) 0.333333 0.333333 0.333333;
   (0, 0, 1, 2, 1, 0) 0.333333 0.333333 0.333333;
   (1, 0, 1, 2, 1, 0) 0.333333 0.333333 0.333333;
   (2, 0, 1, 2, 1, 0) 0.333333 0.333333 0.333333;
   (0, 1, 1, 2, 1, 0) 0.333333 0.333333 0.333333;
   (1, 1, 1, 2, 1, 0) 0.000274123 0.000274123 0.999452;
   (2, 1, 1, 2, 1, 0) 0.333333 0.333333 0.333333;
   (0, 2, 1, 2, 1, 0) 0.333333 0.333333 0.333333;
   (1, 2, 1, 2, 1, 0) 0.333333 0.333333 0.333333;
   (2, 2, 1, 2, 1, 0) 0.333333 0.333333 0.333333;
   (0, 0, 2, 2, 1, 0) 0.333333 0.333333 0.333333;
   (1, 0, 2, 2, 1, 0) 0.333333 0.333333 0.333333;
   (2, 0, 2, 2, 1, 0) 0.333333 0.333333 0.333333;
   (0, 1, 2, 2, 1, 0) 0.333333 0.333333 0.333333;
   (1, 1, 2, 2, 1, 0) 0.333333 0.333333 0.333333;
   (2, 1, 2, 2, 1, 0) 0.333333 0.333333 0.333333;
   (0, 2, 2, 2, 1, 0) 0.333333 0.333333 0.333333;
   (1, 2, 2, 2, 1, 0) 0.000274123 0.000274123 0.999452;
   (2, 2, 2, 2, 1, 0) 0.333333 0.333333 0.333333;
   (0, 0, 3, 2, 1, 0) 0.999452 0.000274123 0.000274123;
   (1, 0, 3, 2, 1, 0) 0.333333 0.333333 0.333333;
   (2, 0, 3, 2, 1, 0) 0.333333 0.333333 0.333333;
   (0, 1, 3, 2, 1, 0) 0.333333 0.333333 0.333333;
   (1, 1, 3, 2, 1, 0) 0.000274123 0.000274123 0.999452;
   (2, 1, 3, 2, 1, 0) 0.333333 0.333333 0.333333;
   (0, 2, 3, 2, 1, 0) 0.333333 0.333333 0.333333;
   (1, 2, 3, 2, 1, 0) 0.333333 0.333333 0.333333;
   (2, 2, 3, 2, 1, 0) 0.333333 0.333333 0.333333;
   (0, 0, 4, 2, 1, 0) 0.599978 2.74326e-05 0.399995;
   (1, 0, 4, 2, 1, 0) 0.000274123 0.000274123 0.999452;
   (2, 0, 4, 2, 1, 0) 0.333333 0.333333 0.333333;
   (0, 1, 4, 2, 1, 0) 0.000274123 0.000274123 0.999452;
   (1, 1, 4, 2, 1, 0) 0.125021 0.250009 0.62497;
   (2, 1, 4, 2, 1, 0) 0.333333 0.333333 0.333333;
   (0, 2, 4, 2, 1, 0) 0.000137118 0.000137118 0.999726;
   (1, 2, 4, 2, 1, 0) 3.9188e-05 0.14288 0.857081;
   (2, 2, 4, 2, 1, 0) 0.000274123 0.000274123 0.999452;
   (0, 0, 0, 0, 2, 0) 0.951999 7.31594e-07 0.0480006;
   (1, 0, 0, 0, 2, 0) 0.333333 0.333333 0.333333;
   (2, 0, 0, 0, 2, 0) 0.666636 3.04804e-05 0.333333;
   (0, 1, 0, 0, 2, 0) 0.333333 0.333333 0.333333;
   (1, 1, 0, 0, 2, 0) 0.000274123 0.999452 0.000274123;
   (2, 1, 0, 0, 2, 0) 0.333333 0.333333 0.333333;
   (0, 2, 0, 0, 2, 0) 0.782593 1.19278e-05 0.217395;
   (1, 2, 0, 0, 2, 0) 0.333333 0.333333 0.333333;
   (2, 2, 0, 0, 2, 0) 0.749914 6.8573e-05 0.250017;
   (0, 0, 1, 0, 2, 0) 0.918477 0.00181209 0.0797105;
   (1, 0, 1, 0, 2, 0) 0.333333 0.333333 0.333333;
   (2, 0, 1, 0, 2, 0) 0.882326 1.61374e-05 0.117658;
   (0, 1, 1, 0, 2, 0) 0.333333 0.333333 0.333333;
   (1, 1, 1, 0, 2, 0) 0.000274123 0.999452 0.000274123;
   (2, 1, 1, 0, 2, 0) 0.333333 0.333333 0.333333;
   (0, 2, 1, 0, 2, 0) 0.735843 0.0188728 0.245284;
   (1, 2, 1, 0, 2, 0) 0.333333 0.333333 0.333333;
   (2, 2, 1, 0, 2, 0) 0.999452 0.000274123 0.000274123;
   (0, 0, 2, 0, 2, 0) 0.871794 0.000986463 0.127219;
   (1, 0, 2, 0, 2, 0) 0.000274123 0.000274123 0.999452;
   (2, 0, 2, 0, 2, 0) 0.846121 2.11024e-05 0.153858;
   (0, 1, 2, 0, 2, 0) 0.999452 0.000274123 0.000274123;
   (1, 1, 2, 0, 2, 0) 0.333333 0.333333 0.333333;
   (2, 1, 2, 0, 2, 0) 0.333333 0.333333 0.333333;
   (0, 2, 2, 0, 2, 0) 0.69364 1.58582e-06 0.306359;
   (1, 2, 2, 0, 2, 0) 0.333333 0.333333 0.333333;
   (2, 2, 2, 0, 2, 0) 0.666575 9.14244e-05 0.333333;
   (0, 0, 3, 0, 2, 0) 0.786384 0.000493475 0.213123;
   (1, 0, 3, 0, 2, 0) 0.333333 0.333333 0.333333;
   (2, 0, 3, 0, 2, 0) 0.499997 5.08045e-06 0.499997;
   (0, 1, 3, 0, 2, 0) 0.749914 0.250017 6.8573e-05;
   (1, 1, 3, 0, 2, 0) 0.333333 0.666575 9.14244e-05;
   (2, 1, 3, 0, 2, 0) 0.000137118 0.000137118 0.999726;
   (0, 2, 3, 0, 2, 0) 0.628922 3.74281e-07 0.371078;
   (1, 2, 3, 0, 2, 0) 0.000274123 0.000274123 0.999452;
   (2, 2, 3, 0, 2, 0) 0.521736 5.96399e-06 0.478258;
   (0, 0, 4, 0, 2, 0) 0.669099 0.00178708 0.329114;
   (1, 0, 4, 0, 2, 0) 9.14244e-05 9.14244e-05 0.999817;
   (2, 0, 4, 0, 2, 0) 0.406374 0.00398514 0.589641;
   (0, 1, 4, 0, 2, 0) 0.599985 1.82889e-05 0.399996;
   (1, 1, 4, 0, 2, 0) 2.74326e-05 0.399995 0.599978;
   (2, 1, 4, 0, 2, 0) 0.333333 0.333333 0.333333;
   (0, 2, 4, 0, 2, 0) 0.536592 0.00297064 0.460437;
   (1, 2, 4, 0, 2, 0) 0.333333 0.111131 0.555535;
   (2, 2, 4, 0, 2, 0) 0.365517 9.46026e-07 0.634482;
   (0, 0, 0, 1, 2, 0) 0.999452 0.000274123 0.000274123;
   (1, 0, 0, 1, 2, 0) 0.333333 0.333333 0.333333;
   (2, 0, 0, 1, 2, 0) 0.333333 0.333333 0.333333;
   (0, 1, 0, 1, 2, 0) 0.333333 0.333333 0.333333;
   (1, 1, 0, 1, 2, 0) 3.429e-05 0.999931 3.429e-05;
   (2, 1, 0, 1, 2, 0) 0.333333 0.333333 0.333333;
   (0, 2, 0, 1, 2, 0) 0.333333 0.333333 0.333333;
   (1, 2, 0, 1, 2, 0) 0.333333 0.333333 0.333333;
   (2, 2, 0, 1, 2, 0) 0.333333 0.333333 0.333333;
   (0, 0, 1, 1, 2, 0) 0.999452 0.000274123 0.000274123;
   (1, 0, 1, 1, 2, 0) 0.333333 0.333333 0.333333;
   (2, 0, 1, 1, 2, 0) 0.333333 0.333333 0.333333;
   (0, 1, 1, 1, 2, 0) 9.14244e-05 0.999817 9.14244e-05;
   (1, 1, 1, 1, 2, 0) 2.49389e-05 0.909048 0.0909272;
   (2, 1, 1, 1, 2, 0) 0.000274123 0.000274123 0.999452;
   (0, 2, 1, 1, 2, 0) 0.000274123 0.000274123 0.999452;
   (1, 2, 1, 1, 2, 0) 0.333333 0.333333 0.333333;
   (2, 2, 1, 1, 2, 0) 0.333333 0.333333 0.333333;
   (0, 0, 2, 1, 2, 0) 0.000274123 0.999452 0.000274123;
   (1, 0, 2, 1, 2, 0) 0.000274123 0.999452 0.000274123;
   (2, 0, 2, 1, 2, 0) 0.000274123 0.999452 0.000274123;
   (0, 1, 2, 1, 2, 0) 0.000274123 0.999452 0.000274123;
   (1, 1, 2, 1, 2, 0) 0.0416767 0.874981 0.0833419;
   (2, 1, 2, 1, 2, 0) 9.14244e-05 0.666575 0.333333;
   (0, 2, 2, 1, 2, 0) 0.333333 0.333333 0.333333;
   (1, 2, 2, 1, 2, 0) 0.000274123 0.000274123 0.999452;
   (2, 2, 2, 1, 2, 0) 0.000274123 0.000274123 0.999452;
   (0, 0, 3, 1, 2, 0) 0.333333 0.333333 0.333333;
   (1, 0, 3, 1, 2, 0) 0.000274123 0.000274123 0.999452;
   (2, 0, 3, 1, 2, 0) 0.333333 0.333333 0.333333;
   (0, 1, 3, 1, 2, 0) 0.000137118 0.499931 0.499931;
   (1, 1, 3, 1, 2, 0) 0.10715 0.607135 0.285716;
   (2, 1, 3, 1, 2, 0) 5.48607e-05 0.799923 0.200022;
   (0, 2, 3, 1, 2, 0) 5.48607e-05 0.200022 0.799923;
   (1, 2, 3, 1, 2, 0) 1.44388e-05 0.578937 0.421049;
   (2, 2, 3, 1, 2, 0) 6.8573e-05 0.499966 0.499966;
   (0, 0, 4, 1, 2, 0) 0.250017 0.250017 0.499966;
   (1, 0, 4, 1, 2, 0) 0.000137118 0.499931 0.499931;
   (2, 0, 4, 1, 2, 0) 0.999452 0.000274123 0.000274123;
   (0, 1, 4, 1, 2, 0) 0.0434886 0.391302 0.565209;
   (1, 1, 4, 1, 2, 0) 0.0128239 0.576921 0.410256;
   (2, 1, 4, 1, 2, 0) 2.49389e-05 0.363634 0.636341;
   (0, 2, 4, 1, 2, 0) 2.74326e-05 0.399995 0.599978;
   (1, 2, 4, 1, 2, 0) 0.0270304 0.459458 0.513512;
   (2, 2, 4, 1, 2, 0) 1.95952e-05 0.214293 0.785688;
   (0, 0, 0, 2, 2, 0) 0.937469 1.71459e-05 0.0625139;
   (1, 0, 0, 2, 2, 0) 0.333333 0.333333 0.333333;
   (2, 0, 0, 2, 2, 0) 0.999452 0.000274123 0.000274123;
   (0, 1, 0, 2, 2, 0) 0.333333 0.333333 0.333333;
   (1, 1, 0, 2, 2, 0) 0.333333 0.333333 0.333333;
   (2, 1, 0, 2, 2, 0) 0.333333 0.333333 0.333333;
   (0, 2, 0, 2, 2, 0) 0.999452 0.000274123 0.000274123;
   (1, 2, 0, 2, 2, 0) 0.333333 0.333333 0.333333;
   (2, 2, 0, 2, 2, 0) 0.333333 0.333333 0.333333;
   (0, 0, 1, 2, 2, 0) 0.92304 2.11024e-05 0.0769393;
   (1, 0, 1, 2, 2, 0) 0.333333 0.333333 0.333333;
   (2, 0, 1, 2, 2, 0) 0.999452 0.000274123 0.000274123;
   (0, 1, 1, 2, 2, 0) 0.333333 0.333333 0.333333;
   (1, 1, 1, 2, 2, 0) 0.000274123 0.000274123 0.999452;
   (2, 1, 1, 2, 2, 0) 0.333333 0.333333 0.333333;
   (0, 2, 1, 2, 2, 0) 0.000274123 0.000274123 0.999452;
   (1, 2, 1, 2, 2, 0) 0.333333 0.333333 0.333333;
   (2, 2, 1, 2, 2, 0) 0.000274123 0.000274123 0.999452;
   (0, 0, 2, 2, 2, 0) 0.846121 2.11024e-05 0.153858;
   (1, 0, 2, 2, 2, 0) 0.333333 0.333333 0.333333;
   (2, 0, 2, 2, 2, 0) 0.333333 0.333333 0.333333;
   (0, 1, 2, 2, 2, 0) 0.333333 0.333333 0.333333;
   (1, 1, 2, 2, 2, 0) 0.333333 0.333333 0.333333;
   (2, 1, 2, 2, 2, 0) 0.333333 0.333333 0.333333;
   (0, 2, 2, 2, 2, 0) 9.14244e-05 9.14244e-05 0.999817;
   (1, 2, 2, 2, 2, 0) 0.333333 0.333333 0.333333;
   (2, 2, 2, 2, 2, 0) 0.333333 0.333333 0.333333;
   (0, 0, 3, 2, 2, 0) 0.744178 6.38007e-06 0.255815;
   (1, 0, 3, 2, 2, 0) 0.333333 0.333333 0.333333;
   (2, 0, 3, 2, 2, 0) 0.999452 0.000274123 0.000274123;
   (0, 1, 3, 2, 2, 0) 0.333333 0.333333 0.333333;
   (1, 1, 3, 2, 2, 0) 0.000137118 0.499931 0.499931;
   (2, 1, 3, 2, 2, 0) 0.333333 0.333333 0.333333;
   (0, 2, 3, 2, 2, 0) 0.42856 3.9188e-05 0.571401;
   (1, 2, 3, 2, 2, 0) 0.333333 0.333333 0.333333;
   (2, 2, 3, 2, 2, 0) 0.000274123 0.000274123 0.999452;
   (0, 0, 4, 2, 2, 0) 0.584382 0.00251958 0.413098;
   (1, 0, 4, 2, 2, 0) 9.14244e-05 9.14244e-05 0.999817;
   (2, 0, 4, 2, 2, 0) 0.35294 1.61374e-05 0.647044;
   (0, 1, 4, 2, 2, 0) 2.74326e-05 0.200011 0.799962;
   (1, 1, 4, 2, 2, 0) 2.74326e-05 0.399995 0.599978;
   (2, 1, 4, 2, 2, 0) 0.000137118 0.000137118 0.999726;
   (0, 2, 4, 2, 2, 0) 0.289773 1.55879e-06 0.710226;
   (1, 2, 4, 2, 2, 0) 3.429e-05 0.250009 0.749957;
   (2, 2, 4, 2, 2, 0) 0.0909272 2.49389e-05 0.909048;
   (0, 0, 0, 0, 0, 1) 0.999452 0.000274123 0.000274123;
   (1, 0, 0, 0, 0, 1) 0.333333 0.333333 0.333333;
   (2, 0, 0, 0, 0, 1) 0.333333 0.333333 0.333333;
   (0, 1, 0, 0, 0, 1) 0.333333 0.333333 0.333333;
   (1, 1, 0, 0, 0, 1) 0.333333 0.333333 0.333333;
   (2, 1, 0, 0, 0, 1) 0.333333 0.333333 0.333333;
   (0, 2, 0, 0, 0, 1) 0.333333 0.333333 0.333333;
   (1, 2, 0, 0, 0, 1) 0.333333 0.333333 0.333333;
   (2, 2, 0, 0, 0, 1) 0.333333 0.333333 0.333333;
   (0, 0, 1, 0, 0, 1) 0.333333 0.333333 0.333333;
   (1, 0, 1, 0, 0, 1) 0.000274123 0.000274123 0.999452;
   (2, 0, 1, 0, 0, 1) 0.333333 0.333333 0.333333;
   (0, 1, 1, 0, 0, 1) 0.333333 0.333333 0.333333;
   (1, 1, 1, 0, 0, 1) 0.000274123 0.999452 0.000274123;
   (2, 1, 1, 0, 0, 1) 0.333333 0.333333 0.333333;
   (0, 2, 1, 0, 0, 1) 0.999452 0.000274123 0.000274123;
   (1, 2, 1, 0, 0, 1) 0.000274123 0.000274123 0.999452;
   (2, 2, 1, 0, 0, 1) 0.333333 0.333333 0.333333;
   (0, 0, 2, 0, 0, 1) 0.499931 0.000137118 0.499931;
   (1, 0, 2, 0, 0, 1) 0.333333 0.333333 0.333333;
   (2, 0, 2, 0, 0, 1) 0.333333 0.333333 0.333333;
   (0, 1, 2, 0, 0, 1) 0.333333 0.333333 0.333333;
   (1, 1, 2, 0, 0, 1) 0.000274123 0.000274123 0.999452;
   (2, 1, 2, 0, 0, 1) 0.333333 0.333333 0.333333;
   (0, 2, 2, 0, 0, 1) 0.000274123 0.000274123 0.999452;
   (1, 2, 2, 0, 0, 1) 0.000274123 0.999452 0.000274123;
   (2, 2, 2, 0, 0, 1) 0.333333 0.333333 0.333333;
   (0, 0, 3, 0, 0, 1) 0.499931 0.000137118 0.499931;
   (1, 0, 3, 0, 0, 1) 0.000274123 0.000274123 0.999452;
   (2, 0, 3, 0, 0, 1) 0.333333 0.333333 0.333333;
   (0, 1, 3, 0, 0, 1) 0.000137118 0.000137118 0.999726;
   (1, 1, 3, 0, 0, 1) 5.48607e-05 0.200022 0.799923;
   (2, 1, 3, 0, 0, 1) 0.000274123 0.999452 0.000274123;
   (0, 2, 3, 0, 0, 1) 0.499977 0.16669 0.333333;
   (1, 2, 3, 0, 0, 1) 0.333333 0.333333 0.333333;
   (2, 2, 3, 0, 0, 1) 0.333333 0.333333 0.333333;
   (0, 0, 4, 0, 0, 1) 0.250004 1.71459e-05 0.749979;
   (1, 0, 4, 0, 0, 1) 0.000274123 0.999452 0.000274123;
   (2, 0, 4, 0, 0, 1) 0.749914 0.250017 6.8573e-05;
   (0, 1, 4, 0, 0, 1) 3.04804e-05 3.04804e-05 0.999939;
   (1, 1, 4, 0, 0, 1) 3.04804e-05 0.111131 0.888838;
   (2, 1, 4, 0, 0, 1) 0.000137118 0.499931 0.499931;
   (0, 2, 4, 0, 0, 1) 0.125007 0.208338 0.666655;
   (1, 2, 4, 0, 0, 1) 0.153858 0.153858 0.692285;
   (2, 2, 4, 0, 0, 1) 1.82889e-05 0.0666813 0.9333;
   (0, 0, 0, 1, 0, 1) 0.333333 0.333333 0.333333;
   (1, 0, 0, 1, 0, 1) 0.333333 0.333333 0.333333;
   (2, 0, 0, 1, 0, 1) 0.333333 0.333333 0.333333;
   (0, 1, 0, 1, 0, 1) 0.000274123 0.000274123 0.999452;
   (1, 1, 0, 1, 0, 1) 8.84971e-06 0.870953 0.129038;
   (2, 1, 0, 1, 0, 1) 4.57185e-05 0.833265 0.16669;
   (0, 2, 0, 1, 0, 1) 0.333333 0.333333 0.333333;
   (1, 2, 0, 1, 0, 1) 9.14244e-05 0.666575 0.333333;
   (2, 2, 0, 1, 0, 1) 0.000137118 0.499931 0.499931;
   (0, 0, 1, 1, 0, 1) 0.333333 0.333333 0.333333;
   (1, 0, 1, 1, 0, 1) 0.000274123 0.999452 0.000274123;
   (2, 0, 1, 1, 0, 1) 0.333333 0.333333 0.333333;
   (0, 1, 1, 1, 0, 1) 0.000274123 0.999452 0.000274123;
   (1, 1, 1, 1, 0, 1) 8.31338e-06 0.606054 0.393938;
   (2, 1, 1, 1, 0, 1) 0.000274123 0.999452 0.000274123;
   (0, 2, 1, 1, 0, 1) 0.333333 0.333333 0.333333;
   (1, 2, 1, 1, 0, 1) 2.11024e-05 0.692285 0.307694;
   (2, 2, 1, 1, 0, 1) 0.000137118 0.000137118 0.999726;
   (0, 0, 2, 1, 0, 1) 0.333333 0.333333 0.333333;
   (1, 0, 2, 1, 0, 1) 0.000137118 0.499931 0.499931;
   (2, 0, 2, 1, 0, 1) 0.333333 0.333333 0.333333;
   (0, 1, 2, 1, 0, 1) 0.000137118 0.499931 0.499931;
   (1, 1, 2, 1, 0, 1) 0.0138925 0.430554 0.555553;
   (2, 1, 2, 1, 0, 1) 2.49389e-05 0.636341 0.363634;
   (0, 2, 2, 1, 0, 1) 0.000137118 0.499931 0.499931;
   (1, 2, 2, 1, 0, 1) 6.09652e-06 0.577773 0.422221;
   (2, 2, 2, 1, 0, 1) 6.8573e-05 0.749914 0.250017;
   (0, 0, 3, 1, 0, 1) 0.333333 0.333333 0.333333;
   (1, 0, 3, 1, 0, 1) 0.333333 0.333333 0.333333;
   (2, 0, 3, 1, 0, 1) 0.000274123 0.999452 0.000274123;
   (0, 1, 3, 1, 0, 1) 0.333333 0.333333 0.333333;
   (1, 1, 3, 1, 0, 1) 1.61381e-06 0.258824 0.741174;
   (2, 1, 3, 1, 0, 1) 1.52409e-05 0.611098 0.388886;
   (0, 2, 3, 1, 0, 1) 9.14244e-05 0.666575 0.333333;
   (1, 2, 3, 1, 0, 1) 1.54128e-06 0.393258 0.60674;
   (2, 2, 3, 1, 0, 1) 1.95952e-05 0.285717 0.714263;
   (0, 0, 4, 1, 0, 1) 0.333333 0.333333 0.333333;
   (1, 0, 4, 1, 0, 1) 0.125021 0.250009 0.62497;
   (2, 0, 4, 1, 0, 1) 0.000137118 0.000137118 0.999726;
   (0, 1, 4, 1, 0, 1) 2.28608e-05 0.0833505 0.916627;
   (1, 1, 4, 1, 0, 1) 0.00183536 0.144954 0.85321;
   (2, 1, 4, 1, 0, 1) 6.38007e-06 0.395348 0.604646;
   (0, 2, 4, 1, 0, 1) 1.30637e-05 0.238099 0.761888;
   (1, 2, 4, 1, 0, 1) 0.00471741 0.292453 0.70283;
   (2, 2, 4, 1, 0, 1) 3.70737e-06 0.175677 0.824319;
   (0, 0, 0, 2, 0, 1) 0.333333 0.333333 0.333333;
   (1, 0, 0, 2, 0, 1) 0.333333 0.333333 0.333333;
   (2, 0, 0, 2, 0, 1) 0.333333 0.333333 0.333333;
   (0, 1, 0, 2, 0, 1) 0.333333 0.333333 0.333333;
   (1, 1, 0, 2, 0, 1) 6.8573e-05 0.749914 0.250017;
   (2, 1, 0, 2, 0, 1) 0.333333 0.333333 0.333333;
   (0, 2, 0, 2, 0, 1) 0.333333 0.333333 0.333333;
   (1, 2, 0, 2, 0, 1) 0.333333 0.333333 0.333333;
   (2, 2, 0, 2, 0, 1) 0.333333 0.333333 0.333333;
   (0, 0, 1, 2, 0, 1) 0.333333 0.333333 0.333333;
   (1, 0, 1, 2, 0, 1) 0.333333 0.333333 0.333333;
   (2, 0, 1, 2, 0, 1) 0.333333 0.333333 0.333333;
   (0, 1, 1, 2, 0, 1) 0.333333 0.333333 0.333333;
   (1, 1, 1, 2, 0, 1) 0.333333 0.333333 0.333333;
   (2, 1, 1, 2, 0, 1) 0.333333 0.333333 0.333333;
   (0, 2, 1, 2, 0, 1) 0.333333 0.333333 0.333333;
   (1, 2, 1, 2, 0, 1) 0.333333 0.333333 0.333333;
   (2, 2, 1, 2, 0, 1) 0.333333 0.333333 0.333333;
   (0, 0, 2, 2, 0, 1) 0.333333 0.333333 0.333333;
   (1, 0, 2, 2, 0, 1) 0.333333 0.333333 0.333333;
   (2, 0, 2, 2, 0, 1) 0.333333 0.333333 0.333333;
   (0, 1, 2, 2, 0, 1) 0.333333 0.333333 0.333333;
   (1, 1, 2, 2, 0, 1) 0.000274123 0.999452 0.000274123;
   (2, 1, 2, 2, 0, 1) 0.333333 0.333333 0.333333;
   (0, 2, 2, 2, 0, 1) 0.333333 0.333333 0.333333;
   (1, 2, 2, 2, 0, 1) 0.000274123 0.000274123 0.999452;
   (2, 2, 2, 2, 0, 1) 0.000274123 0.000274123 0.999452;
   (0, 0, 3, 2, 0, 1) 0.333333 0.333333 0.333333;
   (1, 0, 3, 2, 0, 1) 0.999452 0.000274123 0.000274123;
   (2, 0, 3, 2, 0, 1) 0.333333 0.333333 0.333333;
   (0, 1, 3, 2, 0, 1) 0.333333 0.333333 0.333333;
   (1, 1, 3, 2, 0, 1) 2.74326e-05 0.599978 0.399995;
   (2, 1, 3, 2, 0, 1) 9.14244e-05 0.666575 0.333333;
   (0, 2, 3, 2, 0, 1) 0.333333 0.333333 0.333333;
   (1, 2, 3, 2, 0, 1) 3.9188e-05 0.28572 0.714241;
   (2, 2, 3, 2, 0, 1) 0.000274123 0.000274123 0.999452;
   (0, 0, 4, 2, 0, 1) 0.499931 0.000137118 0.499931;
   (1, 0, 4, 2, 0, 1) 0.000274123 0.000274123 0.999452;
   (2, 0, 4, 2, 0, 1) 0.333333 0.333333 0.333333;
   (0, 1, 4, 2, 0, 1) 6.8573e-05 0.250017 0.749914;
   (1, 1, 4, 2, 0, 1) 0.0215081 0.419354 0.559138;
   (2, 1, 4, 2, 0, 1) 3.04804e-05 0.444434 0.555535;
   (0, 2, 4, 2, 0, 1) 6.8573e-05 0.250017 0.749914;
   (1, 2, 4, 2, 0, 1) 5.27585e-06 0.250001 0.749993;
   (2, 2, 4, 2, 0, 1) 2.74326e-05 0.200011 0.799962;
   (0, 0, 0, 0, 1, 1) 0.333333 0.333333 0.333333;
   (1, 0, 0, 0, 1, 1) 0.333333 0.333333 0.333333;
   (2, 0, 0, 0, 1, 1) 0.333333 0.333333 0.333333;
   (0, 1, 0, 0, 1, 1) 0.333333 0.333333 0.333333;
   (1, 1, 0, 0, 1, 1) 0.333333 0.333333 0.333333;
   (2, 1, 0, 0, 1, 1) 0.333333 0.333333 0.333333;
   (0, 2, 0, 0, 1, 1) 0.333333 0.333333 0.333333;
   (1, 2, 0, 0, 1, 1) 0.000274123 0.999452 0.000274123;
   (2, 2, 0, 0, 1, 1) 0.333333 0.333333 0.333333;
   (0, 0, 1, 0, 1, 1) 0.333333 0.333333 0.333333;
   (1, 0, 1, 0, 1, 1) 0.333333 0.333333 0.333333;
   (2, 0, 1, 0, 1, 1) 0.333333 0.333333 0.333333;
   (0, 1, 1, 0, 1, 1) 0.999452 0.000274123 0.000274123;
   (1, 1, 1, 0, 1, 1) 0.333333 0.333333 0.333333;
   (2, 1, 1, 0, 1, 1) 0.333333 0.333333 0.333333;
   (0, 2, 1, 0, 1, 1) 0.333333 0.333333 0.333333;
   (1, 2, 1, 0, 1, 1) 0.000274123 0.999452 0.000274123;
   (2, 2, 1, 0, 1, 1) 0.333333 0.333333 0.333333;
   (0, 0, 2, 0, 1, 1) 0.333333 0.333333 0.333333;
   (1, 0, 2, 0, 1, 1) 0.333333 0.333333 0.333333;
   (2, 0, 2, 0, 1, 1) 0.333333 0.333333 0.333333;
   (0, 1, 2, 0, 1, 1) 0.333333 0.333333 0.333333;
   (1, 1, 2, 0, 1, 1) 0.000137118 0.000137118 0.999726;
   (2, 1, 2, 0, 1, 1) 0.333333 0.333333 0.333333;
   (0, 2, 2, 0, 1, 1) 0.333333 0.333333 0.333333;
   (1, 2, 2, 0, 1, 1) 9.14244e-05 0.999817 9.14244e-05;
   (2, 2, 2, 0, 1, 1) 0.333333 0.333333 0.333333;
   (0, 0, 3, 0, 1, 1) 0.333333 0.333333 0.333333;
   (1, 0, 3, 0, 1, 1) 0.000274123 0.000274123 0.999452;
   (2, 0, 3, 0, 1, 1) 0.333333 0.333333 0.333333;
   (0, 1, 3, 0, 1, 1) 0.000274123 0.000274123 0.999452;
   (1, 1, 3, 0, 1, 1) 9.14244e-05 0.333333 0.666575;
   (2, 1, 3, 0, 1, 1) 0.333333 0.333333 0.333333;
   (0, 2, 3, 0, 1, 1) 0.000274123 0.000274123 0.999452;
   (1, 2, 3, 0, 1, 1) 6.8573e-05 0.499966 0.499966;
   (2, 2, 3, 0, 1, 1) 0.000137118 0.000137118 0.999726;
   (0, 0, 4, 0, 1, 1) 0.999452 0.000274123 0.000274123;
   (1, 0, 4, 0, 1, 1) 0.333333 0.333333 0.333333;
   (2, 0, 4, 0, 1, 1) 0.333333 0.333333 0.333333;
   (0, 1, 4, 0, 1, 1) 0.333333 0.333333 0.333333;
   (1, 1, 4, 0, 1, 1) 1.71459e-05 1.71459e-05 0.999966;
   (2, 1, 4, 0, 1, 1) 9.14244e-05 0.333333 0.666575;
   (0, 2, 4, 0, 1, 1) 0.000274123 0.999452 0.000274123;
   (1, 2, 4, 0, 1, 1) 2.28608e-05 0.416661 0.583316;
   (2, 2, 4, 0, 1, 1) 5.48607e-05 5.48607e-05 0.99989;
   (0, 0, 0, 1, 1, 1) 0.333333 0.333333 0.333333;
   (1, 0, 0, 1, 1, 1) 0.000137118 0.999726 0.000137118;
   (2, 0, 0, 1, 1, 1) 0.333333 0.333333 0.333333;
   (0, 1, 0, 1, 1, 1) 0.333333 0.333333 0.333333;
   (1, 1, 0, 1, 1, 1) 1.20328e-06 0.842103 0.157895;
   (2, 1, 0, 1, 1, 1) 1.82889e-05 0.599985 0.399996;
   (0, 2, 0, 1, 1, 1) 0.000274123 0.000274123 0.999452;
   (1, 2, 0, 1, 1, 1) 7.21954e-06 0.842094 0.157899;
   (2, 2, 0, 1, 1, 1) 9.14244e-05 9.14244e-05 0.999817;
   (0, 0, 1, 1, 1, 1) 0.333333 0.333333 0.333333;
   (1, 0, 1, 1, 1, 1) 0.000137118 0.000137118 0.999726;
   (2, 0, 1, 1, 1, 1) 0.333333 0.333333 0.333333;
   (0, 1, 1, 1, 1, 1) 3.9188e-05 0.571401 0.42856;
   (1, 1, 1, 1, 1, 1) 0.00331216 0.566225 0.430463;
   (2, 1, 1, 1, 1, 1) 1.01607e-05 0.703692 0.296297;
   (0, 2, 1, 1, 1, 1) 0.000274123 0.999452 0.000274123;
   (1, 2, 1, 1, 1, 1) 2.16021e-06 0.732281 0.267717;
   (2, 2, 1, 1, 1, 1) 3.9188e-05 0.42856 0.571401;
   (0, 0, 2, 1, 1, 1) 0.333333 0.333333 0.333333;
   (1, 0, 2, 1, 1, 1) 9.14244e-05 0.333333 0.666575;
   (2, 0, 2, 1, 1, 1) 0.000274123 0.999452 0.000274123;
   (0, 1, 2, 1, 1, 1) 9.14244e-05 0.999817 9.14244e-05;
   (1, 1, 2, 1, 1, 1) 3.55373e-07 0.3057 0.6943;
   (2, 1, 2, 1, 1, 1) 5.37929e-06 0.588231 0.411763;
   (0, 2, 2, 1, 1, 1) 0.333333 0.333333 0.333333;
   (1, 2, 2, 1, 1, 1) 6.50113e-07 0.599526 0.400474;
   (2, 2, 2, 1, 1, 1) 1.24699e-05 0.318182 0.681805;
   (0, 0, 3, 1, 1, 1) 0.333333 0.333333 0.333333;
   (1, 0, 3, 1, 1, 1) 5.48607e-05 5.48607e-05 0.99989;
   (2, 0, 3, 1, 1, 1) 0.333333 0.333333 0.333333;
   (0, 1, 3, 1, 1, 1) 3.04804e-05 3.04804e-05 0.999939;
   (1, 1, 3, 1, 1, 1) 0.000570607 0.147176 0.852253;
   (2, 1, 3, 1, 1, 1) 2.19477e-06 0.511999 0.487999;
   (0, 2, 3, 1, 1, 1) 0.0833505 0.250006 0.666644;
   (1, 2, 3, 1, 1, 1) 0.000675861 0.460135 0.539189;
   (2, 2, 3, 1, 1, 1) 4.49745e-06 0.295082 0.704913;
   (0, 0, 4, 1, 1, 1) 0.000137118 0.000137118 0.999726;
   (1, 0, 4, 1, 1, 1) 1.61374e-05 0.0588368 0.941147;
   (2, 0, 4, 1, 1, 1) 0.000137118 0.499931 0.499931;
   (0, 1, 4, 1, 1, 1) 9.79787e-06 0.178576 0.821414;
   (1, 1, 4, 1, 1, 1) 0.000394843 0.111923 0.887682;
   (2, 1, 4, 1, 1, 1) 7.21968e-07 0.378947 0.621052;
   (0, 2, 4, 1, 1, 1) 0.0212821 0.340425 0.638293;
   (1, 2, 4, 1, 1, 1) 0.00142688 0.305544 0.693029;
   (2, 2, 4, 1, 1, 1) 8.36426e-07 0.20122 0.798779;
   (0, 0, 0, 2, 1, 1) 0.333333 0.333333 0.333333;
   (1, 0, 0, 2, 1, 1) 0.000137118 0.999726 0.000137118;
   (2, 0, 0, 2, 1, 1) 0.333333 0.333333 0.333333;
   (0, 1, 0, 2, 1, 1) 0.333333 0.333333 0.333333;
   (1, 1, 0, 2, 1, 1) 7.21954e-06 0.947355 0.0526377;
   (2, 1, 0, 2, 1, 1) 0.000274123 0.999452 0.000274123;
   (0, 2, 0, 2, 1, 1) 0.333333 0.333333 0.333333;
   (1, 2, 0, 2, 1, 1) 0.000274123 0.000274123 0.999452;
   (2, 2, 0, 2, 1, 1) 0.333333 0.333333 0.333333;
   (0, 0, 1, 2, 1, 1) 0.333333 0.333333 0.333333;
   (1, 0, 1, 2, 1, 1) 0.333333 0.333333 0.333333;
   (2, 0, 1, 2, 1, 1) 0.333333 0.333333 0.333333;
   (0, 1, 1, 2, 1, 1) 0.333333 0.333333 0.333333;
   (1, 1, 1, 2, 1, 1) 1.44388e-05 0.789454 0.210532;
   (2, 1, 1, 2, 1, 1) 0.000274123 0.999452 0.000274123;
   (0, 2, 1, 2, 1, 1) 0.333333 0.333333 0.333333;
   (1, 2, 1, 2, 1, 1) 9.14244e-05 0.999817 9.14244e-05;
   (2, 2, 1, 2, 1, 1) 0.333333 0.333333 0.333333;
   (0, 0, 2, 2, 1, 1) 0.333333 0.333333 0.333333;
   (1, 0, 2, 2, 1, 1) 0.333333 0.333333 0.333333;
   (2, 0, 2, 2, 1, 1) 0.333333 0.333333 0.333333;
   (0, 1, 2, 2, 1, 1) 0.333333 0.333333 0.333333;
   (1, 1, 2, 2, 1, 1) 7.41466e-06 0.702694 0.297298;
   (2, 1, 2, 2, 1, 1) 0.000137118 0.499931 0.499931;
   (0, 2, 2, 2, 1, 1) 0.333333 0.333333 0.333333;
   (1, 2, 2, 2, 1, 1) 3.429e-05 0.250009 0.749957;
   (2, 2, 2, 2, 1, 1) 0.333333 0.333333 0.333333;
   (0, 0, 3, 2, 1, 1) 0.333333 0.333333 0.333333;
   (1, 0, 3, 2, 1, 1) 0.333333 0.333333 0.333333;
   (2, 0, 3, 2, 1, 1) 0.333333 0.333333 0.333333;
   (0, 1, 3, 2, 1, 1) 0.333333 0.333333 0.333333;
   (1, 1, 3, 2, 1, 1) 3.56293e-06 0.662334 0.337662;
   (2, 1, 3, 2, 1, 1) 9.14244e-05 0.333333 0.666575;
   (0, 2, 3, 2, 1, 1) 0.333333 0.333333 0.333333;
   (1, 2, 3, 2, 1, 1) 1.01607e-05 0.481477 0.518513;
   (2, 2, 3, 2, 1, 1) 0.333333 0.333333 0.333333;
   (0, 0, 4, 2, 1, 1) 0.333333 0.333333 0.333333;
   (1, 0, 4, 2, 1, 1) 9.14244e-05 0.333333 0.666575;
   (2, 0, 4, 2, 1, 1) 0.333333 0.333333 0.333333;
   (0, 1, 4, 2, 1, 1) 6.8573e-05 0.499966 0.499966;
   (1, 1, 4, 2, 1, 1) 0.00311084 0.475894 0.520995;
   (2, 1, 4, 2, 1, 1) 7.83834e-06 0.342857 0.657135;
   (0, 2, 4, 2, 1, 1) 0.000137118 0.000137118 0.999726;
   (1, 2, 4, 2, 1, 1) 1.15758e-06 0.236287 0.763712;
   (2, 2, 4, 2, 1, 1) 8.31338e-06 0.303031 0.696961;
   (0, 0, 0, 0, 2, 1) 0.749914 6.8573e-05 0.250017;
   (1, 0, 0, 0, 2, 1) 0.333333 0.333333 0.333333;
   (2, 0, 0, 0, 2, 1) 0.333333 0.333333 0.333333;
   (0, 1, 0, 0, 2, 1) 0.333333 0.333333 0.333333;
   (1, 1, 0, 0, 2, 1) 9.14244e-05 0.666575 0.333333;
   (2, 1, 0, 0, 2, 1) 0.333333 0.333333 0.333333;
   (0, 2, 0, 0, 2, 1) 0.333333 0.333333 0.333333;
   (1, 2, 0, 0, 2, 1) 0.333333 0.333333 0.333333;
   (2, 2, 0, 0, 2, 1) 0.333333 0.333333 0.333333;
   (0, 0, 1, 0, 2, 1) 0.499931 0.000137118 0.499931;
   (1, 0, 1, 0, 2, 1) 0.333333 0.333333 0.333333;
   (2, 0, 1, 0, 2, 1) 0.333333 0.333333 0.333333;
   (0, 1, 1, 0, 2, 1) 0.333333 0.333333 0.333333;
   (1, 1, 1, 0, 2, 1) 9.14244e-05 0.666575 0.333333;
   (2, 1, 1, 0, 2, 1) 0.333333 0.333333 0.333333;
   (0, 2, 1, 0, 2, 1) 0.999452 0.000274123 0.000274123;
   (1, 2, 1, 0, 2, 1) 0.333333 0.333333 0.333333;
   (2, 2, 1, 0, 2, 1) 0.333333 0.333333 0.333333;
   (0, 0, 2, 0, 2, 1) 0.749914 6.8573e-05 0.250017;
   (1, 0, 2, 0, 2, 1) 0.499931 0.499931 0.000137118;
   (2, 0, 2, 0, 2, 1) 0.333333 0.333333 0.333333;
   (0, 1, 2, 0, 2, 1) 0.000137118 0.499931 0.499931;
   (1, 1, 2, 0, 2, 1) 0.000274123 0.000274123 0.999452;
   (2, 1, 2, 0, 2, 1) 0.333333 0.333333 0.333333;
   (0, 2, 2, 0, 2, 1) 0.333333 0.333333 0.333333;
   (1, 2, 2, 0, 2, 1) 0.333333 0.333333 0.333333;
   (2, 2, 2, 0, 2, 1) 0.000274123 0.999452 0.000274123;
   (0, 0, 3, 0, 2, 1) 0.777737 3.04804e-05 0.222232;
   (1, 0, 3, 0, 2, 1) 0.333333 0.333333 0.333333;
   (2, 0, 3, 0, 2, 1) 0.999452 0.000274123 0.000274123;
   (0, 1, 3, 0, 2, 1) 9.14244e-05 0.333333 0.666575;
   (1, 1, 3, 0, 2, 1) 3.04804e-05 0.888838 0.111131;
   (2, 1, 3, 0, 2, 1) 0.333333 0.333333 0.333333;
   (0, 2, 3, 0, 2, 1) 0.42856 3.9188e-05 0.571401;
   (1, 2, 3, 0, 2, 1) 0.000137118 0.499931 0.499931;
   (2, 2, 3, 0, 2, 1) 0.000274123 0.000274123 0.999452;
   (0, 0, 4, 0, 2, 1) 0.529402 1.61374e-05 0.470582;
   (1, 0, 4, 0, 2, 1) 9.14244e-05 0.999817 9.14244e-05;
   (2, 0, 4, 0, 2, 1) 0.333333 0.333333 0.333333;
   (0, 1, 4, 0, 2, 1) 7.62062e-06 0.36111 0.638882;
   (1, 1, 4, 0, 2, 1) 8.57317e-06 0.687491 0.312501;
   (2, 1, 4, 0, 2, 1) 3.9188e-05 0.14288 0.857081;
   (0, 2, 4, 0, 2, 1) 0.250002 0.0277848 0.722213;
   (1, 2, 4, 0, 2, 1) 0.0833419 0.250003 0.666655;
   (2, 2, 4, 0, 2, 1) 3.9188e-05 0.14288 0.857081;
   (0, 0, 0, 1, 2, 1) 0.333333 0.333333 0.333333;
   (1, 0, 0, 1, 2, 1) 0.000274123 0.999452 0.000274123;
   (2, 0, 0, 1, 2, 1) 0.333333 0.333333 0.333333;
   (0, 1, 0, 1, 2, 1) 0.000137118 0.999726 0.000137118;
   (1, 1, 0, 1, 2, 1) 1.07587e-06 0.92941 0.0705891;
   (2, 1, 0, 1, 2, 1) 2.28608e-05 0.499989 0.499989;
   (0, 2, 0, 1, 2, 1) 0.333333 0.333333 0.333333;
   (1, 2, 0, 1, 2, 1) 2.28608e-05 0.833299 0.166678;
   (2, 2, 0, 1, 2, 1) 9.14244e-05 0.333333 0.666575;
   (0, 0, 1, 1, 2, 1) 0.999452 0.000274123 0.000274123;
   (1, 0, 1, 1, 2, 1) 0.000274123 0.999452 0.000274123;
   (2, 0, 1, 1, 2, 1) 0.333333 0.333333 0.333333;
   (0, 1, 1, 1, 2, 1) 0.333333 0.333333 0.333333;
   (1, 1, 1, 1, 2, 1) 7.66335e-07 0.851954 0.148045;
   (2, 1, 1, 1, 2, 1) 1.44388e-05 0.789454 0.210532;
   (0, 2, 1, 1, 2, 1) 0.000274123 0.000274123 0.999452;
   (1, 2, 1, 1, 2, 1) 0.0344912 0.5862 0.379309;
   (2, 2, 1, 1, 2, 1) 9.14244e-05 0.666575 0.333333;
   (0, 0, 2, 1, 2, 1) 0.333333 0.333333 0.333333;
   (1, 0, 2, 1, 2, 1) 9.14244e-05 0.999817 9.14244e-05;
   (2, 0, 2, 1, 2, 1) 0.333333 0.333333 0.333333;
   (0, 1, 2, 1, 2, 1) 9.14244e-05 0.999817 9.14244e-05;
   (1, 1, 2, 1, 2, 1) 0.00132838 0.815405 0.183267;
   (2, 1, 2, 1, 2, 1) 1.19278e-05 0.608686 0.391302;
   (0, 2, 2, 1, 2, 1) 0.000274123 0.000274123 0.999452;
   (1, 2, 2, 1, 2, 1) 1.71467e-06 0.618749 0.38125;
   (2, 2, 2, 1, 2, 1) 2.74326e-05 0.399995 0.599978;
   (0, 0, 3, 1, 2, 1) 0.000274123 0.999452 0.000274123;
   (1, 0, 3, 1, 2, 1) 6.8573e-05 0.250017 0.749914;
   (2, 0, 3, 1, 2, 1) 0.000137118 0.499931 0.499931;
   (0, 1, 3, 1, 2, 1) 3.9188e-05 0.571401 0.42856;
   (1, 1, 3, 1, 2, 1) 0.00187869 0.744521 0.253601;
   (2, 1, 3, 1, 2, 1) 0.0144966 0.565215 0.420289;
   (0, 2, 3, 1, 2, 1) 6.8573e-05 0.749914 0.250017;
   (1, 2, 3, 1, 2, 1) 0.00494278 0.589785 0.405272;
   (2, 2, 3, 1, 2, 1) 5.96399e-06 0.45652 0.543475;
   (0, 0, 4, 1, 2, 1) 0.000274123 0.999452 0.000274123;
   (1, 0, 4, 1, 2, 1) 1.30637e-05 0.523802 0.476185;
   (2, 0, 4, 1, 2, 1) 0.333333 0.333333 0.333333;
   (0, 1, 4, 1, 2, 1) 0.0285786 0.542852 0.428569;
   (1, 1, 4, 1, 2, 1) 0.00146879 0.61582 0.382711;
   (2, 1, 4, 1, 2, 1) 0.00442598 0.460177 0.535397;
   (0, 2, 4, 1, 2, 1) 1.37169e-05 0.150008 0.849979;
   (1, 2, 4, 1, 2, 1) 0.00262576 0.493248 0.504126;
   (2, 2, 4, 1, 2, 1) 1.23026e-06 0.331839 0.66816;
   (0, 0, 0, 2, 2, 1) 0.333333 0.333333 0.333333;
   (1, 0, 0, 2, 2, 1) 0.333333 0.333333 0.333333;
   (2, 0, 0, 2, 2, 1) 0.333333 0.333333 0.333333;
   (0, 1, 0, 2, 2, 1) 0.000274123 0.999452 0.000274123;
   (1, 1, 0, 2, 2, 1) 1.24699e-05 0.909069 0.0909182;
   (2, 1, 0, 2, 2, 1) 0.000274123 0.999452 0.000274123;
   (0, 2, 0, 2, 2, 1) 0.333333 0.333333 0.333333;
   (1, 2, 0, 2, 2, 1) 0.333333 0.333333 0.333333;
   (2, 2, 0, 2, 2, 1) 0.333333 0.333333 0.333333;
   (0, 0, 1, 2, 2, 1) 0.333333 0.333333 0.333333;
   (1, 0, 1, 2, 2, 1) 0.333333 0.333333 0.333333;
   (2, 0, 1, 2, 2, 1) 0.333333 0.333333 0.333333;
   (0, 1, 1, 2, 2, 1) 0.333333 0.333333 0.333333;
   (1, 1, 1, 2, 2, 1) 2.49389e-05 0.99995 2.49389e-05;
   (2, 1, 1, 2, 2, 1) 0.333333 0.333333 0.333333;
   (0, 2, 1, 2, 2, 1) 0.333333 0.333333 0.333333;
   (1, 2, 1, 2, 2, 1) 9.14244e-05 0.999817 9.14244e-05;
   (2, 2, 1, 2, 2, 1) 0.333333 0.333333 0.333333;
   (0, 0, 2, 2, 2, 1) 0.333333 0.333333 0.333333;
   (1, 0, 2, 2, 2, 1) 0.000274123 0.999452 0.000274123;
   (2, 0, 2, 2, 2, 1) 0.333333 0.333333 0.333333;
   (0, 1, 2, 2, 2, 1) 0.333333 0.333333 0.333333;
   (1, 1, 2, 2, 2, 1) 1.82889e-05 0.9333 0.0666813;
   (2, 1, 2, 2, 2, 1) 0.000274123 0.999452 0.000274123;
   (0, 2, 2, 2, 2, 1) 0.333333 0.333333 0.333333;
   (1, 2, 2, 2, 2, 1) 4.57185e-05 0.499977 0.499977;
   (2, 2, 2, 2, 2, 1) 0.000274123 0.000274123 0.999452;
   (0, 0, 3, 2, 2, 1) 0.333333 0.333333 0.333333;
   (1, 0, 3, 2, 2, 1) 0.333333 0.333333 0.333333;
   (2, 0, 3, 2, 2, 1) 0.333333 0.333333 0.333333;
   (0, 1, 3, 2, 2, 1) 0.000274123 0.000274123 0.999452;
   (1, 1, 3, 2, 2, 1) 6.23507e-06 0.681812 0.318182;
   (2, 1, 3, 2, 2, 1) 0.000274123 0.999452 0.000274123;
   (0, 2, 3, 2, 2, 1) 0.499931 0.000137118 0.499931;
   (1, 2, 3, 2, 2, 1) 3.04804e-05 0.555535 0.444434;
   (2, 2, 3, 2, 2, 1) 6.8573e-05 0.250017 0.749914;
   (0, 0, 4, 2, 2, 1) 0.14288 3.9188e-05 0.857081;
   (1, 0, 4, 2, 2, 1) 9.14244e-05 0.333333 0.666575;
   (2, 0, 4, 2, 2, 1) 0.000274123 0.999452 0.000274123;
   (0, 1, 4, 2, 2, 1) 7.41466e-06 0.351351 0.648642;
   (1, 1, 4, 2, 2, 1) 0.0026323 0.494736 0.502631;
   (2, 1, 4, 2, 2, 1) 8.84971e-06 0.354838 0.645153;
   (0, 2, 4, 2, 2, 1) 0.166678 0.166678 0.666644;
   (1, 2, 4, 2, 2, 1) 1.63302e-06 0.333333 0.666665;
   (2, 2, 4, 2, 2, 1) 1.05515e-05 0.192312 0.807677;
   (0, 0, 0, 0, 0, 2) 0.890905 2.49406e-06 0.109093;
   (1, 0, 0, 0, 0, 2) 0.333333 0.333333 0.333333;
   (2, 0, 0, 0, 0, 2) 0.999452 0.000274123 0.000274123;
   (0, 1, 0, 0, 0, 2) 0.333333 0.333333 0.333333;
   (1, 1, 0, 0, 0, 2) 0.333333 0.333333 0.333333;
   (2, 1, 0, 0, 0, 2) 0.333333 0.333333 0.333333;
   (0, 2, 0, 0, 0, 2) 0.999909 4.57185e-05 4.57185e-05;
   (1, 2, 0, 0, 0, 2) 0.333333 0.333333 0.333333;
   (2, 2, 0, 0, 0, 2) 0.333333 0.333333 0.333333;
   (0, 0, 1, 0, 0, 2) 0.849358 8.7932e-07 0.150642;
   (1, 0, 1, 0, 0, 2) 0.333333 0.333333 0.333333;
   (2, 0, 1, 0, 0, 2) 0.000274123 0.000274123 0.999452;
   (0, 1, 1, 0, 0, 2) 0.000274123 0.999452 0.000274123;
   (1, 1, 1, 0, 0, 2) 0.000137118 0.999726 0.000137118;
   (2, 1, 1, 0, 0, 2) 0.333333 0.333333 0.333333;
   (0, 2, 1, 0, 0, 2) 0.517236 0.0344912 0.448273;
   (1, 2, 1, 0, 0, 2) 0.333333 0.333333 0.333333;
   (2, 2, 1, 0, 0, 2) 0.333333 0.333333 0.333333;
   (0, 0, 2, 0, 0, 2) 0.777777 0.00641083 0.215812;
   (1, 0, 2, 0, 0, 2) 0.999452 0.000274123 0.000274123;
   (2, 0, 2, 0, 0, 2) 0.999726 0.000137118 0.000137118;
   (0, 1, 2, 0, 0, 2) 0.333333 0.333333 0.333333;
   (1, 1, 2, 0, 0, 2) 0.000137118 0.999726 0.000137118;
   (2, 1, 2, 0, 0, 2) 0.333333 0.333333 0.333333;
   (0, 2, 2, 0, 0, 2) 0.388059 0.0447797 0.567161;
   (1, 2, 2, 0, 0, 2) 9.14244e-05 0.333333 0.666575;
   (2, 2, 2, 0, 0, 2) 0.666575 9.14244e-05 0.333333;
   (0, 0, 3, 0, 0, 2) 0.660377 0.00209701 0.337526;
   (1, 0, 3, 0, 0, 2) 0.499931 0.000137118 0.499931;
   (2, 0, 3, 0, 0, 2) 0.399989 5.48607e-05 0.599956;
   (0, 1, 3, 0, 0, 2) 3.9188e-05 0.42856 0.571401;
   (1, 1, 3, 0, 0, 2) 0.000137118 0.000137118 0.999726;
   (2, 1, 3, 0, 0, 2) 0.333333 0.333333 0.333333;
   (0, 2, 3, 0, 0, 2) 0.390476 1.30642e-06 0.609523;
   (1, 2, 3, 0, 0, 2) 0.000274123 0.000274123 0.999452;
   (2, 2, 3, 0, 0, 2) 0.100019 0.100019 0.799962;
   (0, 0, 4, 0, 0, 2) 0.474836 6.00324e-07 0.525164;
   (1, 0, 4, 0, 0, 2) 0.000274123 0.000274123 0.999452;
   (2, 0, 4, 0, 0, 2) 1.95952e-05 1.95952e-05 0.999961;
   (0, 1, 4, 0, 0, 2) 0.000137118 0.000137118 0.999726;
   (1, 1, 4, 0, 0, 2) 6.8573e-05 6.8573e-05 0.999863;
   (2, 1, 4, 0, 0, 2) 0.333333 0.333333 0.333333;
   (0, 2, 4, 0, 0, 2) 0.205 0.00250068 0.792499;
   (1, 2, 4, 0, 0, 2) 5.48607e-05 0.200022 0.799923;
   (2, 2, 4, 0, 0, 2) 0.175003 0.0250063 0.79999;
   (0, 0, 0, 1, 0, 2) 0.333333 0.333333 0.333333;
   (1, 0, 0, 1, 0, 2) 0.333333 0.333333 0.333333;
   (2, 0, 0, 1, 0, 2) 0.333333 0.333333 0.333333;
   (0, 1, 0, 1, 0, 2) 0.999452 0.000274123 0.000274123;
   (1, 1, 0, 1, 0, 2) 2.11024e-05 0.92304 0.0769393;
   (2, 1, 0, 1, 0, 2) 0.333333 0.333333 0.333333;
   (0, 2, 0, 1, 0, 2) 0.333333 0.333333 0.333333;
   (1, 2, 0, 1, 0, 2) 5.48607e-05 0.99989 5.48607e-05;
   (2, 2, 0, 1, 0, 2) 0.333333 0.333333 0.333333;
   (0, 0, 1, 1, 0, 2) 0.999452 0.000274123 0.000274123;
   (1, 0, 1, 1, 0, 2) 0.000274123 0.999452 0.000274123;
   (2, 0, 1, 1, 0, 2) 0.333333 0.333333 0.333333;
   (0, 1, 1, 1, 0, 2) 0.333333 0.333333 0.333333;
   (1, 1, 1, 1, 0, 2) 6.53198e-06 0.904751 0.0952428;
   (2, 1, 1, 1, 0, 2) 0.000274123 0.000274123 0.999452;
   (0, 2, 1, 1, 0, 2) 0.000274123 0.000274123 0.999452;
   (1, 2, 1, 1, 0, 2) 3.9188e-05 0.42856 0.571401;
   (2, 2, 1, 1, 0, 2) 0.333333 0.333333 0.333333;
   (0, 0, 2, 1, 0, 2) 0.499931 0.000137118 0.499931;
   (1, 0, 2, 1, 0, 2) 0.499931 0.499931 0.000137118;
   (2, 0, 2, 1, 0, 2) 0.333333 0.333333 0.333333;
   (0, 1, 2, 1, 0, 2) 9.14244e-05 0.333333 0.666575;
   (1, 1, 2, 1, 0, 2) 0.016671 0.683329 0.3;
   (2, 1, 2, 1, 0, 2) 9.14244e-05 0.666575 0.333333;
   (0, 2, 2, 1, 0, 2) 0.333333 0.333333 0.333333;
   (1, 2, 2, 1, 0, 2) 1.24699e-05 0.454541 0.545447;
   (2, 2, 2, 1, 0, 2) 0.000274123 0.000274123 0.999452;
   (0, 0, 3, 1, 0, 2) 0.000274123 0.000274123 0.999452;
   (1, 0, 3, 1, 0, 2) 0.000137118 0.000137118 0.999726;
   (2, 0, 3, 1, 0, 2) 0.333333 0.333333 0.333333;
   (0, 1, 3, 1, 0, 2) 0.000274123 0.000274123 0.999452;
   (1, 1, 3, 1, 0, 2) 0.0126616 0.55696 0.430379;
   (2, 1, 3, 1, 0, 2) 0.000274123 0.000274123 0.999452;
   (0, 2, 3, 1, 0, 2) 0.000137118 0.000137118 0.999726;
   (1, 2, 3, 1, 0, 2) 0.0294191 0.294119 0.676462;
   (2, 2, 3, 1, 0, 2) 0.000137118 0.000137118 0.999726;
   (0, 0, 4, 1, 0, 2) 0.333333 0.333333 0.333333;
   (1, 0, 4, 1, 0, 2) 0.000137118 0.499931 0.499931;
   (2, 0, 4, 1, 0, 2) 0.333333 0.333333 0.333333;
   (0, 1, 4, 1, 0, 2) 0.000137118 0.499931 0.499931;
   (1, 1, 4, 1, 0, 2) 0.0114973 0.310345 0.678158;
   (2, 1, 4, 1, 0, 2) 9.14244e-05 0.666575 0.333333;
   (0, 2, 4, 1, 0, 2) 9.14244e-05 0.333333 0.666575;
   (1, 2, 4, 1, 0, 2) 0.0123489 0.246914 0.740737;
   (2, 2, 4, 1, 0, 2) 1.71459e-05 0.187508 0.812475;
   (0, 0, 0, 2, 0, 2) 0.999452 0.000274123 0.000274123;
   (1, 0, 0, 2, 0, 2) 0.333333 0.333333 0.333333;
   (2, 0, 0, 2, 0, 2) 0.333333 0.333333 0.333333;
   (0, 1, 0, 2, 0, 2) 0.333333 0.333333 0.333333;
   (1, 1, 0, 2, 0, 2) 0.333333 0.333333 0.333333;
   (2, 1, 0, 2, 0, 2) 0.333333 0.333333 0.333333;
   (0, 2, 0, 2, 0, 2) 0.333333 0.333333 0.333333;
   (1, 2, 0, 2, 0, 2) 0.333333 0.333333 0.333333;
   (2, 2, 0, 2, 0, 2) 0.000274123 0.999452 0.000274123;
   (0, 0, 1, 2, 0, 2) 0.833265 4.57185e-05 0.16669;
   (1, 0, 1, 2, 0, 2) 0.333333 0.333333 0.333333;
   (2, 0, 1, 2, 0, 2) 0.333333 0.333333 0.333333;
   (0, 1, 1, 2, 0, 2) 0.333333 0.333333 0.333333;
   (1, 1, 1, 2, 0, 2) 0.333333 0.333333 0.333333;
   (2, 1, 1, 2, 0, 2) 0.000137118 0.499931 0.499931;
   (0, 2, 1, 2, 0, 2) 0.999452 0.000274123 0.000274123;
   (1, 2, 1, 2, 0, 2) 0.333333 0.333333 0.333333;
   (2, 2, 1, 2, 0, 2) 0.333333 0.333333 0.333333;
   (0, 0, 2, 2, 0, 2) 0.399989 5.48607e-05 0.599956;
   (1, 0, 2, 2, 0, 2) 0.333333 0.333333 0.333333;
   (2, 0, 2, 2, 0, 2) 0.333333 0.333333 0.333333;
   (0, 1, 2, 2, 0, 2) 0.333333 0.333333 0.333333;
   (1, 1, 2, 2, 0, 2) 0.333333 0.333333 0.333333;
   (2, 1, 2, 2, 0, 2) 0.333333 0.333333 0.333333;
   (0, 2, 2, 2, 0, 2) 0.999452 0.000274123 0.000274123;
   (1, 2, 2, 2, 0, 2) 0.000274123 0.999452 0.000274123;
   (2, 2, 2, 2, 0, 2) 0.333333 0.333333 0.333333;
   (0, 0, 3, 2, 0, 2) 0.666575 9.14244e-05 0.333333;
   (1, 0, 3, 2, 0, 2) 0.333333 0.333333 0.333333;
   (2, 0, 3, 2, 0, 2) 0.333333 0.333333 0.333333;
   (0, 1, 3, 2, 0, 2) 0.333333 0.333333 0.333333;
   (1, 1, 3, 2, 0, 2) 9.14244e-05 0.666575 0.333333;
   (2, 1, 3, 2, 0, 2) 0.000274123 0.000274123 0.999452;
   (0, 2, 3, 2, 0, 2) 0.250017 0.250017 0.499966;
   (1, 2, 3, 2, 0, 2) 0.000274123 0.999452 0.000274123;
   (2, 2, 3, 2, 0, 2) 0.000274123 0.000274123 0.999452;
   (0, 0, 4, 2, 0, 2) 0.363634 2.49389e-05 0.636341;
   (1, 0, 4, 2, 0, 2) 0.333333 0.333333 0.333333;
   (2, 0, 4, 2, 0, 2) 0.000274123 0.000274123 0.999452;
   (0, 1, 4, 2, 0, 2) 0.333333 0.333333 0.333333;
   (1, 1, 4, 2, 0, 2) 5.48607e-05 0.399989 0.599956;
   (2, 1, 4, 2, 0, 2) 0.000274123 0.000274123 0.999452;
   (0, 2, 4, 2, 0, 2) 0.200011 2.74326e-05 0.799962;
   (1, 2, 4, 2, 0, 2) 5.48607e-05 0.399989 0.599956;
   (2, 2, 4, 2, 0, 2) 0.000274123 0.000274123 0.999452;
   (0, 0, 0, 0, 1, 2) 0.999726 0.000137118 0.000137118;
   (1, 0, 0, 0, 1, 2) 0.333333 0.333333 0.333333;
   (2, 0, 0, 0, 1, 2) 0.333333 0.333333 0.333333;
   (0, 1, 0, 0, 1, 2) 0.333333 0.333333 0.333333;
   (1, 1, 0, 0, 1, 2) 0.000274123 0.999452 0.000274123;
   (2, 1, 0, 0, 1, 2) 0.333333 0.333333 0.333333;
   (0, 2, 0, 0, 1, 2) 0.333333 0.333333 0.333333;
   (1, 2, 0, 0, 1, 2) 0.333333 0.333333 0.333333;
   (2, 2, 0, 0, 1, 2) 0.333333 0.333333 0.333333;
   (0, 0, 1, 0, 1, 2) 0.888838 3.04804e-05 0.111131;
   (1, 0, 1, 0, 1, 2) 0.333333 0.333333 0.333333;
   (2, 0, 1, 0, 1, 2) 0.333333 0.333333 0.333333;
   (0, 1, 1, 0, 1, 2) 0.333333 0.333333 0.333333;
   (1, 1, 1, 0, 1, 2) 0.000137118 0.999726 0.000137118;
   (2, 1, 1, 0, 1, 2) 0.333333 0.333333 0.333333;
   (0, 2, 1, 0, 1, 2) 0.333333 0.333333 0.333333;
   (1, 2, 1, 0, 1, 2) 0.333333 0.333333 0.333333;
   (2, 2, 1, 0, 1, 2) 0.333333 0.333333 0.333333;
   (0, 0, 2, 0, 1, 2) 0.399989 5.48607e-05 0.599956;
   (1, 0, 2, 0, 1, 2) 0.333333 0.333333 0.333333;
   (2, 0, 2, 0, 1, 2) 0.333333 0.333333 0.333333;
   (0, 1, 2, 0, 1, 2) 0.333333 0.333333 0.333333;
   (1, 1, 2, 0, 1, 2) 5.48607e-05 0.599956 0.399989;
   (2, 1, 2, 0, 1, 2) 0.333333 0.333333 0.333333;
   (0, 2, 2, 0, 1, 2) 0.000137118 0.000137118 0.999726;
   (1, 2, 2, 0, 1, 2) 0.000274123 0.999452 0.000274123;
   (2, 2, 2, 0, 1, 2) 0.333333 0.333333 0.333333;
   (0, 0, 3, 0, 1, 2) 0.42856 3.9188e-05 0.571401;
   (1, 0, 3, 0, 1, 2) 0.000274123 0.000274123 0.999452;
   (2, 0, 3, 0, 1, 2) 0.333333 0.333333 0.333333;
   (0, 1, 3, 0, 1, 2) 0.000274123 0.000274123 0.999452;
   (1, 1, 3, 0, 1, 2) 6.8573e-05 0.250017 0.749914;
   (2, 1, 3, 0, 1, 2) 0.000274123 0.999452 0.000274123;
   (0, 2, 3, 0, 1, 2) 0.399989 5.48607e-05 0.599956;
   (1, 2, 3, 0, 1, 2) 0.000137118 0.000137118 0.999726;
   (2, 2, 3, 0, 1, 2) 0.000274123 0.000274123 0.999452;
   (0, 0, 4, 0, 1, 2) 0.454536 2.49389e-05 0.545439;
   (1, 0, 4, 0, 1, 2) 0.000274123 0.999452 0.000274123;
   (2, 0, 4, 0, 1, 2) 0.000137118 0.000137118 0.999726;
   (0, 1, 4, 0, 1, 2) 0.333333 0.333333 0.333333;
   (1, 1, 4, 0, 1, 2) 5.48607e-05 0.599956 0.399989;
   (2, 1, 4, 0, 1, 2) 0.000274123 0.999452 0.000274123;
   (0, 2, 4, 0, 1, 2) 0.125021 0.250009 0.62497;
   (1, 2, 4, 0, 1, 2) 4.57185e-05 4.57185e-05 0.999909;
   (2, 2, 4, 0, 1, 2) 0.333333 0.333333 0.333333;
   (0, 0, 0, 1, 1, 2) 0.333333 0.333333 0.333333;
   (1, 0, 0, 1, 1, 2) 0.000274123 0.999452 0.000274123;
   (2, 0, 0, 1, 1, 2) 0.333333 0.333333 0.333333;
   (0, 1, 0, 1, 1, 2) 0.000274123 0.999452 0.000274123;
   (1, 1, 0, 1, 1, 2) 2.56398e-06 0.925229 0.0747683;
   (2, 1, 0, 1, 1, 2) 0.000137118 0.499931 0.499931;
   (0, 2, 0, 1, 1, 2) 0.000274123 0.999452 0.000274123;
   (1, 2, 0, 1, 1, 2) 3.9188e-05 0.714241 0.28572;
   (2, 2, 0, 1, 1, 2) 0.333333 0.333333 0.333333;
   (0, 0, 1, 1, 1, 2) 0.000274123 0.999452 0.000274123;
   (1, 0, 1, 1, 1, 2) 0.000274123 0.999452 0.000274123;
   (2, 0, 1, 1, 1, 2) 0.333333 0.333333 0.333333;
   (0, 1, 1, 1, 1, 2) 0.000274123 0.999452 0.000274123;
   (1, 1, 1, 1, 1, 2) 0.00386205 0.826253 0.169885;
   (2, 1, 1, 1, 1, 2) 4.57185e-05 0.333333 0.666621;
   (0, 2, 1, 1, 1, 2) 0.333333 0.333333 0.333333;
   (1, 2, 1, 1, 1, 2) 0.0256475 0.615379 0.358974;
   (2, 2, 1, 1, 1, 2) 0.333333 0.333333 0.333333;
   (0, 0, 2, 1, 1, 2) 0.333333 0.333333 0.333333;
   (1, 0, 2, 1, 1, 2) 0.499931 0.000137118 0.499931;
   (2, 0, 2, 1, 1, 2) 0.333333 0.333333 0.333333;
   (0, 1, 2, 1, 1, 2) 3.04804e-05 0.777737 0.222232;
   (1, 1, 2, 1, 1, 2) 0.00261851 0.717277 0.280105;
   (2, 1, 2, 1, 1, 2) 6.8573e-05 0.499966 0.499966;
   (0, 2, 2, 1, 1, 2) 0.000274123 0.999452 0.000274123;
   (1, 2, 2, 1, 1, 2) 2.74346e-06 0.409999 0.589998;
   (2, 2, 2, 1, 1, 2) 0.000137118 0.499931 0.499931;
   (0, 0, 3, 1, 1, 2) 0.333333 0.333333 0.333333;
   (1, 0, 3, 1, 1, 2) 9.14244e-05 9.14244e-05 0.999817;
   (2, 0, 3, 1, 1, 2) 0.333333 0.333333 0.333333;
   (0, 1, 3, 1, 1, 2) 3.9188e-05 0.571401 0.42856;
   (1, 1, 3, 1, 1, 2) 6.17901e-07 0.608108 0.391892;
   (2, 1, 3, 1, 1, 2) 1.82889e-05 0.466659 0.533322;
   (0, 2, 3, 1, 1, 2) 9.14244e-05 9.14244e-05 0.999817;
   (1, 2, 3, 1, 1, 2) 0.0053778 0.290323 0.704299;
   (2, 2, 3, 1, 1, 2) 3.429e-05 0.125021 0.874944;
   (0, 0, 4, 1, 1, 2) 0.333333 0.333333 0.333333;
   (1, 0, 4, 1, 1, 2) 0.200022 0.200022 0.599956;
   (2, 0, 4, 1, 1, 2) 0.333333 0.333333 0.333333;
   (0, 1, 4, 1, 1, 2) 0.000274123 0.000274123 0.999452;
   (1, 1, 4, 1, 1, 2) 6.27798e-07 0.377574 0.622425;
   (2, 1, 4, 1, 1, 2) 1.01607e-05 0.259262 0.740728;
   (0, 2, 4, 1, 1, 2) 3.04804e-05 0.222232 0.777737;
   (1, 2, 4, 1, 1, 2) 0.00257802 0.195877 0.801545;
   (2, 2, 4, 1, 1, 2) 6.53198e-06 0.142861 0.857133;
   (0, 0, 0, 2, 1, 2) 0.333333 0.333333 0.333333;
   (1, 0, 0, 2, 1, 2) 0.333333 0.333333 0.333333;
   (2, 0, 0, 2, 1, 2) 0.333333 0.333333 0.333333;
   (0, 1, 0, 2, 1, 2) 0.333333 0.333333 0.333333;
   (1, 1, 0, 2, 1, 2) 0.000274123 0.999452 0.000274123;
   (2, 1, 0, 2, 1, 2) 0.333333 0.333333 0.333333;
   (0, 2, 0, 2, 1, 2) 0.333333 0.333333 0.333333;
   (1, 2, 0, 2, 1, 2) 0.333333 0.333333 0.333333;
   (2, 2, 0, 2, 1, 2) 0.333333 0.333333 0.333333;
   (0, 0, 1, 2, 1, 2) 0.333333 0.333333 0.333333;
   (1, 0, 1, 2, 1, 2) 0.333333 0.333333 0.333333;
   (2, 0, 1, 2, 1, 2) 0.333333 0.333333 0.333333;
   (0, 1, 1, 2, 1, 2) 0.333333 0.333333 0.333333;
   (1, 1, 1, 2, 1, 2) 0.000137118 0.499931 0.499931;
   (2, 1, 1, 2, 1, 2) 0.333333 0.333333 0.333333;
   (0, 2, 1, 2, 1, 2) 0.333333 0.333333 0.333333;
   (1, 2, 1, 2, 1, 2) 0.000274123 0.999452 0.000274123;
   (2, 2, 1, 2, 1, 2) 0.333333 0.333333 0.333333;
   (0, 0, 2, 2, 1, 2) 0.333333 0.333333 0.333333;
   (1, 0, 2, 2, 1, 2) 0.333333 0.333333 0.333333;
   (2, 0, 2, 2, 1, 2) 0.333333 0.333333 0.333333;
   (0, 1, 2, 2, 1, 2) 0.333333 0.333333 0.333333;
   (1, 1, 2, 2, 1, 2) 9.14244e-05 0.666575 0.333333;
   (2, 1, 2, 2, 1, 2) 0.333333 0.333333 0.333333;
   (0, 2, 2, 2, 1, 2) 0.333333 0.333333 0.333333;
   (1, 2, 2, 2, 1, 2) 0.333333 0.333333 0.333333;
   (2, 2, 2, 2, 1, 2) 0.000274123 0.000274123 0.999452;
   (0, 0, 3, 2, 1, 2) 0.333333 0.333333 0.333333;
   (1, 0, 3, 2, 1, 2) 0.333333 0.333333 0.333333;
   (2, 0, 3, 2, 1, 2) 0.333333 0.333333 0.333333;
   (0, 1, 3, 2, 1, 2) 0.333333 0.333333 0.333333;
   (1, 1, 3, 2, 1, 2) 4.57185e-05 0.499977 0.499977;
   (2, 1, 3, 2, 1, 2) 0.333333 0.333333 0.333333;
   (0, 2, 3, 2, 1, 2) 0.333333 0.333333 0.333333;
   (1, 2, 3, 2, 1, 2) 4.57185e-05 4.57185e-05 0.999909;
   (2, 2, 3, 2, 1, 2) 0.000137118 0.000137118 0.999726;
   (0, 0, 4, 2, 1, 2) 0.333333 0.333333 0.333333;
   (1, 0, 4, 2, 1, 2) 0.333333 0.333333 0.333333;
   (2, 0, 4, 2, 1, 2) 0.333333 0.333333 0.333333;
   (0, 1, 4, 2, 1, 2) 0.333333 0.333333 0.333333;
   (1, 1, 4, 2, 1, 2) 2.49389e-05 0.454536 0.545439;
   (2, 1, 4, 2, 1, 2) 0.000137118 0.499931 0.499931;
   (0, 2, 4, 2, 1, 2) 0.333333 0.333333 0.333333;
   (1, 2, 4, 2, 1, 2) 1.24699e-05 1.24699e-05 0.999975;
   (2, 2, 4, 2, 1, 2) 3.9188e-05 0.571401 0.42856;
   (0, 0, 0, 0, 2, 2) 0.799974 1.82889e-05 0.200007;
   (1, 0, 0, 0, 2, 2) 0.333333 0.333333 0.333333;
   (2, 0, 0, 0, 2, 2) 0.999452 0.000274123 0.000274123;
   (0, 1, 0, 0, 2, 2) 0.333333 0.333333 0.333333;
   (1, 1, 0, 0, 2, 2) 0.333333 0.333333 0.333333;
   (2, 1, 0, 0, 2, 2) 0.333333 0.333333 0.333333;
   (0, 2, 0, 0, 2, 2) 0.333333 0.333333 0.333333;
   (1, 2, 0, 0, 2, 2) 0.333333 0.333333 0.333333;
   (2, 2, 0, 0, 2, 2) 0.333333 0.333333 0.333333;
   (0, 0, 1, 0, 2, 2) 0.738087 6.53198e-06 0.261906;
   (1, 0, 1, 0, 2, 2) 0.333333 0.333333 0.333333;
   (2, 0, 1, 0, 2, 2) 0.999726 0.000137118 0.000137118;
   (0, 1, 1, 0, 2, 2) 0.333333 0.333333 0.333333;
   (1, 1, 1, 0, 2, 2) 0.000274123 0.000274123 0.999452;
   (2, 1, 1, 0, 2, 2) 0.333333 0.333333 0.333333;
   (0, 2, 1, 0, 2, 2) 0.833265 4.57185e-05 0.16669;
   (1, 2, 1, 0, 2, 2) 0.333333 0.333333 0.333333;
   (2, 2, 1, 0, 2, 2) 0.999452 0.000274123 0.000274123;
   (0, 0, 2, 0, 2, 2) 0.817068 3.34568e-06 0.182928;
   (1, 0, 2, 0, 2, 2) 0.999452 0.000274123 0.000274123;
   (2, 0, 2, 0, 2, 2) 0.999452 0.000274123 0.000274123;
   (0, 1, 2, 0, 2, 2) 0.333333 0.333333 0.333333;
   (1, 1, 2, 0, 2, 2) 0.000274123 0.999452 0.000274123;
   (2, 1, 2, 0, 2, 2) 0.000274123 0.000274123 0.999452;
   (0, 2, 2, 0, 2, 2) 0.526312 7.21954e-06 0.473681;
   (1, 2, 2, 0, 2, 2) 0.000137118 0.499931 0.499931;
   (2, 2, 2, 0, 2, 2) 0.333333 0.333333 0.333333;
   (0, 0, 3, 0, 2, 2) 0.689653 0.0068984 0.303448;
   (1, 0, 3, 0, 2, 2) 0.333333 0.333333 0.333333;
   (2, 0, 3, 0, 2, 2) 0.333333 0.333333 0.333333;
   (0, 1, 3, 0, 2, 2) 0.333333 0.333333 0.333333;
   (1, 1, 3, 0, 2, 2) 0.000137118 0.999726 0.000137118;
   (2, 1, 3, 0, 2, 2) 0.333333 0.333333 0.333333;
   (0, 2, 3, 0, 2, 2) 0.430768 4.22069e-06 0.569228;
   (1, 2, 3, 0, 2, 2) 6.8573e-05 0.499966 0.499966;
   (2, 2, 3, 0, 2, 2) 0.000137118 0.000137118 0.999726;
   (0, 0, 4, 0, 2, 2) 0.461165 0.00485568 0.53398;
   (1, 0, 4, 0, 2, 2) 0.333333 0.333333 0.333333;
   (2, 0, 4, 0, 2, 2) 0.555535 3.04804e-05 0.444434;
   (0, 1, 4, 0, 2, 2) 0.000137118 0.000137118 0.999726;
   (1, 1, 4, 0, 2, 2) 9.14244e-05 9.14244e-05 0.999817;
   (2, 1, 4, 0, 2, 2) 0.333333 0.333333 0.333333;
   (0, 2, 4, 0, 2, 2) 0.417525 0.00515603 0.577319;
   (1, 2, 4, 0, 2, 2) 4.57185e-05 0.16669 0.833265;
   (2, 2, 4, 0, 2, 2) 0.142865 1.30637e-05 0.857122;
   (0, 0, 0, 1, 2, 2) 0.333333 0.333333 0.333333;
   (1, 0, 0, 1, 2, 2) 0.333333 0.333333 0.333333;
   (2, 0, 0, 1, 2, 2) 0.333333 0.333333 0.333333;
   (0, 1, 0, 1, 2, 2) 0.333333 0.333333 0.333333;
   (1, 1, 0, 1, 2, 2) 1.37169e-05 0.799981 0.200005;
   (2, 1, 0, 1, 2, 2) 0.000274123 0.999452 0.000274123;
   (0, 2, 0, 1, 2, 2) 0.333333 0.333333 0.333333;
   (1, 2, 0, 1, 2, 2) 5.48607e-05 0.599956 0.399989;
   (2, 2, 0, 1, 2, 2) 0.333333 0.333333 0.333333;
   (0, 0, 1, 1, 2, 2) 0.333333 0.333333 0.333333;
   (1, 0, 1, 1, 2, 2) 0.333333 0.333333 0.333333;
   (2, 0, 1, 1, 2, 2) 0.333333 0.333333 0.333333;
   (0, 1, 1, 1, 2, 2) 0.000274123 0.999452 0.000274123;
   (1, 1, 1, 1, 2, 2) 4.28664e-06 0.796869 0.203127;
   (2, 1, 1, 1, 2, 2) 0.000274123 0.999452 0.000274123;
   (0, 2, 1, 1, 2, 2) 0.333333 0.333333 0.333333;
   (1, 2, 1, 1, 2, 2) 3.9188e-05 0.714241 0.28572;
   (2, 2, 1, 1, 2, 2) 0.333333 0.333333 0.333333;
   (0, 0, 2, 1, 2, 2) 0.000274123 0.999452 0.000274123;
   (1, 0, 2, 1, 2, 2) 0.999452 0.000274123 0.000274123;
   (2, 0, 2, 1, 2, 2) 0.333333 0.333333 0.333333;
   (0, 1, 2, 1, 2, 2) 9.14244e-05 0.666575 0.333333;
   (1, 1, 2, 1, 2, 2) 2.30543e-06 0.7563 0.243698;
   (2, 1, 2, 1, 2, 2) 9.14244e-05 0.666575 0.333333;
   (0, 2, 2, 1, 2, 2) 0.333333 0.333333 0.333333;
   (1, 2, 2, 1, 2, 2) 0.0322661 0.45161 0.516124;
   (2, 2, 2, 1, 2, 2) 0.000137118 0.999726 0.000137118;
   (0, 0, 3, 1, 2, 2) 0.999452 0.000274123 0.000274123;
   (1, 0, 3, 1, 2, 2) 0.000137118 0.999726 0.000137118;
   (2, 0, 3, 1, 2, 2) 0.333333 0.333333 0.333333;
   (0, 1, 3, 1, 2, 2) 0.000137118 0.499931 0.499931;
   (1, 1, 3, 1, 2, 2) 1.28802e-06 0.638496 0.361502;
   (2, 1, 3, 1, 2, 2) 4.57185e-05 0.833265 0.16669;
   (0, 2, 3, 1, 2, 2) 9.14244e-05 0.666575 0.333333;
   (1, 2, 3, 1, 2, 2) 2.58817e-06 0.547168 0.452829;
   (2, 2, 3, 1, 2, 2) 3.04804e-05 0.333333 0.666636;
   (0, 0, 4, 1, 2, 2) 0.000274123 0.000274123 0.999452;
   (1, 0, 4, 1, 2, 2) 0.000274123 0.000274123 0.999452;
   (2, 0, 4, 1, 2, 2) 0.000274123 0.999452 0.000274123;
   (0, 1, 4, 1, 2, 2) 3.429e-05 0.499983 0.499983;
   (1, 1, 4, 1, 2, 2) 9.2063e-07 0.483221 0.516778;
   (2, 1, 4, 1, 2, 2) 1.44388e-05 0.684195 0.31579;
   (0, 2, 4, 1, 2, 2) 3.04804e-05 0.111131 0.888838;
   (1, 2, 4, 1, 2, 2) 0.00653683 0.333333 0.66013;
   (2, 2, 4, 1, 2, 2) 6.69129e-06 0.243904 0.756089;
   (0, 0, 0, 2, 2, 2) 0.333333 0.333333 0.333333;
   (1, 0, 0, 2, 2, 2) 0.333333 0.333333 0.333333;
   (2, 0, 0, 2, 2, 2) 0.333333 0.333333 0.333333;
   (0, 1, 0, 2, 2, 2) 0.333333 0.333333 0.333333;
   (1, 1, 0, 2, 2, 2) 0.000274123 0.999452 0.000274123;
   (2, 1, 0, 2, 2, 2) 0.333333 0.333333 0.333333;
   (0, 2, 0, 2, 2, 2) 0.333333 0.333333 0.333333;
   (1, 2, 0, 2, 2, 2) 0.333333 0.333333 0.333333;
   (2, 2, 0, 2, 2, 2) 0.333333 0.333333 0.333333;
   (0, 0, 1, 2, 2, 2) 0.999726 0.000137118 0.000137118;
   (1, 0, 1, 2, 2, 2) 0.333333 0.333333 0.333333;
   (2, 0, 1, 2, 2, 2) 0.333333 0.333333 0.333333;
   (0, 1, 1, 2, 2, 2) 0.333333 0.333333 0.333333;
   (1, 1, 1, 2, 2, 2) 0.000137118 0.499931 0.499931;
   (2, 1, 1, 2, 2, 2) 0.000274123 0.999452 0.000274123;
   (0, 2, 1, 2, 2, 2) 0.333333 0.333333 0.333333;
   (1, 2, 1, 2, 2, 2) 0.333333 0.333333 0.333333;
   (2, 2, 1, 2, 2, 2) 0.000274123 0.000274123 0.999452;
   (0, 0, 2, 2, 2, 2) 0.999452 0.000274123 0.000274123;
   (1, 0, 2, 2, 2, 2) 0.333333 0.333333 0.333333;
   (2, 0, 2, 2, 2, 2) 0.333333 0.333333 0.333333;
   (0, 1, 2, 2, 2, 2) 0.333333 0.333333 0.333333;
   (1, 1, 2, 2, 2, 2) 9.14244e-05 0.666575 0.333333;
   (2, 1, 2, 2, 2, 2) 0.000274123 0.999452 0.000274123;
   (0, 2, 2, 2, 2, 2) 0.333333 0.333333 0.333333;
   (1, 2, 2, 2, 2, 2) 0.000137118 0.499931 0.499931;
   (2, 2, 2, 2, 2, 2) 0.000274123 0.000274123 0.999452;
   (0, 0, 3, 2, 2, 2) 0.000274123 0.000274123 0.999452;
   (1, 0, 3, 2, 2, 2) 0.333333 0.333333 0.333333;
   (2, 0, 3, 2, 2, 2) 0.333333 0.333333 0.333333;
   (0, 1, 3, 2, 2, 2) 0.333333 0.333333 0.333333;
   (1, 1, 3, 2, 2, 2) 5.48607e-05 0.599956 0.399989;
   (2, 1, 3, 2, 2, 2) 0.333333 0.333333 0.333333;
   (0, 2, 3, 2, 2, 2) 0.499931 0.000137118 0.499931;
   (1, 2, 3, 2, 2, 2) 9.14244e-05 0.333333 0.666575;
   (2, 2, 3, 2, 2, 2) 0.000274123 0.000274123 0.999452;
   (0, 0, 4, 2, 2, 2) 0.399995 2.74326e-05 0.599978;
   (1, 0, 4, 2, 2, 2) 0.000274123 0.000274123 0.999452;
   (2, 0, 4, 2, 2, 2) 0.333333 0.333333 0.333333;
   (0, 1, 4, 2, 2, 2) 9.14244e-05 9.14244e-05 0.999817;
   (1, 1, 4, 2, 2, 2) 1.71459e-05 0.250004 0.749979;
   (2, 1, 4, 2, 2, 2) 0.333333 0.333333 0.333333;
   (0, 2, 4, 2, 2, 2) 0.571401 3.9188e-05 0.42856;
   (1, 2, 4, 2, 2, 2) 1.52409e-05 0.166674 0.83331;
   (2, 2, 4, 2, 2, 2) 5.48607e-05 5.48607e-05 0.99989;
}
probability (diabetes_pre | idade_pre) {
   (0) 0.991082 0.00449885 0.00441943;
   (1) 0.98289 0.00720723 0.00990232;
   (2) 0.960316 0.0137818 0.0259019;
   (3) 0.893711 0.0290133 0.077276;
   (4) 0.705738 0.0843793 0.209883;
}
probability (doenca_hematologica_pre | doenca_renal_pre, diabetes_pre, doenca_neurologica_pre, asma_pre, doenca_hepatica_pre, sindrome_de_down_pre) {
   (0, 0, 0, 0, 0, 0) 0.999698 5.22895e-06 0.000296709;
   (1, 0, 0, 0, 0, 0) 0.874907 0.125036 5.71461e-05;
   (2, 0, 0, 0, 0, 0) 0.990815 0.000382877 0.00880231;
   (0, 1, 0, 0, 0, 0) 0.978012 0.0109939 0.0109939;
   (1, 1, 0, 0, 0, 0) 0.000456621 0.999087 0.000456621;
   (2, 1, 0, 0, 0, 0) 0.999924 3.80996e-05 3.80996e-05;
   (0, 2, 0, 0, 0, 0) 0.997837 0.000164261 0.00199837;
   (1, 2, 0, 0, 0, 0) 0.999886 5.71461e-05 5.71461e-05;
   (2, 2, 0, 0, 0, 0) 0.990997 0.00150072 0.00750221;
   (0, 0, 1, 0, 0, 0) 0.99993 3.51692e-05 3.51692e-05;
   (1, 0, 1, 0, 0, 0) 0.666514 0.333333 0.000152346;
   (2, 0, 1, 0, 0, 0) 0.999087 0.000456621 0.000456621;
   (0, 1, 1, 0, 0, 0) 0.999543 0.000228467 0.000228467;
   (1, 1, 1, 0, 0, 0) 0.999087 0.000456621 0.000456621;
   (2, 1, 1, 0, 0, 0) 0.333333 0.333333 0.333333;
   (0, 2, 1, 0, 0, 0) 0.818121 0.181837 4.15628e-05;
   (1, 2, 1, 0, 0, 0) 0.799872 0.200037 9.14244e-05;
   (2, 2, 1, 0, 0, 0) 0.000228467 0.999543 0.000228467;
   (0, 0, 2, 0, 0, 0) 0.994296 0.00126772 0.00443628;
   (1, 0, 2, 0, 0, 0) 0.999087 0.000456621 0.000456621;
   (2, 0, 2, 0, 0, 0) 0.999983 8.46733e-06 8.46733e-06;
   (0, 1, 2, 0, 0, 0) 0.976724 1.06333e-05 0.0232657;
   (1, 1, 2, 0, 0, 0) 0.999087 0.000456621 0.000456621;
   (2, 1, 2, 0, 0, 0) 0.999695 0.000152346 0.000152346;
   (0, 2, 2, 0, 0, 0) 0.99818 8.31357e-07 0.00181901;
   (1, 2, 2, 0, 0, 0) 0.999087 0.000456621 0.000456621;
   (2, 2, 2, 0, 0, 0) 0.945923 1.23576e-05 0.0540644;
   (0, 0, 0, 1, 0, 0) 0.999869 6.53083e-05 6.53083e-05;
   (1, 0, 0, 1, 0, 0) 0.999087 0.000456621 0.000456621;
   (2, 0, 0, 1, 0, 0) 0.999087 0.000456621 0.000456621;
   (0, 1, 0, 1, 0, 0) 0.66659 0.333333 7.61905e-05;
   (1, 1, 0, 1, 0, 0) 0.812459 0.187513 2.85755e-05;
   (2, 1, 0, 1, 0, 0) 0.999087 0.000456621 0.000456621;
   (0, 2, 0, 1, 0, 0) 0.99993 3.51692e-05 3.51692e-05;
   (1, 2, 0, 1, 0, 0) 0.818121 0.181837 4.15628e-05;
   (2, 2, 0, 1, 0, 0) 0.666514 0.000152346 0.333333;
   (0, 0, 1, 1, 0, 0) 0.333333 0.333333 0.333333;
   (1, 0, 1, 1, 0, 0) 0.333333 0.333333 0.333333;
   (2, 0, 1, 1, 0, 0) 0.333333 0.333333 0.333333;
   (0, 1, 1, 1, 0, 0) 0.999543 0.000228467 0.000228467;
   (1, 1, 1, 1, 0, 0) 0.461525 0.53844 3.51692e-05;
   (2, 1, 1, 1, 0, 0) 0.000114273 0.999771 0.000114273;
   (0, 2, 1, 1, 0, 0) 0.571382 0.428553 6.53083e-05;
   (1, 2, 1, 1, 0, 0) 0.238101 0.761877 2.17723e-05;
   (2, 2, 1, 1, 0, 0) 0.499886 0.499886 0.000228467;
   (0, 0, 2, 1, 0, 0) 0.333333 0.333333 0.333333;
   (1, 0, 2, 1, 0, 0) 0.333333 0.333333 0.333333;
   (2, 0, 2, 1, 0, 0) 0.999087 0.000456621 0.000456621;
   (0, 1, 2, 1, 0, 0) 0.999087 0.000456621 0.000456621;
   (1, 1, 2, 1, 0, 0) 0.749857 0.250029 0.000114273;
   (2, 1, 2, 1, 0, 0) 0.333333 0.333333 0.333333;
   (0, 2, 2, 1, 0, 0) 0.999087 0.000456621 0.000456621;
   (1, 2, 2, 1, 0, 0) 0.333333 0.333333 0.333333;
   (2, 2, 2, 1, 0, 0) 0.666514 0.333333 0.000152346;
   (0, 0, 0, 2, 0, 0) 0.98922 3.79143e-07 0.0107798;
   (1, 0, 0, 2, 0, 0) 0.999695 0.000152346 0.000152346;
   (2, 0, 0, 2, 0, 0) 0.999909 4.57185e-05 4.57185e-05;
   (0, 1, 0, 2, 0, 0) 0.999695 0.000152346 0.000152346;
   (1, 1, 0, 2, 0, 0) 0.333333 0.333333 0.333333;
   (2, 1, 0, 2, 0, 0) 0.333333 0.333333 0.333333;
   (0, 2, 0, 2, 0, 0) 0.99674 1.4894e-06 0.0032588;
   (1, 2, 0, 2, 0, 0) 0.999087 0.000456621 0.000456621;
   (2, 2, 0, 2, 0, 0) 0.999909 4.57185e-05 4.57185e-05;
   (0, 0, 1, 2, 0, 0) 0.333333 0.333333 0.333333;
   (1, 0, 1, 2, 0, 0) 0.333333 0.333333 0.333333;
   (2, 0, 1, 2, 0, 0) 0.333333 0.333333 0.333333;
   (0, 1, 1, 2, 0, 0) 0.333333 0.333333 0.333333;
   (1, 1, 1, 2, 0, 0) 0.200037 0.799872 9.14244e-05;
   (2, 1, 1, 2, 0, 0) 0.333333 0.333333 0.333333;
   (0, 2, 1, 2, 0, 0) 0.999543 0.000228467 0.000228467;
   (1, 2, 1, 2, 0, 0) 0.333333 0.333333 0.333333;
   (2, 2, 1, 2, 0, 0) 0.333333 0.333333 0.333333;
   (0, 0, 2, 2, 0, 0) 0.904725 2.17723e-05 0.0952536;
   (1, 0, 2, 2, 0, 0) 0.333333 0.333333 0.333333;
   (2, 0, 2, 2, 0, 0) 0.999543 0.000228467 0.000228467;
   (0, 1, 2, 2, 0, 0) 0.999087 0.000456621 0.000456621;
   (1, 1, 2, 2, 0, 0) 0.333333 0.333333 0.333333;
   (2, 1, 2, 2, 0, 0) 0.333333 0.333333 0.333333;
   (0, 2, 2, 2, 0, 0) 0.999886 5.71461e-05 5.71461e-05;
   (1, 2, 2, 2, 0, 0) 0.333333 0.333333 0.333333;
   (2, 2, 2, 2, 0, 0) 0.999087 0.000456621 0.000456621;
   (0, 0, 0, 0, 1, 0) 0.666514 0.333333 0.000152346;
   (1, 0, 0, 0, 1, 0) 0.333333 0.333333 0.333333;
   (2, 0, 0, 0, 1, 0) 0.999087 0.000456621 0.000456621;
   (0, 1, 0, 0, 1, 0) 0.000456621 0.999087 0.000456621;
   (1, 1, 0, 0, 1, 0) 0.142894 0.85704 6.53083e-05;
   (2, 1, 0, 0, 1, 0) 0.333333 0.333333 0.333333;
   (0, 2, 0, 0, 1, 0) 0.999543 0.000228467 0.000228467;
   (1, 2, 0, 0, 1, 0) 7.61905e-05 0.833219 0.166705;
   (2, 2, 0, 0, 1, 0) 0.250029 0.749857 0.000114273;
   (0, 0, 1, 0, 1, 0) 0.000456621 0.999087 0.000456621;
   (1, 0, 1, 0, 1, 0) 0.999087 0.000456621 0.000456621;
   (2, 0, 1, 0, 1, 0) 0.333333 0.333333 0.333333;
   (0, 1, 1, 0, 1, 0) 0.999087 0.000456621 0.000456621;
   (1, 1, 1, 0, 1, 0) 0.000456621 0.999087 0.000456621;
   (2, 1, 1, 0, 1, 0) 0.333333 0.333333 0.333333;
   (0, 2, 1, 0, 1, 0) 0.333333 0.333333 0.333333;
   (1, 2, 1, 0, 1, 0) 0.000456621 0.999087 0.000456621;
   (2, 2, 1, 0, 1, 0) 0.000456621 0.999087 0.000456621;
   (0, 0, 2, 0, 1, 0) 0.333333 0.333333 0.333333;
   (1, 0, 2, 0, 1, 0) 0.333333 0.333333 0.333333;
   (2, 0, 2, 0, 1, 0) 0.333333 0.333333 0.333333;
   (0, 1, 2, 0, 1, 0) 0.000456621 0.999087 0.000456621;
   (1, 1, 2, 0, 1, 0) 0.000456621 0.999087 0.000456621;
   (2, 1, 2, 0, 1, 0) 0.333333 0.333333 0.333333;
   (0, 2, 2, 0, 1, 0) 0.333333 0.333333 0.333333;
   (1, 2, 2, 0, 1, 0) 0.000456621 0.999087 0.000456621;
   (2, 2, 2, 0, 1, 0) 0.999087 0.000456621 0.000456621;
   (0, 0, 0, 1, 1, 0) 0.333333 0.333333 0.333333;
   (1, 0, 0, 1, 1, 0) 0.000228467 0.999543 0.000228467;
   (2, 0, 0, 1, 1, 0) 0.333333 0.333333 0.333333;
   (0, 1, 0, 1, 1, 0) 0.999087 0.000456621 0.000456621;
   (1, 1, 0, 1, 1, 0) 0.190486 0.761877 0.0476377;
   (2, 1, 0, 1, 1, 0) 0.000228467 0.999543 0.000228467;
   (0, 2, 0, 1, 1, 0) 0.000456621 0.999087 0.000456621;
   (1, 2, 0, 1, 1, 0) 0.100032 0.899922 4.57185e-05;
   (2, 2, 0, 1, 1, 0) 0.000228467 0.999543 0.000228467;
   (0, 0, 1, 1, 1, 0) 0.333333 0.333333 0.333333;
   (1, 0, 1, 1, 1, 0) 0.000456621 0.999087 0.000456621;
   (2, 0, 1, 1, 1, 0) 0.000228467 0.999543 0.000228467;
   (0, 1, 1, 1, 1, 0) 0.333333 0.666514 0.000152346;
   (1, 1, 1, 1, 1, 0) 0.04879 0.926809 0.0244006;
   (2, 1, 1, 1, 1, 0) 0.000152346 0.999695 0.000152346;
   (0, 2, 1, 1, 1, 0) 0.000456621 0.999087 0.000456621;
   (1, 2, 1, 1, 1, 0) 0.0263269 0.868402 0.105271;
   (2, 2, 1, 1, 1, 0) 0.100032 0.799936 0.100032;
   (0, 0, 2, 1, 1, 0) 0.333333 0.333333 0.333333;
   (1, 0, 2, 1, 1, 0) 0.333333 0.333333 0.333333;
   (2, 0, 2, 1, 1, 0) 0.333333 0.333333 0.333333;
   (0, 1, 2, 1, 1, 0) 0.999087 0.000456621 0.000456621;
   (1, 1, 2, 1, 1, 0) 0.100032 0.899922 4.57185e-05;
   (2, 1, 2, 1, 1, 0) 0.333333 0.333333 0.333333;
   (0, 2, 2, 1, 1, 0) 0.333333 0.333333 0.333333;
   (1, 2, 2, 1, 1, 0) 7.61905e-05 0.999848 7.61905e-05;
   (2, 2, 2, 1, 1, 0) 0.000456621 0.999087 0.000456621;
   (0, 0, 0, 2, 1, 0) 0.333333 0.333333 0.333333;
   (1, 0, 0, 2, 1, 0) 0.333333 0.333333 0.333333;
   (2, 0, 0, 2, 1, 0) 0.333333 0.333333 0.333333;
   (0, 1, 0, 2, 1, 0) 0.333333 0.333333 0.333333;
   (1, 1, 0, 2, 1, 0) 0.333333 0.333333 0.333333;
   (2, 1, 0, 2, 1, 0) 0.333333 0.333333 0.333333;
   (0, 2, 0, 2, 1, 0) 0.333333 0.333333 0.333333;
   (1, 2, 0, 2, 1, 0) 0.000456621 0.999087 0.000456621;
   (2, 2, 0, 2, 1, 0) 0.333333 0.333333 0.333333;
   (0, 0, 1, 2, 1, 0) 0.333333 0.333333 0.333333;
   (1, 0, 1, 2, 1, 0) 0.333333 0.333333 0.333333;
   (2, 0, 1, 2, 1, 0) 0.333333 0.333333 0.333333;
   (0, 1, 1, 2, 1, 0) 0.000456621 0.999087 0.000456621;
   (1, 1, 1, 2, 1, 0) 0.000228467 0.999543 0.000228467;
   (2, 1, 1, 2, 1, 0) 0.333333 0.333333 0.333333;
   (0, 2, 1, 2, 1, 0) 0.333333 0.333333 0.333333;
   (1, 2, 1, 2, 1, 0) 0.333333 0.333333 0.333333;
   (2, 2, 1, 2, 1, 0) 0.333333 0.333333 0.333333;
   (0, 0, 2, 2, 1, 0) 0.333333 0.333333 0.333333;
   (1, 0, 2, 2, 1, 0) 0.333333 0.333333 0.333333;
   (2, 0, 2, 2, 1, 0) 0.333333 0.333333 0.333333;
   (0, 1, 2, 2, 1, 0) 0.333333 0.333333 0.333333;
   (1, 1, 2, 2, 1, 0) 0.000456621 0.999087 0.000456621;
   (2, 1, 2, 2, 1, 0) 0.333333 0.333333 0.333333;
   (0, 2, 2, 2, 1, 0) 0.333333 0.333333 0.333333;
   (1, 2, 2, 2, 1, 0) 0.333333 0.333333 0.333333;
   (2, 2, 2, 2, 1, 0) 0.333333 0.333333 0.333333;
   (0, 0, 0, 0, 2, 0) 0.957342 0.00474147 0.0379166;
   (1, 0, 0, 0, 2, 0) 0.333333 0.333333 0.333333;
   (2, 0, 0, 0, 2, 0) 0.904725 2.17723e-05 0.0952536;
   (0, 1, 0, 0, 2, 0) 0.999087 0.000456621 0.000456621;
   (1, 1, 0, 0, 2, 0) 0.000456621 0.000456621 0.999087;
   (2, 1, 0, 0, 2, 0) 0.333333 0.333333 0.333333;
   (0, 2, 0, 0, 2, 0) 0.999991 4.6186e-06 4.6186e-06;
   (1, 2, 0, 0, 2, 0) 0.333333 0.333333 0.333333;
   (2, 2, 0, 0, 2, 0) 0.919968 1.82889e-05 0.0800139;
   (0, 0, 1, 0, 2, 0) 0.333333 0.333333 0.333333;
   (1, 0, 1, 0, 2, 0) 0.333333 0.333333 0.333333;
   (2, 0, 1, 0, 2, 0) 0.333333 0.333333 0.333333;
   (0, 1, 1, 0, 2, 0) 0.333333 0.333333 0.333333;
   (1, 1, 1, 0, 2, 0) 0.333333 0.333333 0.333333;
   (2, 1, 1, 0, 2, 0) 0.333333 0.333333 0.333333;
   (0, 2, 1, 0, 2, 0) 0.333333 0.333333 0.333333;
   (1, 2, 1, 0, 2, 0) 0.000456621 0.999087 0.000456621;
   (2, 2, 1, 0, 2, 0) 0.333333 0.333333 0.333333;
   (0, 0, 2, 0, 2, 0) 0.999939 3.04804e-05 3.04804e-05;
   (1, 0, 2, 0, 2, 0) 0.333333 0.333333 0.333333;
   (2, 0, 2, 0, 2, 0) 0.999543 0.000228467 0.000228467;
   (0, 1, 2, 0, 2, 0) 0.333333 0.333333 0.333333;
   (1, 1, 2, 0, 2, 0) 0.333333 0.333333 0.333333;
   (2, 1, 2, 0, 2, 0) 0.333333 0.333333 0.333333;
   (0, 2, 2, 0, 2, 0) 0.874907 5.71461e-05 0.125036;
   (1, 2, 2, 0, 2, 0) 0.000456621 0.000456621 0.999087;
   (2, 2, 2, 0, 2, 0) 0.499886 0.000228467 0.499886;
   (0, 0, 0, 1, 2, 0) 0.333333 0.333333 0.333333;
   (1, 0, 0, 1, 2, 0) 0.333333 0.333333 0.333333;
   (2, 0, 0, 1, 2, 0) 0.333333 0.333333 0.333333;
   (0, 1, 0, 1, 2, 0) 0.333333 0.333333 0.333333;
   (1, 1, 0, 1, 2, 0) 0.333333 0.333333 0.333333;
   (2, 1, 0, 1, 2, 0) 0.333333 0.333333 0.333333;
   (0, 2, 0, 1, 2, 0) 0.333333 0.333333 0.333333;
   (1, 2, 0, 1, 2, 0) 0.333333 0.333333 0.333333;
   (2, 2, 0, 1, 2, 0) 0.333333 0.333333 0.333333;
   (0, 0, 1, 1, 2, 0) 0.333333 0.333333 0.333333;
   (1, 0, 1, 1, 2, 0) 0.333333 0.333333 0.333333;
   (2, 0, 1, 1, 2, 0) 0.333333 0.333333 0.333333;
   (0, 1, 1, 1, 2, 0) 0.333333 0.333333 0.333333;
   (1, 1, 1, 1, 2, 0) 0.000152346 0.999695 0.000152346;
   (2, 1, 1, 1, 2, 0) 0.333333 0.333333 0.333333;
   (0, 2, 1, 1, 2, 0) 0.333333 0.333333 0.333333;
   (1, 2, 1, 1, 2, 0) 0.000228467 0.999543 0.000228467;
   (2, 2, 1, 1, 2, 0) 0.333333 0.333333 0.333333;
   (0, 0, 2, 1, 2, 0) 0.999087 0.000456621 0.000456621;
   (1, 0, 2, 1, 2, 0) 0.333333 0.333333 0.333333;
   (2, 0, 2, 1, 2, 0) 0.333333 0.333333 0.333333;
   (0, 1, 2, 1, 2, 0) 0.333333 0.333333 0.333333;
   (1, 1, 2, 1, 2, 0) 0.333333 0.333333 0.333333;
   (2, 1, 2, 1, 2, 0) 0.333333 0.333333 0.333333;
   (0, 2, 2, 1, 2, 0) 0.999087 0.000456621 0.000456621;
   (1, 2, 2, 1, 2, 0) 0.000228467 0.000228467 0.999543;
   (2, 2, 2, 1, 2, 0) 0.333333 0.333333 0.333333;
   (0, 0, 0, 2, 2, 0) 0.999771 0.000114273 0.000114273;
   (1, 0, 0, 2, 2, 0) 0.333333 0.333333 0.333333;
   (2, 0, 0, 2, 2, 0) 0.333333 0.333333 0.333333;
   (0, 1, 0, 2, 2, 0) 0.333333 0.333333 0.333333;
   (1, 1, 0, 2, 2, 0) 0.333333 0.333333 0.333333;
   (2, 1, 0, 2, 2, 0) 0.333333 0.333333 0.333333;
   (0, 2, 0, 2, 2, 0) 0.499886 0.000228467 0.499886;
   (1, 2, 0, 2, 2, 0) 0.333333 0.333333 0.333333;
   (2, 2, 0, 2, 2, 0) 0.499886 0.000228467 0.499886;
   (0, 0, 1, 2, 2, 0) 0.333333 0.333333 0.333333;
   (1, 0, 1, 2, 2, 0) 0.333333 0.333333 0.333333;
   (2, 0, 1, 2, 2, 0) 0.333333 0.333333 0.333333;
   (0, 1, 1, 2, 2, 0) 0.333333 0.333333 0.333333;
   (1, 1, 1, 2, 2, 0) 0.333333 0.333333 0.333333;
   (2, 1, 1, 2, 2, 0) 0.333333 0.333333 0.333333;
   (0, 2, 1, 2, 2, 0) 0.333333 0.333333 0.333333;
   (1, 2, 1, 2, 2, 0) 0.333333 0.333333 0.333333;
   (2, 2, 1, 2, 2, 0) 0.333333 0.333333 0.333333;
   (0, 0, 2, 2, 2, 0) 0.333333 0.333333 0.333333;
   (1, 0, 2, 2, 2, 0) 0.333333 0.333333 0.333333;
   (2, 0, 2, 2, 2, 0) 0.333333 0.333333 0.333333;
   (0, 1, 2, 2, 2, 0) 0.333333 0.333333 0.333333;
   (1, 1, 2, 2, 2, 0) 0.333333 0.333333 0.333333;
   (2, 1, 2, 2, 2, 0) 0.333333 0.333333 0.333333;
   (0, 2, 2, 2, 2, 0) 0.999543 0.000228467 0.000228467;
   (1, 2, 2, 2, 2, 0) 0.333333 0.333333 0.333333;
   (2, 2, 2, 2, 2, 0) 0.000228467 0.000228467 0.999543;
   (0, 0, 0, 0, 0, 1) 0.83331 0.0666789 0.100011;
   (1, 0, 0, 0, 0, 1) 0.666514 0.333333 0.000152346;
   (2, 0, 0, 0, 0, 1) 0.333333 0.333333 0.333333;
   (0, 1, 0, 0, 0, 1) 0.749857 0.000114273 0.250029;
   (1, 1, 0, 0, 0, 1) 0.333333 0.333333 0.333333;
   (2, 1, 0, 0, 0, 1) 0.333333 0.333333 0.333333;
   (0, 2, 0, 0, 0, 1) 0.821405 0.0714414 0.107154;
   (1, 2, 0, 0, 0, 1) 0.333333 0.333333 0.333333;
   (2, 2, 0, 0, 0, 1) 0.999087 0.000456621 0.000456621;
   (0, 0, 1, 0, 0, 1) 0.250029 0.749857 0.000114273;
   (1, 0, 1, 0, 0, 1) 0.333333 0.333333 0.333333;
   (2, 0, 1, 0, 0, 1) 0.333333 0.333333 0.333333;
   (0, 1, 1, 0, 0, 1) 0.000456621 0.999087 0.000456621;
   (1, 1, 1, 0, 0, 1) 0.000152346 0.999695 0.000152346;
   (2, 1, 1, 0, 0, 1) 0.333333 0.333333 0.333333;
   (0, 2, 1, 0, 0, 1) 0.000228467 0.999543 0.000228467;
   (1, 2, 1, 0, 0, 1) 0.333333 0.333333 0.333333;
   (2, 2, 1, 0, 0, 1) 0.333333 0.333333 0.333333;
   (0, 0, 2, 0, 0, 1) 0.999695 0.000152346 0.000152346;
   (1, 0, 2, 0, 0, 1) 0.333333 0.333333 0.333333;
   (2, 0, 2, 0, 0, 1) 0.333333 0.333333 0.333333;
   (0, 1, 2, 0, 0, 1) 0.999087 0.000456621 0.000456621;
   (1, 1, 2, 0, 0, 1) 0.000228467 0.999543 0.000228467;
   (2, 1, 2, 0, 0, 1) 0.333333 0.333333 0.333333;
   (0, 2, 2, 0, 0, 1) 0.999543 0.000228467 0.000228467;
   (1, 2, 2, 0, 0, 1) 0.333333 0.333333 0.333333;
   (2, 2, 2, 0, 0, 1) 0.333333 0.333333 0.333333;
   (0, 0, 0, 1, 0, 1) 0.000456621 0.999087 0.000456621;
   (1, 0, 0, 1, 0, 1) 0.999087 0.000456621 0.000456621;
   (2, 0, 0, 1, 0, 1) 0.333333 0.333333 0.333333;
   (0, 1, 0, 1, 0, 1) 0.333333 0.333333 0.333333;
   (1, 1, 0, 1, 0, 1) 0.333333 0.666514 0.000152346;
   (2, 1, 0, 1, 0, 1) 0.333333 0.333333 0.333333;
   (0, 2, 0, 1, 0, 1) 0.666514 0.000152346 0.333333;
   (1, 2, 0, 1, 0, 1) 0.499943 0.499943 0.000114273;
   (2, 2, 0, 1, 0, 1) 0.333333 0.333333 0.333333;
   (0, 0, 1, 1, 0, 1) 0.000456621 0.999087 0.000456621;
   (1, 0, 1, 1, 0, 1) 0.000228467 0.999543 0.000228467;
   (2, 0, 1, 1, 0, 1) 0.333333 0.333333 0.333333;
   (0, 1, 1, 1, 0, 1) 0.000114273 0.999771 0.000114273;
   (1, 1, 1, 1, 0, 1) 0.00943815 0.97169 0.018872;
   (2, 1, 1, 1, 0, 1) 4.15628e-05 0.909019 0.0909393;
   (0, 2, 1, 1, 0, 1) 7.61905e-05 0.999848 7.61905e-05;
   (1, 2, 1, 1, 0, 1) 0.0129927 0.974015 0.0129927;
   (2, 2, 1, 1, 0, 1) 5.71461e-05 0.999886 5.71461e-05;
   (0, 0, 2, 1, 0, 1) 0.333333 0.333333 0.333333;
   (1, 0, 2, 1, 0, 1) 0.333333 0.333333 0.333333;
   (2, 0, 2, 1, 0, 1) 0.333333 0.333333 0.333333;
   (0, 1, 2, 1, 0, 1) 0.333333 0.333333 0.333333;
   (1, 1, 2, 1, 0, 1) 3.80996e-05 0.999924 3.80996e-05;
   (2, 1, 2, 1, 0, 1) 0.333333 0.333333 0.333333;
   (0, 2, 2, 1, 0, 1) 0.333333 0.333333 0.333333;
   (1, 2, 2, 1, 0, 1) 0.250029 0.499943 0.250029;
   (2, 2, 2, 1, 0, 1) 0.333333 0.333333 0.333333;
   (0, 0, 0, 2, 0, 1) 0.333333 0.333333 0.333333;
   (1, 0, 0, 2, 0, 1) 0.333333 0.333333 0.333333;
   (2, 0, 0, 2, 0, 1) 0.333333 0.333333 0.333333;
   (0, 1, 0, 2, 0, 1) 0.333333 0.333333 0.333333;
   (1, 1, 0, 2, 0, 1) 0.333333 0.333333 0.333333;
   (2, 1, 0, 2, 0, 1) 0.333333 0.333333 0.333333;
   (0, 2, 0, 2, 0, 1) 0.999087 0.000456621 0.000456621;
   (1, 2, 0, 2, 0, 1) 0.333333 0.333333 0.333333;
   (2, 2, 0, 2, 0, 1) 0.333333 0.333333 0.333333;
   (0, 0, 1, 2, 0, 1) 0.333333 0.333333 0.333333;
   (1, 0, 1, 2, 0, 1) 0.333333 0.333333 0.333333;
   (2, 0, 1, 2, 0, 1) 0.333333 0.333333 0.333333;
   (0, 1, 1, 2, 0, 1) 0.000456621 0.999087 0.000456621;
   (1, 1, 1, 2, 0, 1) 5.71461e-05 0.999886 5.71461e-05;
   (2, 1, 1, 2, 0, 1) 0.333333 0.333333 0.333333;
   (0, 2, 1, 2, 0, 1) 0.000228467 0.999543 0.000228467;
   (1, 2, 1, 2, 0, 1) 0.333333 0.333333 0.333333;
   (2, 2, 1, 2, 0, 1) 0.333333 0.333333 0.333333;
   (0, 0, 2, 2, 0, 1) 0.333333 0.333333 0.333333;
   (1, 0, 2, 2, 0, 1) 0.333333 0.333333 0.333333;
   (2, 0, 2, 2, 0, 1) 0.333333 0.333333 0.333333;
   (0, 1, 2, 2, 0, 1) 0.333333 0.333333 0.333333;
   (1, 1, 2, 2, 0, 1) 0.000456621 0.999087 0.000456621;
   (2, 1, 2, 2, 0, 1) 0.333333 0.333333 0.333333;
   (0, 2, 2, 2, 0, 1) 0.333333 0.333333 0.333333;
   (1, 2, 2, 2, 0, 1) 0.333333 0.333333 0.333333;
   (2, 2, 2, 2, 0, 1) 0.333333 0.333333 0.333333;
   (0, 0, 0, 0, 1, 1) 0.250029 0.749857 0.000114273;
   (1, 0, 0, 0, 1, 1) 0.000228467 0.499886 0.499886;
   (2, 0, 0, 0, 1, 1) 0.333333 0.666514 0.000152346;
   (0, 1, 0, 0, 1, 1) 0.499886 0.499886 0.000228467;
   (1, 1, 0, 0, 1, 1) 0.000228467 0.999543 0.000228467;
   (2, 1, 0, 0, 1, 1) 0.333333 0.333333 0.333333;
   (0, 2, 0, 0, 1, 1) 0.499943 0.499943 0.000114273;
   (1, 2, 0, 0, 1, 1) 6.53083e-05 0.999869 6.53083e-05;
   (2, 2, 0, 0, 1, 1) 0.333333 0.333333 0.333333;
   (0, 0, 1, 0, 1, 1) 0.000228467 0.999543 0.000228467;
   (1, 0, 1, 0, 1, 1) 3.51692e-05 0.923015 0.0769501;
   (2, 0, 1, 0, 1, 1) 0.333333 0.333333 0.333333;
   (0, 1, 1, 0, 1, 1) 6.53083e-05 0.999869 6.53083e-05;
   (1, 1, 1, 0, 1, 1) 0.0315833 0.915781 0.0526356;
   (2, 1, 1, 0, 1, 1) 5.71461e-05 0.999886 5.71461e-05;
   (0, 2, 1, 0, 1, 1) 0.0625232 0.937448 2.85755e-05;
   (1, 2, 1, 0, 1, 1) 0.0107574 0.978485 0.0107574;
   (2, 2, 1, 0, 1, 1) 0.25001 0.666629 0.0833619;
   (0, 0, 2, 0, 1, 1) 0.999087 0.000456621 0.000456621;
   (1, 0, 2, 0, 1, 1) 0.000152346 0.999695 0.000152346;
   (2, 0, 2, 0, 1, 1) 0.333333 0.333333 0.333333;
   (0, 1, 2, 0, 1, 1) 0.000228467 0.499886 0.499886;
   (1, 1, 2, 0, 1, 1) 3.80996e-05 0.9166 0.0833619;
   (2, 1, 2, 0, 1, 1) 0.000456621 0.999087 0.000456621;
   (0, 2, 2, 0, 1, 1) 0.333333 0.333333 0.333333;
   (1, 2, 2, 0, 1, 1) 0.333333 0.66659 7.61905e-05;
   (2, 2, 2, 0, 1, 1) 0.499886 0.499886 0.000228467;
   (0, 0, 0, 1, 1, 1) 0.499886 0.499886 0.000228467;
   (1, 0, 0, 1, 1, 1) 0.333333 0.66659 7.61905e-05;
   (2, 0, 0, 1, 1, 1) 0.000228467 0.499886 0.499886;
   (0, 1, 0, 1, 1, 1) 5.71461e-05 0.999886 5.71461e-05;
   (1, 1, 0, 1, 1, 1) 0.168677 0.819269 0.0120535;
   (2, 1, 0, 1, 1, 1) 0.285724 0.714211 6.53083e-05;
   (0, 2, 0, 1, 1, 1) 3.51692e-05 0.99993 3.51692e-05;
   (1, 2, 0, 1, 1, 1) 0.111115 0.888878 6.35054e-06;
   (2, 2, 0, 1, 1, 1) 0.142876 0.857092 3.26573e-05;
   (0, 0, 1, 1, 1, 1) 0.000114273 0.999771 0.000114273;
   (1, 0, 1, 1, 1, 1) 0.0144991 0.956509 0.0289916;
   (2, 0, 1, 1, 1, 1) 5.71461e-05 0.999886 5.71461e-05;
   (0, 1, 1, 1, 1, 1) 0.0124251 0.968939 0.0186362;
   (1, 1, 1, 1, 1, 1) 0.00208277 0.979116 0.018801;
   (2, 1, 1, 1, 1, 1) 0.00284403 0.979146 0.0180099;
   (0, 2, 1, 1, 1, 1) 0.0128233 0.955123 0.0320539;
   (1, 2, 1, 1, 1, 1) 0.00246431 0.989404 0.00813212;
   (2, 2, 1, 1, 1, 1) 0.00114207 0.977168 0.02169;
   (0, 0, 2, 1, 1, 1) 0.000456621 0.000456621 0.999087;
   (1, 0, 2, 1, 1, 1) 0.0909393 0.818121 0.0909393;
   (2, 0, 2, 1, 1, 1) 0.000228467 0.999543 0.000228467;
   (0, 1, 2, 1, 1, 1) 0.0526518 0.947324 2.40639e-05;
   (1, 1, 2, 1, 1, 1) 0.00214932 0.986389 0.0114616;
   (2, 1, 2, 1, 1, 1) 5.25563e-06 0.908037 0.0919578;
   (0, 2, 2, 1, 1, 1) 6.53083e-05 0.999869 6.53083e-05;
   (1, 2, 2, 1, 1, 1) 0.00894534 0.982109 0.00894534;
   (2, 2, 2, 1, 1, 1) 0.0277836 0.944433 0.0277836;
   (0, 0, 0, 2, 1, 1) 0.333333 0.333333 0.333333;
   (1, 0, 0, 2, 1, 1) 0.000456621 0.999087 0.000456621;
   (2, 0, 0, 2, 1, 1) 0.333333 0.333333 0.333333;
   (0, 1, 0, 2, 1, 1) 0.000228467 0.999543 0.000228467;
   (1, 1, 0, 2, 1, 1) 0.333333 0.666514 0.000152346;
   (2, 1, 0, 2, 1, 1) 0.333333 0.333333 0.333333;
   (0, 2, 0, 2, 1, 1) 0.000456621 0.999087 0.000456621;
   (1, 2, 0, 2, 1, 1) 0.333333 0.666514 0.000152346;
   (2, 2, 0, 2, 1, 1) 0.333333 0.333333 0.333333;
   (0, 0, 1, 2, 1, 1) 0.333333 0.333333 0.333333;
   (1, 0, 1, 2, 1, 1) 4.15628e-05 0.999917 4.15628e-05;
   (2, 0, 1, 2, 1, 1) 0.333333 0.333333 0.333333;
   (0, 1, 1, 2, 1, 1) 1.47493e-05 0.999971 1.47493e-05;
   (1, 1, 1, 2, 1, 1) 0.00162639 0.987804 0.0105695;
   (2, 1, 1, 2, 1, 1) 1.30637e-05 0.942833 0.0571537;
   (0, 2, 1, 2, 1, 1) 3.26573e-05 0.999935 3.26573e-05;
   (1, 2, 1, 2, 1, 1) 1.3409e-06 0.982402 0.0175966;
   (2, 2, 1, 2, 1, 1) 2.07827e-05 0.909055 0.0909242;
   (0, 0, 2, 2, 1, 1) 0.333333 0.333333 0.333333;
   (1, 0, 2, 2, 1, 1) 0.000456621 0.999087 0.000456621;
   (2, 0, 2, 2, 1, 1) 0.333333 0.333333 0.333333;
   (0, 1, 2, 2, 1, 1) 0.999087 0.000456621 0.000456621;
   (1, 1, 2, 2, 1, 1) 1.38554e-05 0.969671 0.0303156;
   (2, 1, 2, 2, 1, 1) 9.14244e-05 0.799872 0.200037;
   (0, 2, 2, 2, 1, 1) 0.000456621 0.999087 0.000456621;
   (1, 2, 2, 2, 1, 1) 2.85755e-05 0.999943 2.85755e-05;
   (2, 2, 2, 2, 1, 1) 7.61905e-05 0.66659 0.333333;
   (0, 0, 0, 0, 2, 1) 0.666514 0.333333 0.000152346;
   (1, 0, 0, 0, 2, 1) 0.333333 0.333333 0.333333;
   (2, 0, 0, 0, 2, 1) 0.333333 0.333333 0.333333;
   (0, 1, 0, 0, 2, 1) 0.333333 0.333333 0.333333;
   (1, 1, 0, 0, 2, 1) 0.000456621 0.999087 0.000456621;
   (2, 1, 0, 0, 2, 1) 0.333333 0.333333 0.333333;
   (0, 2, 0, 0, 2, 1) 0.333333 0.333333 0.333333;
   (1, 2, 0, 0, 2, 1) 0.333333 0.333333 0.333333;
   (2, 2, 0, 0, 2, 1) 0.999087 0.000456621 0.000456621;
   (0, 0, 1, 0, 2, 1) 0.333333 0.333333 0.333333;
   (1, 0, 1, 0, 2, 1) 0.333333 0.333333 0.333333;
   (2, 0, 1, 0, 2, 1) 0.333333 0.333333 0.333333;
   (0, 1, 1, 0, 2, 1) 0.333333 0.333333 0.333333;
   (1, 1, 1, 0, 2, 1) 0.000228467 0.999543 0.000228467;
   (2, 1, 1, 0, 2, 1) 0.333333 0.333333 0.333333;
   (0, 2, 1, 0, 2, 1) 0.333333 0.333333 0.333333;
   (1, 2, 1, 0, 2, 1) 0.000114273 0.999771 0.000114273;
   (2, 2, 1, 0, 2, 1) 0.000228467 0.999543 0.000228467;
   (0, 0, 2, 0, 2, 1) 0.333333 0.333333 0.333333;
   (1, 0, 2, 0, 2, 1) 0.333333 0.333333 0.333333;
   (2, 0, 2, 0, 2, 1) 0.333333 0.333333 0.333333;
   (0, 1, 2, 0, 2, 1) 0.333333 0.333333 0.333333;
   (1, 1, 2, 0, 2, 1) 0.333333 0.333333 0.333333;
   (2, 1, 2, 0, 2, 1) 0.333333 0.333333 0.333333;
   (0, 2, 2, 0, 2, 1) 0.333333 0.333333 0.333333;
   (1, 2, 2, 0, 2, 1) 0.333333 0.333333 0.333333;
   (2, 2, 2, 0, 2, 1) 0.333333 0.333333 0.333333;
   (0, 0, 0, 1, 2, 1) 0.333333 0.333333 0.333333;
   (1, 0, 0, 1, 2, 1) 0.333333 0.333333 0.333333;
   (2, 0, 0, 1, 2, 1) 0.333333 0.333333 0.333333;
   (0, 1, 0, 1, 2, 1) 0.333333 0.333333 0.333333;
   (1, 1, 0, 1, 2, 1) 0.333333 0.333333 0.333333;
   (2, 1, 0, 1, 2, 1) 0.333333 0.333333 0.333333;
   (0, 2, 0, 1, 2, 1) 0.333333 0.333333 0.333333;
   (1, 2, 0, 1, 2, 1) 0.333333 0.333333 0.333333;
   (2, 2, 0, 1, 2, 1) 0.333333 0.333333 0.333333;
   (0, 0, 1, 1, 2, 1) 0.333333 0.333333 0.333333;
   (1, 0, 1, 1, 2, 1) 0.333333 0.333333 0.333333;
   (2, 0, 1, 1, 2, 1) 0.333333 0.333333 0.333333;
   (0, 1, 1, 1, 2, 1) 0.000152346 0.999695 0.000152346;
   (1, 1, 1, 1, 2, 1) 0.00352272 0.964786 0.0316916;
   (2, 1, 1, 1, 2, 1) 1.23576e-05 0.972949 0.0270384;
   (0, 2, 1, 1, 2, 1) 0.000228467 0.999543 0.000228467;
   (1, 2, 1, 1, 2, 1) 0.019111 0.955409 0.0254804;
   (2, 2, 1, 1, 2, 1) 1.57664e-05 0.862044 0.13794;
   (0, 0, 2, 1, 2, 1) 0.333333 0.333333 0.333333;
   (1, 0, 2, 1, 2, 1) 0.333333 0.333333 0.333333;
   (2, 0, 2, 1, 2, 1) 0.333333 0.333333 0.333333;
   (0, 1, 2, 1, 2, 1) 0.333333 0.333333 0.333333;
   (1, 1, 2, 1, 2, 1) 0.0588457 0.882309 0.0588457;
   (2, 1, 2, 1, 2, 1) 0.000152346 0.666514 0.333333;
   (0, 2, 2, 1, 2, 1) 0.000456621 0.000456621 0.999087;
   (1, 2, 2, 1, 2, 1) 4.15628e-05 0.909019 0.0909393;
   (2, 2, 2, 1, 2, 1) 0.000228467 0.999543 0.000228467;
   (0, 0, 0, 2, 2, 1) 0.333333 0.333333 0.333333;
   (1, 0, 0, 2, 2, 1) 0.333333 0.333333 0.333333;
   (2, 0, 0, 2, 2, 1) 0.333333 0.333333 0.333333;
   (0, 1, 0, 2, 2, 1) 0.333333 0.333333 0.333333;
   (1, 1, 0, 2, 2, 1) 0.333333 0.333333 0.333333;
   (2, 1, 0, 2, 2, 1) 0.333333 0.333333 0.333333;
   (0, 2, 0, 2, 2, 1) 0.333333 0.333333 0.333333;
   (1, 2, 0, 2, 2, 1) 0.333333 0.333333 0.333333;
   (2, 2, 0, 2, 2, 1) 0.333333 0.333333 0.333333;
   (0, 0, 1, 2, 2, 1) 0.333333 0.333333 0.333333;
   (1, 0, 1, 2, 2, 1) 0.999087 0.000456621 0.000456621;
   (2, 0, 1, 2, 2, 1) 0.333333 0.333333 0.333333;
   (0, 1, 1, 2, 2, 1) 0.333333 0.333333 0.333333;
   (1, 1, 1, 2, 2, 1) 5.71461e-05 0.874907 0.125036;
   (2, 1, 1, 2, 2, 1) 0.000456621 0.999087 0.000456621;
   (0, 2, 1, 2, 2, 1) 0.333333 0.333333 0.333333;
   (1, 2, 1, 2, 2, 1) 5.71461e-05 0.999886 5.71461e-05;
   (2, 2, 1, 2, 2, 1) 0.000228467 0.999543 0.000228467;
   (0, 0, 2, 2, 2, 1) 0.333333 0.333333 0.333333;
   (1, 0, 2, 2, 2, 1) 0.333333 0.333333 0.333333;
   (2, 0, 2, 2, 2, 1) 0.333333 0.333333 0.333333;
   (0, 1, 2, 2, 2, 1) 0.333333 0.333333 0.333333;
   (1, 1, 2, 2, 2, 1) 0.333333 0.333333 0.333333;
   (2, 1, 2, 2, 2, 1) 0.333333 0.333333 0.333333;
   (0, 2, 2, 2, 2, 1) 0.333333 0.333333 0.333333;
   (1, 2, 2, 2, 2, 1) 0.333333 0.333333 0.333333;
   (2, 2, 2, 2, 2, 1) 0.000152346 0.000152346 0.999695;
   (0, 0, 0, 0, 0, 2) 0.967728 7.37479e-06 0.0322647;
   (1, 0, 0, 0, 0, 2) 0.333333 0.333333 0.333333;
   (2, 0, 0, 0, 0, 2) 0.499886 0.000228467 0.499886;
   (0, 1, 0, 0, 0, 2) 0.333333 0.333333 0.333333;
   (1, 1, 0, 0, 0, 2) 0.333333 0.333333 0.333333;
   (2, 1, 0, 0, 0, 2) 0.333333 0.333333 0.333333;
   (0, 2, 0, 0, 0, 2) 0.999917 4.15628e-05 4.15628e-05;
   (1, 2, 0, 0, 0, 2) 0.333333 0.333333 0.333333;
   (2, 2, 0, 0, 0, 2) 0.333333 0.333333 0.333333;
   (0, 0, 1, 0, 0, 2) 0.333333 0.333333 0.333333;
   (1, 0, 1, 0, 0, 2) 0.333333 0.333333 0.333333;
   (2, 0, 1, 0, 0, 2) 0.333333 0.333333 0.333333;
   (0, 1, 1, 0, 0, 2) 0.333333 0.333333 0.333333;
   (1, 1, 1, 0, 0, 2) 0.333333 0.333333 0.333333;
   (2, 1, 1, 0, 0, 2) 0.333333 0.333333 0.333333;
   (0, 2, 1, 0, 0, 2) 0.333333 0.333333 0.333333;
   (1, 2, 1, 0, 0, 2) 0.333333 0.333333 0.333333;
   (2, 2, 1, 0, 0, 2) 0.333333 0.333333 0.333333;
   (0, 0, 2, 0, 0, 2) 0.999543 0.000228467 0.000228467;
   (1, 0, 2, 0, 0, 2) 0.333333 0.333333 0.333333;
   (2, 0, 2, 0, 0, 2) 0.333333 0.333333 0.333333;
   (0, 1, 2, 0, 0, 2) 0.333333 0.333333 0.333333;
   (1, 1, 2, 0, 0, 2) 0.333333 0.333333 0.333333;
   (2, 1, 2, 0, 0, 2) 0.333333 0.333333 0.333333;
   (0, 2, 2, 0, 0, 2) 0.333333 0.333333 0.333333;
   (1, 2, 2, 0, 0, 2) 0.333333 0.333333 0.333333;
   (2, 2, 2, 0, 0, 2) 0.333333 0.333333 0.333333;
   (0, 0, 0, 1, 0, 2) 0.333333 0.333333 0.333333;
   (1, 0, 0, 1, 0, 2) 0.333333 0.333333 0.333333;
   (2, 0, 0, 1, 0, 2) 0.333333 0.333333 0.333333;
   (0, 1, 0, 1, 0, 2) 0.333333 0.333333 0.333333;
   (1, 1, 0, 1, 0, 2) 0.333333 0.333333 0.333333;
   (2, 1, 0, 1, 0, 2) 0.333333 0.333333 0.333333;
   (0, 2, 0, 1, 0, 2) 0.333333 0.333333 0.333333;
   (1, 2, 0, 1, 0, 2) 0.333333 0.333333 0.333333;
   (2, 2, 0, 1, 0, 2) 0.333333 0.333333 0.333333;
   (0, 0, 1, 1, 0, 2) 0.333333 0.333333 0.333333;
   (1, 0, 1, 1, 0, 2) 0.333333 0.333333 0.333333;
   (2, 0, 1, 1, 0, 2) 0.333333 0.333333 0.333333;
   (0, 1, 1, 1, 0, 2) 0.333333 0.333333 0.333333;
   (1, 1, 1, 1, 0, 2) 0.333333 0.666514 0.000152346;
   (2, 1, 1, 1, 0, 2) 0.333333 0.333333 0.333333;
   (0, 2, 1, 1, 0, 2) 0.333333 0.333333 0.333333;
   (1, 2, 1, 1, 0, 2) 0.000228467 0.999543 0.000228467;
   (2, 2, 1, 1, 0, 2) 0.333333 0.333333 0.333333;
   (0, 0, 2, 1, 0, 2) 0.333333 0.333333 0.333333;
   (1, 0, 2, 1, 0, 2) 0.333333 0.333333 0.333333;
   (2, 0, 2, 1, 0, 2) 0.333333 0.333333 0.333333;
   (0, 1, 2, 1, 0, 2) 0.333333 0.333333 0.333333;
   (1, 1, 2, 1, 0, 2) 0.333333 0.333333 0.333333;
   (2, 1, 2, 1, 0, 2) 0.333333 0.333333 0.333333;
   (0, 2, 2, 1, 0, 2) 0.333333 0.333333 0.333333;
   (1, 2, 2, 1, 0, 2) 0.333333 0.333333 0.333333;
   (2, 2, 2, 1, 0, 2) 0.333333 0.333333 0.333333;
   (0, 0, 0, 2, 0, 2) 0.999543 0.000228467 0.000228467;
   (1, 0, 0, 2, 0, 2) 0.333333 0.333333 0.333333;
   (2, 0, 0, 2, 0, 2) 0.333333 0.333333 0.333333;
   (0, 1, 0, 2, 0, 2) 0.333333 0.333333 0.333333;
   (1, 1, 0, 2, 0, 2) 0.333333 0.333333 0.333333;
   (2, 1, 0, 2, 0, 2) 0.333333 0.333333 0.333333;
   (0, 2, 0, 2, 0, 2) 0.999087 0.000456621 0.000456621;
   (1, 2, 0, 2, 0, 2) 0.333333 0.333333 0.333333;
   (2, 2, 0, 2, 0, 2) 0.333333 0.333333 0.333333;
   (0, 0, 1, 2, 0, 2) 0.333333 0.333333 0.333333;
   (1, 0, 1, 2, 0, 2) 0.333333 0.333333 0.333333;
   (2, 0, 1, 2, 0, 2) 0.333333 0.333333 0.333333;
   (0, 1, 1, 2, 0, 2) 0.333333 0.333333 0.333333;
   (1, 1, 1, 2, 0, 2) 0.333333 0.333333 0.333333;
   (2, 1, 1, 2, 0, 2) 0.333333 0.333333 0.333333;
   (0, 2, 1, 2, 0, 2) 0.333333 0.333333 0.333333;
   (1, 2, 1, 2, 0, 2) 0.333333 0.333333 0.333333;
   (2, 2, 1, 2, 0, 2) 0.333333 0.333333 0.333333;
   (0, 0, 2, 2, 0, 2) 0.333333 0.333333 0.333333;
   (1, 0, 2, 2, 0, 2) 0.333333 0.333333 0.333333;
   (2, 0, 2, 2, 0, 2) 0.333333 0.333333 0.333333;
   (0, 1, 2, 2, 0, 2) 0.333333 0.333333 0.333333;
   (1, 1, 2, 2, 0, 2) 0.333333 0.333333 0.333333;
   (2, 1, 2, 2, 0, 2) 0.333333 0.333333 0.333333;
   (0, 2, 2, 2, 0, 2) 0.333333 0.333333 0.333333;
   (1, 2, 2, 2, 0, 2) 0.333333 0.333333 0.333333;
   (2, 2, 2, 2, 0, 2) 0.333333 0.333333 0.333333;
   (0, 0, 0, 0, 1, 2) 0.333333 0.333333 0.333333;
   (1, 0, 0, 0, 1, 2) 0.333333 0.333333 0.333333;
   (2, 0, 0, 0, 1, 2) 0.333333 0.333333 0.333333;
   (0, 1, 0, 0, 1, 2) 0.333333 0.333333 0.333333;
   (1, 1, 0, 0, 1, 2) 0.333333 0.333333 0.333333;
   (2, 1, 0, 0, 1, 2) 0.333333 0.333333 0.333333;
   (0, 2, 0, 0, 1, 2) 0.333333 0.333333 0.333333;
   (1, 2, 0, 0, 1, 2) 0.333333 0.333333 0.333333;
   (2, 2, 0, 0, 1, 2) 0.333333 0.333333 0.333333;
   (0, 0, 1, 0, 1, 2) 0.333333 0.333333 0.333333;
   (1, 0, 1, 0, 1, 2) 0.333333 0.333333 0.333333;
   (2, 0, 1, 0, 1, 2) 0.333333 0.333333 0.333333;
   (0, 1, 1, 0, 1, 2) 0.333333 0.333333 0.333333;
   (1, 1, 1, 0, 1, 2) 0.333333 0.333333 0.333333;
   (2, 1, 1, 0, 1, 2) 0.333333 0.333333 0.333333;
   (0, 2, 1, 0, 1, 2) 0.333333 0.333333 0.333333;
   (1, 2, 1, 0, 1, 2) 0.000456621 0.999087 0.000456621;
   (2, 2, 1, 0, 1, 2) 0.333333 0.333333 0.333333;
   (0, 0, 2, 0, 1, 2) 0.333333 0.333333 0.333333;
   (1, 0, 2, 0, 1, 2) 0.333333 0.333333 0.333333;
   (2, 0, 2, 0, 1, 2) 0.333333 0.333333 0.333333;
   (0, 1, 2, 0, 1, 2) 0.333333 0.333333 0.333333;
   (1, 1, 2, 0, 1, 2) 0.333333 0.333333 0.333333;
   (2, 1, 2, 0, 1, 2) 0.333333 0.333333 0.333333;
   (0, 2, 2, 0, 1, 2) 0.333333 0.333333 0.333333;
   (1, 2, 2, 0, 1, 2) 0.333333 0.333333 0.333333;
   (2, 2, 2, 0, 1, 2) 0.333333 0.333333 0.333333;
   (0, 0, 0, 1, 1, 2) 0.333333 0.333333 0.333333;
   (1, 0, 0, 1, 1, 2) 0.333333 0.333333 0.333333;
   (2, 0, 0, 1, 1, 2) 0.333333 0.333333 0.333333;
   (0, 1, 0, 1, 1, 2) 0.333333 0.333333 0.333333;
   (1, 1, 0, 1, 1, 2) 0.000456621 0.999087 0.000456621;
   (2, 1, 0, 1, 1, 2) 0.333333 0.333333 0.333333;
   (0, 2, 0, 1, 1, 2) 0.333333 0.333333 0.333333;
   (1, 2, 0, 1, 1, 2) 0.333333 0.333333 0.333333;
   (2, 2, 0, 1, 1, 2) 0.333333 0.333333 0.333333;
   (0, 0, 1, 1, 1, 2) 0.333333 0.333333 0.333333;
   (1, 0, 1, 1, 1, 2) 0.000456621 0.999087 0.000456621;
   (2, 0, 1, 1, 1, 2) 0.333333 0.333333 0.333333;
   (0, 1, 1, 1, 1, 2) 0.000456621 0.999087 0.000456621;
   (1, 1, 1, 1, 1, 2) 0.0120535 0.975893 0.0120535;
   (2, 1, 1, 1, 1, 2) 0.000114273 0.999771 0.000114273;
   (0, 2, 1, 1, 1, 2) 0.333333 0.333333 0.333333;
   (1, 2, 1, 1, 1, 2) 1.57664e-05 0.965487 0.0344969;
   (2, 2, 1, 1, 1, 2) 0.000228467 0.999543 0.000228467;
   (0, 0, 2, 1, 1, 2) 0.333333 0.333333 0.333333;
   (1, 0, 2, 1, 1, 2) 0.333333 0.333333 0.333333;
   (2, 0, 2, 1, 1, 2) 0.333333 0.333333 0.333333;
   (0, 1, 2, 1, 1, 2) 0.333333 0.333333 0.333333;
   (1, 1, 2, 1, 1, 2) 7.61905e-05 0.999848 7.61905e-05;
   (2, 1, 2, 1, 1, 2) 0.333333 0.333333 0.333333;
   (0, 2, 2, 1, 1, 2) 0.000456621 0.999087 0.000456621;
   (1, 2, 2, 1, 1, 2) 0.000228467 0.000228467 0.999543;
   (2, 2, 2, 1, 1, 2) 0.000456621 0.999087 0.000456621;
   (0, 0, 0, 2, 1, 2) 0.333333 0.333333 0.333333;
   (1, 0, 0, 2, 1, 2) 0.333333 0.333333 0.333333;
   (2, 0, 0, 2, 1, 2) 0.333333 0.333333 0.333333;
   (0, 1, 0, 2, 1, 2) 0.333333 0.333333 0.333333;
   (1, 1, 0, 2, 1, 2) 0.333333 0.333333 0.333333;
   (2, 1, 0, 2, 1, 2) 0.333333 0.333333 0.333333;
   (0, 2, 0, 2, 1, 2) 0.333333 0.333333 0.333333;
   (1, 2, 0, 2, 1, 2) 0.333333 0.333333 0.333333;
   (2, 2, 0, 2, 1, 2) 0.333333 0.333333 0.333333;
   (0, 0, 1, 2, 1, 2) 0.333333 0.333333 0.333333;
   (1, 0, 1, 2, 1, 2) 0.333333 0.333333 0.333333;
   (2, 0, 1, 2, 1, 2) 0.333333 0.333333 0.333333;
   (0, 1, 1, 2, 1, 2) 0.000456621 0.999087 0.000456621;
   (1, 1, 1, 2, 1, 2) 7.61905e-05 0.999848 7.61905e-05;
   (2, 1, 1, 2, 1, 2) 0.000456621 0.999087 0.000456621;
   (0, 2, 1, 2, 1, 2) 0.333333 0.333333 0.333333;
   (1, 2, 1, 2, 1, 2) 0.000456621 0.999087 0.000456621;
   (2, 2, 1, 2, 1, 2) 0.333333 0.333333 0.333333;
   (0, 0, 2, 2, 1, 2) 0.333333 0.333333 0.333333;
   (1, 0, 2, 2, 1, 2) 0.333333 0.333333 0.333333;
   (2, 0, 2, 2, 1, 2) 0.333333 0.333333 0.333333;
   (0, 1, 2, 2, 1, 2) 0.333333 0.333333 0.333333;
   (1, 1, 2, 2, 1, 2) 0.333333 0.333333 0.333333;
   (2, 1, 2, 2, 1, 2) 0.333333 0.333333 0.333333;
   (0, 2, 2, 2, 1, 2) 0.333333 0.333333 0.333333;
   (1, 2, 2, 2, 1, 2) 0.333333 0.333333 0.333333;
   (2, 2, 2, 2, 1, 2) 0.333333 0.333333 0.333333;
   (0, 0, 0, 0, 2, 2) 0.999087 0.000456621 0.000456621;
   (1, 0, 0, 0, 2, 2) 0.333333 0.333333 0.333333;
   (2, 0, 0, 0, 2, 2) 0.333333 0.333333 0.333333;
   (0, 1, 0, 0, 2, 2) 0.333333 0.333333 0.333333;
   (1, 1, 0, 0, 2, 2) 0.333333 0.333333 0.333333;
   (2, 1, 0, 0, 2, 2) 0.333333 0.333333 0.333333;
   (0, 2, 0, 0, 2, 2) 0.333333 0.333333 0.333333;
   (1, 2, 0, 0, 2, 2) 0.333333 0.333333 0.333333;
   (2, 2, 0, 0, 2, 2) 0.333333 0.333333 0.333333;
   (0, 0, 1, 0, 2, 2) 0.333333 0.333333 0.333333;
   (1, 0, 1, 0, 2, 2) 0.333333 0.333333 0.333333;
   (2, 0, 1, 0, 2, 2) 0.333333 0.333333 0.333333;
   (0, 1, 1, 0, 2, 2) 0.333333 0.333333 0.333333;
   (1, 1, 1, 0, 2, 2) 0.333333 0.333333 0.333333;
   (2, 1, 1, 0, 2, 2) 0.333333 0.333333 0.333333;
   (0, 2, 1, 0, 2, 2) 0.333333 0.333333 0.333333;
   (1, 2, 1, 0, 2, 2) 0.333333 0.333333 0.333333;
   (2, 2, 1, 0, 2, 2) 0.333333 0.333333 0.333333;
   (0, 0, 2, 0, 2, 2) 0.333333 0.333333 0.333333;
   (1, 0, 2, 0, 2, 2) 0.333333 0.333333 0.333333;
   (2, 0, 2, 0, 2, 2) 0.333333 0.333333 0.333333;
   (0, 1, 2, 0, 2, 2) 0.333333 0.333333 0.333333;
   (1, 1, 2, 0, 2, 2) 0.333333 0.333333 0.333333;
   (2, 1, 2, 0, 2, 2) 0.333333 0.333333 0.333333;
   (0, 2, 2, 0, 2, 2) 0.333333 0.333333 0.333333;
