network "unnamedBN" {
// written by aGrUM 0.22.2
}

variable asma_pre {
   type discrete[3] {0, 1, 2};
}

variable cardiopatia_pre {
   type discrete[3] {0, 1, 2};
}

variable diabetes_pre {
   type discrete[3] {0, 1, 2};
}

variable doenca_hematologica_pre {
   type discrete[3] {0, 1, 2};
}

variable doenca_hepatica_pre {
   type discrete[3] {0, 1, 2};
}

variable doenca_neurologica_pre {
   type discrete[3] {0, 1, 2};
}

variable doenca_renal_pre {
   type discrete[3] {0, 1, 2};
}

variable imunodepressao_pre {
   type discrete[3] {0, 1, 2};
}

variable obesidade_pre {
   type discrete[3] {0, 1, 2};
}

variable outros_fatores_de_risco_pre {
   type discrete[3] {0, 1, 2};
}

variable pneumopatia_pre {
   type discrete[3] {0, 1, 2};
}

variable puerpera_pre {
   type discrete[3] {0, 1, 2};
}

variable sindrome_de_down_pre {
   type discrete[3] {0, 1, 2};
}

variable idade_pre {
   type discrete[5] {0, 1, 2, 3, 4};
}

variable cs_sexo_pre {
   type discrete[2] {0, 1};
}

variable obito_pre {
   type discrete[2] {0, 1};
}

probability (asma_pre | cs_sexo_pre, pneumopatia_pre) {
   (0, 0) 0.997709 0.000258034 0.00203284;
   (1, 0) 0.997896 0.000465215 0.00163831;
   (0, 1) 0.00845178 0.935815 0.0557329;
   (1, 1) 0.00810165 0.955249 0.0366497;
   (0, 2) 0.467942 0.447956 0.084102;
   (1, 2) 0.491158 0.4506 0.0582415;
}
probability (cardiopatia_pre | diabetes_pre, doenca_renal_pre, doenca_neurologica_pre, idade_pre, outros_fatores_de_risco_pre, obesidade_pre) {
   (0, 0, 0, 0, 0, 0) 0.994464 3.15423e-09 0.00553589;
   (1, 0, 0, 0, 0, 0) 0.333333 0.333333 0.333333;
   (2, 0, 0, 0, 0, 0) 0.864822 8.4285e-07 0.135177;
   (0, 1, 0, 0, 0, 0) 0.333333 0.333333 0.333333;
   (1, 1, 0, 0, 0, 0) 0.000547795 0.998904 0.000547795;
   (2, 1, 0, 0, 0, 0) 0.333333 0.333333 0.333333;
   (0, 2, 0, 0, 0, 0) 0.908566 3.13538e-06 0.0914308;
   (1, 2, 0, 0, 0, 0) 0.333333 0.333333 0.333333;
   (2, 2, 0, 0, 0, 0) 0.62494 6.8573e-05 0.374991;
   (0, 0, 1, 0, 0, 0) 0.333333 0.333333 0.333333;
   (1, 0, 1, 0, 0, 0) 0.333333 0.333333 0.333333;
   (2, 0, 1, 0, 0, 0) 0.333333 0.333333 0.333333;
   (0, 1, 1, 0, 0, 0) 0.333333 0.333333 0.333333;
   (1, 1, 1, 0, 0, 0) 6.8573e-05 0.62494 0.374991;
   (2, 1, 1, 0, 0, 0) 0.000547795 0.998904 0.000547795;
   (0, 2, 1, 0, 0, 0) 0.333333 0.333333 0.333333;
   (1, 2, 1, 0, 0, 0) 0.000547795 0.998904 0.000547795;
   (2, 2, 1, 0, 0, 0) 0.333333 0.333333 0.333333;
   (0, 0, 2, 0, 0, 0) 0.968717 1.71459e-05 0.0312655;
   (1, 0, 2, 0, 0, 0) 0.333333 0.333333 0.333333;
   (2, 0, 2, 0, 0, 0) 0.998904 0.000547795 0.000547795;
   (0, 1, 2, 0, 0, 0) 0.333333 0.333333 0.333333;
   (1, 1, 2, 0, 0, 0) 0.333333 0.333333 0.333333;
   (2, 1, 2, 0, 0, 0) 0.333333 0.333333 0.333333;
   (0, 2, 2, 0, 0, 0) 0.333333 0.333333 0.333333;
   (1, 2, 2, 0, 0, 0) 0.333333 0.333333 0.333333;
   (2, 2, 2, 0, 0, 0) 0.333333 0.333333 0.333333;
   (0, 0, 0, 1, 0, 0) 0.986229 3.36127e-09 0.0137711;
   (1, 0, 0, 1, 0, 0) 0.333333 0.333333 0.333333;
   (2, 0, 0, 1, 0, 0) 0.835949 0.00157029 0.162481;
   (0, 1, 0, 1, 0, 0) 0.998904 0.000547795 0.000547795;
   (1, 1, 0, 1, 0, 0) 0.333333 0.333333 0.333333;
   (2, 1, 0, 1, 0, 0) 0.333333 0.333333 0.333333;
   (0, 2, 0, 1, 0, 0) 0.863244 2.34484e-06 0.136754;
   (1, 2, 0, 1, 0, 0) 0.333333 0.333333 0.333333;
   (2, 2, 0, 1, 0, 0) 0.71873 1.71459e-05 0.281253;
   (0, 0, 1, 1, 0, 0) 0.333333 0.333333 0.333333;
   (1, 0, 1, 1, 0, 0) 0.000182799 0.333333 0.666484;
   (2, 0, 1, 1, 0, 0) 0.000274123 0.499863 0.499863;
   (0, 1, 1, 1, 0, 0) 0.000547795 0.998904 0.000547795;
   (1, 1, 1, 1, 0, 0) 0.000182799 0.333333 0.666484;
   (2, 1, 1, 1, 0, 0) 0.000547795 0.000547795 0.998904;
   (0, 2, 1, 1, 0, 0) 0.333333 0.333333 0.333333;
   (1, 2, 1, 1, 0, 0) 0.000274123 0.999452 0.000274123;
   (2, 2, 1, 1, 0, 0) 0.333333 0.333333 0.333333;
   (0, 0, 2, 1, 0, 0) 0.931001 1.89195e-05 0.0689805;
   (1, 0, 2, 1, 0, 0) 0.333333 0.333333 0.333333;
   (2, 0, 2, 1, 0, 0) 0.000274123 0.000274123 0.999452;
   (0, 1, 2, 1, 0, 0) 0.333333 0.333333 0.333333;
   (1, 1, 2, 1, 0, 0) 0.333333 0.333333 0.333333;
   (2, 1, 2, 1, 0, 0) 0.333333 0.333333 0.333333;
   (0, 2, 2, 1, 0, 0) 0.333333 0.333333 0.333333;
   (1, 2, 2, 1, 0, 0) 0.333333 0.333333 0.333333;
   (2, 2, 2, 1, 0, 0) 0.333333 0.333333 0.333333;
   (0, 0, 0, 2, 0, 0) 0.965931 3.30214e-09 0.0340688;
   (1, 0, 0, 2, 0, 0) 0.000274123 0.499863 0.499863;
   (2, 0, 0, 2, 0, 0) 0.736523 0.000303013 0.263174;
   (0, 1, 0, 2, 0, 0) 0.998904 0.000547795 0.000547795;
   (1, 1, 0, 2, 0, 0) 0.333333 0.333333 0.333333;
   (2, 1, 0, 2, 0, 0) 0.333333 0.333333 0.333333;
   (0, 2, 0, 2, 0, 0) 0.835614 1.50327e-06 0.164384;
   (1, 2, 0, 2, 0, 0) 0.333333 0.333333 0.333333;
   (2, 2, 0, 2, 0, 0) 0.482138 0.0178664 0.499995;
   (0, 0, 1, 2, 0, 0) 0.333333 0.333333 0.333333;
   (1, 0, 1, 2, 0, 0) 0.000182799 0.333333 0.666484;
   (2, 0, 1, 2, 0, 0) 0.000274123 0.499863 0.499863;
   (0, 1, 1, 2, 0, 0) 0.333333 0.333333 0.333333;
   (1, 1, 1, 2, 0, 0) 0.000109703 0.599912 0.399978;
   (2, 1, 1, 2, 0, 0) 0.000274123 0.499863 0.499863;
   (0, 2, 1, 2, 0, 0) 0.333333 0.333333 0.333333;
   (1, 2, 1, 2, 0, 0) 0.000547795 0.998904 0.000547795;
   (2, 2, 1, 2, 0, 0) 0.333333 0.333333 0.333333;
   (0, 0, 2, 2, 0, 0) 0.743572 1.40686e-05 0.256414;
   (1, 0, 2, 2, 0, 0) 0.333333 0.333333 0.333333;
   (2, 0, 2, 2, 0, 0) 0.499954 9.14244e-05 0.499954;
   (0, 1, 2, 2, 0, 0) 0.333333 0.333333 0.333333;
   (1, 1, 2, 2, 0, 0) 0.333333 0.333333 0.333333;
   (2, 1, 2, 2, 0, 0) 0.333333 0.333333 0.333333;
   (0, 2, 2, 2, 0, 0) 0.998904 0.000547795 0.000547795;
   (1, 2, 2, 2, 0, 0) 0.333333 0.333333 0.333333;
   (2, 2, 2, 2, 0, 0) 0.333333 0.333333 0.333333;
   (0, 0, 0, 3, 0, 0) 0.926187 6.88543e-06 0.0738057;
   (1, 0, 0, 3, 0, 0) 0.000137118 0.000137118 0.999726;
   (2, 0, 0, 3, 0, 0) 0.621988 0.000810999 0.377201;
   (0, 1, 0, 3, 0, 0) 0.000547795 0.000547795 0.998904;
   (1, 1, 0, 3, 0, 0) 0.333333 0.333333 0.333333;
   (2, 1, 0, 3, 0, 0) 0.250034 0.250034 0.499931;
   (0, 2, 0, 3, 0, 0) 0.768517 1.0161e-06 0.231482;
   (1, 2, 0, 3, 0, 0) 0.333333 0.333333 0.333333;
   (2, 2, 0, 3, 0, 0) 0.450616 3.38698e-06 0.549381;
   (0, 0, 1, 3, 0, 0) 0.000547795 0.000547795 0.998904;
   (1, 0, 1, 3, 0, 0) 7.83668e-05 0.285725 0.714196;
   (2, 0, 1, 3, 0, 0) 0.14288 0.28572 0.571401;
   (0, 1, 1, 3, 0, 0) 0.333333 0.333333 0.333333;
   (1, 1, 1, 3, 0, 0) 1.89195e-05 0.413789 0.586193;
   (2, 1, 1, 3, 0, 0) 3.429e-05 0.250009 0.749957;
   (0, 2, 1, 3, 0, 0) 0.333333 0.333333 0.333333;
   (1, 2, 1, 3, 0, 0) 0.000109703 0.599912 0.399978;
   (2, 2, 1, 3, 0, 0) 0.000547795 0.000547795 0.998904;
   (0, 0, 2, 3, 0, 0) 0.608102 7.41466e-06 0.391891;
   (1, 0, 2, 3, 0, 0) 0.000547795 0.000547795 0.998904;
   (2, 0, 2, 3, 0, 0) 0.35714 0.0714594 0.571401;
   (0, 1, 2, 3, 0, 0) 0.333333 0.333333 0.333333;
   (1, 1, 2, 3, 0, 0) 0.000547795 0.998904 0.000547795;
   (2, 1, 2, 3, 0, 0) 0.000547795 0.000547795 0.998904;
   (0, 2, 2, 3, 0, 0) 0.000547795 0.000547795 0.998904;
   (1, 2, 2, 3, 0, 0) 0.333333 0.333333 0.333333;
   (2, 2, 2, 3, 0, 0) 0.333333 0.000182799 0.666484;
   (0, 0, 0, 4, 0, 0) 0.847319 4.77329e-05 0.152633;
   (1, 0, 0, 4, 0, 0) 0.0526559 2.88763e-05 0.947315;
   (2, 0, 0, 4, 0, 0) 0.464936 0.00046254 0.534601;
   (0, 1, 0, 4, 0, 0) 0.000274123 0.499863 0.499863;
   (1, 1, 0, 4, 0, 0) 0.000137118 0.000137118 0.999726;
   (2, 1, 0, 4, 0, 0) 0.0769555 0.230782 0.692262;
   (0, 2, 0, 4, 0, 0) 0.595163 0.0010521 0.403785;
   (1, 2, 0, 4, 0, 0) 0.000137118 0.000137118 0.999726;
   (2, 2, 0, 4, 0, 0) 0.279002 8.0572e-07 0.720998;
   (0, 0, 1, 4, 0, 0) 0.333333 0.000182799 0.666484;
   (1, 0, 1, 4, 0, 0) 2.61264e-05 0.0952568 0.904717;
   (2, 0, 1, 4, 0, 0) 1.89195e-05 0.344827 0.655154;
   (0, 1, 1, 4, 0, 0) 0.000547795 0.000547795 0.998904;
   (1, 1, 1, 4, 0, 0) 9.46002e-06 0.172418 0.827572;
   (2, 1, 1, 4, 0, 0) 0.0123522 0.259261 0.728387;
   (0, 2, 1, 4, 0, 0) 0.000547795 0.000547795 0.998904;
   (1, 2, 1, 4, 0, 0) 7.83668e-05 0.285725 0.714196;
   (2, 2, 1, 4, 0, 0) 4.22021e-05 0.307696 0.692262;
   (0, 0, 2, 4, 0, 0) 0.492273 0.00110436 0.506622;
   (1, 0, 2, 4, 0, 0) 0.142902 0.142902 0.714196;
   (2, 0, 2, 4, 0, 0) 0.212964 0.0123473 0.774689;
   (0, 1, 2, 4, 0, 0) 0.333333 0.333333 0.333333;
   (1, 1, 2, 4, 0, 0) 2.74326e-05 0.399995 0.599978;
   (2, 1, 2, 4, 0, 0) 3.9188e-05 0.14288 0.857081;
   (0, 2, 2, 4, 0, 0) 0.297299 1.4829e-05 0.702686;
   (1, 2, 2, 4, 0, 0) 0.000547795 0.000547795 0.998904;
   (2, 2, 2, 4, 0, 0) 0.103461 1.89195e-05 0.89652;
   (0, 0, 0, 0, 1, 0) 0.749829 0.000137118 0.250034;
   (1, 0, 0, 0, 1, 0) 0.333333 0.333333 0.333333;
   (2, 0, 0, 0, 1, 0) 0.333333 0.333333 0.333333;
   (0, 1, 0, 0, 1, 0) 0.333333 0.333333 0.333333;
   (1, 1, 0, 0, 1, 0) 0.333333 0.333333 0.333333;
   (2, 1, 0, 0, 1, 0) 0.333333 0.333333 0.333333;
   (0, 2, 0, 0, 1, 0) 0.333333 0.333333 0.333333;
   (1, 2, 0, 0, 1, 0) 0.333333 0.333333 0.333333;
   (2, 2, 0, 0, 1, 0) 0.333333 0.333333 0.333333;
   (0, 0, 1, 0, 1, 0) 0.333333 0.333333 0.333333;
   (1, 0, 1, 0, 1, 0) 0.000274123 0.999452 0.000274123;
   (2, 0, 1, 0, 1, 0) 0.333333 0.333333 0.333333;
   (0, 1, 1, 0, 1, 0) 0.333333 0.333333 0.333333;
   (1, 1, 1, 0, 1, 0) 0.000182799 0.999634 0.000182799;
   (2, 1, 1, 0, 1, 0) 0.000547795 0.998904 0.000547795;
   (0, 2, 1, 0, 1, 0) 0.333333 0.333333 0.333333;
   (1, 2, 1, 0, 1, 0) 0.333333 0.333333 0.333333;
   (2, 2, 1, 0, 1, 0) 0.333333 0.333333 0.333333;
   (0, 0, 2, 0, 1, 0) 0.333333 0.333333 0.333333;
   (1, 0, 2, 0, 1, 0) 0.000547795 0.998904 0.000547795;
   (2, 0, 2, 0, 1, 0) 0.333333 0.333333 0.333333;
   (0, 1, 2, 0, 1, 0) 0.333333 0.333333 0.333333;
   (1, 1, 2, 0, 1, 0) 0.333333 0.333333 0.333333;
   (2, 1, 2, 0, 1, 0) 0.333333 0.333333 0.333333;
   (0, 2, 2, 0, 1, 0) 0.333333 0.333333 0.333333;
   (1, 2, 2, 0, 1, 0) 0.333333 0.333333 0.333333;
   (2, 2, 2, 0, 1, 0) 0.333333 0.333333 0.333333;
   (0, 0, 0, 1, 1, 0) 0.499863 0.000274123 0.499863;
   (1, 0, 0, 1, 1, 0) 0.333333 0.333333 0.333333;
   (2, 0, 0, 1, 1, 0) 0.999452 0.000274123 0.000274123;
   (0, 1, 0, 1, 1, 0) 0.333333 0.333333 0.333333;
   (1, 1, 0, 1, 1, 0) 0.333333 0.333333 0.333333;
   (2, 1, 0, 1, 1, 0) 0.333333 0.333333 0.333333;
   (0, 2, 0, 1, 1, 0) 0.333333 0.333333 0.333333;
   (1, 2, 0, 1, 1, 0) 0.333333 0.333333 0.333333;
   (2, 2, 0, 1, 1, 0) 0.333333 0.333333 0.333333;
   (0, 0, 1, 1, 1, 0) 0.333333 0.333333 0.333333;
   (1, 0, 1, 1, 1, 0) 0.333333 0.333333 0.333333;
   (2, 0, 1, 1, 1, 0) 0.333333 0.333333 0.333333;
   (0, 1, 1, 1, 1, 0) 0.333333 0.333333 0.333333;
   (1, 1, 1, 1, 1, 0) 6.8573e-05 0.874889 0.125043;
   (2, 1, 1, 1, 1, 0) 0.000547795 0.998904 0.000547795;
   (0, 2, 1, 1, 1, 0) 0.333333 0.333333 0.333333;
   (1, 2, 1, 1, 1, 0) 0.333333 0.333333 0.333333;
   (2, 2, 1, 1, 1, 0) 0.333333 0.333333 0.333333;
   (0, 0, 2, 1, 1, 0) 0.333333 0.333333 0.333333;
   (1, 0, 2, 1, 1, 0) 0.333333 0.333333 0.333333;
   (2, 0, 2, 1, 1, 0) 0.333333 0.333333 0.333333;
   (0, 1, 2, 1, 1, 0) 0.333333 0.333333 0.333333;
   (1, 1, 2, 1, 1, 0) 0.000547795 0.000547795 0.998904;
   (2, 1, 2, 1, 1, 0) 0.333333 0.333333 0.333333;
   (0, 2, 2, 1, 1, 0) 0.333333 0.333333 0.333333;
   (1, 2, 2, 1, 1, 0) 0.333333 0.333333 0.333333;
   (2, 2, 2, 1, 1, 0) 0.333333 0.333333 0.333333;
   (0, 0, 0, 2, 1, 0) 0.333333 9.14244e-05 0.666575;
   (1, 0, 0, 2, 1, 0) 0.333333 0.333333 0.333333;
   (2, 0, 0, 2, 1, 0) 0.999817 9.14244e-05 9.14244e-05;
   (0, 1, 0, 2, 1, 0) 0.333333 0.333333 0.333333;
   (1, 1, 0, 2, 1, 0) 0.333333 0.333333 0.333333;
   (2, 1, 0, 2, 1, 0) 0.000547795 0.998904 0.000547795;
   (0, 2, 0, 2, 1, 0) 0.333333 0.333333 0.333333;
   (1, 2, 0, 2, 1, 0) 0.333333 0.333333 0.333333;
   (2, 2, 0, 2, 1, 0) 0.333333 0.333333 0.333333;
   (0, 0, 1, 2, 1, 0) 0.333333 0.333333 0.333333;
   (1, 0, 1, 2, 1, 0) 0.333333 0.333333 0.333333;
   (2, 0, 1, 2, 1, 0) 0.998904 0.000547795 0.000547795;
   (0, 1, 1, 2, 1, 0) 0.333333 0.333333 0.333333;
   (1, 1, 1, 2, 1, 0) 3.22732e-05 0.411757 0.588211;
   (2, 1, 1, 2, 1, 0) 6.09552e-05 0.777697 0.222243;
   (0, 2, 1, 2, 1, 0) 0.333333 0.333333 0.333333;
   (1, 2, 1, 2, 1, 0) 0.333333 0.333333 0.333333;
   (2, 2, 1, 2, 1, 0) 0.333333 0.333333 0.333333;
   (0, 0, 2, 2, 1, 0) 0.333333 0.333333 0.333333;
   (1, 0, 2, 2, 1, 0) 0.333333 0.333333 0.333333;
   (2, 0, 2, 2, 1, 0) 0.333333 0.333333 0.333333;
   (0, 1, 2, 2, 1, 0) 0.333333 0.333333 0.333333;
   (1, 1, 2, 2, 1, 0) 0.333333 0.333333 0.333333;
   (2, 1, 2, 2, 1, 0) 0.000547795 0.000547795 0.998904;
   (0, 2, 2, 2, 1, 0) 0.333333 0.333333 0.333333;
   (1, 2, 2, 2, 1, 0) 0.333333 0.333333 0.333333;
   (2, 2, 2, 2, 1, 0) 0.333333 0.333333 0.333333;
   (0, 0, 0, 3, 1, 0) 0.14288 3.9188e-05 0.857081;
   (1, 0, 0, 3, 1, 0) 0.998904 0.000547795 0.000547795;
   (2, 0, 0, 3, 1, 0) 0.333333 0.0833676 0.583299;
   (0, 1, 0, 3, 1, 0) 0.998904 0.000547795 0.000547795;
   (1, 1, 0, 3, 1, 0) 0.333333 0.333333 0.333333;
   (2, 1, 0, 3, 1, 0) 0.333333 0.333333 0.333333;
   (0, 2, 0, 3, 1, 0) 0.333333 0.333333 0.333333;
   (1, 2, 0, 3, 1, 0) 0.333333 0.333333 0.333333;
   (2, 2, 0, 3, 1, 0) 0.998904 0.000547795 0.000547795;
   (0, 0, 1, 3, 1, 0) 0.333333 0.333333 0.333333;
   (1, 0, 1, 3, 1, 0) 0.000547795 0.998904 0.000547795;
   (2, 0, 1, 3, 1, 0) 0.000109703 0.599912 0.399978;
   (0, 1, 1, 3, 1, 0) 0.000547795 0.000547795 0.998904;
   (1, 1, 1, 3, 1, 0) 2.88763e-05 0.105283 0.894688;
   (2, 1, 1, 3, 1, 0) 0.0384802 0.46153 0.499989;
   (0, 2, 1, 3, 1, 0) 0.333333 0.333333 0.333333;
   (1, 2, 1, 3, 1, 0) 0.333333 0.333333 0.333333;
   (2, 2, 1, 3, 1, 0) 0.000137118 0.499931 0.499931;
   (0, 0, 2, 3, 1, 0) 0.998904 0.000547795 0.000547795;
   (1, 0, 2, 3, 1, 0) 0.333333 0.333333 0.333333;
   (2, 0, 2, 3, 1, 0) 0.333333 0.333333 0.333333;
   (0, 1, 2, 3, 1, 0) 0.333333 0.333333 0.333333;
   (1, 1, 2, 3, 1, 0) 0.000547795 0.000547795 0.998904;
   (2, 1, 2, 3, 1, 0) 0.333333 0.333333 0.333333;
   (0, 2, 2, 3, 1, 0) 0.333333 0.333333 0.333333;
   (1, 2, 2, 3, 1, 0) 0.333333 0.333333 0.333333;
   (2, 2, 2, 3, 1, 0) 0.333333 0.333333 0.333333;
   (0, 0, 0, 4, 1, 0) 0.177783 1.21928e-05 0.822204;
   (1, 0, 0, 4, 1, 0) 0.333333 0.333333 0.333333;
   (2, 0, 0, 4, 1, 0) 0.234046 0.0425634 0.723391;
   (0, 1, 0, 4, 1, 0) 0.000547795 0.000547795 0.998904;
   (1, 1, 0, 4, 1, 0) 0.333333 0.333333 0.333333;
   (2, 1, 0, 4, 1, 0) 0.000182799 0.333333 0.666484;
   (0, 2, 0, 4, 1, 0) 0.000547795 0.000547795 0.998904;
   (1, 2, 0, 4, 1, 0) 0.333333 0.333333 0.333333;
   (2, 2, 0, 4, 1, 0) 0.000274123 0.000274123 0.999452;
   (0, 0, 1, 4, 1, 0) 0.998904 0.000547795 0.000547795;
   (1, 0, 1, 4, 1, 0) 0.000182799 0.000182799 0.999634;
   (2, 0, 1, 4, 1, 0) 0.000109703 0.599912 0.399978;
   (0, 1, 1, 4, 1, 0) 0.000274123 0.000274123 0.999452;
   (1, 1, 1, 4, 1, 0) 1.37169e-05 0.150008 0.849979;
   (2, 1, 1, 4, 1, 0) 0.0340965 0.227275 0.738629;
   (0, 2, 1, 4, 1, 0) 0.333333 0.333333 0.333333;
   (1, 2, 1, 4, 1, 0) 0.000109703 0.200044 0.799846;
   (2, 2, 1, 4, 1, 0) 9.14244e-05 9.14244e-05 0.999817;
   (0, 0, 2, 4, 1, 0) 0.599956 5.48607e-05 0.399989;
   (1, 0, 2, 4, 1, 0) 0.000547795 0.000547795 0.998904;
   (2, 0, 2, 4, 1, 0) 0.000274123 0.000274123 0.999452;
   (0, 1, 2, 4, 1, 0) 0.000547795 0.000547795 0.998904;
   (1, 1, 2, 4, 1, 0) 0.125043 0.250017 0.62494;
   (2, 1, 2, 4, 1, 0) 7.83668e-05 0.142902 0.85702;
   (0, 2, 2, 4, 1, 0) 0.333333 0.333333 0.333333;
   (1, 2, 2, 4, 1, 0) 0.333333 0.333333 0.333333;
   (2, 2, 2, 4, 1, 0) 0.000547795 0.000547795 0.998904;
   (0, 0, 0, 0, 2, 0) 0.951997 1.46319e-06 0.0480013;
   (1, 0, 0, 0, 2, 0) 0.333333 0.333333 0.333333;
   (2, 0, 0, 0, 2, 0) 0.782577 2.38547e-05 0.2174;
   (0, 1, 0, 0, 2, 0) 0.333333 0.333333 0.333333;
   (1, 1, 0, 0, 2, 0) 0.000547795 0.998904 0.000547795;
   (2, 1, 0, 0, 2, 0) 0.333333 0.333333 0.333333;
   (0, 2, 0, 0, 2, 0) 0.666606 6.09552e-05 0.333333;
   (1, 2, 0, 0, 2, 0) 0.333333 0.333333 0.333333;
   (2, 2, 0, 0, 2, 0) 0.749829 0.000137118 0.250034;
   (0, 0, 1, 0, 2, 0) 0.998904 0.000547795 0.000547795;
   (1, 0, 1, 0, 2, 0) 0.333333 0.333333 0.333333;
   (2, 0, 1, 0, 2, 0) 0.333333 0.333333 0.333333;
   (0, 1, 1, 0, 2, 0) 0.333333 0.333333 0.333333;
   (1, 1, 1, 0, 2, 0) 6.8573e-05 0.999863 6.8573e-05;
   (2, 1, 1, 0, 2, 0) 0.333333 0.333333 0.333333;
   (0, 2, 1, 0, 2, 0) 0.333333 0.333333 0.333333;
   (1, 2, 1, 0, 2, 0) 0.333333 0.333333 0.333333;
   (2, 2, 1, 0, 2, 0) 0.333333 0.333333 0.333333;
   (0, 0, 2, 0, 2, 0) 0.937438 3.429e-05 0.0625279;
   (1, 0, 2, 0, 2, 0) 0.333333 0.333333 0.333333;
   (2, 0, 2, 0, 2, 0) 0.998904 0.000547795 0.000547795;
   (0, 1, 2, 0, 2, 0) 0.333333 0.333333 0.333333;
   (1, 1, 2, 0, 2, 0) 0.333333 0.333333 0.333333;
   (2, 1, 2, 0, 2, 0) 0.333333 0.333333 0.333333;
   (0, 2, 2, 0, 2, 0) 0.998904 0.000547795 0.000547795;
   (1, 2, 2, 0, 2, 0) 0.333333 0.333333 0.333333;
   (2, 2, 2, 0, 2, 0) 0.333333 0.333333 0.333333;
   (0, 0, 0, 1, 2, 0) 0.918477 0.00181258 0.0797109;
   (1, 0, 0, 1, 2, 0) 0.333333 0.333333 0.333333;
   (2, 0, 0, 1, 2, 0) 0.735837 0.0188777 0.245286;
   (0, 1, 0, 1, 2, 0) 0.333333 0.333333 0.333333;
   (1, 1, 0, 1, 2, 0) 0.000547795 0.998904 0.000547795;
   (2, 1, 0, 1, 2, 0) 0.333333 0.333333 0.333333;
   (0, 2, 0, 1, 2, 0) 0.8823 3.22732e-05 0.117668;
   (1, 2, 0, 1, 2, 0) 0.333333 0.333333 0.333333;
   (2, 2, 0, 1, 2, 0) 0.998904 0.000547795 0.000547795;
   (0, 0, 1, 1, 2, 0) 0.998904 0.000547795 0.000547795;
   (1, 0, 1, 1, 2, 0) 0.000182799 0.999634 0.000182799;
   (2, 0, 1, 1, 2, 0) 0.000547795 0.000547795 0.998904;
   (0, 1, 1, 1, 2, 0) 0.333333 0.333333 0.333333;
   (1, 1, 1, 1, 2, 0) 4.98741e-05 0.909005 0.0909454;
   (2, 1, 1, 1, 2, 0) 0.333333 0.333333 0.333333;
   (0, 2, 1, 1, 2, 0) 0.333333 0.333333 0.333333;
   (1, 2, 1, 1, 2, 0) 0.000547795 0.000547795 0.998904;
   (2, 2, 1, 1, 2, 0) 0.333333 0.333333 0.333333;
   (0, 0, 2, 1, 2, 0) 0.923002 4.22021e-05 0.0769555;
   (1, 0, 2, 1, 2, 0) 0.333333 0.333333 0.333333;
   (2, 0, 2, 1, 2, 0) 0.000547795 0.000547795 0.998904;
   (0, 1, 2, 1, 2, 0) 0.333333 0.333333 0.333333;
   (1, 1, 2, 1, 2, 0) 0.000547795 0.000547795 0.998904;
   (2, 1, 2, 1, 2, 0) 0.333333 0.333333 0.333333;
   (0, 2, 2, 1, 2, 0) 0.998904 0.000547795 0.000547795;
   (1, 2, 2, 1, 2, 0) 0.333333 0.333333 0.333333;
   (2, 2, 2, 1, 2, 0) 0.000547795 0.000547795 0.998904;
   (0, 0, 0, 2, 2, 0) 0.871794 0.000986733 0.127219;
   (1, 0, 0, 2, 2, 0) 0.998904 0.000547795 0.000547795;
   (2, 0, 0, 2, 2, 0) 0.693638 3.17163e-06 0.306359;
   (0, 1, 0, 2, 2, 0) 0.000547795 0.000547795 0.998904;
   (1, 1, 0, 2, 2, 0) 0.333333 0.333333 0.333333;
   (2, 1, 0, 2, 2, 0) 0.333333 0.333333 0.333333;
   (0, 2, 0, 2, 2, 0) 0.846089 4.22021e-05 0.153869;
   (1, 2, 0, 2, 2, 0) 0.333333 0.333333 0.333333;
   (2, 2, 0, 2, 2, 0) 0.666484 0.000182799 0.333333;
   (0, 0, 1, 2, 2, 0) 0.000547795 0.998904 0.000547795;
   (1, 0, 1, 2, 2, 0) 0.000547795 0.998904 0.000547795;
   (2, 0, 1, 2, 2, 0) 0.333333 0.333333 0.333333;
   (0, 1, 1, 2, 2, 0) 0.000547795 0.998904 0.000547795;
   (1, 1, 1, 2, 2, 0) 0.0416867 0.874963 0.0833505;
   (2, 1, 1, 2, 2, 0) 0.000547795 0.000547795 0.998904;
   (0, 2, 1, 2, 2, 0) 0.000547795 0.998904 0.000547795;
   (1, 2, 1, 2, 2, 0) 0.000182799 0.666484 0.333333;
   (2, 2, 1, 2, 2, 0) 0.000547795 0.000547795 0.998904;
   (0, 0, 2, 2, 2, 0) 0.846089 4.22021e-05 0.153869;
   (1, 0, 2, 2, 2, 0) 0.333333 0.333333 0.333333;
   (2, 0, 2, 2, 2, 0) 0.000182799 0.000182799 0.999634;
   (0, 1, 2, 2, 2, 0) 0.333333 0.333333 0.333333;
   (1, 1, 2, 2, 2, 0) 0.333333 0.333333 0.333333;
   (2, 1, 2, 2, 2, 0) 0.333333 0.333333 0.333333;
   (0, 2, 2, 2, 2, 0) 0.333333 0.333333 0.333333;
   (1, 2, 2, 2, 2, 0) 0.333333 0.333333 0.333333;
   (2, 2, 2, 2, 2, 0) 0.333333 0.333333 0.333333;
   (0, 0, 0, 3, 2, 0) 0.786383 0.00049361 0.213123;
   (1, 0, 0, 3, 2, 0) 0.749829 0.250034 0.000137118;
   (2, 0, 0, 3, 2, 0) 0.628922 7.48562e-07 0.371078;
   (0, 1, 0, 3, 2, 0) 0.333333 0.333333 0.333333;
   (1, 1, 0, 3, 2, 0) 0.333333 0.666484 0.000182799;
   (2, 1, 0, 3, 2, 0) 0.000547795 0.000547795 0.998904;
   (0, 2, 0, 3, 2, 0) 0.499995 1.01607e-05 0.499995;
   (1, 2, 0, 3, 2, 0) 0.000274123 0.000274123 0.999452;
   (2, 2, 0, 3, 2, 0) 0.521732 1.19278e-05 0.478256;
   (0, 0, 1, 3, 2, 0) 0.333333 0.333333 0.333333;
   (1, 0, 1, 3, 2, 0) 0.000274123 0.499863 0.499863;
   (2, 0, 1, 3, 2, 0) 0.000109703 0.200044 0.799846;
   (0, 1, 1, 3, 2, 0) 0.000547795 0.000547795 0.998904;
   (1, 1, 1, 3, 2, 0) 0.107156 0.607127 0.285717;
   (2, 1, 1, 3, 2, 0) 2.88763e-05 0.578926 0.421045;
   (0, 2, 1, 3, 2, 0) 0.333333 0.333333 0.333333;
   (1, 2, 1, 3, 2, 0) 0.000109703 0.799846 0.200044;
   (2, 2, 1, 3, 2, 0) 0.000137118 0.499931 0.499931;
   (0, 0, 2, 3, 2, 0) 0.74417 1.27599e-05 0.255817;
   (1, 0, 2, 3, 2, 0) 0.333333 0.333333 0.333333;
   (2, 0, 2, 3, 2, 0) 0.428549 7.83668e-05 0.571373;
   (0, 1, 2, 3, 2, 0) 0.333333 0.333333 0.333333;
   (1, 1, 2, 3, 2, 0) 0.000274123 0.499863 0.499863;
   (2, 1, 2, 3, 2, 0) 0.333333 0.333333 0.333333;
   (0, 2, 2, 3, 2, 0) 0.998904 0.000547795 0.000547795;
   (1, 2, 2, 3, 2, 0) 0.333333 0.333333 0.333333;
   (2, 2, 2, 3, 2, 0) 0.000547795 0.000547795 0.998904;
   (0, 0, 0, 4, 2, 0) 0.669099 0.00178713 0.329114;
   (1, 0, 0, 4, 2, 0) 0.599971 3.65758e-05 0.399993;
   (2, 0, 0, 4, 2, 0) 0.536592 0.00297071 0.460437;
   (0, 1, 0, 4, 2, 0) 0.000182799 0.000182799 0.999634;
   (1, 1, 0, 4, 2, 0) 5.48607e-05 0.399989 0.599956;
   (2, 1, 0, 4, 2, 0) 0.333333 0.111152 0.555515;
   (0, 2, 0, 4, 2, 0) 0.406374 0.00398622 0.58964;
   (1, 2, 0, 4, 2, 0) 0.333333 0.333333 0.333333;
   (2, 2, 0, 4, 2, 0) 0.365517 1.89205e-06 0.634481;
   (0, 0, 1, 4, 2, 0) 0.250034 0.250034 0.499931;
   (1, 0, 1, 4, 2, 0) 0.043499 0.3913 0.565201;
   (2, 0, 1, 4, 2, 0) 5.48607e-05 0.399989 0.599956;
   (0, 1, 1, 4, 2, 0) 0.000274123 0.499863 0.499863;
   (1, 1, 1, 4, 2, 0) 0.0128273 0.576918 0.410255;
   (2, 1, 1, 4, 2, 0) 0.0270338 0.459457 0.51351;
   (0, 2, 1, 4, 2, 0) 0.998904 0.000547795 0.000547795;
   (1, 2, 1, 4, 2, 0) 4.98741e-05 0.363632 0.636318;
   (2, 2, 1, 4, 2, 0) 3.9188e-05 0.2143 0.785661;
   (0, 0, 2, 4, 2, 0) 0.584382 0.00252026 0.413098;
   (1, 0, 2, 4, 2, 0) 5.48607e-05 0.200022 0.799923;
   (2, 0, 2, 4, 2, 0) 0.289773 3.11757e-06 0.710224;
   (0, 1, 2, 4, 2, 0) 0.000182799 0.000182799 0.999634;
   (1, 1, 2, 4, 2, 0) 5.48607e-05 0.399989 0.599956;
   (2, 1, 2, 4, 2, 0) 6.8573e-05 0.250017 0.749914;
   (0, 2, 2, 4, 2, 0) 0.352939 3.22732e-05 0.647028;
   (1, 2, 2, 4, 2, 0) 0.000274123 0.000274123 0.999452;
   (2, 2, 2, 4, 2, 0) 0.0909454 4.98741e-05 0.909005;
   (0, 0, 0, 0, 0, 1) 0.998904 0.000547795 0.000547795;
   (1, 0, 0, 0, 0, 1) 0.333333 0.333333 0.333333;
   (2, 0, 0, 0, 0, 1) 0.333333 0.333333 0.333333;
   (0, 1, 0, 0, 0, 1) 0.333333 0.333333 0.333333;
   (1, 1, 0, 0, 0, 1) 0.333333 0.333333 0.333333;
   (2, 1, 0, 0, 0, 1) 0.333333 0.333333 0.333333;
   (0, 2, 0, 0, 0, 1) 0.333333 0.333333 0.333333;
   (1, 2, 0, 0, 0, 1) 0.333333 0.333333 0.333333;
   (2, 2, 0, 0, 0, 1) 0.333333 0.333333 0.333333;
   (0, 0, 1, 0, 0, 1) 0.333333 0.333333 0.333333;
   (1, 0, 1, 0, 0, 1) 0.000547795 0.000547795 0.998904;
   (2, 0, 1, 0, 0, 1) 0.333333 0.333333 0.333333;
   (0, 1, 1, 0, 0, 1) 0.333333 0.333333 0.333333;
   (1, 1, 1, 0, 0, 1) 1.7699e-05 0.870939 0.129043;
   (2, 1, 1, 0, 0, 1) 0.000182799 0.666484 0.333333;
   (0, 2, 1, 0, 0, 1) 0.333333 0.333333 0.333333;
   (1, 2, 1, 0, 0, 1) 9.14244e-05 0.833196 0.166712;
   (2, 2, 1, 0, 0, 1) 0.000274123 0.499863 0.499863;
   (0, 0, 2, 0, 0, 1) 0.333333 0.333333 0.333333;
   (1, 0, 2, 0, 0, 1) 0.333333 0.333333 0.333333;
   (2, 0, 2, 0, 0, 1) 0.333333 0.333333 0.333333;
   (0, 1, 2, 0, 0, 1) 0.333333 0.333333 0.333333;
   (1, 1, 2, 0, 0, 1) 0.000137118 0.749829 0.250034;
   (2, 1, 2, 0, 0, 1) 0.333333 0.333333 0.333333;
   (0, 2, 2, 0, 0, 1) 0.333333 0.333333 0.333333;
   (1, 2, 2, 0, 0, 1) 0.333333 0.333333 0.333333;
   (2, 2, 2, 0, 0, 1) 0.333333 0.333333 0.333333;
   (0, 0, 0, 1, 0, 1) 0.333333 0.333333 0.333333;
   (1, 0, 0, 1, 0, 1) 0.333333 0.333333 0.333333;
   (2, 0, 0, 1, 0, 1) 0.998904 0.000547795 0.000547795;
   (0, 1, 0, 1, 0, 1) 0.000547795 0.000547795 0.998904;
   (1, 1, 0, 1, 0, 1) 0.000547795 0.998904 0.000547795;
   (2, 1, 0, 1, 0, 1) 0.000547795 0.000547795 0.998904;
   (0, 2, 0, 1, 0, 1) 0.333333 0.333333 0.333333;
   (1, 2, 0, 1, 0, 1) 0.333333 0.333333 0.333333;
   (2, 2, 0, 1, 0, 1) 0.333333 0.333333 0.333333;
   (0, 0, 1, 1, 0, 1) 0.333333 0.333333 0.333333;
   (1, 0, 1, 1, 0, 1) 0.000547795 0.998904 0.000547795;
   (2, 0, 1, 1, 0, 1) 0.333333 0.333333 0.333333;
   (0, 1, 1, 1, 0, 1) 0.000547795 0.998904 0.000547795;
   (1, 1, 1, 1, 0, 1) 1.66263e-05 0.606047 0.393936;
   (2, 1, 1, 1, 0, 1) 4.22021e-05 0.692262 0.307696;
   (0, 2, 1, 1, 0, 1) 0.333333 0.333333 0.333333;
   (1, 2, 1, 1, 0, 1) 0.000547795 0.998904 0.000547795;
   (2, 2, 1, 1, 0, 1) 0.000274123 0.000274123 0.999452;
   (0, 0, 2, 1, 0, 1) 0.333333 0.333333 0.333333;
   (1, 0, 2, 1, 0, 1) 0.333333 0.333333 0.333333;
   (2, 0, 2, 1, 0, 1) 0.333333 0.333333 0.333333;
   (0, 1, 2, 1, 0, 1) 0.333333 0.333333 0.333333;
   (1, 1, 2, 1, 0, 1) 0.333333 0.333333 0.333333;
   (2, 1, 2, 1, 0, 1) 0.333333 0.333333 0.333333;
   (0, 2, 2, 1, 0, 1) 0.333333 0.333333 0.333333;
   (1, 2, 2, 1, 0, 1) 0.333333 0.333333 0.333333;
   (2, 2, 2, 1, 0, 1) 0.333333 0.333333 0.333333;
   (0, 0, 0, 2, 0, 1) 0.499863 0.000274123 0.499863;
   (1, 0, 0, 2, 0, 1) 0.333333 0.333333 0.333333;
   (2, 0, 0, 2, 0, 1) 0.000547795 0.000547795 0.998904;
   (0, 1, 0, 2, 0, 1) 0.333333 0.333333 0.333333;
   (1, 1, 0, 2, 0, 1) 0.000547795 0.000547795 0.998904;
   (2, 1, 0, 2, 0, 1) 0.000547795 0.998904 0.000547795;
   (0, 2, 0, 2, 0, 1) 0.333333 0.333333 0.333333;
   (1, 2, 0, 2, 0, 1) 0.333333 0.333333 0.333333;
   (2, 2, 0, 2, 0, 1) 0.333333 0.333333 0.333333;
   (0, 0, 1, 2, 0, 1) 0.333333 0.333333 0.333333;
   (1, 0, 1, 2, 0, 1) 0.000274123 0.499863 0.499863;
   (2, 0, 1, 2, 0, 1) 0.000274123 0.499863 0.499863;
   (0, 1, 1, 2, 0, 1) 0.000274123 0.499863 0.499863;
   (1, 1, 1, 2, 0, 1) 0.0138962 0.430553 0.55555;
   (2, 1, 1, 2, 0, 1) 1.21928e-05 0.577769 0.422219;
   (0, 2, 1, 2, 0, 1) 0.333333 0.333333 0.333333;
   (1, 2, 1, 2, 0, 1) 4.98741e-05 0.636318 0.363632;
   (2, 2, 1, 2, 0, 1) 0.000137118 0.749829 0.250034;
   (0, 0, 2, 2, 0, 1) 0.333333 0.333333 0.333333;
   (1, 0, 2, 2, 0, 1) 0.333333 0.333333 0.333333;
   (2, 0, 2, 2, 0, 1) 0.333333 0.333333 0.333333;
   (0, 1, 2, 2, 0, 1) 0.333333 0.333333 0.333333;
   (1, 1, 2, 2, 0, 1) 0.000547795 0.998904 0.000547795;
   (2, 1, 2, 2, 0, 1) 0.000547795 0.000547795 0.998904;
   (0, 2, 2, 2, 0, 1) 0.333333 0.333333 0.333333;
   (1, 2, 2, 2, 0, 1) 0.333333 0.333333 0.333333;
   (2, 2, 2, 2, 0, 1) 0.000547795 0.000547795 0.998904;
   (0, 0, 0, 3, 0, 1) 0.499863 0.000274123 0.499863;
   (1, 0, 0, 3, 0, 1) 0.000274123 0.000274123 0.999452;
   (2, 0, 0, 3, 0, 1) 0.499954 0.166712 0.333333;
   (0, 1, 0, 3, 0, 1) 0.000547795 0.000547795 0.998904;
   (1, 1, 0, 3, 0, 1) 0.000109703 0.200044 0.799846;
   (2, 1, 0, 3, 0, 1) 0.333333 0.333333 0.333333;
   (0, 2, 0, 3, 0, 1) 0.333333 0.333333 0.333333;
   (1, 2, 0, 3, 0, 1) 0.000547795 0.998904 0.000547795;
   (2, 2, 0, 3, 0, 1) 0.333333 0.333333 0.333333;
   (0, 0, 1, 3, 0, 1) 0.333333 0.333333 0.333333;
   (1, 0, 1, 3, 0, 1) 0.333333 0.333333 0.333333;
   (2, 0, 1, 3, 0, 1) 0.000182799 0.666484 0.333333;
   (0, 1, 1, 3, 0, 1) 0.333333 0.333333 0.333333;
   (1, 1, 1, 3, 0, 1) 3.2276e-06 0.258824 0.741173;
   (2, 1, 1, 3, 0, 1) 3.08254e-06 0.393258 0.606739;
   (0, 2, 1, 3, 0, 1) 0.000547795 0.998904 0.000547795;
   (1, 2, 1, 3, 0, 1) 3.04804e-05 0.611086 0.388884;
   (2, 2, 1, 3, 0, 1) 3.9188e-05 0.28572 0.714241;
   (0, 0, 2, 3, 0, 1) 0.333333 0.333333 0.333333;
   (1, 0, 2, 3, 0, 1) 0.333333 0.333333 0.333333;
   (2, 0, 2, 3, 0, 1) 0.333333 0.333333 0.333333;
   (0, 1, 2, 3, 0, 1) 0.998904 0.000547795 0.000547795;
   (1, 1, 2, 3, 0, 1) 5.48607e-05 0.599956 0.399989;
   (2, 1, 2, 3, 0, 1) 7.83668e-05 0.285725 0.714196;
   (0, 2, 2, 3, 0, 1) 0.333333 0.333333 0.333333;
   (1, 2, 2, 3, 0, 1) 0.000182799 0.666484 0.333333;
   (2, 2, 2, 3, 0, 1) 0.000547795 0.000547795 0.998904;
   (0, 0, 0, 4, 0, 1) 0.250009 3.429e-05 0.749957;
   (1, 0, 0, 4, 0, 1) 6.09552e-05 6.09552e-05 0.999878;
   (2, 0, 0, 4, 0, 1) 0.125014 0.208342 0.666644;
   (0, 1, 0, 4, 0, 1) 0.000547795 0.998904 0.000547795;
   (1, 1, 0, 4, 0, 1) 6.09552e-05 0.111152 0.888787;
   (2, 1, 0, 4, 0, 1) 0.153869 0.153869 0.692262;
   (0, 2, 0, 4, 0, 1) 0.749829 0.250034 0.000137118;
   (1, 2, 0, 4, 0, 1) 0.000274123 0.499863 0.499863;
   (2, 2, 0, 4, 0, 1) 3.65758e-05 0.0666959 0.933267;
   (0, 0, 1, 4, 0, 1) 0.333333 0.333333 0.333333;
   (1, 0, 1, 4, 0, 1) 4.57185e-05 0.0833676 0.916587;
   (2, 0, 1, 4, 0, 1) 2.61264e-05 0.238103 0.761871;
   (0, 1, 1, 4, 0, 1) 0.125043 0.250017 0.62494;
   (1, 1, 1, 4, 0, 1) 0.00183586 0.144955 0.853209;
   (2, 1, 1, 4, 0, 1) 0.00471783 0.292453 0.702829;
   (0, 2, 1, 4, 0, 1) 0.000274123 0.000274123 0.999452;
   (1, 2, 1, 4, 0, 1) 1.27599e-05 0.395346 0.604641;
   (2, 2, 1, 4, 0, 1) 7.41466e-06 0.175679 0.824313;
   (0, 0, 2, 4, 0, 1) 0.499863 0.000274123 0.499863;
   (1, 0, 2, 4, 0, 1) 0.000137118 0.250034 0.749829;
   (2, 0, 2, 4, 0, 1) 0.000137118 0.250034 0.749829;
   (0, 1, 2, 4, 0, 1) 0.000547795 0.000547795 0.998904;
   (1, 1, 2, 4, 0, 1) 0.0215109 0.419353 0.559136;
   (2, 1, 2, 4, 0, 1) 1.05515e-05 0.250003 0.749987;
   (0, 2, 2, 4, 0, 1) 0.333333 0.333333 0.333333;
   (1, 2, 2, 4, 0, 1) 6.09552e-05 0.444424 0.555515;
   (2, 2, 2, 4, 0, 1) 5.48607e-05 0.200022 0.799923;
   (0, 0, 0, 0, 1, 1) 0.333333 0.333333 0.333333;
   (1, 0, 0, 0, 1, 1) 0.333333 0.333333 0.333333;
   (2, 0, 0, 0, 1, 1) 0.333333 0.333333 0.333333;
   (0, 1, 0, 0, 1, 1) 0.333333 0.333333 0.333333;
   (1, 1, 0, 0, 1, 1) 0.333333 0.333333 0.333333;
   (2, 1, 0, 0, 1, 1) 0.000547795 0.998904 0.000547795;
   (0, 2, 0, 0, 1, 1) 0.333333 0.333333 0.333333;
   (1, 2, 0, 0, 1, 1) 0.333333 0.333333 0.333333;
   (2, 2, 0, 0, 1, 1) 0.333333 0.333333 0.333333;
   (0, 0, 1, 0, 1, 1) 0.333333 0.333333 0.333333;
   (1, 0, 1, 0, 1, 1) 0.333333 0.333333 0.333333;
   (2, 0, 1, 0, 1, 1) 0.000547795 0.000547795 0.998904;
   (0, 1, 1, 0, 1, 1) 0.000274123 0.999452 0.000274123;
   (1, 1, 1, 0, 1, 1) 2.40655e-06 0.842102 0.157896;
   (2, 1, 1, 0, 1, 1) 1.44388e-05 0.842083 0.157902;
   (0, 2, 1, 0, 1, 1) 0.333333 0.333333 0.333333;
   (1, 2, 1, 0, 1, 1) 3.65758e-05 0.599971 0.399993;
   (2, 2, 1, 0, 1, 1) 0.000182799 0.000182799 0.999634;
   (0, 0, 2, 0, 1, 1) 0.333333 0.333333 0.333333;
   (1, 0, 2, 0, 1, 1) 0.333333 0.333333 0.333333;
   (2, 0, 2, 0, 1, 1) 0.333333 0.333333 0.333333;
   (0, 1, 2, 0, 1, 1) 0.000274123 0.999452 0.000274123;
   (1, 1, 2, 0, 1, 1) 1.44388e-05 0.947342 0.0526437;
   (2, 1, 2, 0, 1, 1) 0.000547795 0.000547795 0.998904;
   (0, 2, 2, 0, 1, 1) 0.333333 0.333333 0.333333;
   (1, 2, 2, 0, 1, 1) 0.000547795 0.998904 0.000547795;
   (2, 2, 2, 0, 1, 1) 0.333333 0.333333 0.333333;
   (0, 0, 0, 1, 1, 1) 0.333333 0.333333 0.333333;
   (1, 0, 0, 1, 1, 1) 0.998904 0.000547795 0.000547795;
   (2, 0, 0, 1, 1, 1) 0.333333 0.333333 0.333333;
   (0, 1, 0, 1, 1, 1) 0.333333 0.333333 0.333333;
   (1, 1, 0, 1, 1, 1) 0.333333 0.333333 0.333333;
   (2, 1, 0, 1, 1, 1) 0.000547795 0.998904 0.000547795;
   (0, 2, 0, 1, 1, 1) 0.333333 0.333333 0.333333;
   (1, 2, 0, 1, 1, 1) 0.333333 0.333333 0.333333;
   (2, 2, 0, 1, 1, 1) 0.333333 0.333333 0.333333;
   (0, 0, 1, 1, 1, 1) 0.333333 0.333333 0.333333;
   (1, 0, 1, 1, 1, 1) 7.83668e-05 0.571373 0.428549;
   (2, 0, 1, 1, 1, 1) 0.000547795 0.998904 0.000547795;
   (0, 1, 1, 1, 1, 1) 0.000274123 0.000274123 0.999452;
   (1, 1, 1, 1, 1, 1) 0.00331306 0.566224 0.430463;
   (2, 1, 1, 1, 1, 1) 4.32039e-06 0.732278 0.267717;
   (0, 2, 1, 1, 1, 1) 0.333333 0.333333 0.333333;
   (1, 2, 1, 1, 1, 1) 2.03209e-05 0.703681 0.296299;
   (2, 2, 1, 1, 1, 1) 7.83668e-05 0.428549 0.571373;
   (0, 0, 2, 1, 1, 1) 0.333333 0.333333 0.333333;
   (1, 0, 2, 1, 1, 1) 0.333333 0.333333 0.333333;
   (2, 0, 2, 1, 1, 1) 0.333333 0.333333 0.333333;
   (0, 1, 2, 1, 1, 1) 0.333333 0.333333 0.333333;
   (1, 1, 2, 1, 1, 1) 2.88763e-05 0.789434 0.210537;
   (2, 1, 2, 1, 1, 1) 0.000182799 0.999634 0.000182799;
   (0, 2, 2, 1, 1, 1) 0.333333 0.333333 0.333333;
   (1, 2, 2, 1, 1, 1) 0.000547795 0.998904 0.000547795;
   (2, 2, 2, 1, 1, 1) 0.333333 0.333333 0.333333;
   (0, 0, 0, 2, 1, 1) 0.333333 0.333333 0.333333;
   (1, 0, 0, 2, 1, 1) 0.333333 0.333333 0.333333;
   (2, 0, 0, 2, 1, 1) 0.333333 0.333333 0.333333;
   (0, 1, 0, 2, 1, 1) 0.333333 0.333333 0.333333;
   (1, 1, 0, 2, 1, 1) 0.000274123 0.000274123 0.999452;
   (2, 1, 0, 2, 1, 1) 0.000182799 0.999634 0.000182799;
   (0, 2, 0, 2, 1, 1) 0.333333 0.333333 0.333333;
   (1, 2, 0, 2, 1, 1) 0.333333 0.333333 0.333333;
   (2, 2, 0, 2, 1, 1) 0.333333 0.333333 0.333333;
   (0, 0, 1, 2, 1, 1) 0.333333 0.333333 0.333333;
   (1, 0, 1, 2, 1, 1) 0.000182799 0.999634 0.000182799;
   (2, 0, 1, 2, 1, 1) 0.333333 0.333333 0.333333;
   (0, 1, 1, 2, 1, 1) 0.000182799 0.333333 0.666484;
   (1, 1, 1, 2, 1, 1) 7.10746e-07 0.3057 0.6943;
   (2, 1, 1, 2, 1, 1) 1.30022e-06 0.599525 0.400474;
   (0, 2, 1, 2, 1, 1) 0.000547795 0.998904 0.000547795;
   (1, 2, 1, 2, 1, 1) 1.07584e-05 0.588227 0.411762;
   (2, 2, 1, 2, 1, 1) 2.49389e-05 0.318183 0.681792;
   (0, 0, 2, 2, 1, 1) 0.333333 0.333333 0.333333;
   (1, 0, 2, 2, 1, 1) 0.333333 0.333333 0.333333;
   (2, 0, 2, 2, 1, 1) 0.333333 0.333333 0.333333;
   (0, 1, 2, 2, 1, 1) 0.333333 0.333333 0.333333;
   (1, 1, 2, 2, 1, 1) 1.4829e-05 0.702686 0.297299;
   (2, 1, 2, 2, 1, 1) 6.8573e-05 0.250017 0.749914;
   (0, 2, 2, 2, 1, 1) 0.333333 0.333333 0.333333;
   (1, 2, 2, 2, 1, 1) 0.000274123 0.499863 0.499863;
   (2, 2, 2, 2, 1, 1) 0.333333 0.333333 0.333333;
   (0, 0, 0, 3, 1, 1) 0.333333 0.333333 0.333333;
   (1, 0, 0, 3, 1, 1) 0.000547795 0.000547795 0.998904;
   (2, 0, 0, 3, 1, 1) 0.000547795 0.000547795 0.998904;
   (0, 1, 0, 3, 1, 1) 0.000547795 0.000547795 0.998904;
   (1, 1, 0, 3, 1, 1) 0.000182799 0.333333 0.666484;
   (2, 1, 0, 3, 1, 1) 0.000137118 0.499931 0.499931;
   (0, 2, 0, 3, 1, 1) 0.333333 0.333333 0.333333;
   (1, 2, 0, 3, 1, 1) 0.333333 0.333333 0.333333;
   (2, 2, 0, 3, 1, 1) 0.000274123 0.000274123 0.999452;
   (0, 0, 1, 3, 1, 1) 0.333333 0.333333 0.333333;
   (1, 0, 1, 3, 1, 1) 6.09552e-05 6.09552e-05 0.999878;
   (2, 0, 1, 3, 1, 1) 0.0833676 0.250011 0.666621;
   (0, 1, 1, 3, 1, 1) 0.000109703 0.000109703 0.999781;
   (1, 1, 1, 3, 1, 1) 0.000570763 0.147176 0.852253;
   (2, 1, 1, 3, 1, 1) 0.000676046 0.460135 0.539189;
   (0, 2, 1, 3, 1, 1) 0.333333 0.333333 0.333333;
   (1, 2, 1, 3, 1, 1) 4.38952e-06 0.511998 0.487998;
   (2, 2, 1, 3, 1, 1) 8.99479e-06 0.295083 0.704908;
   (0, 0, 2, 3, 1, 1) 0.333333 0.333333 0.333333;
   (1, 0, 2, 3, 1, 1) 0.333333 0.333333 0.333333;
   (2, 0, 2, 3, 1, 1) 0.333333 0.333333 0.333333;
   (0, 1, 2, 3, 1, 1) 0.333333 0.333333 0.333333;
   (1, 1, 2, 3, 1, 1) 7.12578e-06 0.662331 0.337662;
   (2, 1, 2, 3, 1, 1) 2.03209e-05 0.481472 0.518507;
   (0, 2, 2, 3, 1, 1) 0.333333 0.333333 0.333333;
   (1, 2, 2, 3, 1, 1) 0.000182799 0.333333 0.666484;
   (2, 2, 2, 3, 1, 1) 0.333333 0.333333 0.333333;
   (0, 0, 0, 4, 1, 1) 0.998904 0.000547795 0.000547795;
   (1, 0, 0, 4, 1, 1) 0.333333 0.333333 0.333333;
   (2, 0, 0, 4, 1, 1) 0.000547795 0.998904 0.000547795;
   (0, 1, 0, 4, 1, 1) 0.333333 0.333333 0.333333;
   (1, 1, 0, 4, 1, 1) 3.429e-05 3.429e-05 0.999931;
   (2, 1, 0, 4, 1, 1) 4.57185e-05 0.416655 0.583299;
   (0, 2, 0, 4, 1, 1) 0.333333 0.333333 0.333333;
   (1, 2, 0, 4, 1, 1) 0.000182799 0.333333 0.666484;
   (2, 2, 0, 4, 1, 1) 0.000109703 0.000109703 0.999781;
   (0, 0, 1, 4, 1, 1) 0.000274123 0.000274123 0.999452;
   (1, 0, 1, 4, 1, 1) 1.95952e-05 0.178581 0.8214;
   (2, 0, 1, 4, 1, 1) 0.0212875 0.340425 0.638287;
   (0, 1, 1, 4, 1, 1) 3.22732e-05 0.0588501 0.941118;
   (1, 1, 1, 4, 1, 1) 0.000394897 0.111923 0.887682;
   (2, 1, 1, 4, 1, 1) 0.00142694 0.305544 0.693029;
   (0, 2, 1, 4, 1, 1) 0.000274123 0.499863 0.499863;
   (1, 2, 1, 4, 1, 1) 1.44393e-06 0.378947 0.621051;
   (2, 2, 1, 4, 1, 1) 1.67285e-06 0.20122 0.798778;
   (0, 0, 2, 4, 1, 1) 0.333333 0.333333 0.333333;
   (1, 0, 2, 4, 1, 1) 0.000137118 0.499931 0.499931;
   (2, 0, 2, 4, 1, 1) 0.000274123 0.000274123 0.999452;
   (0, 1, 2, 4, 1, 1) 0.000182799 0.333333 0.666484;
   (1, 1, 2, 4, 1, 1) 0.00311127 0.475894 0.520995;
   (2, 1, 2, 4, 1, 1) 2.31516e-06 0.236288 0.76371;
   (0, 2, 2, 4, 1, 1) 0.333333 0.333333 0.333333;
   (1, 2, 2, 4, 1, 1) 1.56763e-05 0.342857 0.657128;
   (2, 2, 2, 4, 1, 1) 1.66263e-05 0.303032 0.696952;
   (0, 0, 0, 0, 2, 1) 0.749829 0.000137118 0.250034;
   (1, 0, 0, 0, 2, 1) 0.333333 0.333333 0.333333;
   (2, 0, 0, 0, 2, 1) 0.333333 0.333333 0.333333;
   (0, 1, 0, 0, 2, 1) 0.333333 0.333333 0.333333;
   (1, 1, 0, 0, 2, 1) 0.000182799 0.666484 0.333333;
   (2, 1, 0, 0, 2, 1) 0.333333 0.333333 0.333333;
   (0, 2, 0, 0, 2, 1) 0.333333 0.333333 0.333333;
   (1, 2, 0, 0, 2, 1) 0.333333 0.333333 0.333333;
   (2, 2, 0, 0, 2, 1) 0.333333 0.333333 0.333333;
   (0, 0, 1, 0, 2, 1) 0.333333 0.333333 0.333333;
   (1, 0, 1, 0, 2, 1) 0.000274123 0.999452 0.000274123;
   (2, 0, 1, 0, 2, 1) 0.333333 0.333333 0.333333;
   (0, 1, 1, 0, 2, 1) 0.000547795 0.998904 0.000547795;
   (1, 1, 1, 0, 2, 1) 2.15174e-06 0.929408 0.0705899;
   (2, 1, 1, 0, 2, 1) 4.57185e-05 0.833265 0.16669;
   (0, 2, 1, 0, 2, 1) 0.333333 0.333333 0.333333;
   (1, 2, 1, 0, 2, 1) 4.57185e-05 0.499977 0.499977;
   (2, 2, 1, 0, 2, 1) 0.000182799 0.333333 0.666484;
   (0, 0, 2, 0, 2, 1) 0.333333 0.333333 0.333333;
   (1, 0, 2, 0, 2, 1) 0.000547795 0.998904 0.000547795;
   (2, 0, 2, 0, 2, 1) 0.333333 0.333333 0.333333;
   (0, 1, 2, 0, 2, 1) 0.333333 0.333333 0.333333;
   (1, 1, 2, 0, 2, 1) 2.49389e-05 0.909048 0.0909272;
   (2, 1, 2, 0, 2, 1) 0.333333 0.333333 0.333333;
   (0, 2, 2, 0, 2, 1) 0.333333 0.333333 0.333333;
   (1, 2, 2, 0, 2, 1) 0.000547795 0.998904 0.000547795;
   (2, 2, 2, 0, 2, 1) 0.333333 0.333333 0.333333;
   (0, 0, 0, 1, 2, 1) 0.499863 0.000274123 0.499863;
   (1, 0, 0, 1, 2, 1) 0.333333 0.333333 0.333333;
   (2, 0, 0, 1, 2, 1) 0.998904 0.000547795 0.000547795;
   (0, 1, 0, 1, 2, 1) 0.333333 0.333333 0.333333;
   (1, 1, 0, 1, 2, 1) 0.000182799 0.666484 0.333333;
   (2, 1, 0, 1, 2, 1) 0.333333 0.333333 0.333333;
   (0, 2, 0, 1, 2, 1) 0.333333 0.333333 0.333333;
   (1, 2, 0, 1, 2, 1) 0.333333 0.333333 0.333333;
   (2, 2, 0, 1, 2, 1) 0.333333 0.333333 0.333333;
   (0, 0, 1, 1, 2, 1) 0.998904 0.000547795 0.000547795;
   (1, 0, 1, 1, 2, 1) 0.333333 0.333333 0.333333;
   (2, 0, 1, 1, 2, 1) 0.000547795 0.000547795 0.998904;
   (0, 1, 1, 1, 2, 1) 0.000547795 0.998904 0.000547795;
   (1, 1, 1, 1, 2, 1) 1.53267e-06 0.851953 0.148046;
   (2, 1, 1, 1, 2, 1) 0.0344997 0.586193 0.379308;
   (0, 2, 1, 1, 2, 1) 0.333333 0.333333 0.333333;
   (1, 2, 1, 1, 2, 1) 2.88763e-05 0.789434 0.210537;
   (2, 2, 1, 1, 2, 1) 0.000182799 0.666484 0.333333;
   (0, 0, 2, 1, 2, 1) 0.333333 0.333333 0.333333;
   (1, 0, 2, 1, 2, 1) 0.333333 0.333333 0.333333;
   (2, 0, 2, 1, 2, 1) 0.333333 0.333333 0.333333;
   (0, 1, 2, 1, 2, 1) 0.333333 0.333333 0.333333;
   (1, 1, 2, 1, 2, 1) 4.98741e-05 0.9999 4.98741e-05;
   (2, 1, 2, 1, 2, 1) 0.000182799 0.999634 0.000182799;
   (0, 2, 2, 1, 2, 1) 0.333333 0.333333 0.333333;
   (1, 2, 2, 1, 2, 1) 0.333333 0.333333 0.333333;
   (2, 2, 2, 1, 2, 1) 0.333333 0.333333 0.333333;
   (0, 0, 0, 2, 2, 1) 0.749829 0.000137118 0.250034;
   (1, 0, 0, 2, 2, 1) 0.000274123 0.499863 0.499863;
   (2, 0, 0, 2, 2, 1) 0.333333 0.333333 0.333333;
   (0, 1, 0, 2, 2, 1) 0.499863 0.499863 0.000274123;
   (1, 1, 0, 2, 2, 1) 0.000547795 0.000547795 0.998904;
   (2, 1, 0, 2, 2, 1) 0.333333 0.333333 0.333333;
   (0, 2, 0, 2, 2, 1) 0.333333 0.333333 0.333333;
   (1, 2, 0, 2, 2, 1) 0.333333 0.333333 0.333333;
   (2, 2, 0, 2, 2, 1) 0.000547795 0.998904 0.000547795;
   (0, 0, 1, 2, 2, 1) 0.333333 0.333333 0.333333;
   (1, 0, 1, 2, 2, 1) 0.000182799 0.999634 0.000182799;
   (2, 0, 1, 2, 2, 1) 0.000547795 0.000547795 0.998904;
   (0, 1, 1, 2, 2, 1) 0.000182799 0.999634 0.000182799;
   (1, 1, 1, 2, 2, 1) 0.00132875 0.815404 0.183267;
   (2, 1, 1, 2, 2, 1) 3.42932e-06 0.618747 0.38125;
   (0, 2, 1, 2, 2, 1) 0.333333 0.333333 0.333333;
   (1, 2, 1, 2, 2, 1) 2.38547e-05 0.608676 0.3913;
   (2, 2, 1, 2, 2, 1) 5.48607e-05 0.399989 0.599956;
   (0, 0, 2, 2, 2, 1) 0.333333 0.333333 0.333333;
   (1, 0, 2, 2, 2, 1) 0.333333 0.333333 0.333333;
   (2, 0, 2, 2, 2, 1) 0.333333 0.333333 0.333333;
   (0, 1, 2, 2, 2, 1) 0.000547795 0.998904 0.000547795;
   (1, 1, 2, 2, 2, 1) 3.65758e-05 0.933267 0.0666959;
   (2, 1, 2, 2, 2, 1) 9.14244e-05 0.499954 0.499954;
   (0, 2, 2, 2, 2, 1) 0.333333 0.333333 0.333333;
   (1, 2, 2, 2, 2, 1) 0.000547795 0.998904 0.000547795;
   (2, 2, 2, 2, 2, 1) 0.000547795 0.000547795 0.998904;
   (0, 0, 0, 3, 2, 1) 0.777697 6.09552e-05 0.222243;
   (1, 0, 0, 3, 2, 1) 0.000182799 0.333333 0.666484;
   (2, 0, 0, 3, 2, 1) 0.428549 7.83668e-05 0.571373;
   (0, 1, 0, 3, 2, 1) 0.333333 0.333333 0.333333;
   (1, 1, 0, 3, 2, 1) 6.09552e-05 0.888787 0.111152;
   (2, 1, 0, 3, 2, 1) 0.000274123 0.499863 0.499863;
   (0, 2, 0, 3, 2, 1) 0.998904 0.000547795 0.000547795;
   (1, 2, 0, 3, 2, 1) 0.333333 0.333333 0.333333;
   (2, 2, 0, 3, 2, 1) 0.000547795 0.000547795 0.998904;
   (0, 0, 1, 3, 2, 1) 0.000547795 0.998904 0.000547795;
   (1, 0, 1, 3, 2, 1) 7.83668e-05 0.571373 0.428549;
   (2, 0, 1, 3, 2, 1) 0.000137118 0.749829 0.250034;
   (0, 1, 1, 3, 2, 1) 0.000137118 0.250034 0.749829;
   (1, 1, 1, 3, 2, 1) 0.00187886 0.744521 0.253601;
   (2, 1, 1, 3, 2, 1) 0.00494323 0.589785 0.405272;
   (0, 2, 1, 3, 2, 1) 0.000274123 0.499863 0.499863;
   (1, 2, 1, 3, 2, 1) 0.0145004 0.565212 0.420288;
   (2, 2, 1, 3, 2, 1) 1.19278e-05 0.456517 0.543471;
   (0, 0, 2, 3, 2, 1) 0.333333 0.333333 0.333333;
   (1, 0, 2, 3, 2, 1) 0.000547795 0.000547795 0.998904;
   (2, 0, 2, 3, 2, 1) 0.499863 0.000274123 0.499863;
   (0, 1, 2, 3, 2, 1) 0.333333 0.333333 0.333333;
   (1, 1, 2, 3, 2, 1) 1.24699e-05 0.681805 0.318182;
   (2, 1, 2, 3, 2, 1) 6.09552e-05 0.555515 0.444424;
   (0, 2, 2, 3, 2, 1) 0.333333 0.333333 0.333333;
   (1, 2, 2, 3, 2, 1) 0.000547795 0.998904 0.000547795;
   (2, 2, 2, 3, 2, 1) 0.000137118 0.250034 0.749829;
   (0, 0, 0, 4, 2, 1) 0.529393 3.22732e-05 0.470575;
   (1, 0, 0, 4, 2, 1) 1.52409e-05 0.36111 0.638875;
   (2, 0, 0, 4, 2, 1) 0.250004 0.0277917 0.722204;
   (0, 1, 0, 4, 2, 1) 0.000182799 0.999634 0.000182799;
   (1, 1, 0, 4, 2, 1) 1.71459e-05 0.687482 0.312501;
   (2, 1, 0, 4, 2, 1) 0.0833505 0.250006 0.666644;
   (0, 2, 0, 4, 2, 1) 0.333333 0.333333 0.333333;
   (1, 2, 0, 4, 2, 1) 7.83668e-05 0.142902 0.85702;
   (2, 2, 0, 4, 2, 1) 7.83668e-05 0.142902 0.85702;
   (0, 0, 1, 4, 2, 1) 0.000547795 0.998904 0.000547795;
   (1, 0, 1, 4, 2, 1) 0.0285858 0.542847 0.428567;
   (2, 0, 1, 4, 2, 1) 2.74326e-05 0.150015 0.849957;
   (0, 1, 1, 4, 2, 1) 2.61264e-05 0.523795 0.476179;
   (1, 1, 1, 4, 2, 1) 0.00146885 0.61582 0.382711;
   (2, 1, 1, 4, 2, 1) 0.00262586 0.493248 0.504126;
   (0, 2, 1, 4, 2, 1) 0.333333 0.333333 0.333333;
   (1, 2, 1, 4, 2, 1) 0.00442717 0.460176 0.535397;
   (2, 2, 1, 4, 2, 1) 2.46051e-06 0.331839 0.668159;
   (0, 0, 2, 4, 2, 1) 0.142902 7.83668e-05 0.85702;
   (1, 0, 2, 4, 2, 1) 1.4829e-05 0.351351 0.648635;
   (2, 0, 2, 4, 2, 1) 0.16669 0.16669 0.666621;
   (0, 1, 2, 4, 2, 1) 0.000182799 0.333333 0.666484;
   (1, 1, 2, 4, 2, 1) 0.00263301 0.494736 0.502631;
   (2, 1, 2, 4, 2, 1) 3.26602e-06 0.333333 0.666663;
   (0, 2, 2, 4, 2, 1) 0.000547795 0.998904 0.000547795;
   (1, 2, 2, 4, 2, 1) 1.7699e-05 0.354838 0.645145;
   (2, 2, 2, 4, 2, 1) 2.11024e-05 0.192317 0.807662;
   (0, 0, 0, 0, 0, 2) 0.890901 4.98808e-06 0.109094;
   (1, 0, 0, 0, 0, 2) 0.333333 0.333333 0.333333;
   (2, 0, 0, 0, 0, 2) 0.999817 9.14244e-05 9.14244e-05;
   (0, 1, 0, 0, 0, 2) 0.333333 0.333333 0.333333;
   (1, 1, 0, 0, 0, 2) 0.333333 0.333333 0.333333;
   (2, 1, 0, 0, 0, 2) 0.333333 0.333333 0.333333;
   (0, 2, 0, 0, 0, 2) 0.998904 0.000547795 0.000547795;
   (1, 2, 0, 0, 0, 2) 0.333333 0.333333 0.333333;
   (2, 2, 0, 0, 0, 2) 0.333333 0.333333 0.333333;
   (0, 0, 1, 0, 0, 2) 0.333333 0.333333 0.333333;
   (1, 0, 1, 0, 0, 2) 0.998904 0.000547795 0.000547795;
   (2, 0, 1, 0, 0, 2) 0.333333 0.333333 0.333333;
   (0, 1, 1, 0, 0, 2) 0.333333 0.333333 0.333333;
   (1, 1, 1, 0, 0, 2) 4.22021e-05 0.923002 0.0769555;
   (2, 1, 1, 0, 0, 2) 0.000109703 0.999781 0.000109703;
   (0, 2, 1, 0, 0, 2) 0.333333 0.333333 0.333333;
   (1, 2, 1, 0, 0, 2) 0.333333 0.333333 0.333333;
   (2, 2, 1, 0, 0, 2) 0.333333 0.333333 0.333333;
   (0, 0, 2, 0, 0, 2) 0.998904 0.000547795 0.000547795;
   (1, 0, 2, 0, 0, 2) 0.333333 0.333333 0.333333;
   (2, 0, 2, 0, 0, 2) 0.333333 0.333333 0.333333;
   (0, 1, 2, 0, 0, 2) 0.333333 0.333333 0.333333;
   (1, 1, 2, 0, 0, 2) 0.333333 0.333333 0.333333;
   (2, 1, 2, 0, 0, 2) 0.333333 0.333333 0.333333;
   (0, 2, 2, 0, 0, 2) 0.333333 0.333333 0.333333;
   (1, 2, 2, 0, 0, 2) 0.333333 0.333333 0.333333;
   (2, 2, 2, 0, 0, 2) 0.000547795 0.998904 0.000547795;
   (0, 0, 0, 1, 0, 2) 0.849356 1.75863e-06 0.150642;
   (1, 0, 0, 1, 0, 2) 0.000547795 0.998904 0.000547795;
   (2, 0, 0, 1, 0, 2) 0.517231 0.0344997 0.448269;
   (0, 1, 0, 1, 0, 2) 0.333333 0.333333 0.333333;
   (1, 1, 0, 1, 0, 2) 0.000274123 0.999452 0.000274123;
   (2, 1, 0, 1, 0, 2) 0.333333 0.333333 0.333333;
   (0, 2, 0, 1, 0, 2) 0.000547795 0.000547795 0.998904;
   (1, 2, 0, 1, 0, 2) 0.333333 0.333333 0.333333;
   (2, 2, 0, 1, 0, 2) 0.333333 0.333333 0.333333;
   (0, 0, 1, 1, 0, 2) 0.998904 0.000547795 0.000547795;
   (1, 0, 1, 1, 0, 2) 0.333333 0.333333 0.333333;
   (2, 0, 1, 1, 0, 2) 0.000547795 0.000547795 0.998904;
   (0, 1, 1, 1, 0, 2) 0.000547795 0.998904 0.000547795;
   (1, 1, 1, 1, 0, 2) 1.30637e-05 0.90474 0.0952474;
   (2, 1, 1, 1, 0, 2) 7.83668e-05 0.428549 0.571373;
   (0, 2, 1, 1, 0, 2) 0.333333 0.333333 0.333333;
   (1, 2, 1, 1, 0, 2) 0.000547795 0.000547795 0.998904;
   (2, 2, 1, 1, 0, 2) 0.333333 0.333333 0.333333;
   (0, 0, 2, 1, 0, 2) 0.833196 9.14244e-05 0.166712;
   (1, 0, 2, 1, 0, 2) 0.333333 0.333333 0.333333;
   (2, 0, 2, 1, 0, 2) 0.998904 0.000547795 0.000547795;
   (0, 1, 2, 1, 0, 2) 0.333333 0.333333 0.333333;
   (1, 1, 2, 1, 0, 2) 0.333333 0.333333 0.333333;
   (2, 1, 2, 1, 0, 2) 0.333333 0.333333 0.333333;
   (0, 2, 2, 1, 0, 2) 0.333333 0.333333 0.333333;
   (1, 2, 2, 1, 0, 2) 0.000274123 0.499863 0.499863;
   (2, 2, 2, 1, 0, 2) 0.333333 0.333333 0.333333;
   (0, 0, 0, 2, 0, 2) 0.777776 0.00641141 0.215812;
   (1, 0, 0, 2, 0, 2) 0.333333 0.333333 0.333333;
   (2, 0, 0, 2, 0, 2) 0.388058 0.0447832 0.567158;
   (0, 1, 0, 2, 0, 2) 0.998904 0.000547795 0.000547795;
   (1, 1, 0, 2, 0, 2) 0.000274123 0.999452 0.000274123;
   (2, 1, 0, 2, 0, 2) 0.000182799 0.333333 0.666484;
   (0, 2, 0, 2, 0, 2) 0.999452 0.000274123 0.000274123;
   (1, 2, 0, 2, 0, 2) 0.333333 0.333333 0.333333;
   (2, 2, 0, 2, 0, 2) 0.666484 0.000182799 0.333333;
   (0, 0, 1, 2, 0, 2) 0.499863 0.000274123 0.499863;
   (1, 0, 1, 2, 0, 2) 0.000182799 0.333333 0.666484;
   (2, 0, 1, 2, 0, 2) 0.333333 0.333333 0.333333;
   (0, 1, 1, 2, 0, 2) 0.499863 0.499863 0.000274123;
   (1, 1, 1, 2, 0, 2) 0.0166754 0.683324 0.300001;
   (2, 1, 1, 2, 0, 2) 2.49389e-05 0.454536 0.545439;
   (0, 2, 1, 2, 0, 2) 0.333333 0.333333 0.333333;
   (1, 2, 1, 2, 0, 2) 0.000182799 0.666484 0.333333;
   (2, 2, 1, 2, 0, 2) 0.000547795 0.000547795 0.998904;
   (0, 0, 2, 2, 0, 2) 0.399978 0.000109703 0.599912;
   (1, 0, 2, 2, 0, 2) 0.333333 0.333333 0.333333;
   (2, 0, 2, 2, 0, 2) 0.998904 0.000547795 0.000547795;
   (0, 1, 2, 2, 0, 2) 0.333333 0.333333 0.333333;
   (1, 1, 2, 2, 0, 2) 0.333333 0.333333 0.333333;
   (2, 1, 2, 2, 0, 2) 0.000547795 0.998904 0.000547795;
   (0, 2, 2, 2, 0, 2) 0.333333 0.333333 0.333333;
   (1, 2, 2, 2, 0, 2) 0.333333 0.333333 0.333333;
   (2, 2, 2, 2, 0, 2) 0.333333 0.333333 0.333333;
   (0, 0, 0, 3, 0, 2) 0.660376 0.00209758 0.337526;
   (1, 0, 0, 3, 0, 2) 7.83668e-05 0.428549 0.571373;
   (2, 0, 0, 3, 0, 2) 0.390476 2.61282e-06 0.609522;
   (0, 1, 0, 3, 0, 2) 0.499863 0.000274123 0.499863;
   (1, 1, 0, 3, 0, 2) 0.000274123 0.000274123 0.999452;
   (2, 1, 0, 3, 0, 2) 0.000547795 0.000547795 0.998904;
   (0, 2, 0, 3, 0, 2) 0.399978 0.000109703 0.599912;
   (1, 2, 0, 3, 0, 2) 0.333333 0.333333 0.333333;
   (2, 2, 0, 3, 0, 2) 0.100038 0.100038 0.799923;
   (0, 0, 1, 3, 0, 2) 0.000547795 0.000547795 0.998904;
   (1, 0, 1, 3, 0, 2) 0.000547795 0.000547795 0.998904;
   (2, 0, 1, 3, 0, 2) 0.000274123 0.000274123 0.999452;
   (0, 1, 1, 3, 0, 2) 0.000274123 0.000274123 0.999452;
   (1, 1, 1, 3, 0, 2) 0.0126649 0.556957 0.430378;
   (2, 1, 1, 3, 0, 2) 0.0294265 0.29412 0.676454;
   (0, 2, 1, 3, 0, 2) 0.333333 0.333333 0.333333;
   (1, 2, 1, 3, 0, 2) 0.000547795 0.000547795 0.998904;
   (2, 2, 1, 3, 0, 2) 0.000274123 0.000274123 0.999452;
   (0, 0, 2, 3, 0, 2) 0.666484 0.000182799 0.333333;
   (1, 0, 2, 3, 0, 2) 0.333333 0.333333 0.333333;
   (2, 0, 2, 3, 0, 2) 0.250034 0.250034 0.499931;
   (0, 1, 2, 3, 0, 2) 0.333333 0.333333 0.333333;
   (1, 1, 2, 3, 0, 2) 0.000182799 0.666484 0.333333;
   (2, 1, 2, 3, 0, 2) 0.000547795 0.998904 0.000547795;
   (0, 2, 2, 3, 0, 2) 0.333333 0.333333 0.333333;
   (1, 2, 2, 3, 0, 2) 0.000547795 0.000547795 0.998904;
   (2, 2, 2, 3, 0, 2) 0.000547795 0.000547795 0.998904;
   (0, 0, 0, 4, 0, 2) 0.474835 1.20065e-06 0.525163;
   (1, 0, 0, 4, 0, 2) 0.000274123 0.000274123 0.999452;
   (2, 0, 0, 4, 0, 2) 0.205001 0.00250136 0.792498;
   (0, 1, 0, 4, 0, 2) 0.000547795 0.000547795 0.998904;
   (1, 1, 0, 4, 0, 2) 0.000137118 0.000137118 0.999726;
   (2, 1, 0, 4, 0, 2) 0.000109703 0.200044 0.799846;
   (0, 2, 0, 4, 0, 2) 3.9188e-05 3.9188e-05 0.999922;
   (1, 2, 0, 4, 0, 2) 0.333333 0.333333 0.333333;
   (2, 2, 0, 4, 0, 2) 0.175007 0.0250127 0.799981;
   (0, 0, 1, 4, 0, 2) 0.333333 0.333333 0.333333;
   (1, 0, 1, 4, 0, 2) 0.000274123 0.499863 0.499863;
   (2, 0, 1, 4, 0, 2) 0.000182799 0.333333 0.666484;
   (0, 1, 1, 4, 0, 2) 0.000274123 0.499863 0.499863;
   (1, 1, 1, 4, 0, 2) 0.0115003 0.310345 0.678154;
   (2, 1, 1, 4, 0, 2) 0.0123522 0.246915 0.740732;
   (0, 2, 1, 4, 0, 2) 0.333333 0.333333 0.333333;
   (1, 2, 1, 4, 0, 2) 0.000182799 0.666484 0.333333;
   (2, 2, 1, 4, 0, 2) 3.429e-05 0.187515 0.812451;
   (0, 0, 2, 4, 0, 2) 0.363632 4.98741e-05 0.636318;
   (1, 0, 2, 4, 0, 2) 0.333333 0.333333 0.333333;
   (2, 0, 2, 4, 0, 2) 0.200022 5.48607e-05 0.799923;
   (0, 1, 2, 4, 0, 2) 0.333333 0.333333 0.333333;
   (1, 1, 2, 4, 0, 2) 0.000109703 0.399978 0.599912;
   (2, 1, 2, 4, 0, 2) 0.000109703 0.399978 0.599912;
   (0, 2, 2, 4, 0, 2) 0.000547795 0.000547795 0.998904;
   (1, 2, 2, 4, 0, 2) 0.000547795 0.000547795 0.998904;
   (2, 2, 2, 4, 0, 2) 0.000547795 0.000547795 0.998904;
   (0, 0, 0, 0, 1, 2) 0.999452 0.000274123 0.000274123;
   (1, 0, 0, 0, 1, 2) 0.333333 0.333333 0.333333;
   (2, 0, 0, 0, 1, 2) 0.333333 0.333333 0.333333;
   (0, 1, 0, 0, 1, 2) 0.333333 0.333333 0.333333;
   (1, 1, 0, 0, 1, 2) 0.000547795 0.998904 0.000547795;
   (2, 1, 0, 0, 1, 2) 0.333333 0.333333 0.333333;
   (0, 2, 0, 0, 1, 2) 0.333333 0.333333 0.333333;
   (1, 2, 0, 0, 1, 2) 0.333333 0.333333 0.333333;
   (2, 2, 0, 0, 1, 2) 0.333333 0.333333 0.333333;
   (0, 0, 1, 0, 1, 2) 0.333333 0.333333 0.333333;
   (1, 0, 1, 0, 1, 2) 0.000547795 0.998904 0.000547795;
   (2, 0, 1, 0, 1, 2) 0.000547795 0.998904 0.000547795;
   (0, 1, 1, 0, 1, 2) 0.000547795 0.998904 0.000547795;
   (1, 1, 1, 0, 1, 2) 5.12793e-06 0.925225 0.0747703;
   (2, 1, 1, 0, 1, 2) 7.83668e-05 0.714196 0.285725;
   (0, 2, 1, 0, 1, 2) 0.333333 0.333333 0.333333;
   (1, 2, 1, 0, 1, 2) 0.000274123 0.499863 0.499863;
   (2, 2, 1, 0, 1, 2) 0.333333 0.333333 0.333333;
   (0, 0, 2, 0, 1, 2) 0.333333 0.333333 0.333333;
   (1, 0, 2, 0, 1, 2) 0.333333 0.333333 0.333333;
   (2, 0, 2, 0, 1, 2) 0.333333 0.333333 0.333333;
   (0, 1, 2, 0, 1, 2) 0.333333 0.333333 0.333333;
   (1, 1, 2, 0, 1, 2) 0.000547795 0.998904 0.000547795;
   (2, 1, 2, 0, 1, 2) 0.333333 0.333333 0.333333;
   (0, 2, 2, 0, 1, 2) 0.333333 0.333333 0.333333;
   (1, 2, 2, 0, 1, 2) 0.333333 0.333333 0.333333;
   (2, 2, 2, 0, 1, 2) 0.333333 0.333333 0.333333;
   (0, 0, 0, 1, 1, 2) 0.888787 6.09552e-05 0.111152;
   (1, 0, 0, 1, 1, 2) 0.333333 0.333333 0.333333;
   (2, 0, 0, 1, 1, 2) 0.333333 0.333333 0.333333;
   (0, 1, 0, 1, 1, 2) 0.333333 0.333333 0.333333;
   (1, 1, 0, 1, 1, 2) 0.000274123 0.999452 0.000274123;
   (2, 1, 0, 1, 1, 2) 0.333333 0.333333 0.333333;
   (0, 2, 0, 1, 1, 2) 0.333333 0.333333 0.333333;
   (1, 2, 0, 1, 1, 2) 0.333333 0.333333 0.333333;
   (2, 2, 0, 1, 1, 2) 0.333333 0.333333 0.333333;
   (0, 0, 1, 1, 1, 2) 0.000547795 0.998904 0.000547795;
   (1, 0, 1, 1, 1, 2) 0.000547795 0.998904 0.000547795;
   (2, 0, 1, 1, 1, 2) 0.333333 0.333333 0.333333;
   (0, 1, 1, 1, 1, 2) 0.000547795 0.998904 0.000547795;
   (1, 1, 1, 1, 1, 2) 0.0038631 0.826252 0.169885;
   (2, 1, 1, 1, 1, 2) 0.025654 0.615373 0.358973;
   (0, 2, 1, 1, 1, 2) 0.333333 0.333333 0.333333;
   (1, 2, 1, 1, 1, 2) 9.14244e-05 0.333333 0.666575;
   (2, 2, 1, 1, 1, 2) 0.333333 0.333333 0.333333;
   (0, 0, 2, 1, 1, 2) 0.333333 0.333333 0.333333;
   (1, 0, 2, 1, 1, 2) 0.333333 0.333333 0.333333;
   (2, 0, 2, 1, 1, 2) 0.333333 0.333333 0.333333;
   (0, 1, 2, 1, 1, 2) 0.333333 0.333333 0.333333;
   (1, 1, 2, 1, 1, 2) 0.000274123 0.499863 0.499863;
   (2, 1, 2, 1, 1, 2) 0.000547795 0.998904 0.000547795;
   (0, 2, 2, 1, 1, 2) 0.333333 0.333333 0.333333;
   (1, 2, 2, 1, 1, 2) 0.333333 0.333333 0.333333;
   (2, 2, 2, 1, 1, 2) 0.333333 0.333333 0.333333;
   (0, 0, 0, 2, 1, 2) 0.399978 0.000109703 0.599912;
   (1, 0, 0, 2, 1, 2) 0.333333 0.333333 0.333333;
   (2, 0, 0, 2, 1, 2) 0.000274123 0.000274123 0.999452;
   (0, 1, 0, 2, 1, 2) 0.333333 0.333333 0.333333;
   (1, 1, 0, 2, 1, 2) 0.000109703 0.599912 0.399978;
   (2, 1, 0, 2, 1, 2) 0.000547795 0.998904 0.000547795;
   (0, 2, 0, 2, 1, 2) 0.333333 0.333333 0.333333;
   (1, 2, 0, 2, 1, 2) 0.333333 0.333333 0.333333;
   (2, 2, 0, 2, 1, 2) 0.333333 0.333333 0.333333;
   (0, 0, 1, 2, 1, 2) 0.333333 0.333333 0.333333;
   (1, 0, 1, 2, 1, 2) 6.09552e-05 0.777697 0.222243;
   (2, 0, 1, 2, 1, 2) 0.000547795 0.998904 0.000547795;
   (0, 1, 1, 2, 1, 2) 0.499863 0.000274123 0.499863;
   (1, 1, 1, 2, 1, 2) 0.00261923 0.717276 0.280105;
   (2, 1, 1, 2, 1, 2) 5.48688e-06 0.409999 0.589996;
   (0, 2, 1, 2, 1, 2) 0.333333 0.333333 0.333333;
   (1, 2, 1, 2, 1, 2) 0.000137118 0.499931 0.499931;
   (2, 2, 1, 2, 1, 2) 0.000274123 0.499863 0.499863;
   (0, 0, 2, 2, 1, 2) 0.333333 0.333333 0.333333;
   (1, 0, 2, 2, 1, 2) 0.333333 0.333333 0.333333;
   (2, 0, 2, 2, 1, 2) 0.333333 0.333333 0.333333;
   (0, 1, 2, 2, 1, 2) 0.333333 0.333333 0.333333;
   (1, 1, 2, 2, 1, 2) 0.000182799 0.666484 0.333333;
   (2, 1, 2, 2, 1, 2) 0.333333 0.333333 0.333333;
   (0, 2, 2, 2, 1, 2) 0.333333 0.333333 0.333333;
   (1, 2, 2, 2, 1, 2) 0.333333 0.333333 0.333333;
   (2, 2, 2, 2, 1, 2) 0.000547795 0.000547795 0.998904;
   (0, 0, 0, 3, 1, 2) 0.428549 7.83668e-05 0.571373;
   (1, 0, 0, 3, 1, 2) 0.000547795 0.000547795 0.998904;
   (2, 0, 0, 3, 1, 2) 0.399978 0.000109703 0.599912;
   (0, 1, 0, 3, 1, 2) 0.000547795 0.000547795 0.998904;
   (1, 1, 0, 3, 1, 2) 0.000137118 0.250034 0.749829;
   (2, 1, 0, 3, 1, 2) 0.000274123 0.000274123 0.999452;
   (0, 2, 0, 3, 1, 2) 0.333333 0.333333 0.333333;
   (1, 2, 0, 3, 1, 2) 0.000547795 0.998904 0.000547795;
   (2, 2, 0, 3, 1, 2) 0.000547795 0.000547795 0.998904;
   (0, 0, 1, 3, 1, 2) 0.333333 0.333333 0.333333;
   (1, 0, 1, 3, 1, 2) 7.83668e-05 0.571373 0.428549;
   (2, 0, 1, 3, 1, 2) 0.000182799 0.000182799 0.999634;
   (0, 1, 1, 3, 1, 2) 0.000182799 0.000182799 0.999634;
   (1, 1, 1, 3, 1, 2) 1.2358e-06 0.608107 0.391892;
   (2, 1, 1, 3, 1, 2) 0.00537925 0.290323 0.704298;
   (0, 2, 1, 3, 1, 2) 0.333333 0.333333 0.333333;
   (1, 2, 1, 3, 1, 2) 3.65758e-05 0.466652 0.533311;
   (2, 2, 1, 3, 1, 2) 6.8573e-05 0.125043 0.874889;
   (0, 0, 2, 3, 1, 2) 0.333333 0.333333 0.333333;
   (1, 0, 2, 3, 1, 2) 0.333333 0.333333 0.333333;
   (2, 0, 2, 3, 1, 2) 0.333333 0.333333 0.333333;
   (0, 1, 2, 3, 1, 2) 0.333333 0.333333 0.333333;
   (1, 1, 2, 3, 1, 2) 9.14244e-05 0.499954 0.499954;
   (2, 1, 2, 3, 1, 2) 9.14244e-05 9.14244e-05 0.999817;
   (0, 2, 2, 3, 1, 2) 0.333333 0.333333 0.333333;
   (1, 2, 2, 3, 1, 2) 0.333333 0.333333 0.333333;
   (2, 2, 2, 3, 1, 2) 0.000274123 0.000274123 0.999452;
   (0, 0, 0, 4, 1, 2) 0.454527 4.98741e-05 0.545423;
   (1, 0, 0, 4, 1, 2) 0.333333 0.333333 0.333333;
   (2, 0, 0, 4, 1, 2) 0.125043 0.250017 0.62494;
   (0, 1, 0, 4, 1, 2) 0.000547795 0.998904 0.000547795;
   (1, 1, 0, 4, 1, 2) 0.000109703 0.599912 0.399978;
   (2, 1, 0, 4, 1, 2) 9.14244e-05 9.14244e-05 0.999817;
   (0, 2, 0, 4, 1, 2) 0.000274123 0.000274123 0.999452;
   (1, 2, 0, 4, 1, 2) 0.000547795 0.998904 0.000547795;
   (2, 2, 0, 4, 1, 2) 0.333333 0.333333 0.333333;
   (0, 0, 1, 4, 1, 2) 0.333333 0.333333 0.333333;
   (1, 0, 1, 4, 1, 2) 0.000547795 0.000547795 0.998904;
   (2, 0, 1, 4, 1, 2) 6.09552e-05 0.222243 0.777697;
   (0, 1, 1, 4, 1, 2) 0.200044 0.200044 0.599912;
   (1, 1, 1, 4, 1, 2) 1.25559e-06 0.377574 0.622425;
   (2, 1, 1, 4, 1, 2) 0.00257872 0.195877 0.801544;
   (0, 2, 1, 4, 1, 2) 0.333333 0.333333 0.333333;
   (1, 2, 1, 4, 1, 2) 2.03209e-05 0.259264 0.740716;
   (2, 2, 1, 4, 1, 2) 1.30637e-05 0.142865 0.857122;
   (0, 0, 2, 4, 1, 2) 0.333333 0.333333 0.333333;
   (1, 0, 2, 4, 1, 2) 0.333333 0.333333 0.333333;
   (2, 0, 2, 4, 1, 2) 0.333333 0.333333 0.333333;
   (0, 1, 2, 4, 1, 2) 0.333333 0.333333 0.333333;
   (1, 1, 2, 4, 1, 2) 4.98741e-05 0.454527 0.545423;
   (2, 1, 2, 4, 1, 2) 2.49389e-05 2.49389e-05 0.99995;
   (0, 2, 2, 4, 1, 2) 0.333333 0.333333 0.333333;
   (1, 2, 2, 4, 1, 2) 0.000274123 0.499863 0.499863;
   (2, 2, 2, 4, 1, 2) 7.83668e-05 0.571373 0.428549;
   (0, 0, 0, 0, 2, 2) 0.799949 3.65758e-05 0.200015;
   (1, 0, 0, 0, 2, 2) 0.333333 0.333333 0.333333;
   (2, 0, 0, 0, 2, 2) 0.333333 0.333333 0.333333;
   (0, 1, 0, 0, 2, 2) 0.333333 0.333333 0.333333;
   (1, 1, 0, 0, 2, 2) 0.333333 0.333333 0.333333;
   (2, 1, 0, 0, 2, 2) 0.333333 0.333333 0.333333;
   (0, 2, 0, 0, 2, 2) 0.998904 0.000547795 0.000547795;
   (1, 2, 0, 0, 2, 2) 0.333333 0.333333 0.333333;
   (2, 2, 0, 0, 2, 2) 0.333333 0.333333 0.333333;
   (0, 0, 1, 0, 2, 2) 0.333333 0.333333 0.333333;
   (1, 0, 1, 0, 2, 2) 0.333333 0.333333 0.333333;
   (2, 0, 1, 0, 2, 2) 0.333333 0.333333 0.333333;
   (0, 1, 1, 0, 2, 2) 0.333333 0.333333 0.333333;
   (1, 1, 1, 0, 2, 2) 2.74326e-05 0.799962 0.200011;
   (2, 1, 1, 0, 2, 2) 0.000109703 0.599912 0.399978;
   (0, 2, 1, 0, 2, 2) 0.333333 0.333333 0.333333;
   (1, 2, 1, 0, 2, 2) 0.000547795 0.998904 0.000547795;
   (2, 2, 1, 0, 2, 2) 0.333333 0.333333 0.333333;
   (0, 0, 2, 0, 2, 2) 0.333333 0.333333 0.333333;
   (1, 0, 2, 0, 2, 2) 0.333333 0.333333 0.333333;
   (2, 0, 2, 0, 2, 2) 0.333333 0.333333 0.333333;
   (0, 1, 2, 0, 2, 2) 0.333333 0.333333 0.333333;
   (1, 1, 2, 0, 2, 2) 0.000547795 0.998904 0.000547795;
   (2, 1, 2, 0, 2, 2) 0.333333 0.333333 0.333333;
   (0, 2, 2, 0, 2, 2) 0.333333 0.333333 0.333333;
   (1, 2, 2, 0, 2, 2) 0.333333 0.333333 0.333333;
   (2, 2, 2, 0, 2, 2) 0.333333 0.333333 0.333333;
   (0, 0, 0, 1, 2, 2) 0.738079 1.30637e-05 0.261908;
   (1, 0, 0, 1, 2, 2) 0.333333 0.333333 0.333333;
   (2, 0, 0, 1, 2, 2) 0.833196 9.14244e-05 0.166712;
   (0, 1, 0, 1, 2, 2) 0.333333 0.333333 0.333333;
   (1, 1, 0, 1, 2, 2) 0.000547795 0.000547795 0.998904;
   (2, 1, 0, 1, 2, 2) 0.333333 0.333333 0.333333;
   (0, 2, 0, 1, 2, 2) 0.999452 0.000274123 0.000274123;
   (1, 2, 0, 1, 2, 2) 0.333333 0.333333 0.333333;
   (2, 2, 0, 1, 2, 2) 0.998904 0.000547795 0.000547795;
   (0, 0, 1, 1, 2, 2) 0.333333 0.333333 0.333333;
   (1, 0, 1, 1, 2, 2) 0.000547795 0.998904 0.000547795;
   (2, 0, 1, 1, 2, 2) 0.333333 0.333333 0.333333;
   (0, 1, 1, 1, 2, 2) 0.333333 0.333333 0.333333;
   (1, 1, 1, 1, 2, 2) 8.57317e-06 0.796863 0.203128;
   (2, 1, 1, 1, 2, 2) 7.83668e-05 0.714196 0.285725;
   (0, 2, 1, 1, 2, 2) 0.333333 0.333333 0.333333;
   (1, 2, 1, 1, 2, 2) 0.000547795 0.998904 0.000547795;
   (2, 2, 1, 1, 2, 2) 0.333333 0.333333 0.333333;
   (0, 0, 2, 1, 2, 2) 0.999452 0.000274123 0.000274123;
   (1, 0, 2, 1, 2, 2) 0.333333 0.333333 0.333333;
   (2, 0, 2, 1, 2, 2) 0.333333 0.333333 0.333333;
   (0, 1, 2, 1, 2, 2) 0.333333 0.333333 0.333333;
   (1, 1, 2, 1, 2, 2) 0.000274123 0.499863 0.499863;
   (2, 1, 2, 1, 2, 2) 0.333333 0.333333 0.333333;
   (0, 2, 2, 1, 2, 2) 0.333333 0.333333 0.333333;
   (1, 2, 2, 1, 2, 2) 0.000547795 0.998904 0.000547795;
   (2, 2, 2, 1, 2, 2) 0.000547795 0.000547795 0.998904;
   (0, 0, 0, 2, 2, 2) 0.817063 6.69129e-06 0.18293;
   (1, 0, 0, 2, 2, 2) 0.333333 0.333333 0.333333;
   (2, 0, 0, 2, 2, 2) 0.526307 1.44388e-05 0.473678;
   (0, 1, 0, 2, 2, 2) 0.998904 0.000547795 0.000547795;
   (1, 1, 0, 2, 2, 2) 0.000547795 0.998904 0.000547795;
   (2, 1, 0, 2, 2, 2) 0.000274123 0.499863 0.499863;
   (0, 2, 0, 2, 2, 2) 0.998904 0.000547795 0.000547795;
   (1, 2, 0, 2, 2, 2) 0.000547795 0.000547795 0.998904;
   (2, 2, 0, 2, 2, 2) 0.333333 0.333333 0.333333;
   (0, 0, 1, 2, 2, 2) 0.000547795 0.998904 0.000547795;
   (1, 0, 1, 2, 2, 2) 0.000182799 0.666484 0.333333;
   (2, 0, 1, 2, 2, 2) 0.333333 0.333333 0.333333;
   (0, 1, 1, 2, 2, 2) 0.998904 0.000547795 0.000547795;
   (1, 1, 1, 2, 2, 2) 4.61083e-06 0.756297 0.243699;
   (2, 1, 1, 2, 2, 2) 0.0322741 0.451607 0.516119;
   (0, 2, 1, 2, 2, 2) 0.333333 0.333333 0.333333;
   (1, 2, 1, 2, 2, 2) 0.000182799 0.666484 0.333333;
   (2, 2, 1, 2, 2, 2) 0.000274123 0.999452 0.000274123;
   (0, 0, 2, 2, 2, 2) 0.998904 0.000547795 0.000547795;
   (1, 0, 2, 2, 2, 2) 0.333333 0.333333 0.333333;
   (2, 0, 2, 2, 2, 2) 0.333333 0.333333 0.333333;
   (0, 1, 2, 2, 2, 2) 0.333333 0.333333 0.333333;
   (1, 1, 2, 2, 2, 2) 0.000182799 0.666484 0.333333;
   (2, 1, 2, 2, 2, 2) 0.000274123 0.499863 0.499863;
   (0, 2, 2, 2, 2, 2) 0.333333 0.333333 0.333333;
   (1, 2, 2, 2, 2, 2) 0.000547795 0.998904 0.000547795;
   (2, 2, 2, 2, 2, 2) 0.000547795 0.000547795 0.998904;
   (0, 0, 0, 3, 2, 2) 0.689651 0.00690026 0.303449;
   (1, 0, 0, 3, 2, 2) 0.333333 0.333333 0.333333;
   (2, 0, 0, 3, 2, 2) 0.430767 8.44128e-06 0.569225;
   (0, 1, 0, 3, 2, 2) 0.333333 0.333333 0.333333;
   (1, 1, 0, 3, 2, 2) 0.000274123 0.999452 0.000274123;
   (2, 1, 0, 3, 2, 2) 0.000137118 0.499931 0.499931;
   (0, 2, 0, 3, 2, 2) 0.333333 0.333333 0.333333;
   (1, 2, 0, 3, 2, 2) 0.333333 0.333333 0.333333;
   (2, 2, 0, 3, 2, 2) 0.000274123 0.000274123 0.999452;
   (0, 0, 1, 3, 2, 2) 0.998904 0.000547795 0.000547795;
   (1, 0, 1, 3, 2, 2) 0.000274123 0.499863 0.499863;
   (2, 0, 1, 3, 2, 2) 0.000182799 0.666484 0.333333;
   (0, 1, 1, 3, 2, 2) 0.000274123 0.999452 0.000274123;
   (1, 1, 1, 3, 2, 2) 2.57602e-06 0.638495 0.361502;
   (2, 1, 1, 3, 2, 2) 5.1763e-06 0.547166 0.452828;
   (0, 2, 1, 3, 2, 2) 0.333333 0.333333 0.333333;
   (1, 2, 1, 3, 2, 2) 9.14244e-05 0.833196 0.166712;
   (2, 2, 1, 3, 2, 2) 6.09552e-05 0.333333 0.666606;
   (0, 0, 2, 3, 2, 2) 0.000547795 0.000547795 0.998904;
   (1, 0, 2, 3, 2, 2) 0.333333 0.333333 0.333333;
   (2, 0, 2, 3, 2, 2) 0.499863 0.000274123 0.499863;
   (0, 1, 2, 3, 2, 2) 0.333333 0.333333 0.333333;
   (1, 1, 2, 3, 2, 2) 0.000109703 0.599912 0.399978;
   (2, 1, 2, 3, 2, 2) 0.000182799 0.333333 0.666484;
   (0, 2, 2, 3, 2, 2) 0.333333 0.333333 0.333333;
   (1, 2, 2, 3, 2, 2) 0.333333 0.333333 0.333333;
   (2, 2, 2, 3, 2, 2) 0.000547795 0.000547795 0.998904;
   (0, 0, 0, 4, 2, 2) 0.461164 0.00485699 0.533979;
   (1, 0, 0, 4, 2, 2) 0.000274123 0.000274123 0.999452;
   (2, 0, 0, 4, 2, 2) 0.417525 0.00515742 0.577318;
   (0, 1, 0, 4, 2, 2) 0.333333 0.333333 0.333333;
   (1, 1, 0, 4, 2, 2) 0.000182799 0.000182799 0.999634;
   (2, 1, 0, 4, 2, 2) 9.14244e-05 0.166712 0.833196;
   (0, 2, 0, 4, 2, 2) 0.555515 6.09552e-05 0.444424;
   (1, 2, 0, 4, 2, 2) 0.333333 0.333333 0.333333;
   (2, 2, 0, 4, 2, 2) 0.142872 2.61264e-05 0.857102;
   (0, 0, 1, 4, 2, 2) 0.000547795 0.000547795 0.998904;
   (1, 0, 1, 4, 2, 2) 6.8573e-05 0.499966 0.499966;
   (2, 0, 1, 4, 2, 2) 6.09552e-05 0.111152 0.888787;
   (0, 1, 1, 4, 2, 2) 0.000547795 0.000547795 0.998904;
   (1, 1, 1, 4, 2, 2) 1.84125e-06 0.483221 0.516778;
   (2, 1, 1, 4, 2, 2) 0.00653771 0.333333 0.660129;
   (0, 2, 1, 4, 2, 2) 0.000547795 0.998904 0.000547795;
   (1, 2, 1, 4, 2, 2) 2.88763e-05 0.68418 0.315791;
   (2, 2, 1, 4, 2, 2) 1.33823e-05 0.243906 0.756081;
   (0, 0, 2, 4, 2, 2) 0.399989 5.48607e-05 0.599956;
   (1, 0, 2, 4, 2, 2) 0.000182799 0.000182799 0.999634;
   (2, 0, 2, 4, 2, 2) 0.571373 7.83668e-05 0.428549;
   (0, 1, 2, 4, 2, 2) 0.000547795 0.000547795 0.998904;
   (1, 1, 2, 4, 2, 2) 3.429e-05 0.250009 0.749957;
   (2, 1, 2, 4, 2, 2) 3.04804e-05 0.166682 0.833288;
   (0, 2, 2, 4, 2, 2) 0.333333 0.333333 0.333333;
   (1, 2, 2, 4, 2, 2) 0.333333 0.333333 0.333333;
   (2, 2, 2, 4, 2, 2) 0.000109703 0.000109703 0.999781;
}
probability (diabetes_pre | idade_pre) {
   (0) 0.991081 0.00449922 0.0044198;
   (1) 0.98289 0.00720762 0.00990271;
   (2) 0.960316 0.0137822 0.0259023;
   (3) 0.89371 0.0290137 0.0772763;
   (4) 0.705738 0.0843796 0.209883;
}
probability (doenca_hematologica_pre | diabetes_pre, doenca_renal_pre, doenca_neurologica_pre, asma_pre, sindrome_de_down_pre, doenca_hepatica_pre) {
   (0, 0, 0, 0, 0, 0) 0.999698 5.22954e-06 0.00029671;
   (1, 0, 0, 0, 0, 0) 0.978003 0.0109987 0.0109987;
   (2, 0, 0, 0, 0, 0) 0.997837 0.000164274 0.00199838;
   (0, 1, 0, 0, 0, 0) 0.874814 0.125071 0.000114273;
   (1, 1, 0, 0, 0, 0) 0.000911993 0.998176 0.000911993;
   (2, 1, 0, 0, 0, 0) 0.999771 0.000114273 0.000114273;
   (0, 2, 0, 0, 0, 0) 0.990814 0.000383051 0.00880248;
   (1, 2, 0, 0, 0, 0) 0.999848 7.61905e-05 7.61905e-05;
   (2, 2, 0, 0, 0, 0) 0.990996 0.00150106 0.00750255;
   (0, 0, 1, 0, 0, 0) 0.999859 7.03309e-05 7.03309e-05;
   (1, 0, 1, 0, 0, 0) 0.999087 0.000456621 0.000456621;
   (2, 0, 1, 0, 0, 0) 0.818061 0.181856 8.31152e-05;
   (0, 1, 1, 0, 0, 0) 0.666362 0.333333 0.000304553;
   (1, 1, 1, 0, 0, 0) 0.998176 0.000911993 0.000911993;
   (2, 1, 1, 0, 0, 0) 0.799744 0.200073 0.000182799;
   (0, 2, 1, 0, 0, 0) 0.998176 0.000911993 0.000911993;
   (1, 2, 1, 0, 0, 0) 0.333333 0.333333 0.333333;
   (2, 2, 1, 0, 0, 0) 0.000456621 0.999087 0.000456621;
   (0, 0, 2, 0, 0, 0) 0.994295 0.001268 0.00443657;
   (1, 0, 2, 0, 0, 0) 0.976703 2.1266e-05 0.0232756;
   (2, 0, 2, 0, 0, 0) 0.998179 1.66271e-06 0.00181984;
   (0, 1, 2, 0, 0, 0) 0.998176 0.000911993 0.000911993;
   (1, 1, 2, 0, 0, 0) 0.998176 0.000911993 0.000911993;
   (2, 1, 2, 0, 0, 0) 0.998176 0.000911993 0.000911993;
   (0, 2, 2, 0, 0, 0) 0.999966 1.69342e-05 1.69342e-05;
   (1, 2, 2, 0, 0, 0) 0.999391 0.000304553 0.000304553;
   (2, 2, 2, 0, 0, 0) 0.945901 2.47142e-05 0.0540748;
   (0, 0, 0, 1, 0, 0) 0.999739 0.000130591 0.000130591;
   (1, 0, 0, 1, 0, 0) 0.666514 0.333333 0.000152346;
   (2, 0, 0, 1, 0, 0) 0.999859 7.03309e-05 7.03309e-05;
   (0, 1, 0, 1, 0, 0) 0.998176 0.000911993 0.000911993;
   (1, 1, 0, 1, 0, 0) 0.812418 0.187525 5.71461e-05;
   (2, 1, 0, 1, 0, 0) 0.818061 0.181856 8.31152e-05;
   (0, 2, 0, 1, 0, 0) 0.998176 0.000911993 0.000911993;
   (1, 2, 0, 1, 0, 0) 0.998176 0.000911993 0.000911993;
   (2, 2, 0, 1, 0, 0) 0.666362 0.000304553 0.333333;
   (0, 0, 1, 1, 0, 0) 0.333333 0.333333 0.333333;
   (1, 0, 1, 1, 0, 0) 0.999087 0.000456621 0.000456621;
   (2, 0, 1, 1, 0, 0) 0.571335 0.428534 0.000130591;
   (0, 1, 1, 1, 0, 0) 0.333333 0.333333 0.333333;
   (1, 1, 1, 1, 0, 0) 0.461511 0.538418 7.03309e-05;
   (2, 1, 1, 1, 0, 0) 0.238108 0.761849 4.35417e-05;
   (0, 2, 1, 1, 0, 0) 0.333333 0.333333 0.333333;
   (1, 2, 1, 1, 0, 0) 0.000228467 0.999543 0.000228467;
   (2, 2, 1, 1, 0, 0) 0.499772 0.499772 0.000456621;
   (0, 0, 2, 1, 0, 0) 0.333333 0.333333 0.333333;
   (1, 0, 2, 1, 0, 0) 0.998176 0.000911993 0.000911993;
   (2, 0, 2, 1, 0, 0) 0.998176 0.000911993 0.000911993;
   (0, 1, 2, 1, 0, 0) 0.333333 0.333333 0.333333;
   (1, 1, 2, 1, 0, 0) 0.749714 0.250057 0.000228467;
   (2, 1, 2, 1, 0, 0) 0.333333 0.333333 0.333333;
   (0, 2, 2, 1, 0, 0) 0.998176 0.000911993 0.000911993;
   (1, 2, 2, 1, 0, 0) 0.333333 0.333333 0.333333;
   (2, 2, 2, 1, 0, 0) 0.666362 0.333333 0.000304553;
   (0, 0, 0, 2, 0, 0) 0.989219 7.58286e-07 0.0107802;
   (1, 0, 0, 2, 0, 0) 0.999391 0.000304553 0.000304553;
   (2, 0, 0, 2, 0, 0) 0.996737 2.97878e-06 0.00326028;
   (0, 1, 0, 2, 0, 0) 0.999391 0.000304553 0.000304553;
   (1, 1, 0, 2, 0, 0) 0.333333 0.333333 0.333333;
   (2, 1, 0, 2, 0, 0) 0.998176 0.000911993 0.000911993;
   (0, 2, 0, 2, 0, 0) 0.999817 9.14244e-05 9.14244e-05;
   (1, 2, 0, 2, 0, 0) 0.333333 0.333333 0.333333;
   (2, 2, 0, 2, 0, 0) 0.999817 9.14244e-05 9.14244e-05;
   (0, 0, 1, 2, 0, 0) 0.333333 0.333333 0.333333;
   (1, 0, 1, 2, 0, 0) 0.333333 0.333333 0.333333;
   (2, 0, 1, 2, 0, 0) 0.999087 0.000456621 0.000456621;
   (0, 1, 1, 2, 0, 0) 0.333333 0.333333 0.333333;
   (1, 1, 1, 2, 0, 0) 0.200073 0.799744 0.000182799;
   (2, 1, 1, 2, 0, 0) 0.333333 0.333333 0.333333;
   (0, 2, 1, 2, 0, 0) 0.333333 0.333333 0.333333;
   (1, 2, 1, 2, 0, 0) 0.333333 0.333333 0.333333;
   (2, 2, 1, 2, 0, 0) 0.333333 0.333333 0.333333;
   (0, 0, 2, 2, 0, 0) 0.904687 4.35417e-05 0.0952692;
   (1, 0, 2, 2, 0, 0) 0.998176 0.000911993 0.000911993;
   (2, 0, 2, 2, 0, 0) 0.999771 0.000114273 0.000114273;
   (0, 1, 2, 2, 0, 0) 0.333333 0.333333 0.333333;
   (1, 1, 2, 2, 0, 0) 0.333333 0.333333 0.333333;
   (2, 1, 2, 2, 0, 0) 0.333333 0.333333 0.333333;
   (0, 2, 2, 2, 0, 0) 0.999087 0.000456621 0.000456621;
   (1, 2, 2, 2, 0, 0) 0.333333 0.333333 0.333333;
   (2, 2, 2, 2, 0, 0) 0.998176 0.000911993 0.000911993;
   (0, 0, 0, 0, 1, 0) 0.833288 0.0666911 0.100021;
   (1, 0, 0, 0, 1, 0) 0.749714 0.000228467 0.250057;
   (2, 0, 0, 0, 1, 0) 0.821381 0.0714542 0.107165;
   (0, 1, 0, 0, 1, 0) 0.666362 0.333333 0.000304553;
   (1, 1, 0, 0, 1, 0) 0.333333 0.333333 0.333333;
   (2, 1, 0, 0, 1, 0) 0.333333 0.333333 0.333333;
   (0, 2, 0, 0, 1, 0) 0.333333 0.333333 0.333333;
   (1, 2, 0, 0, 1, 0) 0.333333 0.333333 0.333333;
   (2, 2, 0, 0, 1, 0) 0.998176 0.000911993 0.000911993;
   (0, 0, 1, 0, 1, 0) 0.250057 0.749714 0.000228467;
   (1, 0, 1, 0, 1, 0) 0.000911993 0.998176 0.000911993;
   (2, 0, 1, 0, 1, 0) 0.000456621 0.999087 0.000456621;
   (0, 1, 1, 0, 1, 0) 0.333333 0.333333 0.333333;
   (1, 1, 1, 0, 1, 0) 0.000304553 0.999391 0.000304553;
   (2, 1, 1, 0, 1, 0) 0.333333 0.333333 0.333333;
   (0, 2, 1, 0, 1, 0) 0.333333 0.333333 0.333333;
   (1, 2, 1, 0, 1, 0) 0.333333 0.333333 0.333333;
   (2, 2, 1, 0, 1, 0) 0.333333 0.333333 0.333333;
   (0, 0, 2, 0, 1, 0) 0.999391 0.000304553 0.000304553;
   (1, 0, 2, 0, 1, 0) 0.998176 0.000911993 0.000911993;
   (2, 0, 2, 0, 1, 0) 0.999087 0.000456621 0.000456621;
   (0, 1, 2, 0, 1, 0) 0.333333 0.333333 0.333333;
   (1, 1, 2, 0, 1, 0) 0.000456621 0.999087 0.000456621;
   (2, 1, 2, 0, 1, 0) 0.333333 0.333333 0.333333;
   (0, 2, 2, 0, 1, 0) 0.333333 0.333333 0.333333;
   (1, 2, 2, 0, 1, 0) 0.333333 0.333333 0.333333;
   (2, 2, 2, 0, 1, 0) 0.333333 0.333333 0.333333;
   (0, 0, 0, 1, 1, 0) 0.000911993 0.998176 0.000911993;
   (1, 0, 0, 1, 1, 0) 0.333333 0.333333 0.333333;
   (2, 0, 0, 1, 1, 0) 0.666362 0.000304553 0.333333;
   (0, 1, 0, 1, 1, 0) 0.998176 0.000911993 0.000911993;
   (1, 1, 0, 1, 1, 0) 0.333333 0.666362 0.000304553;
   (2, 1, 0, 1, 1, 0) 0.499886 0.499886 0.000228467;
   (0, 2, 0, 1, 1, 0) 0.333333 0.333333 0.333333;
   (1, 2, 0, 1, 1, 0) 0.333333 0.333333 0.333333;
   (2, 2, 0, 1, 1, 0) 0.333333 0.333333 0.333333;
   (0, 0, 1, 1, 1, 0) 0.000911993 0.998176 0.000911993;
   (1, 0, 1, 1, 1, 0) 0.000228467 0.999543 0.000228467;
   (2, 0, 1, 1, 1, 0) 0.000152346 0.999695 0.000152346;
   (0, 1, 1, 1, 1, 0) 0.000456621 0.999087 0.000456621;
   (1, 1, 1, 1, 1, 0) 0.00944235 0.971682 0.0188761;
   (2, 1, 1, 1, 1, 0) 0.0129984 0.974003 0.0129984;
   (0, 2, 1, 1, 1, 0) 0.333333 0.333333 0.333333;
   (1, 2, 1, 1, 1, 0) 8.31152e-05 0.908947 0.0909695;
   (2, 2, 1, 1, 1, 0) 0.000114273 0.999771 0.000114273;
   (0, 0, 2, 1, 1, 0) 0.333333 0.333333 0.333333;
   (1, 0, 2, 1, 1, 0) 0.333333 0.333333 0.333333;
   (2, 0, 2, 1, 1, 0) 0.333333 0.333333 0.333333;
   (0, 1, 2, 1, 1, 0) 0.333333 0.333333 0.333333;
   (1, 1, 2, 1, 1, 0) 7.61905e-05 0.999848 7.61905e-05;
   (2, 1, 2, 1, 1, 0) 0.250057 0.499886 0.250057;
   (0, 2, 2, 1, 1, 0) 0.333333 0.333333 0.333333;
   (1, 2, 2, 1, 1, 0) 0.333333 0.333333 0.333333;
   (2, 2, 2, 1, 1, 0) 0.333333 0.333333 0.333333;
   (0, 0, 0, 2, 1, 0) 0.333333 0.333333 0.333333;
   (1, 0, 0, 2, 1, 0) 0.333333 0.333333 0.333333;
   (2, 0, 0, 2, 1, 0) 0.998176 0.000911993 0.000911993;
   (0, 1, 0, 2, 1, 0) 0.333333 0.333333 0.333333;
   (1, 1, 0, 2, 1, 0) 0.333333 0.333333 0.333333;
   (2, 1, 0, 2, 1, 0) 0.333333 0.333333 0.333333;
   (0, 2, 0, 2, 1, 0) 0.333333 0.333333 0.333333;
   (1, 2, 0, 2, 1, 0) 0.333333 0.333333 0.333333;
   (2, 2, 0, 2, 1, 0) 0.333333 0.333333 0.333333;
   (0, 0, 1, 2, 1, 0) 0.333333 0.333333 0.333333;
   (1, 0, 1, 2, 1, 0) 0.000911993 0.998176 0.000911993;
   (2, 0, 1, 2, 1, 0) 0.000456621 0.999087 0.000456621;
   (0, 1, 1, 2, 1, 0) 0.333333 0.333333 0.333333;
   (1, 1, 1, 2, 1, 0) 0.000114273 0.999771 0.000114273;
   (2, 1, 1, 2, 1, 0) 0.333333 0.333333 0.333333;
   (0, 2, 1, 2, 1, 0) 0.333333 0.333333 0.333333;
   (1, 2, 1, 2, 1, 0) 0.333333 0.333333 0.333333;
   (2, 2, 1, 2, 1, 0) 0.333333 0.333333 0.333333;
   (0, 0, 2, 2, 1, 0) 0.333333 0.333333 0.333333;
   (1, 0, 2, 2, 1, 0) 0.333333 0.333333 0.333333;
   (2, 0, 2, 2, 1, 0) 0.333333 0.333333 0.333333;
   (0, 1, 2, 2, 1, 0) 0.333333 0.333333 0.333333;
   (1, 1, 2, 2, 1, 0) 0.000911993 0.998176 0.000911993;
   (2, 1, 2, 2, 1, 0) 0.333333 0.333333 0.333333;
   (0, 2, 2, 2, 1, 0) 0.333333 0.333333 0.333333;
   (1, 2, 2, 2, 1, 0) 0.333333 0.333333 0.333333;
   (2, 2, 2, 2, 1, 0) 0.333333 0.333333 0.333333;
   (0, 0, 0, 0, 2, 0) 0.967714 1.47493e-05 0.0322714;
   (1, 0, 0, 0, 2, 0) 0.333333 0.333333 0.333333;
   (2, 0, 0, 0, 2, 0) 0.999834 8.31152e-05 8.31152e-05;
   (0, 1, 0, 0, 2, 0) 0.333333 0.333333 0.333333;
   (1, 1, 0, 0, 2, 0) 0.333333 0.333333 0.333333;
   (2, 1, 0, 0, 2, 0) 0.333333 0.333333 0.333333;
   (0, 2, 0, 0, 2, 0) 0.499772 0.000456621 0.499772;
   (1, 2, 0, 0, 2, 0) 0.333333 0.333333 0.333333;
   (2, 2, 0, 0, 2, 0) 0.333333 0.333333 0.333333;
   (0, 0, 1, 0, 2, 0) 0.333333 0.333333 0.333333;
   (1, 0, 1, 0, 2, 0) 0.333333 0.333333 0.333333;
   (2, 0, 1, 0, 2, 0) 0.333333 0.333333 0.333333;
   (0, 1, 1, 0, 2, 0) 0.333333 0.333333 0.333333;
   (1, 1, 1, 0, 2, 0) 0.333333 0.333333 0.333333;
   (2, 1, 1, 0, 2, 0) 0.333333 0.333333 0.333333;
   (0, 2, 1, 0, 2, 0) 0.333333 0.333333 0.333333;
   (1, 2, 1, 0, 2, 0) 0.333333 0.333333 0.333333;
   (2, 2, 1, 0, 2, 0) 0.333333 0.333333 0.333333;
   (0, 0, 2, 0, 2, 0) 0.999087 0.000456621 0.000456621;
   (1, 0, 2, 0, 2, 0) 0.333333 0.333333 0.333333;
   (2, 0, 2, 0, 2, 0) 0.333333 0.333333 0.333333;
   (0, 1, 2, 0, 2, 0) 0.333333 0.333333 0.333333;
   (1, 1, 2, 0, 2, 0) 0.333333 0.333333 0.333333;
   (2, 1, 2, 0, 2, 0) 0.333333 0.333333 0.333333;
   (0, 2, 2, 0, 2, 0) 0.333333 0.333333 0.333333;
   (1, 2, 2, 0, 2, 0) 0.333333 0.333333 0.333333;
   (2, 2, 2, 0, 2, 0) 0.333333 0.333333 0.333333;
   (0, 0, 0, 1, 2, 0) 0.333333 0.333333 0.333333;
   (1, 0, 0, 1, 2, 0) 0.333333 0.333333 0.333333;
   (2, 0, 0, 1, 2, 0) 0.333333 0.333333 0.333333;
   (0, 1, 0, 1, 2, 0) 0.333333 0.333333 0.333333;
   (1, 1, 0, 1, 2, 0) 0.333333 0.333333 0.333333;
   (2, 1, 0, 1, 2, 0) 0.333333 0.333333 0.333333;
   (0, 2, 0, 1, 2, 0) 0.333333 0.333333 0.333333;
   (1, 2, 0, 1, 2, 0) 0.333333 0.333333 0.333333;
   (2, 2, 0, 1, 2, 0) 0.333333 0.333333 0.333333;
   (0, 0, 1, 1, 2, 0) 0.333333 0.333333 0.333333;
   (1, 0, 1, 1, 2, 0) 0.333333 0.333333 0.333333;
   (2, 0, 1, 1, 2, 0) 0.333333 0.333333 0.333333;
   (0, 1, 1, 1, 2, 0) 0.333333 0.333333 0.333333;
   (1, 1, 1, 1, 2, 0) 0.333333 0.666362 0.000304553;
   (2, 1, 1, 1, 2, 0) 0.000456621 0.999087 0.000456621;
   (0, 2, 1, 1, 2, 0) 0.333333 0.333333 0.333333;
   (1, 2, 1, 1, 2, 0) 0.333333 0.333333 0.333333;
   (2, 2, 1, 1, 2, 0) 0.333333 0.333333 0.333333;
   (0, 0, 2, 1, 2, 0) 0.333333 0.333333 0.333333;
   (1, 0, 2, 1, 2, 0) 0.333333 0.333333 0.333333;
   (2, 0, 2, 1, 2, 0) 0.333333 0.333333 0.333333;
   (0, 1, 2, 1, 2, 0) 0.333333 0.333333 0.333333;
   (1, 1, 2, 1, 2, 0) 0.333333 0.333333 0.333333;
   (2, 1, 2, 1, 2, 0) 0.333333 0.333333 0.333333;
   (0, 2, 2, 1, 2, 0) 0.333333 0.333333 0.333333;
   (1, 2, 2, 1, 2, 0) 0.333333 0.333333 0.333333;
   (2, 2, 2, 1, 2, 0) 0.333333 0.333333 0.333333;
   (0, 0, 0, 2, 2, 0) 0.999087 0.000456621 0.000456621;
   (1, 0, 0, 2, 2, 0) 0.333333 0.333333 0.333333;
   (2, 0, 0, 2, 2, 0) 0.998176 0.000911993 0.000911993;
   (0, 1, 0, 2, 2, 0) 0.333333 0.333333 0.333333;
   (1, 1, 0, 2, 2, 0) 0.333333 0.333333 0.333333;
   (2, 1, 0, 2, 2, 0) 0.333333 0.333333 0.333333;
   (0, 2, 0, 2, 2, 0) 0.333333 0.333333 0.333333;
   (1, 2, 0, 2, 2, 0) 0.333333 0.333333 0.333333;
   (2, 2, 0, 2, 2, 0) 0.333333 0.333333 0.333333;
   (0, 0, 1, 2, 2, 0) 0.333333 0.333333 0.333333;
   (1, 0, 1, 2, 2, 0) 0.333333 0.333333 0.333333;
   (2, 0, 1, 2, 2, 0) 0.333333 0.333333 0.333333;
   (0, 1, 1, 2, 2, 0) 0.333333 0.333333 0.333333;
   (1, 1, 1, 2, 2, 0) 0.333333 0.333333 0.333333;
   (2, 1, 1, 2, 2, 0) 0.333333 0.333333 0.333333;
   (0, 2, 1, 2, 2, 0) 0.333333 0.333333 0.333333;
   (1, 2, 1, 2, 2, 0) 0.333333 0.333333 0.333333;
   (2, 2, 1, 2, 2, 0) 0.333333 0.333333 0.333333;
   (0, 0, 2, 2, 2, 0) 0.333333 0.333333 0.333333;
   (1, 0, 2, 2, 2, 0) 0.333333 0.333333 0.333333;
   (2, 0, 2, 2, 2, 0) 0.333333 0.333333 0.333333;
   (0, 1, 2, 2, 2, 0) 0.333333 0.333333 0.333333;
   (1, 1, 2, 2, 2, 0) 0.333333 0.333333 0.333333;
   (2, 1, 2, 2, 2, 0) 0.333333 0.333333 0.333333;
   (0, 2, 2, 2, 2, 0) 0.333333 0.333333 0.333333;
   (1, 2, 2, 2, 2, 0) 0.333333 0.333333 0.333333;
   (2, 2, 2, 2, 2, 0) 0.333333 0.333333 0.333333;
   (0, 0, 0, 0, 0, 1) 0.666362 0.333333 0.000304553;
   (1, 0, 0, 0, 0, 1) 0.000911993 0.998176 0.000911993;
   (2, 0, 0, 0, 0, 1) 0.999087 0.000456621 0.000456621;
   (0, 1, 0, 0, 0, 1) 0.333333 0.333333 0.333333;
   (1, 1, 0, 0, 0, 1) 0.142932 0.856938 0.000130591;
   (2, 1, 0, 0, 0, 1) 0.000152346 0.833105 0.166743;
   (0, 2, 0, 0, 0, 1) 0.998176 0.000911993 0.000911993;
   (1, 2, 0, 0, 0, 1) 0.333333 0.333333 0.333333;
   (2, 2, 0, 0, 0, 1) 0.250057 0.749714 0.000228467;
   (0, 0, 1, 0, 0, 1) 0.000911993 0.998176 0.000911993;
   (1, 0, 1, 0, 0, 1) 0.998176 0.000911993 0.000911993;
   (2, 0, 1, 0, 0, 1) 0.333333 0.333333 0.333333;
   (0, 1, 1, 0, 0, 1) 0.998176 0.000911993 0.000911993;
   (1, 1, 1, 0, 0, 1) 0.000911993 0.998176 0.000911993;
   (2, 1, 1, 0, 0, 1) 0.000911993 0.998176 0.000911993;
   (0, 2, 1, 0, 0, 1) 0.333333 0.333333 0.333333;
   (1, 2, 1, 0, 0, 1) 0.333333 0.333333 0.333333;
   (2, 2, 1, 0, 0, 1) 0.000911993 0.998176 0.000911993;
   (0, 0, 2, 0, 0, 1) 0.333333 0.333333 0.333333;
   (1, 0, 2, 0, 0, 1) 0.000911993 0.998176 0.000911993;
   (2, 0, 2, 0, 0, 1) 0.333333 0.333333 0.333333;
   (0, 1, 2, 0, 0, 1) 0.333333 0.333333 0.333333;
   (1, 1, 2, 0, 0, 1) 0.000911993 0.998176 0.000911993;
   (2, 1, 2, 0, 0, 1) 0.000911993 0.998176 0.000911993;
   (0, 2, 2, 0, 0, 1) 0.333333 0.333333 0.333333;
   (1, 2, 2, 0, 0, 1) 0.333333 0.333333 0.333333;
   (2, 2, 2, 0, 0, 1) 0.998176 0.000911993 0.000911993;
   (0, 0, 0, 1, 0, 1) 0.333333 0.333333 0.333333;
   (1, 0, 0, 1, 0, 1) 0.998176 0.000911993 0.000911993;
   (2, 0, 0, 1, 0, 1) 0.000911993 0.998176 0.000911993;
   (0, 1, 0, 1, 0, 1) 0.000456621 0.999087 0.000456621;
   (1, 1, 0, 1, 0, 1) 0.190495 0.761849 0.0476564;
   (2, 1, 0, 1, 0, 1) 0.100064 0.899845 9.14244e-05;
   (0, 2, 0, 1, 0, 1) 0.333333 0.333333 0.333333;
   (1, 2, 0, 1, 0, 1) 0.000456621 0.999087 0.000456621;
   (2, 2, 0, 1, 0, 1) 0.000456621 0.999087 0.000456621;
   (0, 0, 1, 1, 0, 1) 0.333333 0.333333 0.333333;
   (1, 0, 1, 1, 0, 1) 0.333333 0.666362 0.000304553;
   (2, 0, 1, 1, 0, 1) 0.000911993 0.998176 0.000911993;
   (0, 1, 1, 1, 0, 1) 0.000911993 0.998176 0.000911993;
   (1, 1, 1, 1, 0, 1) 0.0487995 0.92679 0.0244109;
   (2, 1, 1, 1, 0, 1) 0.026338 0.868382 0.10528;
   (0, 2, 1, 1, 0, 1) 0.000456621 0.999087 0.000456621;
   (1, 2, 1, 1, 0, 1) 0.000304553 0.999391 0.000304553;
   (2, 2, 1, 1, 0, 1) 0.100064 0.799872 0.100064;
   (0, 0, 2, 1, 0, 1) 0.333333 0.333333 0.333333;
   (1, 0, 2, 1, 0, 1) 0.998176 0.000911993 0.000911993;
   (2, 0, 2, 1, 0, 1) 0.333333 0.333333 0.333333;
   (0, 1, 2, 1, 0, 1) 0.333333 0.333333 0.333333;
   (1, 1, 2, 1, 0, 1) 0.100064 0.899845 9.14244e-05;
   (2, 1, 2, 1, 0, 1) 0.000152346 0.999695 0.000152346;
   (0, 2, 2, 1, 0, 1) 0.333333 0.333333 0.333333;
   (1, 2, 2, 1, 0, 1) 0.333333 0.333333 0.333333;
   (2, 2, 2, 1, 0, 1) 0.000911993 0.998176 0.000911993;
   (0, 0, 0, 2, 0, 1) 0.333333 0.333333 0.333333;
   (1, 0, 0, 2, 0, 1) 0.333333 0.333333 0.333333;
   (2, 0, 0, 2, 0, 1) 0.333333 0.333333 0.333333;
   (0, 1, 0, 2, 0, 1) 0.333333 0.333333 0.333333;
   (1, 1, 0, 2, 0, 1) 0.333333 0.333333 0.333333;
   (2, 1, 0, 2, 0, 1) 0.000911993 0.998176 0.000911993;
   (0, 2, 0, 2, 0, 1) 0.333333 0.333333 0.333333;
   (1, 2, 0, 2, 0, 1) 0.333333 0.333333 0.333333;
   (2, 2, 0, 2, 0, 1) 0.333333 0.333333 0.333333;
   (0, 0, 1, 2, 0, 1) 0.333333 0.333333 0.333333;
   (1, 0, 1, 2, 0, 1) 0.000911993 0.998176 0.000911993;
   (2, 0, 1, 2, 0, 1) 0.333333 0.333333 0.333333;
   (0, 1, 1, 2, 0, 1) 0.333333 0.333333 0.333333;
   (1, 1, 1, 2, 0, 1) 0.000456621 0.999087 0.000456621;
   (2, 1, 1, 2, 0, 1) 0.333333 0.333333 0.333333;
   (0, 2, 1, 2, 0, 1) 0.333333 0.333333 0.333333;
   (1, 2, 1, 2, 0, 1) 0.333333 0.333333 0.333333;
   (2, 2, 1, 2, 0, 1) 0.333333 0.333333 0.333333;
   (0, 0, 2, 2, 0, 1) 0.333333 0.333333 0.333333;
   (1, 0, 2, 2, 0, 1) 0.333333 0.333333 0.333333;
   (2, 0, 2, 2, 0, 1) 0.333333 0.333333 0.333333;
   (0, 1, 2, 2, 0, 1) 0.333333 0.333333 0.333333;
   (1, 1, 2, 2, 0, 1) 0.000911993 0.998176 0.000911993;
   (2, 1, 2, 2, 0, 1) 0.333333 0.333333 0.333333;
   (0, 2, 2, 2, 0, 1) 0.333333 0.333333 0.333333;
   (1, 2, 2, 2, 0, 1) 0.333333 0.333333 0.333333;
   (2, 2, 2, 2, 0, 1) 0.333333 0.333333 0.333333;
   (0, 0, 0, 0, 1, 1) 0.250057 0.749714 0.000228467;
   (1, 0, 0, 0, 1, 1) 0.499772 0.499772 0.000456621;
   (2, 0, 0, 0, 1, 1) 0.499886 0.499886 0.000228467;
   (0, 1, 0, 0, 1, 1) 0.000456621 0.499772 0.499772;
   (1, 1, 0, 0, 1, 1) 0.000456621 0.999087 0.000456621;
   (2, 1, 0, 0, 1, 1) 0.000130591 0.999739 0.000130591;
   (0, 2, 0, 0, 1, 1) 0.333333 0.666362 0.000304553;
   (1, 2, 0, 0, 1, 1) 0.333333 0.333333 0.333333;
   (2, 2, 0, 0, 1, 1) 0.333333 0.333333 0.333333;
   (0, 0, 1, 0, 1, 1) 0.000456621 0.999087 0.000456621;
   (1, 0, 1, 0, 1, 1) 0.000130591 0.999739 0.000130591;
   (2, 0, 1, 0, 1, 1) 0.0625464 0.937396 5.71461e-05;
   (0, 1, 1, 0, 1, 1) 7.03309e-05 0.922952 0.0769772;
   (1, 1, 1, 0, 1, 1) 0.0315877 0.915773 0.0526397;
   (2, 1, 1, 0, 1, 1) 0.0107622 0.978476 0.0107622;
   (0, 2, 1, 0, 1, 1) 0.333333 0.333333 0.333333;
   (1, 2, 1, 0, 1, 1) 0.000114273 0.999771 0.000114273;
   (2, 2, 1, 0, 1, 1) 0.250019 0.66659 0.0833905;
   (0, 0, 2, 0, 1, 1) 0.998176 0.000911993 0.000911993;
   (1, 0, 2, 0, 1, 1) 0.000456621 0.499772 0.499772;
   (2, 0, 2, 0, 1, 1) 0.333333 0.333333 0.333333;
   (0, 1, 2, 0, 1, 1) 0.000304553 0.999391 0.000304553;
   (1, 1, 2, 0, 1, 1) 7.61905e-05 0.916533 0.0833905;
   (2, 1, 2, 0, 1, 1) 0.333333 0.666514 0.000152346;
   (0, 2, 2, 0, 1, 1) 0.333333 0.333333 0.333333;
   (1, 2, 2, 0, 1, 1) 0.000911993 0.998176 0.000911993;
   (2, 2, 2, 0, 1, 1) 0.499772 0.499772 0.000456621;
   (0, 0, 0, 1, 1, 1) 0.499772 0.499772 0.000456621;
   (1, 0, 0, 1, 1, 1) 0.000114273 0.999771 0.000114273;
   (2, 0, 0, 1, 1, 1) 7.03309e-05 0.999859 7.03309e-05;
   (0, 1, 0, 1, 1, 1) 0.333333 0.666514 0.000152346;
   (1, 1, 0, 1, 1, 1) 0.16868 0.819261 0.0120588;
   (2, 1, 0, 1, 1, 1) 0.11112 0.888868 1.27008e-05;
   (0, 2, 0, 1, 1, 1) 0.000456621 0.499772 0.499772;
   (1, 2, 0, 1, 1, 1) 0.285733 0.714136 0.000130591;
   (2, 2, 0, 1, 1, 1) 0.142894 0.85704 6.53083e-05;
   (0, 0, 1, 1, 1, 1) 0.000228467 0.999543 0.000228467;
   (1, 0, 1, 1, 1, 1) 0.0124278 0.968933 0.0186389;
   (2, 0, 1, 1, 1, 1) 0.0128261 0.955117 0.0320566;
   (0, 1, 1, 1, 1, 1) 0.0145054 0.956497 0.0289976;
   (1, 1, 1, 1, 1, 1) 0.0020828 0.979116 0.0188011;
   (2, 1, 1, 1, 1, 1) 0.00246434 0.989403 0.00813216;
   (0, 2, 1, 1, 1, 1) 0.000114273 0.999771 0.000114273;
   (1, 2, 1, 1, 1, 1) 0.00284446 0.979145 0.0180103;
   (2, 2, 1, 1, 1, 1) 0.00114259 0.977167 0.0216905;
   (0, 0, 2, 1, 1, 1) 0.000911993 0.000911993 0.998176;
   (1, 0, 2, 1, 1, 1) 0.0526721 0.94728 4.81244e-05;
   (2, 0, 2, 1, 1, 1) 0.000130591 0.999739 0.000130591;
   (0, 1, 2, 1, 1, 1) 0.0909695 0.818061 0.0909695;
   (1, 1, 2, 1, 1, 1) 0.00214965 0.986388 0.011462;
   (2, 1, 2, 1, 1, 1) 0.00894614 0.982108 0.00894614;
   (0, 2, 2, 1, 1, 1) 0.000456621 0.999087 0.000456621;
   (1, 2, 2, 1, 1, 1) 1.05111e-05 0.908028 0.0919616;
   (2, 2, 2, 1, 1, 1) 0.0277894 0.944421 0.0277894;
   (0, 0, 0, 2, 1, 1) 0.333333 0.333333 0.333333;
   (1, 0, 0, 2, 1, 1) 0.000456621 0.999087 0.000456621;
   (2, 0, 0, 2, 1, 1) 0.000911993 0.998176 0.000911993;
   (0, 1, 0, 2, 1, 1) 0.000911993 0.998176 0.000911993;
   (1, 1, 0, 2, 1, 1) 0.333333 0.666362 0.000304553;
   (2, 1, 0, 2, 1, 1) 0.333333 0.666362 0.000304553;
   (0, 2, 0, 2, 1, 1) 0.333333 0.333333 0.333333;
   (1, 2, 0, 2, 1, 1) 0.333333 0.333333 0.333333;
   (2, 2, 0, 2, 1, 1) 0.333333 0.333333 0.333333;
   (0, 0, 1, 2, 1, 1) 0.333333 0.333333 0.333333;
   (1, 0, 1, 2, 1, 1) 2.94972e-05 0.999941 2.94972e-05;
   (2, 0, 1, 2, 1, 1) 6.53083e-05 0.999869 6.53083e-05;
   (0, 1, 1, 2, 1, 1) 8.31152e-05 0.999834 8.31152e-05;
   (1, 1, 1, 2, 1, 1) 0.00162676 0.987803 0.0105698;
   (2, 1, 1, 2, 1, 1) 2.68178e-06 0.982399 0.0175978;
   (0, 2, 1, 2, 1, 1) 0.333333 0.333333 0.333333;
   (1, 2, 1, 2, 1, 1) 2.61264e-05 0.942809 0.0571645;
   (2, 2, 1, 2, 1, 1) 4.15628e-05 0.909019 0.0909393;
   (0, 0, 2, 2, 1, 1) 0.333333 0.333333 0.333333;
   (1, 0, 2, 2, 1, 1) 0.998176 0.000911993 0.000911993;
   (2, 0, 2, 2, 1, 1) 0.000911993 0.998176 0.000911993;
   (0, 1, 2, 2, 1, 1) 0.000911993 0.998176 0.000911993;
   (1, 1, 2, 2, 1, 1) 2.77097e-05 0.969644 0.0303282;
   (2, 1, 2, 2, 1, 1) 5.71461e-05 0.999886 5.71461e-05;
   (0, 2, 2, 2, 1, 1) 0.333333 0.333333 0.333333;
   (1, 2, 2, 2, 1, 1) 0.000182799 0.799744 0.200073;
   (2, 2, 2, 2, 1, 1) 0.000152346 0.666514 0.333333;
   (0, 0, 0, 0, 2, 1) 0.333333 0.333333 0.333333;
   (1, 0, 0, 0, 2, 1) 0.333333 0.333333 0.333333;
   (2, 0, 0, 0, 2, 1) 0.333333 0.333333 0.333333;
   (0, 1, 0, 0, 2, 1) 0.333333 0.333333 0.333333;
   (1, 1, 0, 0, 2, 1) 0.333333 0.333333 0.333333;
   (2, 1, 0, 0, 2, 1) 0.333333 0.333333 0.333333;
   (0, 2, 0, 0, 2, 1) 0.333333 0.333333 0.333333;
   (1, 2, 0, 0, 2, 1) 0.333333 0.333333 0.333333;
   (2, 2, 0, 0, 2, 1) 0.333333 0.333333 0.333333;
   (0, 0, 1, 0, 2, 1) 0.333333 0.333333 0.333333;
   (1, 0, 1, 0, 2, 1) 0.333333 0.333333 0.333333;
   (2, 0, 1, 0, 2, 1) 0.333333 0.333333 0.333333;
   (0, 1, 1, 0, 2, 1) 0.333333 0.333333 0.333333;
   (1, 1, 1, 0, 2, 1) 0.333333 0.333333 0.333333;
   (2, 1, 1, 0, 2, 1) 0.000911993 0.998176 0.000911993;
   (0, 2, 1, 0, 2, 1) 0.333333 0.333333 0.333333;
   (1, 2, 1, 0, 2, 1) 0.333333 0.333333 0.333333;
   (2, 2, 1, 0, 2, 1) 0.333333 0.333333 0.333333;
   (0, 0, 2, 0, 2, 1) 0.333333 0.333333 0.333333;
   (1, 0, 2, 0, 2, 1) 0.333333 0.333333 0.333333;
   (2, 0, 2, 0, 2, 1) 0.333333 0.333333 0.333333;
   (0, 1, 2, 0, 2, 1) 0.333333 0.333333 0.333333;
   (1, 1, 2, 0, 2, 1) 0.333333 0.333333 0.333333;
   (2, 1, 2, 0, 2, 1) 0.333333 0.333333 0.333333;
   (0, 2, 2, 0, 2, 1) 0.333333 0.333333 0.333333;
   (1, 2, 2, 0, 2, 1) 0.333333 0.333333 0.333333;
   (2, 2, 2, 0, 2, 1) 0.333333 0.333333 0.333333;
   (0, 0, 0, 1, 2, 1) 0.333333 0.333333 0.333333;
   (1, 0, 0, 1, 2, 1) 0.333333 0.333333 0.333333;
   (2, 0, 0, 1, 2, 1) 0.333333 0.333333 0.333333;
   (0, 1, 0, 1, 2, 1) 0.333333 0.333333 0.333333;
   (1, 1, 0, 1, 2, 1) 0.000911993 0.998176 0.000911993;
   (2, 1, 0, 1, 2, 1) 0.333333 0.333333 0.333333;
   (0, 2, 0, 1, 2, 1) 0.333333 0.333333 0.333333;
   (1, 2, 0, 1, 2, 1) 0.333333 0.333333 0.333333;
   (2, 2, 0, 1, 2, 1) 0.333333 0.333333 0.333333;
   (0, 0, 1, 1, 2, 1) 0.333333 0.333333 0.333333;
   (1, 0, 1, 1, 2, 1) 0.000911993 0.998176 0.000911993;
   (2, 0, 1, 1, 2, 1) 0.333333 0.333333 0.333333;
   (0, 1, 1, 1, 2, 1) 0.000911993 0.998176 0.000911993;
   (1, 1, 1, 1, 2, 1) 0.0120588 0.975882 0.0120588;
   (2, 1, 1, 1, 2, 1) 3.15313e-05 0.965457 0.034511;
   (0, 2, 1, 1, 2, 1) 0.333333 0.333333 0.333333;
   (1, 2, 1, 1, 2, 1) 0.000228467 0.999543 0.000228467;
   (2, 2, 1, 1, 2, 1) 0.000456621 0.999087 0.000456621;
   (0, 0, 2, 1, 2, 1) 0.333333 0.333333 0.333333;
   (1, 0, 2, 1, 2, 1) 0.333333 0.333333 0.333333;
   (2, 0, 2, 1, 2, 1) 0.000911993 0.998176 0.000911993;
   (0, 1, 2, 1, 2, 1) 0.333333 0.333333 0.333333;
   (1, 1, 2, 1, 2, 1) 0.000152346 0.999695 0.000152346;
   (2, 1, 2, 1, 2, 1) 0.000456621 0.000456621 0.999087;
   (0, 2, 2, 1, 2, 1) 0.333333 0.333333 0.333333;
   (1, 2, 2, 1, 2, 1) 0.333333 0.333333 0.333333;
   (2, 2, 2, 1, 2, 1) 0.000911993 0.998176 0.000911993;
   (0, 0, 0, 2, 2, 1) 0.333333 0.333333 0.333333;
   (1, 0, 0, 2, 2, 1) 0.333333 0.333333 0.333333;
   (2, 0, 0, 2, 2, 1) 0.333333 0.333333 0.333333;
   (0, 1, 0, 2, 2, 1) 0.333333 0.333333 0.333333;
   (1, 1, 0, 2, 2, 1) 0.333333 0.333333 0.333333;
   (2, 1, 0, 2, 2, 1) 0.333333 0.333333 0.333333;
   (0, 2, 0, 2, 2, 1) 0.333333 0.333333 0.333333;
   (1, 2, 0, 2, 2, 1) 0.333333 0.333333 0.333333;
   (2, 2, 0, 2, 2, 1) 0.333333 0.333333 0.333333;
   (0, 0, 1, 2, 2, 1) 0.333333 0.333333 0.333333;
   (1, 0, 1, 2, 2, 1) 0.000911993 0.998176 0.000911993;
   (2, 0, 1, 2, 2, 1) 0.333333 0.333333 0.333333;
   (0, 1, 1, 2, 2, 1) 0.333333 0.333333 0.333333;
   (1, 1, 1, 2, 2, 1) 0.000152346 0.999695 0.000152346;
   (2, 1, 1, 2, 2, 1) 0.000911993 0.998176 0.000911993;
   (0, 2, 1, 2, 2, 1) 0.333333 0.333333 0.333333;
   (1, 2, 1, 2, 2, 1) 0.000911993 0.998176 0.000911993;
   (2, 2, 1, 2, 2, 1) 0.333333 0.333333 0.333333;
   (0, 0, 2, 2, 2, 1) 0.333333 0.333333 0.333333;
   (1, 0, 2, 2, 2, 1) 0.333333 0.333333 0.333333;
   (2, 0, 2, 2, 2, 1) 0.333333 0.333333 0.333333;
   (0, 1, 2, 2, 2, 1) 0.333333 0.333333 0.333333;
   (1, 1, 2, 2, 2, 1) 0.333333 0.333333 0.333333;
   (2, 1, 2, 2, 2, 1) 0.333333 0.333333 0.333333;
   (0, 2, 2, 2, 2, 1) 0.333333 0.333333 0.333333;
   (1, 2, 2, 2, 2, 1) 0.333333 0.333333 0.333333;
   (2, 2, 2, 2, 2, 1) 0.333333 0.333333 0.333333;
   (0, 0, 0, 0, 0, 2) 0.957338 0.00474361 0.0379185;
   (1, 0, 0, 0, 0, 2) 0.998176 0.000911993 0.000911993;
   (2, 0, 0, 0, 0, 2) 0.999982 9.23706e-06 9.23706e-06;
   (0, 1, 0, 0, 0, 2) 0.333333 0.333333 0.333333;
   (1, 1, 0, 0, 0, 2) 0.000911993 0.000911993 0.998176;
   (2, 1, 0, 0, 0, 2) 0.333333 0.333333 0.333333;
   (0, 2, 0, 0, 0, 2) 0.904687 4.35417e-05 0.0952692;
   (1, 2, 0, 0, 0, 2) 0.333333 0.333333 0.333333;
   (2, 2, 0, 0, 0, 2) 0.919936 3.65758e-05 0.0800278;
   (0, 0, 1, 0, 0, 2) 0.333333 0.333333 0.333333;
   (1, 0, 1, 0, 0, 2) 0.333333 0.333333 0.333333;
   (2, 0, 1, 0, 0, 2) 0.333333 0.333333 0.333333;
   (0, 1, 1, 0, 0, 2) 0.333333 0.333333 0.333333;
   (1, 1, 1, 0, 0, 2) 0.333333 0.333333 0.333333;
   (2, 1, 1, 0, 0, 2) 0.000911993 0.998176 0.000911993;
   (0, 2, 1, 0, 0, 2) 0.333333 0.333333 0.333333;
   (1, 2, 1, 0, 0, 2) 0.333333 0.333333 0.333333;
   (2, 2, 1, 0, 0, 2) 0.333333 0.333333 0.333333;
   (0, 0, 2, 0, 0, 2) 0.999878 6.09552e-05 6.09552e-05;
   (1, 0, 2, 0, 0, 2) 0.333333 0.333333 0.333333;
   (2, 0, 2, 0, 0, 2) 0.874814 0.000114273 0.125071;
   (0, 1, 2, 0, 0, 2) 0.333333 0.333333 0.333333;
   (1, 1, 2, 0, 0, 2) 0.333333 0.333333 0.333333;
   (2, 1, 2, 0, 0, 2) 0.000911993 0.000911993 0.998176;
   (0, 2, 2, 0, 0, 2) 0.999087 0.000456621 0.000456621;
   (1, 2, 2, 0, 0, 2) 0.333333 0.333333 0.333333;
   (2, 2, 2, 0, 0, 2) 0.499772 0.000456621 0.499772;
   (0, 0, 0, 1, 0, 2) 0.333333 0.333333 0.333333;
   (1, 0, 0, 1, 0, 2) 0.333333 0.333333 0.333333;
   (2, 0, 0, 1, 0, 2) 0.333333 0.333333 0.333333;
   (0, 1, 0, 1, 0, 2) 0.333333 0.333333 0.333333;
   (1, 1, 0, 1, 0, 2) 0.333333 0.333333 0.333333;
   (2, 1, 0, 1, 0, 2) 0.333333 0.333333 0.333333;
   (0, 2, 0, 1, 0, 2) 0.333333 0.333333 0.333333;
   (1, 2, 0, 1, 0, 2) 0.333333 0.333333 0.333333;
   (2, 2, 0, 1, 0, 2) 0.333333 0.333333 0.333333;
   (0, 0, 1, 1, 0, 2) 0.333333 0.333333 0.333333;
   (1, 0, 1, 1, 0, 2) 0.333333 0.333333 0.333333;
   (2, 0, 1, 1, 0, 2) 0.333333 0.333333 0.333333;
   (0, 1, 1, 1, 0, 2) 0.333333 0.333333 0.333333;
   (1, 1, 1, 1, 0, 2) 0.000304553 0.999391 0.000304553;
   (2, 1, 1, 1, 0, 2) 0.000456621 0.999087 0.000456621;
   (0, 2, 1, 1, 0, 2) 0.333333 0.333333 0.333333;
   (1, 2, 1, 1, 0, 2) 0.333333 0.333333 0.333333;
   (2, 2, 1, 1, 0, 2) 0.333333 0.333333 0.333333;
   (0, 0, 2, 1, 0, 2) 0.998176 0.000911993 0.000911993;
   (1, 0, 2, 1, 0, 2) 0.333333 0.333333 0.333333;
   (2, 0, 2, 1, 0, 2) 0.998176 0.000911993 0.000911993;
   (0, 1, 2, 1, 0, 2) 0.333333 0.333333 0.333333;
   (1, 1, 2, 1, 0, 2) 0.333333 0.333333 0.333333;
   (2, 1, 2, 1, 0, 2) 0.000456621 0.000456621 0.999087;
   (0, 2, 2, 1, 0, 2) 0.333333 0.333333 0.333333;
   (1, 2, 2, 1, 0, 2) 0.333333 0.333333 0.333333;
   (2, 2, 2, 1, 0, 2) 0.333333 0.333333 0.333333;
   (0, 0, 0, 2, 0, 2) 0.999543 0.000228467 0.000228467;
   (1, 0, 0, 2, 0, 2) 0.333333 0.333333 0.333333;
   (2, 0, 0, 2, 0, 2) 0.499772 0.000456621 0.499772;
   (0, 1, 0, 2, 0, 2) 0.333333 0.333333 0.333333;
   (1, 1, 0, 2, 0, 2) 0.333333 0.333333 0.333333;
   (2, 1, 0, 2, 0, 2) 0.333333 0.333333 0.333333;
   (0, 2, 0, 2, 0, 2) 0.333333 0.333333 0.333333;
   (1, 2, 0, 2, 0, 2) 0.333333 0.333333 0.333333;
   (2, 2, 0, 2, 0, 2) 0.499772 0.000456621 0.499772;
   (0, 0, 1, 2, 0, 2) 0.333333 0.333333 0.333333;
   (1, 0, 1, 2, 0, 2) 0.333333 0.333333 0.333333;
   (2, 0, 1, 2, 0, 2) 0.333333 0.333333 0.333333;
   (0, 1, 1, 2, 0, 2) 0.333333 0.333333 0.333333;
   (1, 1, 1, 2, 0, 2) 0.333333 0.333333 0.333333;
   (2, 1, 1, 2, 0, 2) 0.333333 0.333333 0.333333;
   (0, 2, 1, 2, 0, 2) 0.333333 0.333333 0.333333;
   (1, 2, 1, 2, 0, 2) 0.333333 0.333333 0.333333;
   (2, 2, 1, 2, 0, 2) 0.333333 0.333333 0.333333;
   (0, 0, 2, 2, 0, 2) 0.333333 0.333333 0.333333;
   (1, 0, 2, 2, 0, 2) 0.333333 0.333333 0.333333;
   (2, 0, 2, 2, 0, 2) 0.999087 0.000456621 0.000456621;
   (0, 1, 2, 2, 0, 2) 0.333333 0.333333 0.333333;
   (1, 1, 2, 2, 0, 2) 0.333333 0.333333 0.333333;
   (2, 1, 2, 2, 0, 2) 0.333333 0.333333 0.333333;
   (0, 2, 2, 2, 0, 2) 0.333333 0.333333 0.333333;
   (1, 2, 2, 2, 0, 2) 0.333333 0.333333 0.333333;
   (2, 2, 2, 2, 0, 2) 0.000456621 0.000456621 0.999087;
   (0, 0, 0, 0, 1, 2) 0.666362 0.333333 0.000304553;
   (1, 0, 0, 0, 1, 2) 0.333333 0.333333 0.333333;
   (2, 0, 0, 0, 1, 2) 0.333333 0.333333 0.333333;
   (0, 1, 0, 0, 1, 2) 0.333333 0.333333 0.333333;
   (1, 1, 0, 0, 1, 2) 0.000911993 0.998176 0.000911993;
   (2, 1, 0, 0, 1, 2) 0.333333 0.333333 0.333333;
   (0, 2, 0, 0, 1, 2) 0.333333 0.333333 0.333333;
   (1, 2, 0, 0, 1, 2) 0.333333 0.333333 0.333333;
   (2, 2, 0, 0, 1, 2) 0.998176 0.000911993 0.000911993;
   (0, 0, 1, 0, 1, 2) 0.333333 0.333333 0.333333;
   (1, 0, 1, 0, 1, 2) 0.333333 0.333333 0.333333;
   (2, 0, 1, 0, 1, 2) 0.333333 0.333333 0.333333;
   (0, 1, 1, 0, 1, 2) 0.333333 0.333333 0.333333;
   (1, 1, 1, 0, 1, 2) 0.000456621 0.999087 0.000456621;
   (2, 1, 1, 0, 1, 2) 0.000228467 0.999543 0.000228467;
   (0, 2, 1, 0, 1, 2) 0.333333 0.333333 0.333333;
   (1, 2, 1, 0, 1, 2) 0.333333 0.333333 0.333333;
   (2, 2, 1, 0, 1, 2) 0.000456621 0.999087 0.000456621;
   (0, 0, 2, 0, 1, 2) 0.333333 0.333333 0.333333;
   (1, 0, 2, 0, 1, 2) 0.333333 0.333333 0.333333;
   (2, 0, 2, 0, 1, 2) 0.333333 0.333333 0.333333;
   (0, 1, 2, 0, 1, 2) 0.333333 0.333333 0.333333;
   (1, 1, 2, 0, 1, 2) 0.333333 0.333333 0.333333;
   (2, 1, 2, 0, 1, 2) 0.333333 0.333333 0.333333;
   (0, 2, 2, 0, 1, 2) 0.333333 0.333333 0.333333;
   (1, 2, 2, 0, 1, 2) 0.333333 0.333333 0.333333;
   (2, 2, 2, 0, 1, 2) 0.333333 0.333333 0.333333;
   (0, 0, 0, 1, 1, 2) 0.333333 0.333333 0.333333;
   (1, 0, 0, 1, 1, 2) 0.333333 0.333333 0.333333;
   (2, 0, 0, 1, 1, 2) 0.333333 0.333333 0.333333;
   (0, 1, 0, 1, 1, 2) 0.333333 0.333333 0.333333;
   (1, 1, 0, 1, 1, 2) 0.333333 0.333333 0.333333;
   (2, 1, 0, 1, 1, 2) 0.333333 0.333333 0.333333;
   (0, 2, 0, 1, 1, 2) 0.333333 0.333333 0.333333;
   (1, 2, 0, 1, 1, 2) 0.333333 0.333333 0.333333;
   (2, 2, 0, 1, 1, 2) 0.333333 0.333333 0.333333;
   (0, 0, 1, 1, 1, 2) 0.333333 0.333333 0.333333;
   (1, 0, 1, 1, 1, 2) 0.000304553 0.999391 0.000304553;
   (2, 0, 1, 1, 1, 2) 0.000456621 0.999087 0.000456621;
   (0, 1, 1, 1, 1, 2) 0.333333 0.333333 0.333333;
   (1, 1, 1, 1, 1, 2) 0.00352431 0.964783 0.0316931;
   (2, 1, 1, 1, 1, 2) 0.0191138 0.955403 0.0254831;
   (0, 2, 1, 1, 1, 2) 0.333333 0.333333 0.333333;
   (1, 2, 1, 1, 1, 2) 2.47142e-05 0.972926 0.0270497;
   (2, 2, 1, 1, 1, 2) 3.15313e-05 0.862019 0.13795;
   (0, 0, 2, 1, 1, 2) 0.333333 0.333333 0.333333;
   (1, 0, 2, 1, 1, 2) 0.333333 0.333333 0.333333;
   (2, 0, 2, 1, 1, 2) 0.000911993 0.000911993 0.998176;
   (0, 1, 2, 1, 1, 2) 0.333333 0.333333 0.333333;
   (1, 1, 2, 1, 1, 2) 0.0588678 0.882264 0.0588678;
   (2, 1, 2, 1, 1, 2) 8.31152e-05 0.908947 0.0909695;
   (0, 2, 2, 1, 1, 2) 0.333333 0.333333 0.333333;
   (1, 2, 2, 1, 1, 2) 0.000304553 0.666362 0.333333;
   (2, 2, 2, 1, 1, 2) 0.000456621 0.999087 0.000456621;
   (0, 0, 0, 2, 1, 2) 0.333333 0.333333 0.333333;
   (1, 0, 0, 2, 1, 2) 0.333333 0.333333 0.333333;
   (2, 0, 0, 2, 1, 2) 0.333333 0.333333 0.333333;
   (0, 1, 0, 2, 1, 2) 0.333333 0.333333 0.333333;
   (1, 1, 0, 2, 1, 2) 0.333333 0.333333 0.333333;
   (2, 1, 0, 2, 1, 2) 0.333333 0.333333 0.333333;
   (0, 2, 0, 2, 1, 2) 0.333333 0.333333 0.333333;
   (1, 2, 0, 2, 1, 2) 0.333333 0.333333 0.333333;
   (2, 2, 0, 2, 1, 2) 0.333333 0.333333 0.333333;
   (0, 0, 1, 2, 1, 2) 0.333333 0.333333 0.333333;
   (1, 0, 1, 2, 1, 2) 0.333333 0.333333 0.333333;
   (2, 0, 1, 2, 1, 2) 0.333333 0.333333 0.333333;
   (0, 1, 1, 2, 1, 2) 0.998176 0.000911993 0.000911993;
   (1, 1, 1, 2, 1, 2) 0.000114273 0.874814 0.125071;
   (2, 1, 1, 2, 1, 2) 0.000114273 0.999771 0.000114273;
   (0, 2, 1, 2, 1, 2) 0.333333 0.333333 0.333333;
   (1, 2, 1, 2, 1, 2) 0.000911993 0.998176 0.000911993;
   (2, 2, 1, 2, 1, 2) 0.000456621 0.999087 0.000456621;
   (0, 0, 2, 2, 1, 2) 0.333333 0.333333 0.333333;
   (1, 0, 2, 2, 1, 2) 0.333333 0.333333 0.333333;
   (2, 0, 2, 2, 1, 2) 0.333333 0.333333 0.333333;
   (0, 1, 2, 2, 1, 2) 0.333333 0.333333 0.333333;
   (1, 1, 2, 2, 1, 2) 0.333333 0.333333 0.333333;
   (2, 1, 2, 2, 1, 2) 0.333333 0.333333 0.333333;
   (0, 2, 2, 2, 1, 2) 0.333333 0.333333 0.333333;
   (1, 2, 2, 2, 1, 2) 0.333333 0.333333 0.333333;
   (2, 2, 2, 2, 1, 2) 0.000304553 0.000304553 0.999391;
   (0, 0, 0, 0, 2, 2) 0.998176 0.000911993 0.000911993;
   (1, 0, 0, 0, 2, 2) 0.333333 0.333333 0.333333;
   (2, 0, 0, 0, 2, 2) 0.333333 0.333333 0.333333;
   (0, 1, 0, 0, 2, 2) 0.333333 0.333333 0.333333;
   (1, 1, 0, 0, 2, 2) 0.333333 0.333333 0.333333;
   (2, 1, 0, 0, 2, 2) 0.333333 0.333333 0.333333;
   (0, 2, 0, 0, 2, 2) 0.333333 0.333333 0.333333;
   (1, 2, 0, 0, 2, 2) 0.333333 0.333333 0.333333;
   (2, 2, 0, 0, 2, 2) 0.333333 0.333333 0.333333;
   (0, 0, 1, 0, 2, 2) 0.333333 0.333333 0.333333;
   (1, 0, 1, 0, 2, 2) 0.333333 0.333333 0.333333;
   (2, 0, 1, 0, 2, 2) 0.333333 0.333333 0.333333;
   (0, 1, 1, 0, 2, 2) 0.333333 0.333333 0.333333;
   (1, 1, 1, 0, 2, 2) 0.333333 0.333333 0.333333;
   (2, 1, 1, 0, 2, 2) 0.333333 0.333333 0.333333;
   (0, 2, 1, 0, 2, 2) 0.333333 0.333333 0.333333;
   (1, 2, 1, 0, 2, 2) 0.333333 0.333333 0.333333;
   (2, 2, 1, 0, 2, 2) 0.333333 0.333333 0.333333;
   (0, 0, 2, 0, 2, 2) 0.333333 0.333333 0.333333;
   (1, 0, 2, 0, 2, 2) 0.333333 0.333333 0.333333;
   (2, 0, 2, 0, 2, 2) 0.333333 0.333333 0.333333;
