network "unnamedBN" {
// written by aGrUM 0.22.2
}

variable asma_pre {
   type discrete[3] {0, 1, 2};
}

variable cardiopatia_pre {
   type discrete[3] {0, 1, 2};
}

variable diabetes_pre {
   type discrete[3] {0, 1, 2};
}

variable doenca_hematologica_pre {
   type discrete[3] {0, 1, 2};
}

variable doenca_hepatica_pre {
   type discrete[3] {0, 1, 2};
}

variable doenca_neurologica_pre {
   type discrete[3] {0, 1, 2};
}

variable doenca_renal_pre {
   type discrete[3] {0, 1, 2};
}

variable imunodepressao_pre {
   type discrete[3] {0, 1, 2};
}

variable obesidade_pre {
   type discrete[3] {0, 1, 2};
}

variable outros_fatores_de_risco_pre {
   type discrete[3] {0, 1, 2};
}

variable pneumopatia_pre {
   type discrete[3] {0, 1, 2};
}

variable puerpera_pre {
   type discrete[3] {0, 1, 2};
}

variable sindrome_de_down_pre {
   type discrete[3] {0, 1, 2};
}

variable idade_pre {
   type discrete[5] {0, 1, 2, 3, 4};
}

variable cs_sexo_pre {
   type discrete[2] {0, 1};
}

variable obito_pre {
   type discrete[2] {0, 1};
}

probability (asma_pre | cs_sexo_pre, pneumopatia_pre) {
   (0, 0) 0.997705 0.00026006 0.00203486;
   (1, 0) 0.997892 0.000467614 0.0016407;
   (0, 1) 0.0085033 0.93572 0.0557769;
   (1, 1) 0.00814783 0.95516 0.0366919;
   (0, 2) 0.467758 0.447799 0.0844422;
   (1, 2) 0.490973 0.450462 0.0585645;
}
probability (cardiopatia_pre | diabetes_pre, doenca_renal_pre, doenca_neurologica_pre, idade_pre, outros_fatores_de_risco_pre, obesidade_pre) {
   (0, 0, 0, 0, 0, 0) 0.994453 5.74848e-06 0.00554154;
   (1, 0, 0, 0, 0, 0) 0.333333 0.333333 0.333333;
   (2, 0, 0, 0, 0, 0) 0.862385 0.00152905 0.136086;
   (0, 1, 0, 0, 0, 0) 0.333333 0.333333 0.333333;
   (1, 1, 0, 0, 0, 0) 0.25 0.5 0.25;
   (2, 1, 0, 0, 0, 0) 0.333333 0.333333 0.333333;
   (0, 2, 0, 0, 0, 0) 0.898876 0.00561798 0.0955056;
   (1, 2, 0, 0, 0, 0) 0.333333 0.333333 0.333333;
   (2, 2, 0, 0, 0, 0) 0.545455 0.0909091 0.363636;
   (0, 0, 1, 0, 0, 0) 0.333333 0.333333 0.333333;
   (1, 0, 1, 0, 0, 0) 0.333333 0.333333 0.333333;
   (2, 0, 1, 0, 0, 0) 0.333333 0.333333 0.333333;
   (0, 1, 1, 0, 0, 0) 0.333333 0.333333 0.333333;
   (1, 1, 1, 0, 0, 0) 0.0909091 0.545455 0.363636;
   (2, 1, 1, 0, 0, 0) 0.25 0.5 0.25;
   (0, 2, 1, 0, 0, 0) 0.333333 0.333333 0.333333;
   (1, 2, 1, 0, 0, 0) 0.25 0.5 0.25;
   (2, 2, 1, 0, 0, 0) 0.333333 0.333333 0.333333;
   (0, 0, 2, 0, 0, 0) 0.914286 0.0285714 0.0571429;
   (1, 0, 2, 0, 0, 0) 0.333333 0.333333 0.333333;
   (2, 0, 2, 0, 0, 0) 0.5 0.25 0.25;
   (0, 1, 2, 0, 0, 0) 0.333333 0.333333 0.333333;
   (1, 1, 2, 0, 0, 0) 0.333333 0.333333 0.333333;
   (2, 1, 2, 0, 0, 0) 0.333333 0.333333 0.333333;
   (0, 2, 2, 0, 0, 0) 0.333333 0.333333 0.333333;
   (1, 2, 2, 0, 0, 0) 0.333333 0.333333 0.333333;
   (2, 2, 2, 0, 0, 0) 0.333333 0.333333 0.333333;
   (0, 0, 0, 1, 0, 0) 0.986217 6.1258e-06 0.0137769;
   (1, 0, 0, 1, 0, 0) 0.333333 0.333333 0.333333;
   (2, 0, 0, 1, 0, 0) 0.834769 0.00234926 0.162882;
   (0, 1, 0, 1, 0, 0) 0.5 0.25 0.25;
   (1, 1, 0, 1, 0, 0) 0.333333 0.333333 0.333333;
   (2, 1, 0, 1, 0, 0) 0.333333 0.333333 0.333333;
   (0, 2, 0, 1, 0, 0) 0.85654 0.00421941 0.139241;
   (1, 2, 0, 1, 0, 0) 0.333333 0.333333 0.333333;
   (2, 2, 0, 1, 0, 0) 0.685714 0.0285714 0.285714;
   (0, 0, 1, 1, 0, 0) 0.333333 0.333333 0.333333;
   (1, 0, 1, 1, 0, 0) 0.166667 0.333333 0.5;
   (2, 0, 1, 1, 0, 0) 0.2 0.4 0.4;
   (0, 1, 1, 1, 0, 0) 0.25 0.5 0.25;
   (1, 1, 1, 1, 0, 0) 0.166667 0.333333 0.5;
   (2, 1, 1, 1, 0, 0) 0.25 0.25 0.5;
   (0, 2, 1, 1, 0, 0) 0.333333 0.333333 0.333333;
   (1, 2, 1, 1, 0, 0) 0.2 0.6 0.2;
   (2, 2, 1, 1, 0, 0) 0.333333 0.333333 0.333333;
   (0, 0, 2, 1, 0, 0) 0.875 0.03125 0.09375;
   (1, 0, 2, 1, 0, 0) 0.333333 0.333333 0.333333;
   (2, 0, 2, 1, 0, 0) 0.2 0.2 0.6;
   (0, 1, 2, 1, 0, 0) 0.333333 0.333333 0.333333;
   (1, 1, 2, 1, 0, 0) 0.333333 0.333333 0.333333;
   (2, 1, 2, 1, 0, 0) 0.333333 0.333333 0.333333;
   (0, 2, 2, 1, 0, 0) 0.333333 0.333333 0.333333;
   (1, 2, 2, 1, 0, 0) 0.333333 0.333333 0.333333;
   (2, 2, 2, 1, 0, 0) 0.333333 0.333333 0.333333;
   (0, 0, 0, 2, 0, 0) 0.96592 6.01804e-06 0.0340742;
   (1, 0, 0, 2, 0, 0) 0.2 0.4 0.4;
   (2, 0, 0, 2, 0, 0) 0.736157 0.000605144 0.263238;
   (0, 1, 0, 2, 0, 0) 0.5 0.25 0.25;
   (1, 1, 0, 2, 0, 0) 0.333333 0.333333 0.333333;
   (2, 1, 0, 2, 0, 0) 0.333333 0.333333 0.333333;
   (0, 2, 0, 2, 0, 0) 0.831522 0.00271739 0.165761;
   (1, 2, 0, 2, 0, 0) 0.333333 0.333333 0.333333;
   (2, 2, 0, 2, 0, 0) 0.474576 0.0338983 0.491525;
   (0, 0, 1, 2, 0, 0) 0.333333 0.333333 0.333333;
   (1, 0, 1, 2, 0, 0) 0.166667 0.333333 0.5;
   (2, 0, 1, 2, 0, 0) 0.2 0.4 0.4;
   (0, 1, 1, 2, 0, 0) 0.333333 0.333333 0.333333;
   (1, 1, 1, 2, 0, 0) 0.125 0.5 0.375;
   (2, 1, 1, 2, 0, 0) 0.2 0.4 0.4;
   (0, 2, 1, 2, 0, 0) 0.333333 0.333333 0.333333;
   (1, 2, 1, 2, 0, 0) 0.25 0.5 0.25;
   (2, 2, 1, 2, 0, 0) 0.333333 0.333333 0.333333;
   (0, 0, 2, 2, 0, 0) 0.714286 0.0238095 0.261905;
   (1, 0, 2, 2, 0, 0) 0.333333 0.333333 0.333333;
   (2, 0, 2, 2, 0, 0) 0.444444 0.111111 0.444444;
   (0, 1, 2, 2, 0, 0) 0.333333 0.333333 0.333333;
   (1, 1, 2, 2, 0, 0) 0.333333 0.333333 0.333333;
   (2, 1, 2, 2, 0, 0) 0.333333 0.333333 0.333333;
   (0, 2, 2, 2, 0, 0) 0.5 0.25 0.25;
   (1, 2, 2, 2, 0, 0) 0.333333 0.333333 0.333333;
   (2, 2, 2, 2, 0, 0) 0.333333 0.333333 0.333333;
   (0, 0, 0, 3, 0, 0) 0.926175 1.3763e-05 0.073811;
   (1, 0, 0, 3, 0, 0) 0.142857 0.142857 0.714286;
   (2, 0, 0, 3, 0, 0) 0.621888 0.000926462 0.377186;
   (0, 1, 0, 3, 0, 0) 0.25 0.25 0.5;
   (1, 1, 0, 3, 0, 0) 0.333333 0.333333 0.333333;
   (2, 1, 0, 3, 0, 0) 0.285714 0.285714 0.428571;
   (0, 2, 0, 3, 0, 0) 0.766114 0.00184162 0.232044;
   (1, 2, 0, 3, 0, 0) 0.333333 0.333333 0.333333;
   (2, 2, 0, 3, 0, 0) 0.448485 0.00606061 0.545455;
   (0, 0, 1, 3, 0, 0) 0.25 0.25 0.5;
   (1, 0, 1, 3, 0, 0) 0.1 0.3 0.6;
   (2, 0, 1, 3, 0, 0) 0.176471 0.294118 0.529412;
   (0, 1, 1, 3, 0, 0) 0.333333 0.333333 0.333333;
   (1, 1, 1, 3, 0, 0) 0.03125 0.40625 0.5625;
   (2, 1, 1, 3, 0, 0) 0.0526316 0.263158 0.684211;
   (0, 2, 1, 3, 0, 0) 0.333333 0.333333 0.333333;
   (1, 2, 1, 3, 0, 0) 0.125 0.5 0.375;
   (2, 2, 1, 3, 0, 0) 0.25 0.25 0.5;
   (0, 0, 2, 3, 0, 0) 0.597403 0.012987 0.38961;
   (1, 0, 2, 3, 0, 0) 0.25 0.25 0.5;
   (2, 0, 2, 3, 0, 0) 0.352941 0.117647 0.529412;
   (0, 1, 2, 3, 0, 0) 0.333333 0.333333 0.333333;
   (1, 1, 2, 3, 0, 0) 0.25 0.5 0.25;
   (2, 1, 2, 3, 0, 0) 0.25 0.25 0.5;
   (0, 2, 2, 3, 0, 0) 0.25 0.25 0.5;
   (1, 2, 2, 3, 0, 0) 0.333333 0.333333 0.333333;
   (2, 2, 2, 3, 0, 0) 0.333333 0.166667 0.5;
   (0, 0, 0, 4, 0, 0) 0.847304 5.72716e-05 0.152638;
   (1, 0, 0, 4, 0, 0) 0.0909091 0.0454545 0.863636;
   (2, 0, 0, 4, 0, 0) 0.464913 0.000520231 0.534566;
   (0, 1, 0, 4, 0, 0) 0.2 0.4 0.4;
   (1, 1, 0, 4, 0, 0) 0.142857 0.142857 0.714286;
   (2, 1, 0, 4, 0, 0) 0.125 0.25 0.625;
   (0, 2, 0, 4, 0, 0) 0.59434 0.00209644 0.403564;
   (1, 2, 0, 4, 0, 0) 0.142857 0.142857 0.714286;
   (2, 2, 0, 4, 0, 0) 0.27924 0.00146199 0.719298;
   (0, 0, 1, 4, 0, 0) 0.333333 0.166667 0.5;
   (1, 0, 1, 4, 0, 0) 0.0416667 0.125 0.833333;
   (2, 0, 1, 4, 0, 0) 0.03125 0.34375 0.625;
   (0, 1, 1, 4, 0, 0) 0.25 0.25 0.5;
   (1, 1, 1, 4, 0, 0) 0.0163934 0.180328 0.803279;
   (2, 1, 1, 4, 0, 0) 0.0238095 0.261905 0.714286;
   (0, 2, 1, 4, 0, 0) 0.25 0.25 0.5;
   (1, 2, 1, 4, 0, 0) 0.1 0.3 0.6;
   (2, 2, 1, 4, 0, 0) 0.0625 0.3125 0.625;
   (0, 0, 2, 4, 0, 0) 0.491749 0.00220022 0.506051;
   (1, 0, 2, 4, 0, 0) 0.2 0.2 0.6;
   (2, 0, 2, 4, 0, 0) 0.214067 0.0152905 0.770642;
   (0, 1, 2, 4, 0, 0) 0.333333 0.333333 0.333333;
   (1, 1, 2, 4, 0, 0) 0.0434783 0.391304 0.565217;
   (2, 1, 2, 4, 0, 0) 0.0588235 0.176471 0.764706;
   (0, 2, 2, 4, 0, 0) 0.3 0.025 0.675;
   (1, 2, 2, 4, 0, 0) 0.25 0.25 0.5;
   (2, 2, 2, 4, 0, 0) 0.125 0.03125 0.84375;
   (0, 0, 0, 0, 1, 0) 0.571429 0.142857 0.285714;
   (1, 0, 0, 0, 1, 0) 0.333333 0.333333 0.333333;
   (2, 0, 0, 0, 1, 0) 0.333333 0.333333 0.333333;
   (0, 1, 0, 0, 1, 0) 0.333333 0.333333 0.333333;
   (1, 1, 0, 0, 1, 0) 0.333333 0.333333 0.333333;
   (2, 1, 0, 0, 1, 0) 0.333333 0.333333 0.333333;
   (0, 2, 0, 0, 1, 0) 0.333333 0.333333 0.333333;
   (1, 2, 0, 0, 1, 0) 0.333333 0.333333 0.333333;
   (2, 2, 0, 0, 1, 0) 0.333333 0.333333 0.333333;
   (0, 0, 1, 0, 1, 0) 0.333333 0.333333 0.333333;
   (1, 0, 1, 0, 1, 0) 0.2 0.6 0.2;
   (2, 0, 1, 0, 1, 0) 0.333333 0.333333 0.333333;
   (0, 1, 1, 0, 1, 0) 0.333333 0.333333 0.333333;
   (1, 1, 1, 0, 1, 0) 0.166667 0.666667 0.166667;
   (2, 1, 1, 0, 1, 0) 0.25 0.5 0.25;
   (0, 2, 1, 0, 1, 0) 0.333333 0.333333 0.333333;
   (1, 2, 1, 0, 1, 0) 0.333333 0.333333 0.333333;
   (2, 2, 1, 0, 1, 0) 0.333333 0.333333 0.333333;
   (0, 0, 2, 0, 1, 0) 0.333333 0.333333 0.333333;
   (1, 0, 2, 0, 1, 0) 0.25 0.5 0.25;
   (2, 0, 2, 0, 1, 0) 0.333333 0.333333 0.333333;
   (0, 1, 2, 0, 1, 0) 0.333333 0.333333 0.333333;
   (1, 1, 2, 0, 1, 0) 0.333333 0.333333 0.333333;
   (2, 1, 2, 0, 1, 0) 0.333333 0.333333 0.333333;
   (0, 2, 2, 0, 1, 0) 0.333333 0.333333 0.333333;
   (1, 2, 2, 0, 1, 0) 0.333333 0.333333 0.333333;
   (2, 2, 2, 0, 1, 0) 0.333333 0.333333 0.333333;
   (0, 0, 0, 1, 1, 0) 0.4 0.2 0.4;
   (1, 0, 0, 1, 1, 0) 0.333333 0.333333 0.333333;
   (2, 0, 0, 1, 1, 0) 0.6 0.2 0.2;
   (0, 1, 0, 1, 1, 0) 0.333333 0.333333 0.333333;
   (1, 1, 0, 1, 1, 0) 0.333333 0.333333 0.333333;
   (2, 1, 0, 1, 1, 0) 0.333333 0.333333 0.333333;
   (0, 2, 0, 1, 1, 0) 0.333333 0.333333 0.333333;
   (1, 2, 0, 1, 1, 0) 0.333333 0.333333 0.333333;
   (2, 2, 0, 1, 1, 0) 0.333333 0.333333 0.333333;
   (0, 0, 1, 1, 1, 0) 0.333333 0.333333 0.333333;
   (1, 0, 1, 1, 1, 0) 0.333333 0.333333 0.333333;
   (2, 0, 1, 1, 1, 0) 0.333333 0.333333 0.333333;
   (0, 1, 1, 1, 1, 0) 0.333333 0.333333 0.333333;
   (1, 1, 1, 1, 1, 0) 0.0909091 0.727273 0.181818;
   (2, 1, 1, 1, 1, 0) 0.25 0.5 0.25;
   (0, 2, 1, 1, 1, 0) 0.333333 0.333333 0.333333;
   (1, 2, 1, 1, 1, 0) 0.333333 0.333333 0.333333;
   (2, 2, 1, 1, 1, 0) 0.333333 0.333333 0.333333;
   (0, 0, 2, 1, 1, 0) 0.333333 0.333333 0.333333;
   (1, 0, 2, 1, 1, 0) 0.333333 0.333333 0.333333;
   (2, 0, 2, 1, 1, 0) 0.333333 0.333333 0.333333;
   (0, 1, 2, 1, 1, 0) 0.333333 0.333333 0.333333;
   (1, 1, 2, 1, 1, 0) 0.25 0.25 0.5;
   (2, 1, 2, 1, 1, 0) 0.333333 0.333333 0.333333;
   (0, 2, 2, 1, 1, 0) 0.333333 0.333333 0.333333;
   (1, 2, 2, 1, 1, 0) 0.333333 0.333333 0.333333;
   (2, 2, 2, 1, 1, 0) 0.333333 0.333333 0.333333;
   (0, 0, 0, 2, 1, 0) 0.333333 0.111111 0.555556;
   (1, 0, 0, 2, 1, 0) 0.333333 0.333333 0.333333;
   (2, 0, 0, 2, 1, 0) 0.777778 0.111111 0.111111;
   (0, 1, 0, 2, 1, 0) 0.333333 0.333333 0.333333;
   (1, 1, 0, 2, 1, 0) 0.333333 0.333333 0.333333;
   (2, 1, 0, 2, 1, 0) 0.25 0.5 0.25;
   (0, 2, 0, 2, 1, 0) 0.333333 0.333333 0.333333;
   (1, 2, 0, 2, 1, 0) 0.333333 0.333333 0.333333;
   (2, 2, 0, 2, 1, 0) 0.333333 0.333333 0.333333;
   (0, 0, 1, 2, 1, 0) 0.333333 0.333333 0.333333;
   (1, 0, 1, 2, 1, 0) 0.333333 0.333333 0.333333;
   (2, 0, 1, 2, 1, 0) 0.5 0.25 0.25;
   (0, 1, 1, 2, 1, 0) 0.333333 0.333333 0.333333;
   (1, 1, 1, 2, 1, 0) 0.05 0.4 0.55;
   (2, 1, 1, 2, 1, 0) 0.0833333 0.666667 0.25;
   (0, 2, 1, 2, 1, 0) 0.333333 0.333333 0.333333;
   (1, 2, 1, 2, 1, 0) 0.333333 0.333333 0.333333;
   (2, 2, 1, 2, 1, 0) 0.333333 0.333333 0.333333;
   (0, 0, 2, 2, 1, 0) 0.333333 0.333333 0.333333;
   (1, 0, 2, 2, 1, 0) 0.333333 0.333333 0.333333;
   (2, 0, 2, 2, 1, 0) 0.333333 0.333333 0.333333;
   (0, 1, 2, 2, 1, 0) 0.333333 0.333333 0.333333;
   (1, 1, 2, 2, 1, 0) 0.333333 0.333333 0.333333;
   (2, 1, 2, 2, 1, 0) 0.25 0.25 0.5;
   (0, 2, 2, 2, 1, 0) 0.333333 0.333333 0.333333;
   (1, 2, 2, 2, 1, 0) 0.333333 0.333333 0.333333;
   (2, 2, 2, 2, 1, 0) 0.333333 0.333333 0.333333;
   (0, 0, 0, 3, 1, 0) 0.176471 0.0588235 0.764706;
   (1, 0, 0, 3, 1, 0) 0.5 0.25 0.25;
   (2, 0, 0, 3, 1, 0) 0.333333 0.133333 0.533333;
   (0, 1, 0, 3, 1, 0) 0.5 0.25 0.25;
   (1, 1, 0, 3, 1, 0) 0.333333 0.333333 0.333333;
   (2, 1, 0, 3, 1, 0) 0.333333 0.333333 0.333333;
   (0, 2, 0, 3, 1, 0) 0.333333 0.333333 0.333333;
   (1, 2, 0, 3, 1, 0) 0.333333 0.333333 0.333333;
   (2, 2, 0, 3, 1, 0) 0.5 0.25 0.25;
   (0, 0, 1, 3, 1, 0) 0.333333 0.333333 0.333333;
   (1, 0, 1, 3, 1, 0) 0.25 0.5 0.25;
   (2, 0, 1, 3, 1, 0) 0.125 0.5 0.375;
   (0, 1, 1, 3, 1, 0) 0.25 0.25 0.5;
   (1, 1, 1, 3, 1, 0) 0.0454545 0.136364 0.818182;
   (2, 1, 1, 3, 1, 0) 0.0689655 0.448276 0.482759;
   (0, 2, 1, 3, 1, 0) 0.333333 0.333333 0.333333;
   (1, 2, 1, 3, 1, 0) 0.333333 0.333333 0.333333;
   (2, 2, 1, 3, 1, 0) 0.142857 0.428571 0.428571;
   (0, 0, 2, 3, 1, 0) 0.5 0.25 0.25;
   (1, 0, 2, 3, 1, 0) 0.333333 0.333333 0.333333;
   (2, 0, 2, 3, 1, 0) 0.333333 0.333333 0.333333;
   (0, 1, 2, 3, 1, 0) 0.333333 0.333333 0.333333;
   (1, 1, 2, 3, 1, 0) 0.25 0.25 0.5;
   (2, 1, 2, 3, 1, 0) 0.333333 0.333333 0.333333;
   (0, 2, 2, 3, 1, 0) 0.333333 0.333333 0.333333;
   (1, 2, 2, 3, 1, 0) 0.333333 0.333333 0.333333;
   (2, 2, 2, 3, 1, 0) 0.333333 0.333333 0.333333;
   (0, 0, 0, 4, 1, 0) 0.1875 0.0208333 0.791667;
   (1, 0, 0, 4, 1, 0) 0.333333 0.333333 0.333333;
   (2, 0, 0, 4, 1, 0) 0.24 0.06 0.7;
   (0, 1, 0, 4, 1, 0) 0.25 0.25 0.5;
   (1, 1, 0, 4, 1, 0) 0.333333 0.333333 0.333333;
   (2, 1, 0, 4, 1, 0) 0.166667 0.333333 0.5;
   (0, 2, 0, 4, 1, 0) 0.25 0.25 0.5;
   (1, 2, 0, 4, 1, 0) 0.333333 0.333333 0.333333;
   (2, 2, 0, 4, 1, 0) 0.2 0.2 0.6;
   (0, 0, 1, 4, 1, 0) 0.5 0.25 0.25;
   (1, 0, 1, 4, 1, 0) 0.166667 0.166667 0.666667;
   (2, 0, 1, 4, 1, 0) 0.125 0.5 0.375;
   (0, 1, 1, 4, 1, 0) 0.2 0.2 0.6;
   (1, 1, 1, 4, 1, 0) 0.0232558 0.162791 0.813953;
   (2, 1, 1, 4, 1, 0) 0.043956 0.230769 0.725275;
   (0, 2, 1, 4, 1, 0) 0.333333 0.333333 0.333333;
   (1, 2, 1, 4, 1, 0) 0.125 0.25 0.625;
   (2, 2, 1, 4, 1, 0) 0.111111 0.111111 0.777778;
   (0, 0, 2, 4, 1, 0) 0.538462 0.0769231 0.384615;
   (1, 0, 2, 4, 1, 0) 0.25 0.25 0.5;
   (2, 0, 2, 4, 1, 0) 0.2 0.2 0.6;
   (0, 1, 2, 4, 1, 0) 0.25 0.25 0.5;
   (1, 1, 2, 4, 1, 0) 0.181818 0.272727 0.545455;
   (2, 1, 2, 4, 1, 0) 0.1 0.2 0.7;
   (0, 2, 2, 4, 1, 0) 0.333333 0.333333 0.333333;
   (1, 2, 2, 4, 1, 0) 0.333333 0.333333 0.333333;
   (2, 2, 2, 4, 1, 0) 0.25 0.25 0.5;
   (0, 0, 0, 0, 2, 0) 0.94709 0.0026455 0.0502646;
   (1, 0, 0, 0, 2, 0) 0.333333 0.333333 0.333333;
   (2, 0, 0, 0, 2, 0) 0.730769 0.0384615 0.230769;
   (0, 1, 0, 0, 2, 0) 0.333333 0.333333 0.333333;
   (1, 1, 0, 0, 2, 0) 0.25 0.5 0.25;
   (2, 1, 0, 0, 2, 0) 0.333333 0.333333 0.333333;
   (0, 2, 0, 0, 2, 0) 0.583333 0.0833333 0.333333;
   (1, 2, 0, 0, 2, 0) 0.333333 0.333333 0.333333;
   (2, 2, 0, 0, 2, 0) 0.571429 0.142857 0.285714;
   (0, 0, 1, 0, 2, 0) 0.5 0.25 0.25;
   (1, 0, 1, 0, 2, 0) 0.333333 0.333333 0.333333;
   (2, 0, 1, 0, 2, 0) 0.333333 0.333333 0.333333;
   (0, 1, 1, 0, 2, 0) 0.333333 0.333333 0.333333;
   (1, 1, 1, 0, 2, 0) 0.0909091 0.818182 0.0909091;
   (2, 1, 1, 0, 2, 0) 0.333333 0.333333 0.333333;
   (0, 2, 1, 0, 2, 0) 0.333333 0.333333 0.333333;
   (1, 2, 1, 0, 2, 0) 0.333333 0.333333 0.333333;
   (2, 2, 1, 0, 2, 0) 0.333333 0.333333 0.333333;
   (0, 0, 2, 0, 2, 0) 0.842105 0.0526316 0.105263;
   (1, 0, 2, 0, 2, 0) 0.333333 0.333333 0.333333;
   (2, 0, 2, 0, 2, 0) 0.5 0.25 0.25;
   (0, 1, 2, 0, 2, 0) 0.333333 0.333333 0.333333;
   (1, 1, 2, 0, 2, 0) 0.333333 0.333333 0.333333;
   (2, 1, 2, 0, 2, 0) 0.333333 0.333333 0.333333;
   (0, 2, 2, 0, 2, 0) 0.5 0.25 0.25;
   (1, 2, 2, 0, 2, 0) 0.333333 0.333333 0.333333;
   (2, 2, 2, 0, 2, 0) 0.333333 0.333333 0.333333;
   (0, 0, 0, 1, 2, 0) 0.915315 0.0036036 0.0810811;
   (1, 0, 0, 1, 2, 0) 0.333333 0.333333 0.333333;
   (2, 0, 0, 1, 2, 0) 0.714286 0.0357143 0.25;
   (0, 1, 0, 1, 2, 0) 0.333333 0.333333 0.333333;
   (1, 1, 0, 1, 2, 0) 0.25 0.5 0.25;
   (2, 1, 0, 1, 2, 0) 0.333333 0.333333 0.333333;
   (0, 2, 0, 1, 2, 0) 0.8 0.05 0.15;
   (1, 2, 0, 1, 2, 0) 0.333333 0.333333 0.333333;
   (2, 2, 0, 1, 2, 0) 0.5 0.25 0.25;
   (0, 0, 1, 1, 2, 0) 0.5 0.25 0.25;
   (1, 0, 1, 1, 2, 0) 0.166667 0.666667 0.166667;
   (2, 0, 1, 1, 2, 0) 0.25 0.25 0.5;
   (0, 1, 1, 1, 2, 0) 0.333333 0.333333 0.333333;
   (1, 1, 1, 1, 2, 0) 0.0714286 0.785714 0.142857;
   (2, 1, 1, 1, 2, 0) 0.333333 0.333333 0.333333;
   (0, 2, 1, 1, 2, 0) 0.333333 0.333333 0.333333;
   (1, 2, 1, 1, 2, 0) 0.25 0.25 0.5;
   (2, 2, 1, 1, 2, 0) 0.333333 0.333333 0.333333;
   (0, 0, 2, 1, 2, 0) 0.8125 0.0625 0.125;
   (1, 0, 2, 1, 2, 0) 0.333333 0.333333 0.333333;
   (2, 0, 2, 1, 2, 0) 0.25 0.25 0.5;
   (0, 1, 2, 1, 2, 0) 0.333333 0.333333 0.333333;
   (1, 1, 2, 1, 2, 0) 0.25 0.25 0.5;
   (2, 1, 2, 1, 2, 0) 0.333333 0.333333 0.333333;
   (0, 2, 2, 1, 2, 0) 0.5 0.25 0.25;
   (1, 2, 2, 1, 2, 0) 0.333333 0.333333 0.333333;
   (2, 2, 2, 1, 2, 0) 0.25 0.25 0.5;
   (0, 0, 0, 2, 2, 0) 0.870206 0.00196657 0.127827;
   (1, 0, 0, 2, 2, 0) 0.5 0.25 0.25;
   (2, 0, 0, 2, 2, 0) 0.6875 0.00568182 0.306818;
   (0, 1, 0, 2, 2, 0) 0.25 0.25 0.5;
   (1, 1, 0, 2, 2, 0) 0.333333 0.333333 0.333333;
   (2, 1, 0, 2, 2, 0) 0.333333 0.333333 0.333333;
   (0, 2, 0, 2, 2, 0) 0.75 0.0625 0.1875;
   (1, 2, 0, 2, 2, 0) 0.333333 0.333333 0.333333;
   (2, 2, 0, 2, 2, 0) 0.5 0.166667 0.333333;
   (0, 0, 1, 2, 2, 0) 0.25 0.5 0.25;
   (1, 0, 1, 2, 2, 0) 0.25 0.5 0.25;
   (2, 0, 1, 2, 2, 0) 0.333333 0.333333 0.333333;
   (0, 1, 1, 2, 2, 0) 0.25 0.5 0.25;
   (1, 1, 1, 2, 2, 0) 0.0740741 0.814815 0.111111;
   (2, 1, 1, 2, 2, 0) 0.25 0.25 0.5;
   (0, 2, 1, 2, 2, 0) 0.25 0.5 0.25;
   (1, 2, 1, 2, 2, 0) 0.166667 0.5 0.333333;
   (2, 2, 1, 2, 2, 0) 0.25 0.25 0.5;
   (0, 0, 2, 2, 2, 0) 0.75 0.0625 0.1875;
   (1, 0, 2, 2, 2, 0) 0.333333 0.333333 0.333333;
   (2, 0, 2, 2, 2, 0) 0.166667 0.166667 0.666667;
   (0, 1, 2, 2, 2, 0) 0.333333 0.333333 0.333333;
   (1, 1, 2, 2, 2, 0) 0.333333 0.333333 0.333333;
   (2, 1, 2, 2, 2, 0) 0.333333 0.333333 0.333333;
   (0, 2, 2, 2, 2, 0) 0.333333 0.333333 0.333333;
   (1, 2, 2, 2, 2, 0) 0.333333 0.333333 0.333333;
   (2, 2, 2, 2, 2, 0) 0.333333 0.333333 0.333333;
   (0, 0, 0, 3, 2, 0) 0.785714 0.000985222 0.2133;
   (1, 0, 0, 3, 2, 0) 0.571429 0.285714 0.142857;
   (2, 0, 0, 3, 2, 0) 0.627717 0.0013587 0.370924;
   (0, 1, 0, 3, 2, 0) 0.333333 0.333333 0.333333;
   (1, 1, 0, 3, 2, 0) 0.333333 0.5 0.166667;
   (2, 1, 0, 3, 2, 0) 0.25 0.25 0.5;
   (0, 2, 0, 3, 2, 0) 0.491228 0.0175439 0.491228;
   (1, 2, 0, 3, 2, 0) 0.2 0.2 0.6;
   (2, 2, 0, 3, 2, 0) 0.510204 0.0204082 0.469388;
   (0, 0, 1, 3, 2, 0) 0.333333 0.333333 0.333333;
   (1, 0, 1, 3, 2, 0) 0.2 0.4 0.4;
   (2, 0, 1, 3, 2, 0) 0.125 0.25 0.625;
   (0, 1, 1, 3, 2, 0) 0.25 0.25 0.5;
   (1, 1, 1, 3, 2, 0) 0.129032 0.580645 0.290323;
   (2, 1, 1, 3, 2, 0) 0.0454545 0.545455 0.409091;
   (0, 2, 1, 3, 2, 0) 0.333333 0.333333 0.333333;
   (1, 2, 1, 3, 2, 0) 0.125 0.625 0.25;
   (2, 2, 1, 3, 2, 0) 0.142857 0.428571 0.428571;
   (0, 0, 2, 3, 2, 0) 0.717391 0.0217391 0.26087;
   (1, 0, 2, 3, 2, 0) 0.333333 0.333333 0.333333;
   (2, 0, 2, 3, 2, 0) 0.4 0.1 0.5;
   (0, 1, 2, 3, 2, 0) 0.333333 0.333333 0.333333;
   (1, 1, 2, 3, 2, 0) 0.2 0.4 0.4;
   (2, 1, 2, 3, 2, 0) 0.333333 0.333333 0.333333;
   (0, 2, 2, 3, 2, 0) 0.5 0.25 0.25;
   (1, 2, 2, 3, 2, 0) 0.333333 0.333333 0.333333;
   (2, 2, 2, 3, 2, 0) 0.25 0.25 0.5;
   (0, 0, 0, 4, 2, 0) 0.668949 0.0019351 0.329116;
   (1, 0, 0, 4, 2, 0) 0.555556 0.0555556 0.388889;
   (2, 0, 0, 4, 2, 0) 0.536427 0.00323799 0.460335;
   (0, 1, 0, 4, 2, 0) 0.166667 0.166667 0.666667;
   (1, 1, 0, 4, 2, 0) 0.0769231 0.384615 0.538462;
   (2, 1, 0, 4, 2, 0) 0.333333 0.166667 0.5;
   (0, 2, 0, 4, 2, 0) 0.405512 0.00787402 0.586614;
   (1, 2, 0, 4, 2, 0) 0.333333 0.333333 0.333333;
   (2, 2, 0, 4, 2, 0) 0.365188 0.00341297 0.631399;
   (0, 0, 1, 4, 2, 0) 0.285714 0.285714 0.428571;
   (1, 0, 1, 4, 2, 0) 0.0769231 0.384615 0.538462;
   (2, 0, 1, 4, 2, 0) 0.0769231 0.384615 0.538462;
   (0, 1, 1, 4, 2, 0) 0.2 0.4 0.4;
   (1, 1, 1, 4, 2, 0) 0.0246914 0.567901 0.407407;
   (2, 1, 1, 4, 2, 0) 0.038961 0.454545 0.506494;
   (0, 2, 1, 4, 2, 0) 0.5 0.25 0.25;
   (1, 2, 1, 4, 2, 0) 0.0714286 0.357143 0.571429;
   (2, 2, 1, 4, 2, 0) 0.0588235 0.235294 0.705882;
   (0, 0, 2, 4, 2, 0) 0.5825 0.005 0.4125;
   (1, 0, 2, 4, 2, 0) 0.0769231 0.230769 0.692308;
   (2, 0, 2, 4, 2, 0) 0.290503 0.00558659 0.703911;
   (0, 1, 2, 4, 2, 0) 0.166667 0.166667 0.666667;
   (1, 1, 2, 4, 2, 0) 0.0769231 0.384615 0.538462;
   (2, 1, 2, 4, 2, 0) 0.0909091 0.272727 0.636364;
   (0, 2, 2, 4, 2, 0) 0.35 0.05 0.6;
   (1, 2, 2, 4, 2, 0) 0.2 0.2 0.6;
   (2, 2, 2, 4, 2, 0) 0.142857 0.0714286 0.785714;
   (0, 0, 0, 0, 0, 1) 0.5 0.25 0.25;
   (1, 0, 0, 0, 0, 1) 0.333333 0.333333 0.333333;
   (2, 0, 0, 0, 0, 1) 0.333333 0.333333 0.333333;
   (0, 1, 0, 0, 0, 1) 0.333333 0.333333 0.333333;
   (1, 1, 0, 0, 0, 1) 0.333333 0.333333 0.333333;
   (2, 1, 0, 0, 0, 1) 0.333333 0.333333 0.333333;
   (0, 2, 0, 0, 0, 1) 0.333333 0.333333 0.333333;
   (1, 2, 0, 0, 0, 1) 0.333333 0.333333 0.333333;
   (2, 2, 0, 0, 0, 1) 0.333333 0.333333 0.333333;
   (0, 0, 1, 0, 0, 1) 0.333333 0.333333 0.333333;
   (1, 0, 1, 0, 0, 1) 0.25 0.25 0.5;
   (2, 0, 1, 0, 0, 1) 0.333333 0.333333 0.333333;
   (0, 1, 1, 0, 0, 1) 0.333333 0.333333 0.333333;
   (1, 1, 1, 0, 0, 1) 0.0294118 0.823529 0.147059;
   (2, 1, 1, 0, 0, 1) 0.166667 0.5 0.333333;
   (0, 2, 1, 0, 0, 1) 0.333333 0.333333 0.333333;
   (1, 2, 1, 0, 0, 1) 0.111111 0.666667 0.222222;
   (2, 2, 1, 0, 0, 1) 0.2 0.4 0.4;
   (0, 0, 2, 0, 0, 1) 0.333333 0.333333 0.333333;
   (1, 0, 2, 0, 0, 1) 0.333333 0.333333 0.333333;
   (2, 0, 2, 0, 0, 1) 0.333333 0.333333 0.333333;
   (0, 1, 2, 0, 0, 1) 0.333333 0.333333 0.333333;
   (1, 1, 2, 0, 0, 1) 0.142857 0.571429 0.285714;
   (2, 1, 2, 0, 0, 1) 0.333333 0.333333 0.333333;
   (0, 2, 2, 0, 0, 1) 0.333333 0.333333 0.333333;
   (1, 2, 2, 0, 0, 1) 0.333333 0.333333 0.333333;
   (2, 2, 2, 0, 0, 1) 0.333333 0.333333 0.333333;
   (0, 0, 0, 1, 0, 1) 0.333333 0.333333 0.333333;
   (1, 0, 0, 1, 0, 1) 0.333333 0.333333 0.333333;
   (2, 0, 0, 1, 0, 1) 0.5 0.25 0.25;
   (0, 1, 0, 1, 0, 1) 0.25 0.25 0.5;
   (1, 1, 0, 1, 0, 1) 0.25 0.5 0.25;
   (2, 1, 0, 1, 0, 1) 0.25 0.25 0.5;
   (0, 2, 0, 1, 0, 1) 0.333333 0.333333 0.333333;
   (1, 2, 0, 1, 0, 1) 0.333333 0.333333 0.333333;
   (2, 2, 0, 1, 0, 1) 0.333333 0.333333 0.333333;
   (0, 0, 1, 1, 0, 1) 0.333333 0.333333 0.333333;
   (1, 0, 1, 1, 0, 1) 0.25 0.5 0.25;
   (2, 0, 1, 1, 0, 1) 0.333333 0.333333 0.333333;
   (0, 1, 1, 1, 0, 1) 0.25 0.5 0.25;
   (1, 1, 1, 1, 0, 1) 0.0277778 0.583333 0.388889;
   (2, 1, 1, 1, 0, 1) 0.0625 0.625 0.3125;
   (0, 2, 1, 1, 0, 1) 0.333333 0.333333 0.333333;
   (1, 2, 1, 1, 0, 1) 0.25 0.5 0.25;
   (2, 2, 1, 1, 0, 1) 0.2 0.2 0.6;
   (0, 0, 2, 1, 0, 1) 0.333333 0.333333 0.333333;
   (1, 0, 2, 1, 0, 1) 0.333333 0.333333 0.333333;
   (2, 0, 2, 1, 0, 1) 0.333333 0.333333 0.333333;
   (0, 1, 2, 1, 0, 1) 0.333333 0.333333 0.333333;
   (1, 1, 2, 1, 0, 1) 0.333333 0.333333 0.333333;
   (2, 1, 2, 1, 0, 1) 0.333333 0.333333 0.333333;
   (0, 2, 2, 1, 0, 1) 0.333333 0.333333 0.333333;
   (1, 2, 2, 1, 0, 1) 0.333333 0.333333 0.333333;
   (2, 2, 2, 1, 0, 1) 0.333333 0.333333 0.333333;
   (0, 0, 0, 2, 0, 1) 0.4 0.2 0.4;
   (1, 0, 0, 2, 0, 1) 0.333333 0.333333 0.333333;
   (2, 0, 0, 2, 0, 1) 0.25 0.25 0.5;
   (0, 1, 0, 2, 0, 1) 0.333333 0.333333 0.333333;
   (1, 1, 0, 2, 0, 1) 0.25 0.25 0.5;
   (2, 1, 0, 2, 0, 1) 0.25 0.5 0.25;
   (0, 2, 0, 2, 0, 1) 0.333333 0.333333 0.333333;
   (1, 2, 0, 2, 0, 1) 0.333333 0.333333 0.333333;
   (2, 2, 0, 2, 0, 1) 0.333333 0.333333 0.333333;
   (0, 0, 1, 2, 0, 1) 0.333333 0.333333 0.333333;
   (1, 0, 1, 2, 0, 1) 0.2 0.4 0.4;
   (2, 0, 1, 2, 0, 1) 0.2 0.4 0.4;
   (0, 1, 1, 2, 0, 1) 0.2 0.4 0.4;
   (1, 1, 1, 2, 0, 1) 0.0266667 0.426667 0.546667;
   (2, 1, 1, 2, 0, 1) 0.0208333 0.5625 0.416667;
   (0, 2, 1, 2, 0, 1) 0.333333 0.333333 0.333333;
   (1, 2, 1, 2, 0, 1) 0.0714286 0.571429 0.357143;
   (2, 2, 1, 2, 0, 1) 0.142857 0.571429 0.285714;
   (0, 0, 2, 2, 0, 1) 0.333333 0.333333 0.333333;
   (1, 0, 2, 2, 0, 1) 0.333333 0.333333 0.333333;
   (2, 0, 2, 2, 0, 1) 0.333333 0.333333 0.333333;
   (0, 1, 2, 2, 0, 1) 0.333333 0.333333 0.333333;
   (1, 1, 2, 2, 0, 1) 0.25 0.5 0.25;
   (2, 1, 2, 2, 0, 1) 0.25 0.25 0.5;
   (0, 2, 2, 2, 0, 1) 0.333333 0.333333 0.333333;
   (1, 2, 2, 2, 0, 1) 0.333333 0.333333 0.333333;
   (2, 2, 2, 2, 0, 1) 0.25 0.25 0.5;
   (0, 0, 0, 3, 0, 1) 0.4 0.2 0.4;
   (1, 0, 0, 3, 0, 1) 0.2 0.2 0.6;
   (2, 0, 0, 3, 0, 1) 0.444444 0.222222 0.333333;
   (0, 1, 0, 3, 0, 1) 0.25 0.25 0.5;
   (1, 1, 0, 3, 0, 1) 0.125 0.25 0.625;
   (2, 1, 0, 3, 0, 1) 0.333333 0.333333 0.333333;
   (0, 2, 0, 3, 0, 1) 0.333333 0.333333 0.333333;
   (1, 2, 0, 3, 0, 1) 0.25 0.5 0.25;
   (2, 2, 0, 3, 0, 1) 0.333333 0.333333 0.333333;
   (0, 0, 1, 3, 0, 1) 0.333333 0.333333 0.333333;
   (1, 0, 1, 3, 0, 1) 0.333333 0.333333 0.333333;
   (2, 0, 1, 3, 0, 1) 0.166667 0.5 0.333333;
   (0, 1, 1, 3, 0, 1) 0.333333 0.333333 0.333333;
   (1, 1, 1, 3, 0, 1) 0.00578035 0.260116 0.734104;
   (2, 1, 1, 3, 0, 1) 0.00552486 0.392265 0.60221;
   (0, 2, 1, 3, 0, 1) 0.25 0.5 0.25;
   (1, 2, 1, 3, 0, 1) 0.047619 0.571429 0.380952;
   (2, 2, 1, 3, 0, 1) 0.0588235 0.294118 0.647059;
   (0, 0, 2, 3, 0, 1) 0.333333 0.333333 0.333333;
   (1, 0, 2, 3, 0, 1) 0.333333 0.333333 0.333333;
   (2, 0, 2, 3, 0, 1) 0.333333 0.333333 0.333333;
   (0, 1, 2, 3, 0, 1) 0.5 0.25 0.25;
   (1, 1, 2, 3, 0, 1) 0.0769231 0.538462 0.384615;
   (2, 1, 2, 3, 0, 1) 0.1 0.3 0.6;
   (0, 2, 2, 3, 0, 1) 0.333333 0.333333 0.333333;
   (1, 2, 2, 3, 0, 1) 0.166667 0.5 0.333333;
   (2, 2, 2, 3, 0, 1) 0.25 0.25 0.5;
   (0, 0, 0, 4, 0, 1) 0.263158 0.0526316 0.684211;
   (1, 0, 0, 4, 0, 1) 0.0833333 0.0833333 0.833333;
   (2, 0, 0, 4, 0, 1) 0.148148 0.222222 0.62963;
   (0, 1, 0, 4, 0, 1) 0.25 0.5 0.25;
   (1, 1, 0, 4, 0, 1) 0.0833333 0.166667 0.75;
   (2, 1, 0, 4, 0, 1) 0.1875 0.1875 0.625;
   (0, 2, 0, 4, 0, 1) 0.571429 0.285714 0.142857;
   (1, 2, 0, 4, 0, 1) 0.2 0.4 0.4;
   (2, 2, 0, 4, 0, 1) 0.0555556 0.111111 0.833333;
   (0, 0, 1, 4, 0, 1) 0.333333 0.333333 0.333333;
   (1, 0, 1, 4, 0, 1) 0.0666667 0.133333 0.8;
   (2, 0, 1, 4, 0, 1) 0.0416667 0.25 0.708333;
   (0, 1, 1, 4, 0, 1) 0.181818 0.272727 0.545455;
   (1, 1, 1, 4, 0, 1) 0.00364964 0.145985 0.850365;
   (2, 1, 1, 4, 0, 1) 0.00625978 0.292645 0.701095;
   (0, 2, 1, 4, 0, 1) 0.2 0.2 0.6;
   (1, 2, 1, 4, 0, 1) 0.0217391 0.391304 0.586957;
   (2, 2, 1, 4, 0, 1) 0.012987 0.181818 0.805195;
   (0, 0, 2, 4, 0, 1) 0.4 0.2 0.4;
   (1, 0, 2, 4, 0, 1) 0.142857 0.285714 0.571429;
   (2, 0, 2, 4, 0, 1) 0.142857 0.285714 0.571429;
   (0, 1, 2, 4, 0, 1) 0.25 0.25 0.5;
   (1, 1, 2, 4, 0, 1) 0.03125 0.416667 0.552083;
   (2, 1, 2, 4, 0, 1) 0.0181818 0.254545 0.727273;
   (0, 2, 2, 4, 0, 1) 0.333333 0.333333 0.333333;
   (1, 2, 2, 4, 0, 1) 0.0833333 0.416667 0.5;
   (2, 2, 2, 4, 0, 1) 0.0769231 0.230769 0.692308;
   (0, 0, 0, 0, 1, 1) 0.333333 0.333333 0.333333;
   (1, 0, 0, 0, 1, 1) 0.333333 0.333333 0.333333;
   (2, 0, 0, 0, 1, 1) 0.333333 0.333333 0.333333;
   (0, 1, 0, 0, 1, 1) 0.333333 0.333333 0.333333;
   (1, 1, 0, 0, 1, 1) 0.333333 0.333333 0.333333;
   (2, 1, 0, 0, 1, 1) 0.25 0.5 0.25;
   (0, 2, 0, 0, 1, 1) 0.333333 0.333333 0.333333;
   (1, 2, 0, 0, 1, 1) 0.333333 0.333333 0.333333;
   (2, 2, 0, 0, 1, 1) 0.333333 0.333333 0.333333;
   (0, 0, 1, 0, 1, 1) 0.333333 0.333333 0.333333;
   (1, 0, 1, 0, 1, 1) 0.333333 0.333333 0.333333;
   (2, 0, 1, 0, 1, 1) 0.25 0.25 0.5;
   (0, 1, 1, 0, 1, 1) 0.2 0.6 0.2;
   (1, 1, 1, 0, 1, 1) 0.004329 0.835498 0.160173;
   (2, 1, 1, 0, 1, 1) 0.0243902 0.804878 0.170732;
   (0, 2, 1, 0, 1, 1) 0.333333 0.333333 0.333333;
   (1, 2, 1, 0, 1, 1) 0.0555556 0.555556 0.388889;
   (2, 2, 1, 0, 1, 1) 0.166667 0.166667 0.666667;
   (0, 0, 2, 0, 1, 1) 0.333333 0.333333 0.333333;
   (1, 0, 2, 0, 1, 1) 0.333333 0.333333 0.333333;
   (2, 0, 2, 0, 1, 1) 0.333333 0.333333 0.333333;
   (0, 1, 2, 0, 1, 1) 0.2 0.6 0.2;
   (1, 1, 2, 0, 1, 1) 0.0243902 0.902439 0.0731707;
   (2, 1, 2, 0, 1, 1) 0.25 0.25 0.5;
   (0, 2, 2, 0, 1, 1) 0.333333 0.333333 0.333333;
   (1, 2, 2, 0, 1, 1) 0.25 0.5 0.25;
   (2, 2, 2, 0, 1, 1) 0.333333 0.333333 0.333333;
   (0, 0, 0, 1, 1, 1) 0.333333 0.333333 0.333333;
   (1, 0, 0, 1, 1, 1) 0.5 0.25 0.25;
   (2, 0, 0, 1, 1, 1) 0.333333 0.333333 0.333333;
   (0, 1, 0, 1, 1, 1) 0.333333 0.333333 0.333333;
   (1, 1, 0, 1, 1, 1) 0.333333 0.333333 0.333333;
   (2, 1, 0, 1, 1, 1) 0.25 0.5 0.25;
   (0, 2, 0, 1, 1, 1) 0.333333 0.333333 0.333333;
   (1, 2, 0, 1, 1, 1) 0.333333 0.333333 0.333333;
   (2, 2, 0, 1, 1, 1) 0.333333 0.333333 0.333333;
   (0, 0, 1, 1, 1, 1) 0.333333 0.333333 0.333333;
   (1, 0, 1, 1, 1, 1) 0.1 0.5 0.4;
   (2, 0, 1, 1, 1, 1) 0.25 0.5 0.25;
   (0, 1, 1, 1, 1, 1) 0.2 0.2 0.6;
   (1, 1, 1, 1, 1, 1) 0.00655738 0.563934 0.429508;
   (2, 1, 1, 1, 1, 1) 0.00769231 0.723077 0.269231;
   (0, 2, 1, 1, 1, 1) 0.333333 0.333333 0.333333;
   (1, 2, 1, 1, 1, 1) 0.0333333 0.666667 0.3;
   (2, 2, 1, 1, 1, 1) 0.1 0.4 0.5;
   (0, 0, 2, 1, 1, 1) 0.333333 0.333333 0.333333;
   (1, 0, 2, 1, 1, 1) 0.333333 0.333333 0.333333;
   (2, 0, 2, 1, 1, 1) 0.333333 0.333333 0.333333;
   (0, 1, 2, 1, 1, 1) 0.333333 0.333333 0.333333;
   (1, 1, 2, 1, 1, 1) 0.0454545 0.727273 0.227273;
   (2, 1, 2, 1, 1, 1) 0.166667 0.666667 0.166667;
   (0, 2, 2, 1, 1, 1) 0.333333 0.333333 0.333333;
   (1, 2, 2, 1, 1, 1) 0.25 0.5 0.25;
   (2, 2, 2, 1, 1, 1) 0.333333 0.333333 0.333333;
   (0, 0, 0, 2, 1, 1) 0.333333 0.333333 0.333333;
   (1, 0, 0, 2, 1, 1) 0.333333 0.333333 0.333333;
   (2, 0, 0, 2, 1, 1) 0.333333 0.333333 0.333333;
   (0, 1, 0, 2, 1, 1) 0.333333 0.333333 0.333333;
   (1, 1, 0, 2, 1, 1) 0.2 0.2 0.6;
   (2, 1, 0, 2, 1, 1) 0.166667 0.666667 0.166667;
   (0, 2, 0, 2, 1, 1) 0.333333 0.333333 0.333333;
   (1, 2, 0, 2, 1, 1) 0.333333 0.333333 0.333333;
   (2, 2, 0, 2, 1, 1) 0.333333 0.333333 0.333333;
   (0, 0, 1, 2, 1, 1) 0.333333 0.333333 0.333333;
   (1, 0, 1, 2, 1, 1) 0.166667 0.666667 0.166667;
   (2, 0, 1, 2, 1, 1) 0.333333 0.333333 0.333333;
   (0, 1, 1, 2, 1, 1) 0.166667 0.333333 0.5;
   (1, 1, 1, 2, 1, 1) 0.00129032 0.305806 0.692903;
   (2, 1, 1, 2, 1, 1) 0.00235294 0.597647 0.4;
   (0, 2, 1, 2, 1, 1) 0.25 0.5 0.25;
   (1, 2, 1, 2, 1, 1) 0.0185185 0.574074 0.407407;
   (2, 2, 1, 2, 1, 1) 0.04 0.32 0.64;
   (0, 0, 2, 2, 1, 1) 0.333333 0.333333 0.333333;
   (1, 0, 2, 2, 1, 1) 0.333333 0.333333 0.333333;
   (2, 0, 2, 2, 1, 1) 0.333333 0.333333 0.333333;
   (0, 1, 2, 2, 1, 1) 0.333333 0.333333 0.333333;
   (1, 1, 2, 2, 1, 1) 0.025 0.675 0.3;
   (2, 1, 2, 2, 1, 1) 0.0909091 0.272727 0.636364;
   (0, 2, 2, 2, 1, 1) 0.333333 0.333333 0.333333;
   (1, 2, 2, 2, 1, 1) 0.2 0.4 0.4;
   (2, 2, 2, 2, 1, 1) 0.333333 0.333333 0.333333;
   (0, 0, 0, 3, 1, 1) 0.333333 0.333333 0.333333;
   (1, 0, 0, 3, 1, 1) 0.25 0.25 0.5;
   (2, 0, 0, 3, 1, 1) 0.25 0.25 0.5;
   (0, 1, 0, 3, 1, 1) 0.25 0.25 0.5;
   (1, 1, 0, 3, 1, 1) 0.166667 0.333333 0.5;
   (2, 1, 0, 3, 1, 1) 0.142857 0.428571 0.428571;
   (0, 2, 0, 3, 1, 1) 0.333333 0.333333 0.333333;
   (1, 2, 0, 3, 1, 1) 0.333333 0.333333 0.333333;
   (2, 2, 0, 3, 1, 1) 0.2 0.2 0.6;
   (0, 0, 1, 3, 1, 1) 0.333333 0.333333 0.333333;
   (1, 0, 1, 3, 1, 1) 0.0833333 0.0833333 0.833333;
   (2, 0, 1, 3, 1, 1) 0.133333 0.266667 0.6;
   (0, 1, 1, 3, 1, 1) 0.125 0.125 0.75;
   (1, 1, 1, 3, 1, 1) 0.00113895 0.147494 0.851367;
   (2, 1, 1, 3, 1, 1) 0.00134862 0.459879 0.538773;
   (0, 2, 1, 3, 1, 1) 0.333333 0.333333 0.333333;
   (1, 2, 1, 3, 1, 1) 0.0078125 0.507813 0.484375;
   (2, 2, 1, 3, 1, 1) 0.015625 0.296875 0.6875;
   (0, 0, 2, 3, 1, 1) 0.333333 0.333333 0.333333;
   (1, 0, 2, 3, 1, 1) 0.333333 0.333333 0.333333;
   (2, 0, 2, 3, 1, 1) 0.333333 0.333333 0.333333;
   (0, 1, 2, 3, 1, 1) 0.333333 0.333333 0.333333;
   (1, 1, 2, 3, 1, 1) 0.0125 0.65 0.3375;
   (2, 1, 2, 3, 1, 1) 0.0333333 0.466667 0.5;
   (0, 2, 2, 3, 1, 1) 0.333333 0.333333 0.333333;
   (1, 2, 2, 3, 1, 1) 0.166667 0.333333 0.5;
   (2, 2, 2, 3, 1, 1) 0.333333 0.333333 0.333333;
   (0, 0, 0, 4, 1, 1) 0.5 0.25 0.25;
   (1, 0, 0, 4, 1, 1) 0.333333 0.333333 0.333333;
   (2, 0, 0, 4, 1, 1) 0.25 0.5 0.25;
   (0, 1, 0, 4, 1, 1) 0.333333 0.333333 0.333333;
   (1, 1, 0, 4, 1, 1) 0.0526316 0.0526316 0.894737;
   (2, 1, 0, 4, 1, 1) 0.0666667 0.4 0.533333;
   (0, 2, 0, 4, 1, 1) 0.333333 0.333333 0.333333;
   (1, 2, 0, 4, 1, 1) 0.166667 0.333333 0.5;
   (2, 2, 0, 4, 1, 1) 0.125 0.125 0.75;
   (0, 0, 1, 4, 1, 1) 0.2 0.2 0.6;
   (1, 0, 1, 4, 1, 1) 0.0322581 0.193548 0.774194;
   (2, 0, 1, 4, 1, 1) 0.04 0.34 0.62;
   (0, 1, 1, 4, 1, 1) 0.05 0.1 0.85;
   (1, 1, 1, 4, 1, 1) 0.000591833 0.112054 0.887355;
   (2, 1, 1, 4, 1, 1) 0.00162966 0.305561 0.692809;
   (0, 2, 1, 4, 1, 1) 0.2 0.4 0.4;
   (1, 2, 1, 4, 1, 1) 0.00261097 0.37859 0.618799;
   (2, 2, 1, 4, 1, 1) 0.00302115 0.202417 0.794562;
   (0, 0, 2, 4, 1, 1) 0.333333 0.333333 0.333333;
   (1, 0, 2, 4, 1, 1) 0.142857 0.428571 0.428571;
   (2, 0, 2, 4, 1, 1) 0.2 0.2 0.6;
   (0, 1, 2, 4, 1, 1) 0.166667 0.333333 0.5;
   (1, 1, 2, 4, 1, 1) 0.00464396 0.475232 0.520124;
   (2, 1, 2, 4, 1, 1) 0.00416667 0.2375 0.758333;
   (0, 2, 2, 4, 1, 1) 0.333333 0.333333 0.333333;
   (1, 2, 2, 4, 1, 1) 0.0263158 0.342105 0.631579;
   (2, 2, 2, 4, 1, 1) 0.0277778 0.305556 0.666667;
   (0, 0, 0, 0, 2, 1) 0.571429 0.142857 0.285714;
   (1, 0, 0, 0, 2, 1) 0.333333 0.333333 0.333333;
   (2, 0, 0, 0, 2, 1) 0.333333 0.333333 0.333333;
   (0, 1, 0, 0, 2, 1) 0.333333 0.333333 0.333333;
   (1, 1, 0, 0, 2, 1) 0.166667 0.5 0.333333;
   (2, 1, 0, 0, 2, 1) 0.333333 0.333333 0.333333;
   (0, 2, 0, 0, 2, 1) 0.333333 0.333333 0.333333;
   (1, 2, 0, 0, 2, 1) 0.333333 0.333333 0.333333;
   (2, 2, 0, 0, 2, 1) 0.333333 0.333333 0.333333;
   (0, 0, 1, 0, 2, 1) 0.333333 0.333333 0.333333;
   (1, 0, 1, 0, 2, 1) 0.2 0.6 0.2;
   (2, 0, 1, 0, 2, 1) 0.333333 0.333333 0.333333;
   (0, 1, 1, 0, 2, 1) 0.25 0.5 0.25;
   (1, 1, 1, 0, 2, 1) 0.00387597 0.922481 0.0736434;
   (2, 1, 1, 0, 2, 1) 0.0666667 0.733333 0.2;
   (0, 2, 1, 0, 2, 1) 0.333333 0.333333 0.333333;
   (1, 2, 1, 0, 2, 1) 0.0666667 0.466667 0.466667;
   (2, 2, 1, 0, 2, 1) 0.166667 0.333333 0.5;
   (0, 0, 2, 0, 2, 1) 0.333333 0.333333 0.333333;
   (1, 0, 2, 0, 2, 1) 0.25 0.5 0.25;
   (2, 0, 2, 0, 2, 1) 0.333333 0.333333 0.333333;
   (0, 1, 2, 0, 2, 1) 0.333333 0.333333 0.333333;
   (1, 1, 2, 0, 2, 1) 0.04 0.84 0.12;
   (2, 1, 2, 0, 2, 1) 0.333333 0.333333 0.333333;
   (0, 2, 2, 0, 2, 1) 0.333333 0.333333 0.333333;
   (1, 2, 2, 0, 2, 1) 0.25 0.5 0.25;
   (2, 2, 2, 0, 2, 1) 0.333333 0.333333 0.333333;
   (0, 0, 0, 1, 2, 1) 0.4 0.2 0.4;
   (1, 0, 0, 1, 2, 1) 0.333333 0.333333 0.333333;
   (2, 0, 0, 1, 2, 1) 0.5 0.25 0.25;
   (0, 1, 0, 1, 2, 1) 0.333333 0.333333 0.333333;
   (1, 1, 0, 1, 2, 1) 0.166667 0.5 0.333333;
   (2, 1, 0, 1, 2, 1) 0.333333 0.333333 0.333333;
   (0, 2, 0, 1, 2, 1) 0.333333 0.333333 0.333333;
   (1, 2, 0, 1, 2, 1) 0.333333 0.333333 0.333333;
   (2, 2, 0, 1, 2, 1) 0.333333 0.333333 0.333333;
   (0, 0, 1, 1, 2, 1) 0.5 0.25 0.25;
   (1, 0, 1, 1, 2, 1) 0.333333 0.333333 0.333333;
   (2, 0, 1, 1, 2, 1) 0.25 0.25 0.5;
   (0, 1, 1, 1, 2, 1) 0.25 0.5 0.25;
   (1, 1, 1, 1, 2, 1) 0.00277008 0.847645 0.149584;
   (2, 1, 1, 1, 2, 1) 0.0625 0.5625 0.375;
   (0, 2, 1, 1, 2, 1) 0.333333 0.333333 0.333333;
   (1, 2, 1, 1, 2, 1) 0.0454545 0.727273 0.227273;
   (2, 2, 1, 1, 2, 1) 0.166667 0.5 0.333333;
   (0, 0, 2, 1, 2, 1) 0.333333 0.333333 0.333333;
   (1, 0, 2, 1, 2, 1) 0.333333 0.333333 0.333333;
   (2, 0, 2, 1, 2, 1) 0.333333 0.333333 0.333333;
   (0, 1, 2, 1, 2, 1) 0.333333 0.333333 0.333333;
   (1, 1, 2, 1, 2, 1) 0.0714286 0.857143 0.0714286;
   (2, 1, 2, 1, 2, 1) 0.166667 0.666667 0.166667;
   (0, 2, 2, 1, 2, 1) 0.333333 0.333333 0.333333;
   (1, 2, 2, 1, 2, 1) 0.333333 0.333333 0.333333;
   (2, 2, 2, 1, 2, 1) 0.333333 0.333333 0.333333;
   (0, 0, 0, 2, 2, 1) 0.571429 0.142857 0.285714;
   (1, 0, 0, 2, 2, 1) 0.2 0.4 0.4;
   (2, 0, 0, 2, 2, 1) 0.333333 0.333333 0.333333;
   (0, 1, 0, 2, 2, 1) 0.4 0.4 0.2;
   (1, 1, 0, 2, 2, 1) 0.25 0.25 0.5;
   (2, 1, 0, 2, 2, 1) 0.333333 0.333333 0.333333;
   (0, 2, 0, 2, 2, 1) 0.333333 0.333333 0.333333;
   (1, 2, 0, 2, 2, 1) 0.333333 0.333333 0.333333;
   (2, 2, 0, 2, 2, 1) 0.25 0.5 0.25;
   (0, 0, 1, 2, 2, 1) 0.333333 0.333333 0.333333;
   (1, 0, 1, 2, 2, 1) 0.166667 0.666667 0.166667;
   (2, 0, 1, 2, 2, 1) 0.25 0.25 0.5;
   (0, 1, 1, 2, 2, 1) 0.166667 0.666667 0.166667;
   (1, 1, 1, 2, 2, 1) 0.0026455 0.813492 0.183862;
   (2, 1, 1, 2, 2, 1) 0.00613497 0.613497 0.380368;
   (0, 2, 1, 2, 2, 1) 0.333333 0.333333 0.333333;
   (1, 2, 1, 2, 2, 1) 0.0384615 0.576923 0.384615;
   (2, 2, 1, 2, 2, 1) 0.0769231 0.384615 0.538462;
   (0, 0, 2, 2, 2, 1) 0.333333 0.333333 0.333333;
   (1, 0, 2, 2, 2, 1) 0.333333 0.333333 0.333333;
   (2, 0, 2, 2, 2, 1) 0.333333 0.333333 0.333333;
   (0, 1, 2, 2, 2, 1) 0.25 0.5 0.25;
   (1, 1, 2, 2, 2, 1) 0.0555556 0.833333 0.111111;
   (2, 1, 2, 2, 2, 1) 0.111111 0.444444 0.444444;
   (0, 2, 2, 2, 2, 1) 0.333333 0.333333 0.333333;
   (1, 2, 2, 2, 2, 1) 0.25 0.5 0.25;
   (2, 2, 2, 2, 2, 1) 0.25 0.25 0.5;
   (0, 0, 0, 3, 2, 1) 0.666667 0.0833333 0.25;
   (1, 0, 0, 3, 2, 1) 0.166667 0.333333 0.5;
   (2, 0, 0, 3, 2, 1) 0.4 0.1 0.5;
   (0, 1, 0, 3, 2, 1) 0.333333 0.333333 0.333333;
   (1, 1, 0, 3, 2, 1) 0.0833333 0.75 0.166667;
   (2, 1, 0, 3, 2, 1) 0.2 0.4 0.4;
   (0, 2, 0, 3, 2, 1) 0.5 0.25 0.25;
   (1, 2, 0, 3, 2, 1) 0.333333 0.333333 0.333333;
   (2, 2, 0, 3, 2, 1) 0.25 0.25 0.5;
   (0, 0, 1, 3, 2, 1) 0.25 0.5 0.25;
   (1, 0, 1, 3, 2, 1) 0.1 0.5 0.4;
   (2, 0, 1, 3, 2, 1) 0.142857 0.571429 0.285714;
   (0, 1, 1, 3, 2, 1) 0.142857 0.285714 0.571429;
   (1, 1, 1, 3, 2, 1) 0.0025 0.74375 0.25375;
   (2, 1, 1, 3, 2, 1) 0.00655738 0.588525 0.404918;
   (0, 2, 1, 3, 2, 1) 0.2 0.4 0.4;
   (1, 2, 1, 3, 2, 1) 0.0277778 0.555556 0.416667;
   (2, 2, 1, 3, 2, 1) 0.0204082 0.44898 0.530612;
   (0, 0, 2, 3, 2, 1) 0.333333 0.333333 0.333333;
   (1, 0, 2, 3, 2, 1) 0.25 0.25 0.5;
   (2, 0, 2, 3, 2, 1) 0.4 0.2 0.4;
   (0, 1, 2, 3, 2, 1) 0.333333 0.333333 0.333333;
   (1, 1, 2, 3, 2, 1) 0.0212766 0.659574 0.319149;
   (2, 1, 2, 3, 2, 1) 0.0833333 0.5 0.416667;
   (0, 2, 2, 3, 2, 1) 0.333333 0.333333 0.333333;
   (1, 2, 2, 3, 2, 1) 0.25 0.5 0.25;
   (2, 2, 2, 3, 2, 1) 0.142857 0.285714 0.571429;
   (0, 0, 0, 4, 2, 1) 0.5 0.05 0.45;
   (1, 0, 0, 4, 2, 1) 0.025641 0.358974 0.615385;
   (2, 0, 0, 4, 2, 1) 0.25641 0.0512821 0.692308;
   (0, 1, 0, 4, 2, 1) 0.166667 0.666667 0.166667;
   (1, 1, 0, 4, 2, 1) 0.0285714 0.657143 0.314286;
   (2, 1, 0, 4, 2, 1) 0.111111 0.259259 0.62963;
   (0, 2, 0, 4, 2, 1) 0.333333 0.333333 0.333333;
   (1, 2, 0, 4, 2, 1) 0.1 0.2 0.7;
   (2, 2, 0, 4, 2, 1) 0.1 0.2 0.7;
   (0, 0, 1, 4, 2, 1) 0.25 0.5 0.25;
   (1, 0, 1, 4, 2, 1) 0.0526316 0.526316 0.421053;
   (2, 0, 1, 4, 2, 1) 0.0434783 0.173913 0.782609;
   (0, 1, 1, 4, 2, 1) 0.0416667 0.5 0.458333;
   (1, 1, 1, 4, 2, 1) 0.0016775 0.615643 0.38268;
   (2, 1, 1, 4, 2, 1) 0.00299738 0.493069 0.503934;
   (0, 2, 1, 4, 2, 1) 0.333333 0.333333 0.333333;
   (1, 2, 1, 4, 2, 1) 0.00873362 0.458515 0.532751;
   (2, 2, 1, 4, 2, 1) 0.00442478 0.331858 0.663717;
   (0, 0, 2, 4, 2, 1) 0.2 0.1 0.7;
   (1, 0, 2, 4, 2, 1) 0.025 0.35 0.625;
   (2, 0, 2, 4, 2, 1) 0.2 0.2 0.6;
   (0, 1, 2, 4, 2, 1) 0.166667 0.333333 0.5;
   (1, 1, 2, 4, 2, 1) 0.00522193 0.493473 0.501305;
   (2, 1, 2, 4, 2, 1) 0.00584795 0.333333 0.660819;
   (0, 2, 2, 4, 2, 1) 0.25 0.5 0.25;
   (1, 2, 2, 4, 2, 1) 0.0294118 0.352941 0.617647;
   (2, 2, 2, 4, 2, 1) 0.0344828 0.206897 0.758621;
   (0, 0, 0, 0, 0, 2) 0.876106 0.00884956 0.115044;
   (1, 0, 0, 0, 0, 2) 0.333333 0.333333 0.333333;
   (2, 0, 0, 0, 0, 2) 0.777778 0.111111 0.111111;
   (0, 1, 0, 0, 0, 2) 0.333333 0.333333 0.333333;
   (1, 1, 0, 0, 0, 2) 0.333333 0.333333 0.333333;
   (2, 1, 0, 0, 0, 2) 0.333333 0.333333 0.333333;
   (0, 2, 0, 0, 0, 2) 0.5 0.25 0.25;
   (1, 2, 0, 0, 0, 2) 0.333333 0.333333 0.333333;
   (2, 2, 0, 0, 0, 2) 0.333333 0.333333 0.333333;
   (0, 0, 1, 0, 0, 2) 0.333333 0.333333 0.333333;
   (1, 0, 1, 0, 0, 2) 0.5 0.25 0.25;
   (2, 0, 1, 0, 0, 2) 0.333333 0.333333 0.333333;
   (0, 1, 1, 0, 0, 2) 0.333333 0.333333 0.333333;
   (1, 1, 1, 0, 0, 2) 0.0625 0.8125 0.125;
   (2, 1, 1, 0, 0, 2) 0.125 0.75 0.125;
   (0, 2, 1, 0, 0, 2) 0.333333 0.333333 0.333333;
   (1, 2, 1, 0, 0, 2) 0.333333 0.333333 0.333333;
   (2, 2, 1, 0, 0, 2) 0.333333 0.333333 0.333333;
   (0, 0, 2, 0, 0, 2) 0.5 0.25 0.25;
   (1, 0, 2, 0, 0, 2) 0.333333 0.333333 0.333333;
   (2, 0, 2, 0, 0, 2) 0.333333 0.333333 0.333333;
   (0, 1, 2, 0, 0, 2) 0.333333 0.333333 0.333333;
   (1, 1, 2, 0, 0, 2) 0.333333 0.333333 0.333333;
   (2, 1, 2, 0, 0, 2) 0.333333 0.333333 0.333333;
   (0, 2, 2, 0, 0, 2) 0.333333 0.333333 0.333333;
   (1, 2, 2, 0, 0, 2) 0.333333 0.333333 0.333333;
   (2, 2, 2, 0, 0, 2) 0.25 0.5 0.25;
   (0, 0, 0, 1, 0, 2) 0.844444 0.0031746 0.152381;
   (1, 0, 0, 1, 0, 2) 0.25 0.5 0.25;
   (2, 0, 0, 1, 0, 2) 0.5 0.0625 0.4375;
   (0, 1, 0, 1, 0, 2) 0.333333 0.333333 0.333333;
   (1, 1, 0, 1, 0, 2) 0.2 0.6 0.2;
   (2, 1, 0, 1, 0, 2) 0.333333 0.333333 0.333333;
   (0, 2, 0, 1, 0, 2) 0.25 0.25 0.5;
   (1, 2, 0, 1, 0, 2) 0.333333 0.333333 0.333333;
   (2, 2, 0, 1, 0, 2) 0.333333 0.333333 0.333333;
   (0, 0, 1, 1, 0, 2) 0.5 0.25 0.25;
   (1, 0, 1, 1, 0, 2) 0.333333 0.333333 0.333333;
   (2, 0, 1, 1, 0, 2) 0.25 0.25 0.5;
   (0, 1, 1, 1, 0, 2) 0.25 0.5 0.25;
   (1, 1, 1, 1, 0, 2) 0.0222222 0.866667 0.111111;
   (2, 1, 1, 1, 0, 2) 0.1 0.4 0.5;
   (0, 2, 1, 1, 0, 2) 0.333333 0.333333 0.333333;
   (1, 2, 1, 1, 0, 2) 0.25 0.25 0.5;
   (2, 2, 1, 1, 0, 2) 0.333333 0.333333 0.333333;
   (0, 0, 2, 1, 0, 2) 0.666667 0.111111 0.222222;
   (1, 0, 2, 1, 0, 2) 0.333333 0.333333 0.333333;
   (2, 0, 2, 1, 0, 2) 0.5 0.25 0.25;
   (0, 1, 2, 1, 0, 2) 0.333333 0.333333 0.333333;
   (1, 1, 2, 1, 0, 2) 0.333333 0.333333 0.333333;
   (2, 1, 2, 1, 0, 2) 0.333333 0.333333 0.333333;
   (0, 2, 2, 1, 0, 2) 0.333333 0.333333 0.333333;
   (1, 2, 2, 1, 0, 2) 0.2 0.4 0.4;
   (2, 2, 2, 1, 0, 2) 0.333333 0.333333 0.333333;
   (0, 0, 0, 2, 0, 2) 0.774947 0.00849257 0.216561;
   (1, 0, 0, 2, 0, 2) 0.333333 0.333333 0.333333;
   (2, 0, 0, 2, 0, 2) 0.385714 0.0571429 0.557143;
   (0, 1, 0, 2, 0, 2) 0.5 0.25 0.25;
   (1, 1, 0, 2, 0, 2) 0.2 0.6 0.2;
   (2, 1, 0, 2, 0, 2) 0.166667 0.333333 0.5;
   (0, 2, 0, 2, 0, 2) 0.6 0.2 0.2;
   (1, 2, 0, 2, 0, 2) 0.333333 0.333333 0.333333;
   (2, 2, 0, 2, 0, 2) 0.5 0.166667 0.333333;
   (0, 0, 1, 2, 0, 2) 0.4 0.2 0.4;
   (1, 0, 1, 2, 0, 2) 0.166667 0.333333 0.5;
   (2, 0, 1, 2, 0, 2) 0.333333 0.333333 0.333333;
   (0, 1, 1, 2, 0, 2) 0.4 0.4 0.2;
   (1, 1, 1, 2, 0, 2) 0.031746 0.666667 0.301587;
   (2, 1, 1, 2, 0, 2) 0.04 0.44 0.52;
   (0, 2, 1, 2, 0, 2) 0.333333 0.333333 0.333333;
   (1, 2, 1, 2, 0, 2) 0.166667 0.5 0.333333;
   (2, 2, 1, 2, 0, 2) 0.25 0.25 0.5;
   (0, 0, 2, 2, 0, 2) 0.375 0.125 0.5;
   (1, 0, 2, 2, 0, 2) 0.333333 0.333333 0.333333;
   (2, 0, 2, 2, 0, 2) 0.5 0.25 0.25;
   (0, 1, 2, 2, 0, 2) 0.333333 0.333333 0.333333;
   (1, 1, 2, 2, 0, 2) 0.333333 0.333333 0.333333;
   (2, 1, 2, 2, 0, 2) 0.25 0.5 0.25;
   (0, 2, 2, 2, 0, 2) 0.333333 0.333333 0.333333;
   (1, 2, 2, 2, 0, 2) 0.333333 0.333333 0.333333;
   (2, 2, 2, 2, 0, 2) 0.333333 0.333333 0.333333;
   (0, 0, 0, 3, 0, 2) 0.658333 0.00416667 0.3375;
   (1, 0, 0, 3, 0, 2) 0.1 0.4 0.5;
   (2, 0, 0, 3, 0, 2) 0.389671 0.00469484 0.605634;
   (0, 1, 0, 3, 0, 2) 0.4 0.2 0.4;
   (1, 1, 0, 3, 0, 2) 0.2 0.2 0.6;
   (2, 1, 0, 3, 0, 2) 0.25 0.25 0.5;
   (0, 2, 0, 3, 0, 2) 0.375 0.125 0.5;
   (1, 2, 0, 3, 0, 2) 0.333333 0.333333 0.333333;
   (2, 2, 0, 3, 0, 2) 0.153846 0.153846 0.692308;
   (0, 0, 1, 3, 0, 2) 0.25 0.25 0.5;
   (1, 0, 1, 3, 0, 2) 0.25 0.25 0.5;
   (2, 0, 1, 3, 0, 2) 0.2 0.2 0.6;
   (0, 1, 1, 3, 0, 2) 0.2 0.2 0.6;
   (1, 1, 1, 3, 0, 2) 0.0243902 0.54878 0.426829;
   (2, 1, 1, 3, 0, 2) 0.0540541 0.297297 0.648649;
   (0, 2, 1, 3, 0, 2) 0.333333 0.333333 0.333333;
   (1, 2, 1, 3, 0, 2) 0.25 0.25 0.5;
   (2, 2, 1, 3, 0, 2) 0.2 0.2 0.6;
   (0, 0, 2, 3, 0, 2) 0.5 0.166667 0.333333;
   (1, 0, 2, 3, 0, 2) 0.333333 0.333333 0.333333;
   (2, 0, 2, 3, 0, 2) 0.285714 0.285714 0.428571;
   (0, 1, 2, 3, 0, 2) 0.333333 0.333333 0.333333;
   (1, 1, 2, 3, 0, 2) 0.166667 0.5 0.333333;
   (2, 1, 2, 3, 0, 2) 0.25 0.5 0.25;
   (0, 2, 2, 3, 0, 2) 0.333333 0.333333 0.333333;
   (1, 2, 2, 3, 0, 2) 0.25 0.25 0.5;
   (2, 2, 2, 3, 0, 2) 0.25 0.25 0.5;
   (0, 0, 0, 4, 0, 2) 0.473913 0.00217391 0.523913;
   (1, 0, 0, 4, 0, 2) 0.2 0.2 0.6;
   (2, 0, 0, 4, 0, 2) 0.205955 0.00496278 0.789082;
   (0, 1, 0, 4, 0, 2) 0.25 0.25 0.5;
   (1, 1, 0, 4, 0, 2) 0.142857 0.142857 0.714286;
   (2, 1, 0, 4, 0, 2) 0.125 0.25 0.625;
   (0, 2, 0, 4, 0, 2) 0.0588235 0.0588235 0.882353;
   (1, 2, 0, 4, 0, 2) 0.333333 0.333333 0.333333;
   (2, 2, 0, 4, 0, 2) 0.186047 0.0465116 0.767442;
   (0, 0, 1, 4, 0, 2) 0.333333 0.333333 0.333333;
   (1, 0, 1, 4, 0, 2) 0.2 0.4 0.4;
   (2, 0, 1, 4, 0, 2) 0.166667 0.333333 0.5;
   (0, 1, 1, 4, 0, 2) 0.2 0.4 0.4;
   (1, 1, 1, 4, 0, 2) 0.0222222 0.311111 0.666667;
   (2, 1, 1, 4, 0, 2) 0.0238095 0.25 0.72619;
   (0, 2, 1, 4, 0, 2) 0.333333 0.333333 0.333333;
   (1, 2, 1, 4, 0, 2) 0.166667 0.5 0.333333;
   (2, 2, 1, 4, 0, 2) 0.0526316 0.210526 0.736842;
   (0, 0, 2, 4, 0, 2) 0.357143 0.0714286 0.571429;
   (1, 0, 2, 4, 0, 2) 0.333333 0.333333 0.333333;
   (2, 0, 2, 4, 0, 2) 0.230769 0.0769231 0.692308;
   (0, 1, 2, 4, 0, 2) 0.333333 0.333333 0.333333;
   (1, 1, 2, 4, 0, 2) 0.125 0.375 0.5;
   (2, 1, 2, 4, 0, 2) 0.125 0.375 0.5;
   (0, 2, 2, 4, 0, 2) 0.25 0.25 0.5;
   (1, 2, 2, 4, 0, 2) 0.25 0.25 0.5;
   (2, 2, 2, 4, 0, 2) 0.25 0.25 0.5;
   (0, 0, 0, 0, 1, 2) 0.6 0.2 0.2;
   (1, 0, 0, 0, 1, 2) 0.333333 0.333333 0.333333;
   (2, 0, 0, 0, 1, 2) 0.333333 0.333333 0.333333;
   (0, 1, 0, 0, 1, 2) 0.333333 0.333333 0.333333;
   (1, 1, 0, 0, 1, 2) 0.25 0.5 0.25;
   (2, 1, 0, 0, 1, 2) 0.333333 0.333333 0.333333;
   (0, 2, 0, 0, 1, 2) 0.333333 0.333333 0.333333;
   (1, 2, 0, 0, 1, 2) 0.333333 0.333333 0.333333;
   (2, 2, 0, 0, 1, 2) 0.333333 0.333333 0.333333;
   (0, 0, 1, 0, 1, 2) 0.333333 0.333333 0.333333;
   (1, 0, 1, 0, 1, 2) 0.25 0.5 0.25;
   (2, 0, 1, 0, 1, 2) 0.25 0.5 0.25;
   (0, 1, 1, 0, 1, 2) 0.25 0.5 0.25;
   (1, 1, 1, 0, 1, 2) 0.00909091 0.909091 0.0818182;
   (2, 1, 1, 0, 1, 2) 0.1 0.6 0.3;
   (0, 2, 1, 0, 1, 2) 0.333333 0.333333 0.333333;
   (1, 2, 1, 0, 1, 2) 0.2 0.4 0.4;
   (2, 2, 1, 0, 1, 2) 0.333333 0.333333 0.333333;
   (0, 0, 2, 0, 1, 2) 0.333333 0.333333 0.333333;
   (1, 0, 2, 0, 1, 2) 0.333333 0.333333 0.333333;
   (2, 0, 2, 0, 1, 2) 0.333333 0.333333 0.333333;
   (0, 1, 2, 0, 1, 2) 0.333333 0.333333 0.333333;
   (1, 1, 2, 0, 1, 2) 0.25 0.5 0.25;
   (2, 1, 2, 0, 1, 2) 0.333333 0.333333 0.333333;
   (0, 2, 2, 0, 1, 2) 0.333333 0.333333 0.333333;
   (1, 2, 2, 0, 1, 2) 0.333333 0.333333 0.333333;
   (2, 2, 2, 0, 1, 2) 0.333333 0.333333 0.333333;
   (0, 0, 0, 1, 1, 2) 0.75 0.0833333 0.166667;
   (1, 0, 0, 1, 1, 2) 0.333333 0.333333 0.333333;
   (2, 0, 0, 1, 1, 2) 0.333333 0.333333 0.333333;
   (0, 1, 0, 1, 1, 2) 0.333333 0.333333 0.333333;
   (1, 1, 0, 1, 1, 2) 0.2 0.6 0.2;
   (2, 1, 0, 1, 1, 2) 0.333333 0.333333 0.333333;
   (0, 2, 0, 1, 1, 2) 0.333333 0.333333 0.333333;
   (1, 2, 0, 1, 1, 2) 0.333333 0.333333 0.333333;
   (2, 2, 0, 1, 1, 2) 0.333333 0.333333 0.333333;
   (0, 0, 1, 1, 1, 2) 0.25 0.5 0.25;
   (1, 0, 1, 1, 1, 2) 0.25 0.5 0.25;
   (2, 0, 1, 1, 1, 2) 0.333333 0.333333 0.333333;
   (0, 1, 1, 1, 1, 2) 0.25 0.5 0.25;
   (1, 1, 1, 1, 1, 2) 0.00763359 0.820611 0.171756;
   (2, 1, 1, 1, 1, 2) 0.047619 0.595238 0.357143;
   (0, 2, 1, 1, 1, 2) 0.333333 0.333333 0.333333;
   (1, 2, 1, 1, 1, 2) 0.111111 0.333333 0.555556;
   (2, 2, 1, 1, 1, 2) 0.333333 0.333333 0.333333;
   (0, 0, 2, 1, 1, 2) 0.333333 0.333333 0.333333;
   (1, 0, 2, 1, 1, 2) 0.333333 0.333333 0.333333;
   (2, 0, 2, 1, 1, 2) 0.333333 0.333333 0.333333;
   (0, 1, 2, 1, 1, 2) 0.333333 0.333333 0.333333;
   (1, 1, 2, 1, 1, 2) 0.2 0.4 0.4;
   (2, 1, 2, 1, 1, 2) 0.25 0.5 0.25;
   (0, 2, 2, 1, 1, 2) 0.333333 0.333333 0.333333;
   (1, 2, 2, 1, 1, 2) 0.333333 0.333333 0.333333;
   (2, 2, 2, 1, 1, 2) 0.333333 0.333333 0.333333;
   (0, 0, 0, 2, 1, 2) 0.375 0.125 0.5;
   (1, 0, 0, 2, 1, 2) 0.333333 0.333333 0.333333;
   (2, 0, 0, 2, 1, 2) 0.2 0.2 0.6;
   (0, 1, 0, 2, 1, 2) 0.333333 0.333333 0.333333;
   (1, 1, 0, 2, 1, 2) 0.125 0.5 0.375;
   (2, 1, 0, 2, 1, 2) 0.25 0.5 0.25;
   (0, 2, 0, 2, 1, 2) 0.333333 0.333333 0.333333;
   (1, 2, 0, 2, 1, 2) 0.333333 0.333333 0.333333;
   (2, 2, 0, 2, 1, 2) 0.333333 0.333333 0.333333;
   (0, 0, 1, 2, 1, 2) 0.333333 0.333333 0.333333;
   (1, 0, 1, 2, 1, 2) 0.0833333 0.666667 0.25;
   (2, 0, 1, 2, 1, 2) 0.25 0.5 0.25;
   (0, 1, 1, 2, 1, 2) 0.4 0.2 0.4;
   (1, 1, 1, 2, 1, 2) 0.00519481 0.714286 0.280519;
   (2, 1, 1, 2, 1, 2) 0.00970874 0.407767 0.582524;
   (0, 2, 1, 2, 1, 2) 0.333333 0.333333 0.333333;
   (1, 2, 1, 2, 1, 2) 0.142857 0.428571 0.428571;
   (2, 2, 1, 2, 1, 2) 0.2 0.4 0.4;
   (0, 0, 2, 2, 1, 2) 0.333333 0.333333 0.333333;
   (1, 0, 2, 2, 1, 2) 0.333333 0.333333 0.333333;
   (2, 0, 2, 2, 1, 2) 0.333333 0.333333 0.333333;
   (0, 1, 2, 2, 1, 2) 0.333333 0.333333 0.333333;
   (1, 1, 2, 2, 1, 2) 0.166667 0.5 0.333333;
   (2, 1, 2, 2, 1, 2) 0.333333 0.333333 0.333333;
   (0, 2, 2, 2, 1, 2) 0.333333 0.333333 0.333333;
   (1, 2, 2, 2, 1, 2) 0.333333 0.333333 0.333333;
   (2, 2, 2, 2, 1, 2) 0.25 0.25 0.5;
   (0, 0, 0, 3, 1, 2) 0.4 0.1 0.5;
   (1, 0, 0, 3, 1, 2) 0.25 0.25 0.5;
   (2, 0, 0, 3, 1, 2) 0.375 0.125 0.5;
   (0, 1, 0, 3, 1, 2) 0.25 0.25 0.5;
   (1, 1, 0, 3, 1, 2) 0.142857 0.285714 0.571429;
   (2, 1, 0, 3, 1, 2) 0.2 0.2 0.6;
   (0, 2, 0, 3, 1, 2) 0.333333 0.333333 0.333333;
   (1, 2, 0, 3, 1, 2) 0.25 0.5 0.25;
   (2, 2, 0, 3, 1, 2) 0.25 0.25 0.5;
   (0, 0, 1, 3, 1, 2) 0.333333 0.333333 0.333333;
   (1, 0, 1, 3, 1, 2) 0.1 0.5 0.4;
   (2, 0, 1, 3, 1, 2) 0.166667 0.166667 0.666667;
   (0, 1, 1, 3, 1, 2) 0.166667 0.166667 0.666667;
   (1, 1, 1, 3, 1, 2) 0.00223714 0.606264 0.391499;
   (2, 1, 1, 3, 1, 2) 0.010582 0.291005 0.698413;
   (0, 2, 1, 3, 1, 2) 0.333333 0.333333 0.333333;
   (1, 2, 1, 3, 1, 2) 0.0555556 0.444444 0.5;
   (2, 2, 1, 3, 1, 2) 0.0909091 0.181818 0.727273;
   (0, 0, 2, 3, 1, 2) 0.333333 0.333333 0.333333;
   (1, 0, 2, 3, 1, 2) 0.333333 0.333333 0.333333;
   (2, 0, 2, 3, 1, 2) 0.333333 0.333333 0.333333;
   (0, 1, 2, 3, 1, 2) 0.333333 0.333333 0.333333;
   (1, 1, 2, 3, 1, 2) 0.111111 0.444444 0.444444;
   (2, 1, 2, 3, 1, 2) 0.111111 0.111111 0.777778;
   (0, 2, 2, 3, 1, 2) 0.333333 0.333333 0.333333;
   (1, 2, 2, 3, 1, 2) 0.333333 0.333333 0.333333;
   (2, 2, 2, 3, 1, 2) 0.2 0.2 0.6;
   (0, 0, 0, 4, 1, 2) 0.428571 0.0714286 0.5;
   (1, 0, 0, 4, 1, 2) 0.333333 0.333333 0.333333;
   (2, 0, 0, 4, 1, 2) 0.181818 0.272727 0.545455;
   (0, 1, 0, 4, 1, 2) 0.25 0.5 0.25;
   (1, 1, 0, 4, 1, 2) 0.125 0.5 0.375;
   (2, 1, 0, 4, 1, 2) 0.111111 0.111111 0.777778;
   (0, 2, 0, 4, 1, 2) 0.2 0.2 0.6;
   (1, 2, 0, 4, 1, 2) 0.25 0.5 0.25;
   (2, 2, 0, 4, 1, 2) 0.333333 0.333333 0.333333;
   (0, 0, 1, 4, 1, 2) 0.333333 0.333333 0.333333;
   (1, 0, 1, 4, 1, 2) 0.25 0.25 0.5;
   (2, 0, 1, 4, 1, 2) 0.0833333 0.25 0.666667;
   (0, 1, 1, 4, 1, 2) 0.25 0.25 0.5;
   (1, 1, 1, 4, 1, 2) 0.00227273 0.377273 0.620455;
   (2, 1, 1, 4, 1, 2) 0.00511509 0.196931 0.797954;
   (0, 2, 1, 4, 1, 2) 0.333333 0.333333 0.333333;
   (1, 2, 1, 4, 1, 2) 0.0333333 0.266667 0.7;
   (2, 2, 1, 4, 1, 2) 0.0222222 0.155556 0.822222;
   (0, 0, 2, 4, 1, 2) 0.333333 0.333333 0.333333;
   (1, 0, 2, 4, 1, 2) 0.333333 0.333333 0.333333;
   (2, 0, 2, 4, 1, 2) 0.333333 0.333333 0.333333;
   (0, 1, 2, 4, 1, 2) 0.333333 0.333333 0.333333;
   (1, 1, 2, 4, 1, 2) 0.0714286 0.428571 0.5;
   (2, 1, 2, 4, 1, 2) 0.04 0.04 0.92;
   (0, 2, 2, 4, 1, 2) 0.333333 0.333333 0.333333;
   (1, 2, 2, 4, 1, 2) 0.2 0.4 0.4;
   (2, 2, 2, 4, 1, 2) 0.1 0.5 0.4;
   (0, 0, 0, 0, 2, 2) 0.722222 0.0555556 0.222222;
   (1, 0, 0, 0, 2, 2) 0.333333 0.333333 0.333333;
   (2, 0, 0, 0, 2, 2) 0.333333 0.333333 0.333333;
   (0, 1, 0, 0, 2, 2) 0.333333 0.333333 0.333333;
   (1, 1, 0, 0, 2, 2) 0.333333 0.333333 0.333333;
   (2, 1, 0, 0, 2, 2) 0.333333 0.333333 0.333333;
   (0, 2, 0, 0, 2, 2) 0.5 0.25 0.25;
   (1, 2, 0, 0, 2, 2) 0.333333 0.333333 0.333333;
   (2, 2, 0, 0, 2, 2) 0.333333 0.333333 0.333333;
   (0, 0, 1, 0, 2, 2) 0.333333 0.333333 0.333333;
   (1, 0, 1, 0, 2, 2) 0.333333 0.333333 0.333333;
   (2, 0, 1, 0, 2, 2) 0.333333 0.333333 0.333333;
   (0, 1, 1, 0, 2, 2) 0.333333 0.333333 0.333333;
   (1, 1, 1, 0, 2, 2) 0.0434783 0.73913 0.217391;
   (2, 1, 1, 0, 2, 2) 0.125 0.5 0.375;
   (0, 2, 1, 0, 2, 2) 0.333333 0.333333 0.333333;
   (1, 2, 1, 0, 2, 2) 0.25 0.5 0.25;
   (2, 2, 1, 0, 2, 2) 0.333333 0.333333 0.333333;
   (0, 0, 2, 0, 2, 2) 0.333333 0.333333 0.333333;
   (1, 0, 2, 0, 2, 2) 0.333333 0.333333 0.333333;
   (2, 0, 2, 0, 2, 2) 0.333333 0.333333 0.333333;
   (0, 1, 2, 0, 2, 2) 0.333333 0.333333 0.333333;
   (1, 1, 2, 0, 2, 2) 0.25 0.5 0.25;
   (2, 1, 2, 0, 2, 2) 0.333333 0.333333 0.333333;
   (0, 2, 2, 0, 2, 2) 0.333333 0.333333 0.333333;
   (1, 2, 2, 0, 2, 2) 0.333333 0.333333 0.333333;
   (2, 2, 2, 0, 2, 2) 0.333333 0.333333 0.333333;
   (0, 0, 0, 1, 2, 2) 0.711111 0.0222222 0.266667;
   (1, 0, 0, 1, 2, 2) 0.333333 0.333333 0.333333;
   (2, 0, 0, 1, 2, 2) 0.666667 0.111111 0.222222;
   (0, 1, 0, 1, 2, 2) 0.333333 0.333333 0.333333;
   (1, 1, 0, 1, 2, 2) 0.25 0.25 0.5;
   (2, 1, 0, 1, 2, 2) 0.333333 0.333333 0.333333;
   (0, 2, 0, 1, 2, 2) 0.6 0.2 0.2;
   (1, 2, 0, 1, 2, 2) 0.333333 0.333333 0.333333;
   (2, 2, 0, 1, 2, 2) 0.5 0.25 0.25;
   (0, 0, 1, 1, 2, 2) 0.333333 0.333333 0.333333;
   (1, 0, 1, 1, 2, 2) 0.25 0.5 0.25;
   (2, 0, 1, 1, 2, 2) 0.333333 0.333333 0.333333;
   (0, 1, 1, 1, 2, 2) 0.333333 0.333333 0.333333;
   (1, 1, 1, 1, 2, 2) 0.0149254 0.776119 0.208955;
   (2, 1, 1, 1, 2, 2) 0.1 0.6 0.3;
   (0, 2, 1, 1, 2, 2) 0.333333 0.333333 0.333333;
   (1, 2, 1, 1, 2, 2) 0.25 0.5 0.25;
   (2, 2, 1, 1, 2, 2) 0.333333 0.333333 0.333333;
   (0, 0, 2, 1, 2, 2) 0.6 0.2 0.2;
   (1, 0, 2, 1, 2, 2) 0.333333 0.333333 0.333333;
   (2, 0, 2, 1, 2, 2) 0.333333 0.333333 0.333333;
   (0, 1, 2, 1, 2, 2) 0.333333 0.333333 0.333333;
   (1, 1, 2, 1, 2, 2) 0.2 0.4 0.4;
   (2, 1, 2, 1, 2, 2) 0.333333 0.333333 0.333333;
   (0, 2, 2, 1, 2, 2) 0.333333 0.333333 0.333333;
   (1, 2, 2, 1, 2, 2) 0.25 0.5 0.25;
   (2, 2, 2, 1, 2, 2) 0.25 0.25 0.5;
   (0, 0, 0, 2, 2, 2) 0.8 0.0117647 0.188235;
   (1, 0, 0, 2, 2, 2) 0.333333 0.333333 0.333333;
   (2, 0, 0, 2, 2, 2) 0.512195 0.0243902 0.463415;
   (0, 1, 0, 2, 2, 2) 0.5 0.25 0.25;
   (1, 1, 0, 2, 2, 2) 0.25 0.5 0.25;
   (2, 1, 0, 2, 2, 2) 0.2 0.4 0.4;
   (0, 2, 0, 2, 2, 2) 0.5 0.25 0.25;
   (1, 2, 0, 2, 2, 2) 0.25 0.25 0.5;
   (2, 2, 0, 2, 2, 2) 0.333333 0.333333 0.333333;
   (0, 0, 1, 2, 2, 2) 0.25 0.5 0.25;
   (1, 0, 1, 2, 2, 2) 0.166667 0.5 0.333333;
   (2, 0, 1, 2, 2, 2) 0.333333 0.333333 0.333333;
   (0, 1, 1, 2, 2, 2) 0.5 0.25 0.25;
   (1, 1, 1, 2, 2, 2) 0.00819672 0.745902 0.245902;
   (2, 1, 1, 2, 2, 2) 0.0588235 0.441176 0.5;
   (0, 2, 1, 2, 2, 2) 0.333333 0.333333 0.333333;
   (1, 2, 1, 2, 2, 2) 0.166667 0.5 0.333333;
   (2, 2, 1, 2, 2, 2) 0.2 0.6 0.2;
   (0, 0, 2, 2, 2, 2) 0.5 0.25 0.25;
   (1, 0, 2, 2, 2, 2) 0.333333 0.333333 0.333333;
   (2, 0, 2, 2, 2, 2) 0.333333 0.333333 0.333333;
   (0, 1, 2, 2, 2, 2) 0.333333 0.333333 0.333333;
   (1, 1, 2, 2, 2, 2) 0.166667 0.5 0.333333;
   (2, 1, 2, 2, 2, 2) 0.2 0.4 0.4;
   (0, 2, 2, 2, 2, 2) 0.333333 0.333333 0.333333;
   (1, 2, 2, 2, 2, 2) 0.25 0.5 0.25;
   (2, 2, 2, 2, 2, 2) 0.25 0.25 0.5;
   (0, 0, 0, 3, 2, 2) 0.682432 0.0135135 0.304054;
   (1, 0, 0, 3, 2, 2) 0.333333 0.333333 0.333333;
   (2, 0, 0, 3, 2, 2) 0.426471 0.0147059 0.558824;
   (0, 1, 0, 3, 2, 2) 0.333333 0.333333 0.333333;
   (1, 1, 0, 3, 2, 2) 0.2 0.6 0.2;
   (2, 1, 0, 3, 2, 2) 0.142857 0.428571 0.428571;
   (0, 2, 0, 3, 2, 2) 0.333333 0.333333 0.333333;
   (1, 2, 0, 3, 2, 2) 0.333333 0.333333 0.333333;
   (2, 2, 0, 3, 2, 2) 0.2 0.2 0.6;
   (0, 0, 1, 3, 2, 2) 0.5 0.25 0.25;
   (1, 0, 1, 3, 2, 2) 0.2 0.4 0.4;
   (2, 0, 1, 3, 2, 2) 0.166667 0.5 0.333333;
   (0, 1, 1, 3, 2, 2) 0.2 0.6 0.2;
   (1, 1, 1, 3, 2, 2) 0.00462963 0.634259 0.361111;
   (2, 1, 1, 3, 2, 2) 0.00917431 0.541284 0.449541;
   (0, 2, 1, 3, 2, 2) 0.333333 0.333333 0.333333;
   (1, 2, 1, 3, 2, 2) 0.111111 0.666667 0.222222;
   (2, 2, 1, 3, 2, 2) 0.0833333 0.333333 0.583333;
   (0, 0, 2, 3, 2, 2) 0.25 0.25 0.5;
   (1, 0, 2, 3, 2, 2) 0.333333 0.333333 0.333333;
   (2, 0, 2, 3, 2, 2) 0.4 0.2 0.4;
   (0, 1, 2, 3, 2, 2) 0.333333 0.333333 0.333333;
   (1, 1, 2, 3, 2, 2) 0.125 0.5 0.375;
   (2, 1, 2, 3, 2, 2) 0.166667 0.333333 0.5;
   (0, 2, 2, 3, 2, 2) 0.333333 0.333333 0.333333;
   (1, 2, 2, 3, 2, 2) 0.333333 0.333333 0.333333;
   (2, 2, 2, 3, 2, 2) 0.25 0.25 0.5;
   (0, 0, 0, 4, 2, 2) 0.45933 0.00956938 0.5311;
   (1, 0, 0, 4, 2, 2) 0.2 0.2 0.6;
   (2, 0, 0, 4, 2, 2) 0.416244 0.0101523 0.573604;
   (0, 1, 0, 4, 2, 2) 0.333333 0.333333 0.333333;
   (1, 1, 0, 4, 2, 2) 0.166667 0.166667 0.666667;
   (2, 1, 0, 4, 2, 2) 0.111111 0.222222 0.666667;
   (0, 2, 0, 4, 2, 2) 0.5 0.0833333 0.416667;
   (1, 2, 0, 4, 2, 2) 0.333333 0.333333 0.333333;
   (2, 2, 0, 4, 2, 2) 0.166667 0.0416667 0.791667;
   (0, 0, 1, 4, 2, 2) 0.25 0.25 0.5;
   (1, 0, 1, 4, 2, 2) 0.0909091 0.454545 0.454545;
   (2, 0, 1, 4, 2, 2) 0.0833333 0.166667 0.75;
   (0, 1, 1, 4, 2, 2) 0.25 0.25 0.5;
   (1, 1, 1, 4, 2, 2) 0.00332226 0.481728 0.51495;
   (2, 1, 1, 4, 2, 2) 0.00970874 0.333333 0.656958;
   (0, 2, 1, 4, 2, 2) 0.25 0.5 0.25;
   (1, 2, 1, 4, 2, 2) 0.0454545 0.636364 0.318182;
   (2, 2, 1, 4, 2, 2) 0.0227273 0.25 0.727273;
   (0, 0, 2, 4, 2, 2) 0.384615 0.0769231 0.538462;
   (1, 0, 2, 4, 2, 2) 0.166667 0.166667 0.666667;
   (2, 0, 2, 4, 2, 2) 0.5 0.1 0.4;
   (0, 1, 2, 4, 2, 2) 0.25 0.25 0.5;
   (1, 1, 2, 4, 2, 2) 0.0526316 0.263158 0.684211;
   (2, 1, 2, 4, 2, 2) 0.047619 0.190476 0.761905;
   (0, 2, 2, 4, 2, 2) 0.333333 0.333333 0.333333;
   (1, 2, 2, 4, 2, 2) 0.333333 0.333333 0.333333;
   (2, 2, 2, 4, 2, 2) 0.125 0.125 0.75;
}
probability (diabetes_pre | idade_pre) {
   (0) 0.991071 0.00450407 0.00442465;
   (1) 0.98288 0.00721269 0.00990773;
   (2) 0.960306 0.0137869 0.0259069;
   (3) 0.893701 0.0290184 0.0772803;
   (4) 0.705732 0.0843836 0.209885;
}
probability (doenca_hematologica_pre | diabetes_pre, doenca_renal_pre, doenca_neurologica_pre, asma_pre, sindrome_de_down_pre, doenca_hepatica_pre) {
   (0, 0, 0, 0, 0, 0) 0.999695 6.53541e-06 0.000298015;
   (1, 0, 0, 0, 0, 0) 0.957447 0.0212766 0.0212766;
   (2, 0, 0, 0, 0, 0) 0.997783 0.000191608 0.00202557;
   (0, 1, 0, 0, 0, 0) 0.727273 0.181818 0.0909091;
   (1, 1, 0, 0, 0, 0) 0.25 0.5 0.25;
   (2, 1, 0, 0, 0, 0) 0.818182 0.0909091 0.0909091;
   (0, 2, 0, 0, 0, 0) 0.990061 0.000764526 0.00917431;
   (1, 2, 0, 0, 0, 0) 0.866667 0.0666667 0.0666667;
   (2, 2, 0, 0, 0, 0) 0.989521 0.00224551 0.00823353;
   (0, 0, 1, 0, 0, 0) 0.875 0.0625 0.0625;
   (1, 0, 1, 0, 0, 0) 0.6 0.2 0.2;
   (2, 0, 1, 0, 0, 0) 0.714286 0.214286 0.0714286;
   (0, 1, 1, 0, 0, 0) 0.5 0.333333 0.166667;
   (1, 1, 1, 0, 0, 0) 0.5 0.25 0.25;
   (2, 1, 1, 0, 0, 0) 0.625 0.25 0.125;
   (0, 2, 1, 0, 0, 0) 0.5 0.25 0.25;
   (1, 2, 1, 0, 0, 0) 0.333333 0.333333 0.333333;
   (2, 2, 1, 0, 0, 0) 0.2 0.6 0.2;
   (0, 0, 2, 0, 0, 0) 0.993042 0.00189753 0.00506009;
   (1, 0, 2, 0, 0, 0) 0.934783 0.0217391 0.0434783;
   (2, 0, 2, 0, 0, 0) 0.994575 0.00180832 0.00361664;
   (0, 1, 2, 0, 0, 0) 0.5 0.25 0.25;
   (1, 1, 2, 0, 0, 0) 0.5 0.25 0.25;
   (2, 1, 2, 0, 0, 0) 0.5 0.25 0.25;
   (0, 2, 2, 0, 0, 0) 0.964912 0.0175439 0.0175439;
   (1, 2, 2, 0, 0, 0) 0.666667 0.166667 0.166667;
   (2, 2, 2, 0, 0, 0) 0.9 0.025 0.075;
   (0, 0, 0, 1, 0, 0) 0.8 0.1 0.1;
   (1, 0, 0, 1, 0, 0) 0.555556 0.333333 0.111111;
   (2, 0, 0, 1, 0, 0) 0.875 0.0625 0.0625;
   (0, 1, 0, 1, 0, 0) 0.5 0.25 0.25;
   (1, 1, 0, 1, 0, 0) 0.736842 0.210526 0.0526316;
   (2, 1, 0, 1, 0, 0) 0.714286 0.214286 0.0714286;
   (0, 2, 0, 1, 0, 0) 0.5 0.25 0.25;
   (1, 2, 0, 1, 0, 0) 0.5 0.25 0.25;
   (2, 2, 0, 1, 0, 0) 0.5 0.166667 0.333333;
   (0, 0, 1, 1, 0, 0) 0.333333 0.333333 0.333333;
   (1, 0, 1, 1, 0, 0) 0.6 0.2 0.2;
   (2, 0, 1, 1, 0, 0) 0.5 0.4 0.1;
   (0, 1, 1, 1, 0, 0) 0.333333 0.333333 0.333333;
   (1, 1, 1, 1, 0, 0) 0.4375 0.5 0.0625;
   (2, 1, 1, 1, 0, 0) 0.25 0.708333 0.0416667;
   (0, 2, 1, 1, 0, 0) 0.333333 0.333333 0.333333;
   (1, 2, 1, 1, 0, 0) 0.142857 0.714286 0.142857;
   (2, 2, 1, 1, 0, 0) 0.4 0.4 0.2;
   (0, 0, 2, 1, 0, 0) 0.333333 0.333333 0.333333;
   (1, 0, 2, 1, 0, 0) 0.5 0.25 0.25;
   (2, 0, 2, 1, 0, 0) 0.5 0.25 0.25;
   (0, 1, 2, 1, 0, 0) 0.333333 0.333333 0.333333;
   (1, 1, 2, 1, 0, 0) 0.571429 0.285714 0.142857;
   (2, 1, 2, 1, 0, 0) 0.333333 0.333333 0.333333;
   (0, 2, 2, 1, 0, 0) 0.5 0.25 0.25;
   (1, 2, 2, 1, 0, 0) 0.333333 0.333333 0.333333;
   (2, 2, 2, 1, 0, 0) 0.5 0.333333 0.166667;
   (0, 0, 0, 2, 0, 0) 0.987593 0.00082713 0.0115798;
   (1, 0, 0, 2, 0, 0) 0.666667 0.166667 0.166667;
   (2, 0, 0, 2, 0, 0) 0.990323 0.00322581 0.00645161;
   (0, 1, 0, 2, 0, 0) 0.666667 0.166667 0.166667;
   (1, 1, 0, 2, 0, 0) 0.333333 0.333333 0.333333;
   (2, 1, 0, 2, 0, 0) 0.5 0.25 0.25;
   (0, 2, 0, 2, 0, 0) 0.846154 0.0769231 0.0769231;
   (1, 2, 0, 2, 0, 0) 0.333333 0.333333 0.333333;
   (2, 2, 0, 2, 0, 0) 0.846154 0.0769231 0.0769231;
   (0, 0, 1, 2, 0, 0) 0.333333 0.333333 0.333333;
   (1, 0, 1, 2, 0, 0) 0.333333 0.333333 0.333333;
   (2, 0, 1, 2, 0, 0) 0.6 0.2 0.2;
   (0, 1, 1, 2, 0, 0) 0.333333 0.333333 0.333333;
   (1, 1, 1, 2, 0, 0) 0.25 0.625 0.125;
   (2, 1, 1, 2, 0, 0) 0.333333 0.333333 0.333333;
   (0, 2, 1, 2, 0, 0) 0.333333 0.333333 0.333333;
   (1, 2, 1, 2, 0, 0) 0.333333 0.333333 0.333333;
   (2, 2, 1, 2, 0, 0) 0.333333 0.333333 0.333333;
   (0, 0, 2, 2, 0, 0) 0.833333 0.0416667 0.125;
   (1, 0, 2, 2, 0, 0) 0.5 0.25 0.25;
   (2, 0, 2, 2, 0, 0) 0.818182 0.0909091 0.0909091;
   (0, 1, 2, 2, 0, 0) 0.333333 0.333333 0.333333;
   (1, 1, 2, 2, 0, 0) 0.333333 0.333333 0.333333;
   (2, 1, 2, 2, 0, 0) 0.333333 0.333333 0.333333;
   (0, 2, 2, 2, 0, 0) 0.6 0.2 0.2;
   (1, 2, 2, 2, 0, 0) 0.333333 0.333333 0.333333;
   (2, 2, 2, 2, 0, 0) 0.5 0.25 0.25;
   (0, 0, 0, 0, 1, 0) 0.787879 0.0909091 0.121212;
   (1, 0, 0, 0, 1, 0) 0.571429 0.142857 0.285714;
   (2, 0, 0, 0, 1, 0) 0.774194 0.0967742 0.129032;
   (0, 1, 0, 0, 1, 0) 0.5 0.333333 0.166667;
   (1, 1, 0, 0, 1, 0) 0.333333 0.333333 0.333333;
   (2, 1, 0, 0, 1, 0) 0.333333 0.333333 0.333333;
   (0, 2, 0, 0, 1, 0) 0.333333 0.333333 0.333333;
   (1, 2, 0, 0, 1, 0) 0.333333 0.333333 0.333333;
   (2, 2, 0, 0, 1, 0) 0.5 0.25 0.25;
   (0, 0, 1, 0, 1, 0) 0.285714 0.571429 0.142857;
   (1, 0, 1, 0, 1, 0) 0.25 0.5 0.25;
   (2, 0, 1, 0, 1, 0) 0.2 0.6 0.2;
   (0, 1, 1, 0, 1, 0) 0.333333 0.333333 0.333333;
   (1, 1, 1, 0, 1, 0) 0.166667 0.666667 0.166667;
   (2, 1, 1, 0, 1, 0) 0.333333 0.333333 0.333333;
   (0, 2, 1, 0, 1, 0) 0.333333 0.333333 0.333333;
   (1, 2, 1, 0, 1, 0) 0.333333 0.333333 0.333333;
   (2, 2, 1, 0, 1, 0) 0.333333 0.333333 0.333333;
   (0, 0, 2, 0, 1, 0) 0.666667 0.166667 0.166667;
   (1, 0, 2, 0, 1, 0) 0.5 0.25 0.25;
   (2, 0, 2, 0, 1, 0) 0.6 0.2 0.2;
   (0, 1, 2, 0, 1, 0) 0.333333 0.333333 0.333333;
   (1, 1, 2, 0, 1, 0) 0.2 0.6 0.2;
   (2, 1, 2, 0, 1, 0) 0.333333 0.333333 0.333333;
   (0, 2, 2, 0, 1, 0) 0.333333 0.333333 0.333333;
   (1, 2, 2, 0, 1, 0) 0.333333 0.333333 0.333333;
   (2, 2, 2, 0, 1, 0) 0.333333 0.333333 0.333333;
   (0, 0, 0, 1, 1, 0) 0.25 0.5 0.25;
   (1, 0, 0, 1, 1, 0) 0.333333 0.333333 0.333333;
   (2, 0, 0, 1, 1, 0) 0.5 0.166667 0.333333;
   (0, 1, 0, 1, 1, 0) 0.5 0.25 0.25;
   (1, 1, 0, 1, 1, 0) 0.333333 0.5 0.166667;
   (2, 1, 0, 1, 1, 0) 0.428571 0.428571 0.142857;
   (0, 2, 0, 1, 1, 0) 0.333333 0.333333 0.333333;
   (1, 2, 0, 1, 1, 0) 0.333333 0.333333 0.333333;
   (2, 2, 0, 1, 1, 0) 0.333333 0.333333 0.333333;
   (0, 0, 1, 1, 1, 0) 0.25 0.5 0.25;
   (1, 0, 1, 1, 1, 0) 0.142857 0.714286 0.142857;
   (2, 0, 1, 1, 1, 0) 0.111111 0.777778 0.111111;
   (0, 1, 1, 1, 1, 0) 0.2 0.6 0.2;
   (1, 1, 1, 1, 1, 0) 0.0183486 0.954128 0.0275229;
   (2, 1, 1, 1, 1, 0) 0.025 0.95 0.025;
   (0, 2, 1, 1, 1, 0) 0.333333 0.333333 0.333333;
   (1, 2, 1, 1, 1, 0) 0.0714286 0.785714 0.142857;
   (2, 2, 1, 1, 1, 0) 0.0909091 0.818182 0.0909091;
   (0, 0, 2, 1, 1, 0) 0.333333 0.333333 0.333333;
   (1, 0, 2, 1, 1, 0) 0.333333 0.333333 0.333333;
   (2, 0, 2, 1, 1, 0) 0.333333 0.333333 0.333333;
   (0, 1, 2, 1, 1, 0) 0.333333 0.333333 0.333333;
   (1, 1, 2, 1, 1, 0) 0.0666667 0.866667 0.0666667;
   (2, 1, 2, 1, 1, 0) 0.285714 0.428571 0.285714;
   (0, 2, 2, 1, 1, 0) 0.333333 0.333333 0.333333;
   (1, 2, 2, 1, 1, 0) 0.333333 0.333333 0.333333;
   (2, 2, 2, 1, 1, 0) 0.333333 0.333333 0.333333;
   (0, 0, 0, 2, 1, 0) 0.333333 0.333333 0.333333;
   (1, 0, 0, 2, 1, 0) 0.333333 0.333333 0.333333;
   (2, 0, 0, 2, 1, 0) 0.5 0.25 0.25;
   (0, 1, 0, 2, 1, 0) 0.333333 0.333333 0.333333;
   (1, 1, 0, 2, 1, 0) 0.333333 0.333333 0.333333;
   (2, 1, 0, 2, 1, 0) 0.333333 0.333333 0.333333;
   (0, 2, 0, 2, 1, 0) 0.333333 0.333333 0.333333;
   (1, 2, 0, 2, 1, 0) 0.333333 0.333333 0.333333;
   (2, 2, 0, 2, 1, 0) 0.333333 0.333333 0.333333;
   (0, 0, 1, 2, 1, 0) 0.333333 0.333333 0.333333;
   (1, 0, 1, 2, 1, 0) 0.25 0.5 0.25;
   (2, 0, 1, 2, 1, 0) 0.2 0.6 0.2;
   (0, 1, 1, 2, 1, 0) 0.333333 0.333333 0.333333;
   (1, 1, 1, 2, 1, 0) 0.0909091 0.818182 0.0909091;
   (2, 1, 1, 2, 1, 0) 0.333333 0.333333 0.333333;
   (0, 2, 1, 2, 1, 0) 0.333333 0.333333 0.333333;
   (1, 2, 1, 2, 1, 0) 0.333333 0.333333 0.333333;
   (2, 2, 1, 2, 1, 0) 0.333333 0.333333 0.333333;
   (0, 0, 2, 2, 1, 0) 0.333333 0.333333 0.333333;
   (1, 0, 2, 2, 1, 0) 0.333333 0.333333 0.333333;
   (2, 0, 2, 2, 1, 0) 0.333333 0.333333 0.333333;
   (0, 1, 2, 2, 1, 0) 0.333333 0.333333 0.333333;
   (1, 1, 2, 2, 1, 0) 0.25 0.5 0.25;
   (2, 1, 2, 2, 1, 0) 0.333333 0.333333 0.333333;
   (0, 2, 2, 2, 1, 0) 0.333333 0.333333 0.333333;
   (1, 2, 2, 2, 1, 0) 0.333333 0.333333 0.333333;
   (2, 2, 2, 2, 1, 0) 0.333333 0.333333 0.333333;
   (0, 0, 0, 0, 2, 0) 0.938462 0.0153846 0.0461538;
   (1, 0, 0, 0, 2, 0) 0.333333 0.333333 0.333333;
   (2, 0, 0, 0, 2, 0) 0.857143 0.0714286 0.0714286;
   (0, 1, 0, 0, 2, 0) 0.333333 0.333333 0.333333;
   (1, 1, 0, 0, 2, 0) 0.333333 0.333333 0.333333;
   (2, 1, 0, 0, 2, 0) 0.333333 0.333333 0.333333;
   (0, 2, 0, 0, 2, 0) 0.4 0.2 0.4;
   (1, 2, 0, 0, 2, 0) 0.333333 0.333333 0.333333;
   (2, 2, 0, 0, 2, 0) 0.333333 0.333333 0.333333;
   (0, 0, 1, 0, 2, 0) 0.333333 0.333333 0.333333;
   (1, 0, 1, 0, 2, 0) 0.333333 0.333333 0.333333;
   (2, 0, 1, 0, 2, 0) 0.333333 0.333333 0.333333;
   (0, 1, 1, 0, 2, 0) 0.333333 0.333333 0.333333;
   (1, 1, 1, 0, 2, 0) 0.333333 0.333333 0.333333;
   (2, 1, 1, 0, 2, 0) 0.333333 0.333333 0.333333;
   (0, 2, 1, 0, 2, 0) 0.333333 0.333333 0.333333;
   (1, 2, 1, 0, 2, 0) 0.333333 0.333333 0.333333;
   (2, 2, 1, 0, 2, 0) 0.333333 0.333333 0.333333;
   (0, 0, 2, 0, 2, 0) 0.6 0.2 0.2;
   (1, 0, 2, 0, 2, 0) 0.333333 0.333333 0.333333;
   (2, 0, 2, 0, 2, 0) 0.333333 0.333333 0.333333;
   (0, 1, 2, 0, 2, 0) 0.333333 0.333333 0.333333;
   (1, 1, 2, 0, 2, 0) 0.333333 0.333333 0.333333;
   (2, 1, 2, 0, 2, 0) 0.333333 0.333333 0.333333;
   (0, 2, 2, 0, 2, 0) 0.333333 0.333333 0.333333;
   (1, 2, 2, 0, 2, 0) 0.333333 0.333333 0.333333;
   (2, 2, 2, 0, 2, 0) 0.333333 0.333333 0.333333;
   (0, 0, 0, 1, 2, 0) 0.333333 0.333333 0.333333;
   (1, 0, 0, 1, 2, 0) 0.333333 0.333333 0.333333;
   (2, 0, 0, 1, 2, 0) 0.333333 0.333333 0.333333;
   (0, 1, 0, 1, 2, 0) 0.333333 0.333333 0.333333;
   (1, 1, 0, 1, 2, 0) 0.333333 0.333333 0.333333;
   (2, 1, 0, 1, 2, 0) 0.333333 0.333333 0.333333;
   (0, 2, 0, 1, 2, 0) 0.333333 0.333333 0.333333;
   (1, 2, 0, 1, 2, 0) 0.333333 0.333333 0.333333;
   (2, 2, 0, 1, 2, 0) 0.333333 0.333333 0.333333;
   (0, 0, 1, 1, 2, 0) 0.333333 0.333333 0.333333;
   (1, 0, 1, 1, 2, 0) 0.333333 0.333333 0.333333;
   (2, 0, 1, 1, 2, 0) 0.333333 0.333333 0.333333;
   (0, 1, 1, 1, 2, 0) 0.333333 0.333333 0.333333;
   (1, 1, 1, 1, 2, 0) 0.333333 0.5 0.166667;
   (2, 1, 1, 1, 2, 0) 0.2 0.6 0.2;
   (0, 2, 1, 1, 2, 0) 0.333333 0.333333 0.333333;
   (1, 2, 1, 1, 2, 0) 0.333333 0.333333 0.333333;
   (2, 2, 1, 1, 2, 0) 0.333333 0.333333 0.333333;
   (0, 0, 2, 1, 2, 0) 0.333333 0.333333 0.333333;
   (1, 0, 2, 1, 2, 0) 0.333333 0.333333 0.333333;
   (2, 0, 2, 1, 2, 0) 0.333333 0.333333 0.333333;
   (0, 1, 2, 1, 2, 0) 0.333333 0.333333 0.333333;
   (1, 1, 2, 1, 2, 0) 0.333333 0.333333 0.333333;
   (2, 1, 2, 1, 2, 0) 0.333333 0.333333 0.333333;
   (0, 2, 2, 1, 2, 0) 0.333333 0.333333 0.333333;
   (1, 2, 2, 1, 2, 0) 0.333333 0.333333 0.333333;
   (2, 2, 2, 1, 2, 0) 0.333333 0.333333 0.333333;
   (0, 0, 0, 2, 2, 0) 0.6 0.2 0.2;
   (1, 0, 0, 2, 2, 0) 0.333333 0.333333 0.333333;
   (2, 0, 0, 2, 2, 0) 0.5 0.25 0.25;
   (0, 1, 0, 2, 2, 0) 0.333333 0.333333 0.333333;
   (1, 1, 0, 2, 2, 0) 0.333333 0.333333 0.333333;
   (2, 1, 0, 2, 2, 0) 0.333333 0.333333 0.333333;
   (0, 2, 0, 2, 2, 0) 0.333333 0.333333 0.333333;
   (1, 2, 0, 2, 2, 0) 0.333333 0.333333 0.333333;
   (2, 2, 0, 2, 2, 0) 0.333333 0.333333 0.333333;
   (0, 0, 1, 2, 2, 0) 0.333333 0.333333 0.333333;
   (1, 0, 1, 2, 2, 0) 0.333333 0.333333 0.333333;
   (2, 0, 1, 2, 2, 0) 0.333333 0.333333 0.333333;
   (0, 1, 1, 2, 2, 0) 0.333333 0.333333 0.333333;
   (1, 1, 1, 2, 2, 0) 0.333333 0.333333 0.333333;
   (2, 1, 1, 2, 2, 0) 0.333333 0.333333 0.333333;
   (0, 2, 1, 2, 2, 0) 0.333333 0.333333 0.333333;
   (1, 2, 1, 2, 2, 0) 0.333333 0.333333 0.333333;
   (2, 2, 1, 2, 2, 0) 0.333333 0.333333 0.333333;
   (0, 0, 2, 2, 2, 0) 0.333333 0.333333 0.333333;
   (1, 0, 2, 2, 2, 0) 0.333333 0.333333 0.333333;
   (2, 0, 2, 2, 2, 0) 0.333333 0.333333 0.333333;
   (0, 1, 2, 2, 2, 0) 0.333333 0.333333 0.333333;
   (1, 1, 2, 2, 2, 0) 0.333333 0.333333 0.333333;
   (2, 1, 2, 2, 2, 0) 0.333333 0.333333 0.333333;
   (0, 2, 2, 2, 2, 0) 0.333333 0.333333 0.333333;
   (1, 2, 2, 2, 2, 0) 0.333333 0.333333 0.333333;
   (2, 2, 2, 2, 2, 0) 0.333333 0.333333 0.333333;
   (0, 0, 0, 0, 0, 1) 0.5 0.333333 0.166667;
   (1, 0, 0, 0, 0, 1) 0.25 0.5 0.25;
   (2, 0, 0, 0, 0, 1) 0.6 0.2 0.2;
   (0, 1, 0, 0, 0, 1) 0.333333 0.333333 0.333333;
   (1, 1, 0, 0, 0, 1) 0.2 0.7 0.1;
   (2, 1, 0, 0, 0, 1) 0.111111 0.666667 0.222222;
   (0, 2, 0, 0, 0, 1) 0.5 0.25 0.25;
   (1, 2, 0, 0, 0, 1) 0.333333 0.333333 0.333333;
   (2, 2, 0, 0, 0, 1) 0.285714 0.571429 0.142857;
   (0, 0, 1, 0, 0, 1) 0.25 0.5 0.25;
   (1, 0, 1, 0, 0, 1) 0.5 0.25 0.25;
   (2, 0, 1, 0, 0, 1) 0.333333 0.333333 0.333333;
   (0, 1, 1, 0, 0, 1) 0.5 0.25 0.25;
   (1, 1, 1, 0, 0, 1) 0.25 0.5 0.25;
   (2, 1, 1, 0, 0, 1) 0.25 0.5 0.25;
   (0, 2, 1, 0, 0, 1) 0.333333 0.333333 0.333333;
   (1, 2, 1, 0, 0, 1) 0.333333 0.333333 0.333333;
   (2, 2, 1, 0, 0, 1) 0.25 0.5 0.25;
   (0, 0, 2, 0, 0, 1) 0.333333 0.333333 0.333333;
   (1, 0, 2, 0, 0, 1) 0.25 0.5 0.25;
   (2, 0, 2, 0, 0, 1) 0.333333 0.333333 0.333333;
   (0, 1, 2, 0, 0, 1) 0.333333 0.333333 0.333333;
   (1, 1, 2, 0, 0, 1) 0.25 0.5 0.25;
   (2, 1, 2, 0, 0, 1) 0.25 0.5 0.25;
   (0, 2, 2, 0, 0, 1) 0.333333 0.333333 0.333333;
   (1, 2, 2, 0, 0, 1) 0.333333 0.333333 0.333333;
   (2, 2, 2, 0, 0, 1) 0.5 0.25 0.25;
   (0, 0, 0, 1, 0, 1) 0.333333 0.333333 0.333333;
   (1, 0, 0, 1, 0, 1) 0.5 0.25 0.25;
   (2, 0, 0, 1, 0, 1) 0.25 0.5 0.25;
   (0, 1, 0, 1, 0, 1) 0.2 0.6 0.2;
   (1, 1, 0, 1, 0, 1) 0.208333 0.708333 0.0833333;
   (2, 1, 0, 1, 0, 1) 0.153846 0.769231 0.0769231;
   (0, 2, 0, 1, 0, 1) 0.333333 0.333333 0.333333;
   (1, 2, 0, 1, 0, 1) 0.2 0.6 0.2;
   (2, 2, 0, 1, 0, 1) 0.2 0.6 0.2;
   (0, 0, 1, 1, 0, 1) 0.333333 0.333333 0.333333;
   (1, 0, 1, 1, 0, 1) 0.333333 0.5 0.166667;
   (2, 0, 1, 1, 0, 1) 0.25 0.5 0.25;
   (0, 1, 1, 1, 0, 1) 0.25 0.5 0.25;
   (1, 1, 1, 1, 0, 1) 0.0681818 0.886364 0.0454545;
   (2, 1, 1, 1, 0, 1) 0.0487805 0.829268 0.121951;
   (0, 2, 1, 1, 0, 1) 0.2 0.6 0.2;
   (1, 2, 1, 1, 0, 1) 0.166667 0.666667 0.166667;
   (2, 2, 1, 1, 0, 1) 0.153846 0.692308 0.153846;
   (0, 0, 2, 1, 0, 1) 0.333333 0.333333 0.333333;
   (1, 0, 2, 1, 0, 1) 0.5 0.25 0.25;
   (2, 0, 2, 1, 0, 1) 0.333333 0.333333 0.333333;
   (0, 1, 2, 1, 0, 1) 0.333333 0.333333 0.333333;
   (1, 1, 2, 1, 0, 1) 0.153846 0.769231 0.0769231;
   (2, 1, 2, 1, 0, 1) 0.111111 0.777778 0.111111;
   (0, 2, 2, 1, 0, 1) 0.333333 0.333333 0.333333;
   (1, 2, 2, 1, 0, 1) 0.333333 0.333333 0.333333;
   (2, 2, 2, 1, 0, 1) 0.25 0.5 0.25;
   (0, 0, 0, 2, 0, 1) 0.333333 0.333333 0.333333;
   (1, 0, 0, 2, 0, 1) 0.333333 0.333333 0.333333;
   (2, 0, 0, 2, 0, 1) 0.333333 0.333333 0.333333;
   (0, 1, 0, 2, 0, 1) 0.333333 0.333333 0.333333;
   (1, 1, 0, 2, 0, 1) 0.333333 0.333333 0.333333;
   (2, 1, 0, 2, 0, 1) 0.25 0.5 0.25;
   (0, 2, 0, 2, 0, 1) 0.333333 0.333333 0.333333;
   (1, 2, 0, 2, 0, 1) 0.333333 0.333333 0.333333;
   (2, 2, 0, 2, 0, 1) 0.333333 0.333333 0.333333;
   (0, 0, 1, 2, 0, 1) 0.333333 0.333333 0.333333;
   (1, 0, 1, 2, 0, 1) 0.25 0.5 0.25;
   (2, 0, 1, 2, 0, 1) 0.333333 0.333333 0.333333;
   (0, 1, 1, 2, 0, 1) 0.333333 0.333333 0.333333;
   (1, 1, 1, 2, 0, 1) 0.2 0.6 0.2;
   (2, 1, 1, 2, 0, 1) 0.333333 0.333333 0.333333;
   (0, 2, 1, 2, 0, 1) 0.333333 0.333333 0.333333;
   (1, 2, 1, 2, 0, 1) 0.333333 0.333333 0.333333;
   (2, 2, 1, 2, 0, 1) 0.333333 0.333333 0.333333;
   (0, 0, 2, 2, 0, 1) 0.333333 0.333333 0.333333;
   (1, 0, 2, 2, 0, 1) 0.333333 0.333333 0.333333;
   (2, 0, 2, 2, 0, 1) 0.333333 0.333333 0.333333;
   (0, 1, 2, 2, 0, 1) 0.333333 0.333333 0.333333;
   (1, 1, 2, 2, 0, 1) 0.25 0.5 0.25;
   (2, 1, 2, 2, 0, 1) 0.333333 0.333333 0.333333;
   (0, 2, 2, 2, 0, 1) 0.333333 0.333333 0.333333;
   (1, 2, 2, 2, 0, 1) 0.333333 0.333333 0.333333;
   (2, 2, 2, 2, 0, 1) 0.333333 0.333333 0.333333;
   (0, 0, 0, 0, 1, 1) 0.285714 0.571429 0.142857;
   (1, 0, 0, 0, 1, 1) 0.4 0.4 0.2;
   (2, 0, 0, 0, 1, 1) 0.428571 0.428571 0.142857;
   (0, 1, 0, 0, 1, 1) 0.2 0.4 0.4;
   (1, 1, 0, 0, 1, 1) 0.2 0.6 0.2;
   (2, 1, 0, 0, 1, 1) 0.1 0.8 0.1;
   (0, 2, 0, 0, 1, 1) 0.333333 0.5 0.166667;
   (1, 2, 0, 0, 1, 1) 0.333333 0.333333 0.333333;
   (2, 2, 0, 0, 1, 1) 0.333333 0.333333 0.333333;
   (0, 0, 1, 0, 1, 1) 0.2 0.6 0.2;
   (1, 0, 1, 0, 1, 1) 0.1 0.8 0.1;
   (2, 0, 1, 0, 1, 1) 0.105263 0.842105 0.0526316;
   (0, 1, 1, 0, 1, 1) 0.0625 0.8125 0.125;
   (1, 1, 1, 0, 1, 1) 0.0408163 0.897959 0.0612245;
   (2, 1, 1, 0, 1, 1) 0.0208333 0.958333 0.0208333;
   (0, 2, 1, 0, 1, 1) 0.333333 0.333333 0.333333;
   (1, 2, 1, 0, 1, 1) 0.0909091 0.818182 0.0909091;
   (2, 2, 1, 0, 1, 1) 0.266667 0.6 0.133333;
   (0, 0, 2, 0, 1, 1) 0.5 0.25 0.25;
   (1, 0, 2, 0, 1, 1) 0.2 0.4 0.4;
   (2, 0, 2, 0, 1, 1) 0.333333 0.333333 0.333333;
   (0, 1, 2, 0, 1, 1) 0.166667 0.666667 0.166667;
   (1, 1, 2, 0, 1, 1) 0.0666667 0.8 0.133333;
   (2, 1, 2, 0, 1, 1) 0.333333 0.555556 0.111111;
   (0, 2, 2, 0, 1, 1) 0.333333 0.333333 0.333333;
   (1, 2, 2, 0, 1, 1) 0.25 0.5 0.25;
   (2, 2, 2, 0, 1, 1) 0.4 0.4 0.2;
   (0, 0, 0, 1, 1, 1) 0.4 0.4 0.2;
   (1, 0, 0, 1, 1, 1) 0.0909091 0.818182 0.0909091;
   (2, 0, 0, 1, 1, 1) 0.0625 0.875 0.0625;
   (0, 1, 0, 1, 1, 1) 0.333333 0.555556 0.111111;
   (1, 1, 0, 1, 1, 1) 0.174419 0.802326 0.0232558;
   (2, 1, 0, 1, 1, 1) 0.12 0.866667 0.0133333;
   (0, 2, 0, 1, 1, 1) 0.2 0.4 0.4;
   (1, 2, 0, 1, 1, 1) 0.3 0.6 0.1;
   (2, 2, 0, 1, 1, 1) 0.176471 0.764706 0.0588235;
   (0, 0, 1, 1, 1, 1) 0.142857 0.714286 0.142857;
   (1, 0, 1, 1, 1, 1) 0.0182927 0.957317 0.0243902;
   (2, 0, 1, 1, 1, 1) 0.0188679 0.943396 0.0377358;
   (0, 1, 1, 1, 1, 1) 0.0277778 0.930556 0.0416667;
   (1, 1, 1, 1, 1, 1) 0.00213868 0.979007 0.0188541;
   (2, 1, 1, 1, 1, 1) 0.00254578 0.989242 0.0082122;
   (0, 2, 1, 1, 1, 1) 0.0909091 0.818182 0.0909091;
   (1, 2, 1, 1, 1, 1) 0.00378072 0.977316 0.0189036;
   (2, 2, 1, 1, 1, 1) 0.00227531 0.974972 0.0227531;
   (0, 0, 2, 1, 1, 1) 0.25 0.25 0.5;
   (1, 0, 2, 1, 1, 1) 0.0909091 0.863636 0.0454545;
   (2, 0, 2, 1, 1, 1) 0.1 0.8 0.1;
   (0, 1, 2, 1, 1, 1) 0.142857 0.714286 0.142857;
   (1, 1, 2, 1, 1, 1) 0.00285919 0.984989 0.0121515;
   (2, 1, 2, 1, 1, 1) 0.0106762 0.978648 0.0106762;
   (0, 2, 2, 1, 1, 1) 0.2 0.6 0.2;
   (1, 2, 2, 1, 1, 1) 0.0111111 0.888889 0.1;
   (2, 2, 2, 1, 1, 1) 0.04 0.92 0.04;
   (0, 0, 0, 2, 1, 1) 0.333333 0.333333 0.333333;
   (1, 0, 0, 2, 1, 1) 0.2 0.6 0.2;
   (2, 0, 0, 2, 1, 1) 0.25 0.5 0.25;
   (0, 1, 0, 2, 1, 1) 0.25 0.5 0.25;
   (1, 1, 0, 2, 1, 1) 0.333333 0.5 0.166667;
   (2, 1, 0, 2, 1, 1) 0.333333 0.5 0.166667;
   (0, 2, 0, 2, 1, 1) 0.333333 0.333333 0.333333;
   (1, 2, 0, 2, 1, 1) 0.333333 0.333333 0.333333;
   (2, 2, 0, 2, 1, 1) 0.333333 0.333333 0.333333;
   (0, 0, 1, 2, 1, 1) 0.333333 0.333333 0.333333;
   (1, 0, 1, 2, 1, 1) 0.0294118 0.941176 0.0294118;
   (2, 0, 1, 2, 1, 1) 0.0588235 0.882353 0.0588235;
   (0, 1, 1, 2, 1, 1) 0.0714286 0.857143 0.0714286;
   (1, 1, 1, 2, 1, 1) 0.00243309 0.986212 0.0113544;
   (2, 1, 1, 2, 1, 1) 0.00290698 0.976744 0.0203488;
   (0, 2, 1, 2, 1, 1) 0.333333 0.333333 0.333333;
   (1, 2, 1, 2, 1, 1) 0.0263158 0.894737 0.0789474;
   (2, 2, 1, 2, 1, 1) 0.04 0.84 0.12;
   (0, 0, 2, 2, 1, 1) 0.333333 0.333333 0.333333;
   (1, 0, 2, 2, 1, 1) 0.5 0.25 0.25;
   (2, 0, 2, 2, 1, 1) 0.25 0.5 0.25;
   (0, 1, 2, 2, 1, 1) 0.25 0.5 0.25;
   (1, 1, 2, 2, 1, 1) 0.0277778 0.916667 0.0555556;
   (2, 1, 2, 2, 1, 1) 0.0526316 0.894737 0.0526316;
   (0, 2, 2, 2, 1, 1) 0.333333 0.333333 0.333333;
   (1, 2, 2, 2, 1, 1) 0.125 0.625 0.25;
   (2, 2, 2, 2, 1, 1) 0.111111 0.555556 0.333333;
   (0, 0, 0, 0, 2, 1) 0.333333 0.333333 0.333333;
   (1, 0, 0, 0, 2, 1) 0.333333 0.333333 0.333333;
   (2, 0, 0, 0, 2, 1) 0.333333 0.333333 0.333333;
   (0, 1, 0, 0, 2, 1) 0.333333 0.333333 0.333333;
   (1, 1, 0, 0, 2, 1) 0.333333 0.333333 0.333333;
   (2, 1, 0, 0, 2, 1) 0.333333 0.333333 0.333333;
   (0, 2, 0, 0, 2, 1) 0.333333 0.333333 0.333333;
   (1, 2, 0, 0, 2, 1) 0.333333 0.333333 0.333333;
   (2, 2, 0, 0, 2, 1) 0.333333 0.333333 0.333333;
   (0, 0, 1, 0, 2, 1) 0.333333 0.333333 0.333333;
   (1, 0, 1, 0, 2, 1) 0.333333 0.333333 0.333333;
   (2, 0, 1, 0, 2, 1) 0.333333 0.333333 0.333333;
   (0, 1, 1, 0, 2, 1) 0.333333 0.333333 0.333333;
   (1, 1, 1, 0, 2, 1) 0.333333 0.333333 0.333333;
   (2, 1, 1, 0, 2, 1) 0.25 0.5 0.25;
   (0, 2, 1, 0, 2, 1) 0.333333 0.333333 0.333333;
   (1, 2, 1, 0, 2, 1) 0.333333 0.333333 0.333333;
   (2, 2, 1, 0, 2, 1) 0.333333 0.333333 0.333333;
   (0, 0, 2, 0, 2, 1) 0.333333 0.333333 0.333333;
   (1, 0, 2, 0, 2, 1) 0.333333 0.333333 0.333333;
   (2, 0, 2, 0, 2, 1) 0.333333 0.333333 0.333333;
   (0, 1, 2, 0, 2, 1) 0.333333 0.333333 0.333333;
   (1, 1, 2, 0, 2, 1) 0.333333 0.333333 0.333333;
   (2, 1, 2, 0, 2, 1) 0.333333 0.333333 0.333333;
   (0, 2, 2, 0, 2, 1) 0.333333 0.333333 0.333333;
   (1, 2, 2, 0, 2, 1) 0.333333 0.333333 0.333333;
   (2, 2, 2, 0, 2, 1) 0.333333 0.333333 0.333333;
   (0, 0, 0, 1, 2, 1) 0.333333 0.333333 0.333333;
   (1, 0, 0, 1, 2, 1) 0.333333 0.333333 0.333333;
   (2, 0, 0, 1, 2, 1) 0.333333 0.333333 0.333333;
   (0, 1, 0, 1, 2, 1) 0.333333 0.333333 0.333333;
   (1, 1, 0, 1, 2, 1) 0.25 0.5 0.25;
   (2, 1, 0, 1, 2, 1) 0.333333 0.333333 0.333333;
   (0, 2, 0, 1, 2, 1) 0.333333 0.333333 0.333333;
   (1, 2, 0, 1, 2, 1) 0.333333 0.333333 0.333333;
   (2, 2, 0, 1, 2, 1) 0.333333 0.333333 0.333333;
   (0, 0, 1, 1, 2, 1) 0.333333 0.333333 0.333333;
   (1, 0, 1, 1, 2, 1) 0.25 0.5 0.25;
   (2, 0, 1, 1, 2, 1) 0.333333 0.333333 0.333333;
   (0, 1, 1, 1, 2, 1) 0.25 0.5 0.25;
   (1, 1, 1, 1, 2, 1) 0.0232558 0.953488 0.0232558;
   (2, 1, 1, 1, 2, 1) 0.03125 0.90625 0.0625;
   (0, 2, 1, 1, 2, 1) 0.333333 0.333333 0.333333;
   (1, 2, 1, 1, 2, 1) 0.142857 0.714286 0.142857;
   (2, 2, 1, 1, 2, 1) 0.2 0.6 0.2;
   (0, 0, 2, 1, 2, 1) 0.333333 0.333333 0.333333;
   (1, 0, 2, 1, 2, 1) 0.333333 0.333333 0.333333;
   (2, 0, 2, 1, 2, 1) 0.25 0.5 0.25;
   (0, 1, 2, 1, 2, 1) 0.333333 0.333333 0.333333;
   (1, 1, 2, 1, 2, 1) 0.111111 0.777778 0.111111;
   (2, 1, 2, 1, 2, 1) 0.2 0.2 0.6;
   (0, 2, 2, 1, 2, 1) 0.333333 0.333333 0.333333;
   (1, 2, 2, 1, 2, 1) 0.333333 0.333333 0.333333;
   (2, 2, 2, 1, 2, 1) 0.25 0.5 0.25;
   (0, 0, 0, 2, 2, 1) 0.333333 0.333333 0.333333;
   (1, 0, 0, 2, 2, 1) 0.333333 0.333333 0.333333;
   (2, 0, 0, 2, 2, 1) 0.333333 0.333333 0.333333;
   (0, 1, 0, 2, 2, 1) 0.333333 0.333333 0.333333;
   (1, 1, 0, 2, 2, 1) 0.333333 0.333333 0.333333;
   (2, 1, 0, 2, 2, 1) 0.333333 0.333333 0.333333;
   (0, 2, 0, 2, 2, 1) 0.333333 0.333333 0.333333;
   (1, 2, 0, 2, 2, 1) 0.333333 0.333333 0.333333;
   (2, 2, 0, 2, 2, 1) 0.333333 0.333333 0.333333;
   (0, 0, 1, 2, 2, 1) 0.333333 0.333333 0.333333;
   (1, 0, 1, 2, 2, 1) 0.25 0.5 0.25;
   (2, 0, 1, 2, 2, 1) 0.333333 0.333333 0.333333;
   (0, 1, 1, 2, 2, 1) 0.333333 0.333333 0.333333;
   (1, 1, 1, 2, 2, 1) 0.111111 0.777778 0.111111;
   (2, 1, 1, 2, 2, 1) 0.25 0.5 0.25;
   (0, 2, 1, 2, 2, 1) 0.333333 0.333333 0.333333;
   (1, 2, 1, 2, 2, 1) 0.25 0.5 0.25;
   (2, 2, 1, 2, 2, 1) 0.333333 0.333333 0.333333;
   (0, 0, 2, 2, 2, 1) 0.333333 0.333333 0.333333;
   (1, 0, 2, 2, 2, 1) 0.333333 0.333333 0.333333;
   (2, 0, 2, 2, 2, 1) 0.333333 0.333333 0.333333;
   (0, 1, 2, 2, 2, 1) 0.333333 0.333333 0.333333;
   (1, 1, 2, 2, 2, 1) 0.333333 0.333333 0.333333;
   (2, 1, 2, 2, 2, 1) 0.333333 0.333333 0.333333;
   (0, 2, 2, 2, 2, 1) 0.333333 0.333333 0.333333;
   (1, 2, 2, 2, 2, 1) 0.333333 0.333333 0.333333;
   (2, 2, 2, 2, 2, 1) 0.333333 0.333333 0.333333;
   (0, 0, 0, 0, 0, 2) 0.948598 0.00934579 0.0420561;
   (1, 0, 0, 0, 0, 2) 0.5 0.25 0.25;
   (2, 0, 0, 0, 0, 2) 0.980392 0.00980392 0.00980392;
   (0, 1, 0, 0, 0, 2) 0.333333 0.333333 0.333333;
   (1, 1, 0, 0, 0, 2) 0.25 0.25 0.5;
   (2, 1, 0, 0, 0, 2) 0.333333 0.333333 0.333333;
   (0, 2, 0, 0, 0, 2) 0.833333 0.0416667 0.125;
   (1, 2, 0, 0, 0, 2) 0.333333 0.333333 0.333333;
   (2, 2, 0, 0, 0, 2) 0.857143 0.0357143 0.107143;
   (0, 0, 1, 0, 0, 2) 0.333333 0.333333 0.333333;
   (1, 0, 1, 0, 0, 2) 0.333333 0.333333 0.333333;
   (2, 0, 1, 0, 0, 2) 0.333333 0.333333 0.333333;
   (0, 1, 1, 0, 0, 2) 0.333333 0.333333 0.333333;
   (1, 1, 1, 0, 0, 2) 0.333333 0.333333 0.333333;
   (2, 1, 1, 0, 0, 2) 0.25 0.5 0.25;
   (0, 2, 1, 0, 0, 2) 0.333333 0.333333 0.333333;
   (1, 2, 1, 0, 0, 2) 0.333333 0.333333 0.333333;
   (2, 2, 1, 0, 0, 2) 0.333333 0.333333 0.333333;
   (0, 0, 2, 0, 0, 2) 0.888889 0.0555556 0.0555556;
   (1, 0, 2, 0, 0, 2) 0.333333 0.333333 0.333333;
   (2, 0, 2, 0, 0, 2) 0.727273 0.0909091 0.181818;
   (0, 1, 2, 0, 0, 2) 0.333333 0.333333 0.333333;
   (1, 1, 2, 0, 0, 2) 0.333333 0.333333 0.333333;
   (2, 1, 2, 0, 0, 2) 0.25 0.25 0.5;
   (0, 2, 2, 0, 0, 2) 0.6 0.2 0.2;
   (1, 2, 2, 0, 0, 2) 0.333333 0.333333 0.333333;
   (2, 2, 2, 0, 0, 2) 0.4 0.2 0.4;
   (0, 0, 0, 1, 0, 2) 0.333333 0.333333 0.333333;
   (1, 0, 0, 1, 0, 2) 0.333333 0.333333 0.333333;
   (2, 0, 0, 1, 0, 2) 0.333333 0.333333 0.333333;
   (0, 1, 0, 1, 0, 2) 0.333333 0.333333 0.333333;
   (1, 1, 0, 1, 0, 2) 0.333333 0.333333 0.333333;
   (2, 1, 0, 1, 0, 2) 0.333333 0.333333 0.333333;
   (0, 2, 0, 1, 0, 2) 0.333333 0.333333 0.333333;
   (1, 2, 0, 1, 0, 2) 0.333333 0.333333 0.333333;
   (2, 2, 0, 1, 0, 2) 0.333333 0.333333 0.333333;
   (0, 0, 1, 1, 0, 2) 0.333333 0.333333 0.333333;
   (1, 0, 1, 1, 0, 2) 0.333333 0.333333 0.333333;
   (2, 0, 1, 1, 0, 2) 0.333333 0.333333 0.333333;
   (0, 1, 1, 1, 0, 2) 0.333333 0.333333 0.333333;
   (1, 1, 1, 1, 0, 2) 0.166667 0.666667 0.166667;
   (2, 1, 1, 1, 0, 2) 0.2 0.6 0.2;
   (0, 2, 1, 1, 0, 2) 0.333333 0.333333 0.333333;
   (1, 2, 1, 1, 0, 2) 0.333333 0.333333 0.333333;
   (2, 2, 1, 1, 0, 2) 0.333333 0.333333 0.333333;
   (0, 0, 2, 1, 0, 2) 0.5 0.25 0.25;
   (1, 0, 2, 1, 0, 2) 0.333333 0.333333 0.333333;
   (2, 0, 2, 1, 0, 2) 0.5 0.25 0.25;
   (0, 1, 2, 1, 0, 2) 0.333333 0.333333 0.333333;
   (1, 1, 2, 1, 0, 2) 0.333333 0.333333 0.333333;
   (2, 1, 2, 1, 0, 2) 0.2 0.2 0.6;
   (0, 2, 2, 1, 0, 2) 0.333333 0.333333 0.333333;
   (1, 2, 2, 1, 0, 2) 0.333333 0.333333 0.333333;
   (2, 2, 2, 1, 0, 2) 0.333333 0.333333 0.333333;
   (0, 0, 0, 2, 0, 2) 0.714286 0.142857 0.142857;
   (1, 0, 0, 2, 0, 2) 0.333333 0.333333 0.333333;
   (2, 0, 0, 2, 0, 2) 0.4 0.2 0.4;
   (0, 1, 0, 2, 0, 2) 0.333333 0.333333 0.333333;
   (1, 1, 0, 2, 0, 2) 0.333333 0.333333 0.333333;
   (2, 1, 0, 2, 0, 2) 0.333333 0.333333 0.333333;
   (0, 2, 0, 2, 0, 2) 0.333333 0.333333 0.333333;
   (1, 2, 0, 2, 0, 2) 0.333333 0.333333 0.333333;
   (2, 2, 0, 2, 0, 2) 0.4 0.2 0.4;
   (0, 0, 1, 2, 0, 2) 0.333333 0.333333 0.333333;
   (1, 0, 1, 2, 0, 2) 0.333333 0.333333 0.333333;
   (2, 0, 1, 2, 0, 2) 0.333333 0.333333 0.333333;
   (0, 1, 1, 2, 0, 2) 0.333333 0.333333 0.333333;
   (1, 1, 1, 2, 0, 2) 0.333333 0.333333 0.333333;
   (2, 1, 1, 2, 0, 2) 0.333333 0.333333 0.333333;
   (0, 2, 1, 2, 0, 2) 0.333333 0.333333 0.333333;
   (1, 2, 1, 2, 0, 2) 0.333333 0.333333 0.333333;
   (2, 2, 1, 2, 0, 2) 0.333333 0.333333 0.333333;
   (0, 0, 2, 2, 0, 2) 0.333333 0.333333 0.333333;
   (1, 0, 2, 2, 0, 2) 0.333333 0.333333 0.333333;
   (2, 0, 2, 2, 0, 2) 0.6 0.2 0.2;
   (0, 1, 2, 2, 0, 2) 0.333333 0.333333 0.333333;
   (1, 1, 2, 2, 0, 2) 0.333333 0.333333 0.333333;
   (2, 1, 2, 2, 0, 2) 0.333333 0.333333 0.333333;
   (0, 2, 2, 2, 0, 2) 0.333333 0.333333 0.333333;
   (1, 2, 2, 2, 0, 2) 0.333333 0.333333 0.333333;
   (2, 2, 2, 2, 0, 2) 0.2 0.2 0.6;
   (0, 0, 0, 0, 1, 2) 0.5 0.333333 0.166667;
   (1, 0, 0, 0, 1, 2) 0.333333 0.333333 0.333333;
   (2, 0, 0, 0, 1, 2) 0.333333 0.333333 0.333333;
   (0, 1, 0, 0, 1, 2) 0.333333 0.333333 0.333333;
   (1, 1, 0, 0, 1, 2) 0.25 0.5 0.25;
   (2, 1, 0, 0, 1, 2) 0.333333 0.333333 0.333333;
   (0, 2, 0, 0, 1, 2) 0.333333 0.333333 0.333333;
   (1, 2, 0, 0, 1, 2) 0.333333 0.333333 0.333333;
   (2, 2, 0, 0, 1, 2) 0.5 0.25 0.25;
   (0, 0, 1, 0, 1, 2) 0.333333 0.333333 0.333333;
   (1, 0, 1, 0, 1, 2) 0.333333 0.333333 0.333333;
   (2, 0, 1, 0, 1, 2) 0.333333 0.333333 0.333333;
   (0, 1, 1, 0, 1, 2) 0.333333 0.333333 0.333333;
   (1, 1, 1, 0, 1, 2) 0.2 0.6 0.2;
   (2, 1, 1, 0, 1, 2) 0.142857 0.714286 0.142857;
   (0, 2, 1, 0, 1, 2) 0.333333 0.333333 0.333333;
   (1, 2, 1, 0, 1, 2) 0.333333 0.333333 0.333333;
   (2, 2, 1, 0, 1, 2) 0.2 0.6 0.2;
   (0, 0, 2, 0, 1, 2) 0.333333 0.333333 0.333333;
   (1, 0, 2, 0, 1, 2) 0.333333 0.333333 0.333333;
   (2, 0, 2, 0, 1, 2) 0.333333 0.333333 0.333333;
   (0, 1, 2, 0, 1, 2) 0.333333 0.333333 0.333333;
   (1, 1, 2, 0, 1, 2) 0.333333 0.333333 0.333333;
   (2, 1, 2, 0, 1, 2) 0.333333 0.333333 0.333333;
   (0, 2, 2, 0, 1, 2) 0.333333 0.333333 0.333333;
   (1, 2, 2, 0, 1, 2) 0.333333 0.333333 0.333333;
   (2, 2, 2, 0, 1, 2) 0.333333 0.333333 0.333333;
   (0, 0, 0, 1, 1, 2) 0.333333 0.333333 0.333333;
   (1, 0, 0, 1, 1, 2) 0.333333 0.333333 0.333333;
   (2, 0, 0, 1, 1, 2) 0.333333 0.333333 0.333333;
   (0, 1, 0, 1, 1, 2) 0.333333 0.333333 0.333333;
   (1, 1, 0, 1, 1, 2) 0.333333 0.333333 0.333333;
   (2, 1, 0, 1, 1, 2) 0.333333 0.333333 0.333333;
   (0, 2, 0, 1, 1, 2) 0.333333 0.333333 0.333333;
   (1, 2, 0, 1, 1, 2) 0.333333 0.333333 0.333333;
   (2, 2, 0, 1, 1, 2) 0.333333 0.333333 0.333333;
   (0, 0, 1, 1, 1, 2) 0.333333 0.333333 0.333333;
   (1, 0, 1, 1, 1, 2) 0.166667 0.666667 0.166667;
   (2, 0, 1, 1, 1, 2) 0.2 0.6 0.2;
   (0, 1, 1, 1, 1, 2) 0.333333 0.333333 0.333333;
   (1, 1, 1, 1, 1, 2) 0.00696864 0.958188 0.0348432;
   (2, 1, 1, 1, 1, 2) 0.025 0.94375 0.03125;
   (0, 2, 1, 1, 1, 2) 0.333333 0.333333 0.333333;
   (1, 2, 1, 1, 1, 2) 0.025 0.925 0.05;
   (2, 2, 1, 1, 1, 2) 0.03125 0.8125 0.15625;
   (0, 0, 2, 1, 1, 2) 0.333333 0.333333 0.333333;
   (1, 0, 2, 1, 1, 2) 0.333333 0.333333 0.333333;
   (2, 0, 2, 1, 1, 2) 0.25 0.25 0.5;
   (0, 1, 2, 1, 1, 2) 0.333333 0.333333 0.333333;
   (1, 1, 2, 1, 1, 2) 0.1 0.8 0.1;
   (2, 1, 2, 1, 1, 2) 0.0714286 0.785714 0.142857;
   (0, 2, 2, 1, 1, 2) 0.333333 0.333333 0.333333;
   (1, 2, 2, 1, 1, 2) 0.166667 0.5 0.333333;
   (2, 2, 2, 1, 1, 2) 0.2 0.6 0.2;
   (0, 0, 0, 2, 1, 2) 0.333333 0.333333 0.333333;
   (1, 0, 0, 2, 1, 2) 0.333333 0.333333 0.333333;
   (2, 0, 0, 2, 1, 2) 0.333333 0.333333 0.333333;
   (0, 1, 0, 2, 1, 2) 0.333333 0.333333 0.333333;
   (1, 1, 0, 2, 1, 2) 0.333333 0.333333 0.333333;
   (2, 1, 0, 2, 1, 2) 0.333333 0.333333 0.333333;
   (0, 2, 0, 2, 1, 2) 0.333333 0.333333 0.333333;
   (1, 2, 0, 2, 1, 2) 0.333333 0.333333 0.333333;
   (2, 2, 0, 2, 1, 2) 0.333333 0.333333 0.333333;
   (0, 0, 1, 2, 1, 2) 0.333333 0.333333 0.333333;
   (1, 0, 1, 2, 1, 2) 0.333333 0.333333 0.333333;
   (2, 0, 1, 2, 1, 2) 0.333333 0.333333 0.333333;
   (0, 1, 1, 2, 1, 2) 0.5 0.25 0.25;
   (1, 1, 1, 2, 1, 2) 0.0909091 0.727273 0.181818;
   (2, 1, 1, 2, 1, 2) 0.0909091 0.818182 0.0909091;
   (0, 2, 1, 2, 1, 2) 0.333333 0.333333 0.333333;
   (1, 2, 1, 2, 1, 2) 0.25 0.5 0.25;
   (2, 2, 1, 2, 1, 2) 0.2 0.6 0.2;
   (0, 0, 2, 2, 1, 2) 0.333333 0.333333 0.333333;
   (1, 0, 2, 2, 1, 2) 0.333333 0.333333 0.333333;
   (2, 0, 2, 2, 1, 2) 0.333333 0.333333 0.333333;
   (0, 1, 2, 2, 1, 2) 0.333333 0.333333 0.333333;
   (1, 1, 2, 2, 1, 2) 0.333333 0.333333 0.333333;
   (2, 1, 2, 2, 1, 2) 0.333333 0.333333 0.333333;
   (0, 2, 2, 2, 1, 2) 0.333333 0.333333 0.333333;
   (1, 2, 2, 2, 1, 2) 0.333333 0.333333 0.333333;
   (2, 2, 2, 2, 1, 2) 0.166667 0.166667 0.666667;
   (0, 0, 0, 0, 2, 2) 0.5 0.25 0.25;
   (1, 0, 0, 0, 2, 2) 0.333333 0.333333 0.333333;
   (2, 0, 0, 0, 2, 2) 0.333333 0.333333 0.333333;
   (0, 1, 0, 0, 2, 2) 0.333333 0.333333 0.333333;
   (1, 1, 0, 0, 2, 2) 0.333333 0.333333 0.333333;
   (2, 1, 0, 0, 2, 2) 0.333333 0.333333 0.333333;
   (0, 2, 0, 0, 2, 2) 0.333333 0.333333 0.333333;
   (1, 2, 0, 0, 2, 2) 0.333333 0.333333 0.333333;
   (2, 2, 0, 0, 2, 2) 0.333333 0.333333 0.333333;
   (0, 0, 1, 0, 2, 2) 0.333333 0.333333 0.333333;
   (1, 0, 1, 0, 2, 2) 0.333333 0.333333 0.333333;
   (2, 0, 1, 0, 2, 2) 0.333333 0.333333 0.333333;
   (0, 1, 1, 0, 2, 2) 0.333333 0.333333 0.333333;
   (1, 1, 1, 0, 2, 2) 0.333333 0.333333 0.333333;
   (2, 1, 1, 0, 2, 2) 0.333333 0.333333 0.333333;
   (0, 2, 1, 0, 2, 2) 0.333333 0.333333 0.333333;
   (1, 2, 1, 0, 2, 2) 0.333333 0.333333 0.333333;
   (2, 2, 1, 0, 2, 2) 0.333333 0.333333 0.333333;
   (0, 0, 2, 0, 2, 2) 0.333333 0.333333 0.333333;
   (1, 0, 2, 0, 2, 2) 0.333333 0.333333 0.333333;
   (2, 0, 2, 0, 2, 2) 0.333333 0.333333 0.333333;
   (0, 1, 2, 0, 2, 2) 0.333333 0.333333 0.333333;
   (1, 1, 2, 0, 2, 2) 0.333333 0.333333 0.333333;
   (2, 1, 2, 0, 2, 2) 0.333333 0.333333 0.333333;
   (0, 2, 2, 0, 2, 2) 0.333333 0.333333 0.333333;
   (1, 2, 2, 0, 2, 2) 0.333333 0.333333 0.333333;
   (2, 2, 2, 0, 2, 2) 0.333333 0.333333 0.333333;
   (0, 0, 0, 1, 2, 2) 0.333333 0.333333 0.333333;
   (1, 0, 0, 1, 2, 2) 0.333333 0.333333 0.333333;
   (2, 0, 0, 1, 2, 2) 0.333333 0.333333 0.333333;
   (0, 1, 0, 1, 2, 2) 0.333333 0.333333 0.333333;
   (1, 1, 0, 1, 2, 2) 0.333333 0.333333 0.333333;
   (2, 1, 0, 1, 2, 2) 0.333333 0.333333 0.333333;
   (0, 2, 0, 1, 2, 2) 0.333333 0.333333 0.333333;
   (1, 2, 0, 1, 2, 2) 0.333333 0.333333 0.333333;
   (2, 2, 0, 1, 2, 2) 0.333333 0.333333 0.333333;
   (0, 0, 1, 1, 2, 2) 0.333333 0.333333 0.333333;
   (1, 0, 1, 1, 2, 2) 0.333333 0.333333 0.333333;
   (2, 0, 1, 1, 2, 2) 0.333333 0.333333 0.333333;
   (0, 1, 1, 1, 2, 2) 0.333333 0.333333 0.333333;
   (1, 1, 1, 1, 2, 2) 0.125 0.625 0.25;
   (2, 1, 1, 1, 2, 2) 0.1 0.5 0.4;
   (0, 2, 1, 1, 2, 2) 0.333333 0.333333 0.333333;
   (1, 2, 1, 1, 2, 2) 0.333333 0.333333 0.333333;
   (2, 2, 1, 1, 2, 2) 0.333333 0.333333 0.333333;
   (0, 0, 2, 1, 2, 2) 0.333333 0.333333 0.333333;
   (1, 0, 2, 1, 2, 2) 0.333333 0.333333 0.333333;
   (2, 0, 2, 1, 2, 2) 0.333333 0.333333 0.333333;
   (0, 1, 2, 1, 2, 2) 0.333333 0.333333 0.333333;
   (1, 1, 2, 1, 2, 2) 0.333333 0.333333 0.333333;
   (2, 1, 2, 1, 2, 2) 0.2 0.2 0.6;
   (0, 2, 2, 1, 2, 2) 0.333333 0.333333 0.333333;
   (1, 2, 2, 1, 2, 2) 0.333333 0.333333 0.333333;
   (2, 2, 2, 1, 2, 2) 0.333333 0.333333 0.333333;
   (0, 0, 0, 2, 2, 2) 0.333333 0.333333 0.333333;
   (1, 0, 0, 2, 2, 2) 0.333333 0.333333 0.333333;
   (2, 0, 0, 2, 2, 2) 0.333333 0.333333 0.333333;
   (0, 1, 0, 2, 2, 2) 0.333333 0.333333 0.333333;
   (1, 1, 0, 2, 2, 2) 0.333333 0.333333 0.333333;
   (2, 1, 0, 2, 2, 2) 0.333333 0.333333 0.333333;
   (0, 2, 0, 2, 2, 2) 0.333333 0.333333 0.333333;
   (1, 2, 0, 2, 2, 2) 0.333333 0.333333 0.333333;
   (2, 2, 0, 2, 2, 2) 0.333333 0.333333 0.333333;
   (0, 0, 1, 2, 2, 2) 0.333333 0.333333 0.333333;
   (1, 0, 1, 2, 2, 2) 0.333333 0.333333 0.333333;
   (2, 0, 1, 2, 2, 2) 0.333333 0.333333 0.333333;
   (0, 1, 1, 2, 2, 2) 0.333333 0.333333 0.333333;
   (1, 1, 1, 2, 2, 2) 0.333333 0.333333 0.333333;
   (2, 1, 1, 2, 2, 2) 0.142857 0.285714 0.571429;
   (0, 2, 1, 2, 2, 2) 0.25 0.5 0.25;
   (1, 2, 1, 2, 2, 2) 0.333333 0.333333 0.333333;
   (2, 2, 1, 2, 2, 2) 0.333333 0.333333 0.333333;
   (0, 0, 2, 2, 2, 2) 0.333333 0.333333 0.333333;
   (1, 0, 2, 2, 2, 2) 0.333333 0.333333 0.333333;
   (2, 0, 2, 2, 2, 2) 0.333333 0.333333 0.333333;
   (0, 1, 2, 2, 2, 2) 0.333333 0.333333 0.333333;
   (1, 1, 2, 2, 2, 2) 0.333333 0.333333 0.333333;
   (2, 1, 2, 2, 2, 2) 0.25 0.25 0.5;
   (0, 2, 2, 2, 2, 2) 0.333333 0.333333 0.333333;
   (1, 2, 2, 2, 2, 2) 0.333333 0.333333 0.333333;
   (2, 2, 2, 2, 2, 2) 0.0769231 0.0769231 0.846154;
}
probability (doenca_hepatica_pre | sindrome_de_down_pre, imunodepressao_pre) {
   (0, 0) 0.999512 4.34955e-05 0.000444897;
   (1, 0) 0.423313 0.560327 0.0163599;
   (2, 0) 0.954023 0.0229885 0.0229885;
   (0, 1) 0.251163 0.711628 0.0372093;
   (1, 1) 0.00312175 0.983182 0.0136963;
   (2, 1) 0.0194805 0.87013 0.11039;
   (0, 2) 0.989769 0.00186012 0.00837054;
   (1, 2) 0.0159439 0.926658 0.057398;
   (2, 2) 0.08 0.32 0.6;
}
probability (doenca_neurologica_pre) {
   default 0.952794 0.0416623 0.00554397;
}
probability (doenca_renal_pre | diabetes_pre, asma_pre, imunodepressao_pre) {
   (0, 0, 0) 0.996707 1.69901e-05 0.00327648;
   (1, 0, 0) 0.839286 0.077381 0.0833333;
   (2, 0, 0) 0.965399 0.00042261 0.0341786;
   (0, 1, 0) 0.5 0.227273 0.272727;
   (1, 1, 0) 0.11236 0.82397 0.0636704;
   (2, 1, 0) 0.183962 0.70283 0.113208;
   (0, 2, 0) 0.986981 0.00325468 0.00976404;
   (1, 2, 0) 0.375 0.541667 0.0833333;
   (2, 2, 0) 0.947368 0.0116959 0.0409357;
   (0, 0, 1) 0.439024 0.487805 0.0731707;
   (1, 0, 1) 0.104478 0.835821 0.0597015;
   (2, 0, 1) 0.139394 0.721212 0.139394;
   (0, 1, 1) 0.0673077 0.846154 0.0865385;
   (1, 1, 1) 0.00867516 0.939224 0.0521011;
   (2, 1, 1) 0.0124629 0.924063 0.0634737;
   (0, 2, 1) 0.0625 0.875 0.0625;
   (1, 2, 1) 0.024812 0.945865 0.0293233;
   (2, 2, 1) 0.0364964 0.895377 0.0681265;
   (0, 0, 2) 0.957278 0.000880863 0.041841;
   (1, 0, 2) 0.277778 0.444444 0.277778;
   (2, 0, 2) 0.86087 0.00372671 0.135404;
   (0, 1, 2) 0.2 0.4 0.4;
   (1, 1, 2) 0.00912409 0.843978 0.146898;
   (2, 1, 2) 0.0117925 0.686321 0.301887;
   (0, 2, 2) 0.814815 0.0740741 0.111111;
   (1, 2, 2) 0.0571429 0.828571 0.114286;
   (2, 2, 2) 0.16129 0.225806 0.612903;
}
probability (imunodepressao_pre | pneumopatia_pre) {
   (0) 0.993206 0.000243715 0.00655062;
   (1) 0.0101708 0.94923 0.040599;
   (2) 0.488157 0.459024 0.0528186;
}
probability (obesidade_pre | doenca_hematologica_pre, diabetes_pre, outros_fatores_de_risco_pre) {
   (0, 0, 0) 0.997491 3.95505e-05 0.00246927;
   (1, 0, 0) 0.340909 0.386364 0.272727;
   (2, 0, 0) 0.956731 0.00961538 0.0336538;
   (0, 1, 0) 0.4375 0.325 0.2375;
   (1, 1, 0) 0.108162 0.684804 0.207034;
   (2, 1, 0) 0.314286 0.642857 0.0428571;
   (0, 2, 0) 0.974832 0.00171392 0.0234537;
   (1, 2, 0) 0.12844 0.743119 0.12844;
   (2, 2, 0) 0.616071 0.25 0.133929;
   (0, 0, 1) 0.669355 0.0322581 0.298387;
   (1, 0, 1) 0.0833333 0.65 0.266667;
   (2, 0, 1) 0.714286 0.142857 0.142857;
   (0, 1, 1) 0.148936 0.531915 0.319149;
   (1, 1, 1) 0.00868332 0.838472 0.152844;
   (2, 1, 1) 0.0483871 0.897849 0.0537634;
   (0, 2, 1) 0.574803 0.19685 0.228346;
   (1, 2, 1) 0.0180917 0.888338 0.0935699;
   (2, 2, 1) 0.0493827 0.802469 0.148148;
   (0, 0, 2) 0.953074 0.00382727 0.0430984;
   (1, 0, 2) 0.212121 0.651515 0.136364;
   (2, 0, 2) 0.932584 0.0337079 0.0337079;
   (0, 1, 2) 0.23125 0.68125 0.0875;
   (1, 1, 2) 0.0224305 0.89564 0.0819292;
   (2, 1, 2) 0.0714286 0.851648 0.0769231;
   (0, 2, 2) 0.925979 0.0131673 0.0608541;
   (1, 2, 2) 0.0307197 0.852417 0.116864;
   (2, 2, 2) 0.317308 0.538462 0.144231;
}
probability (outros_fatores_de_risco_pre | pneumopatia_pre, diabetes_pre, idade_pre, asma_pre, imunodepressao_pre) {
   (0, 0, 0, 0, 0) 0.997915 2.87181e-05 0.00205622;
   (1, 0, 0, 0, 0) 0.25 0.25 0.5;
   (2, 0, 0, 0, 0) 0.705882 0.0294118 0.264706;
   (0, 1, 0, 0, 0) 0.333333 0.333333 0.333333;
   (1, 1, 0, 0, 0) 0.333333 0.333333 0.333333;
   (2, 1, 0, 0, 0) 0.333333 0.333333 0.333333;
   (0, 2, 0, 0, 0) 0.961821 0.00146843 0.0367107;
   (1, 2, 0, 0, 0) 0.333333 0.333333 0.333333;
   (2, 2, 0, 0, 0) 0.25 0.25 0.5;
   (0, 0, 1, 0, 0) 0.996482 6.71858e-05 0.00345091;
   (1, 0, 1, 0, 0) 0.5 0.25 0.25;
   (2, 0, 1, 0, 0) 0.75 0.0357143 0.214286;
   (0, 1, 1, 0, 0) 0.333333 0.333333 0.333333;
   (1, 1, 1, 0, 0) 0.333333 0.333333 0.333333;
   (2, 1, 1, 0, 0) 0.333333 0.333333 0.333333;
   (0, 2, 1, 0, 0) 0.95649 0.00217549 0.0413343;
   (1, 2, 1, 0, 0) 0.333333 0.333333 0.333333;
   (2, 2, 1, 0, 0) 0.25 0.25 0.5;
   (0, 0, 2, 0, 0) 0.993863 6.58584e-05 0.00607095;
   (1, 0, 2, 0, 0) 0.2 0.2 0.6;
   (2, 0, 2, 0, 0) 0.803279 0.0163934 0.180328;
   (0, 1, 2, 0, 0) 0.333333 0.111111 0.555556;
   (1, 1, 2, 0, 0) 0.333333 0.333333 0.333333;
   (2, 1, 2, 0, 0) 0.333333 0.333333 0.333333;
   (0, 2, 2, 0, 0) 0.941176 0.00223028 0.0565933;
   (1, 2, 2, 0, 0) 0.333333 0.333333 0.333333;
   (2, 2, 2, 0, 0) 0.444444 0.111111 0.444444;
   (0, 0, 3, 0, 0) 0.985784 0.000135909 0.0140802;
   (1, 0, 3, 0, 0) 0.6 0.2 0.2;
   (2, 0, 3, 0, 0) 0.772727 0.0227273 0.204545;
   (0, 1, 3, 0, 0) 0.55 0.05 0.4;
   (1, 1, 3, 0, 0) 0.25 0.25 0.5;
   (2, 1, 3, 0, 0) 0.25 0.25 0.5;
   (0, 2, 3, 0, 0) 0.915728 0.00166875 0.0826033;
   (1, 2, 3, 0, 0) 0.2 0.2 0.6;
   (2, 2, 3, 0, 0) 0.62963 0.037037 0.333333;
   (0, 0, 4, 0, 0) 0.939219 0.000491976 0.0602895;
   (1, 0, 4, 0, 0) 0.444444 0.111111 0.444444;
   (2, 0, 4, 0, 0) 0.654891 0.00815217 0.336957;
   (0, 1, 4, 0, 0) 0.31405 0.00826446 0.677686;
   (1, 1, 4, 0, 0) 0.3 0.3 0.4;
   (2, 1, 4, 0, 0) 0.222222 0.0555556 0.722222;
   (0, 2, 4, 0, 0) 0.815946 0.00258211 0.181472;
   (1, 2, 4, 0, 0) 0.333333 0.222222 0.444444;
   (2, 2, 4, 0, 0) 0.624498 0.00803213 0.36747;
   (0, 0, 0, 1, 0) 0.333333 0.333333 0.333333;
   (1, 0, 0, 1, 0) 0.333333 0.333333 0.333333;
   (2, 0, 0, 1, 0) 0.333333 0.333333 0.333333;
   (0, 1, 0, 1, 0) 0.333333 0.333333 0.333333;
   (1, 1, 0, 1, 0) 0.285714 0.428571 0.285714;
   (2, 1, 0, 1, 0) 0.333333 0.333333 0.333333;
   (0, 2, 0, 1, 0) 0.333333 0.333333 0.333333;
   (1, 2, 0, 1, 0) 0.2 0.4 0.4;
   (2, 2, 0, 1, 0) 0.333333 0.333333 0.333333;
   (0, 0, 1, 1, 0) 0.5 0.25 0.25;
   (1, 0, 1, 1, 0) 0.333333 0.333333 0.333333;
   (2, 0, 1, 1, 0) 0.333333 0.333333 0.333333;
   (0, 1, 1, 1, 0) 0.285714 0.142857 0.571429;
   (1, 1, 1, 1, 0) 0.153846 0.230769 0.615385;
   (2, 1, 1, 1, 0) 0.333333 0.333333 0.333333;
   (0, 2, 1, 1, 0) 0.6 0.2 0.2;
   (1, 2, 1, 1, 0) 0.25 0.5 0.25;
   (2, 2, 1, 1, 0) 0.333333 0.333333 0.333333;
   (0, 0, 2, 1, 0) 0.333333 0.333333 0.333333;
   (1, 0, 2, 1, 0) 0.333333 0.333333 0.333333;
   (2, 0, 2, 1, 0) 0.333333 0.333333 0.333333;
   (0, 1, 2, 1, 0) 0.555556 0.333333 0.111111;
   (1, 1, 2, 1, 0) 0.142857 0.428571 0.428571;
   (2, 1, 2, 1, 0) 0.333333 0.333333 0.333333;
   (0, 2, 2, 1, 0) 0.428571 0.285714 0.285714;
   (1, 2, 2, 1, 0) 0.2 0.4 0.4;
   (2, 2, 2, 1, 0) 0.333333 0.333333 0.333333;
   (0, 0, 3, 1, 0) 0.6 0.2 0.2;
   (1, 0, 3, 1, 0) 0.25 0.25 0.5;
   (2, 0, 3, 1, 0) 0.333333 0.333333 0.333333;
   (0, 1, 3, 1, 0) 0.421053 0.157895 0.421053;
   (1, 1, 3, 1, 0) 0.181818 0.121212 0.69697;
   (2, 1, 3, 1, 0) 0.166667 0.333333 0.5;
   (0, 2, 3, 1, 0) 0.5 0.25 0.25;
   (1, 2, 3, 1, 0) 0.192308 0.615385 0.192308;
   (2, 2, 3, 1, 0) 0.333333 0.333333 0.333333;
   (0, 0, 4, 1, 0) 0.636364 0.0909091 0.272727;
   (1, 0, 4, 1, 0) 0.333333 0.333333 0.333333;
   (2, 0, 4, 1, 0) 0.428571 0.142857 0.428571;
   (0, 1, 4, 1, 0) 0.515152 0.121212 0.363636;
   (1, 1, 4, 1, 0) 0.195313 0.328125 0.476563;
   (2, 1, 4, 1, 0) 0.166667 0.222222 0.611111;
   (0, 2, 4, 1, 0) 0.54 0.1 0.36;
   (1, 2, 4, 1, 0) 0.285714 0.336735 0.377551;
   (2, 2, 4, 1, 0) 0.421053 0.210526 0.368421;
   (0, 0, 0, 2, 0) 0.8875 0.01875 0.09375;
   (1, 0, 0, 2, 0) 0.5 0.25 0.25;
   (2, 0, 0, 2, 0) 0.6 0.2 0.2;
   (0, 1, 0, 2, 0) 0.333333 0.333333 0.333333;
   (1, 1, 0, 2, 0) 0.333333 0.333333 0.333333;
   (2, 1, 0, 2, 0) 0.333333 0.333333 0.333333;
   (0, 2, 0, 2, 0) 0.666667 0.166667 0.166667;
