network "unnamedBN" {
// written by aGrUM 0.22.2
}

variable asma_pre {
   type discrete[3] {0, 1, 2};
}

variable cardiopatia_pre {
   type discrete[3] {0, 1, 2};
}

variable diabetes_pre {
   type discrete[3] {0, 1, 2};
}

variable doenca_hematologica_pre {
   type discrete[3] {0, 1, 2};
}

variable doenca_hepatica_pre {
   type discrete[3] {0, 1, 2};
}

variable doenca_neurologica_pre {
   type discrete[3] {0, 1, 2};
}

variable doenca_renal_pre {
   type discrete[3] {0, 1, 2};
}

variable imunodepressao_pre {
   type discrete[3] {0, 1, 2};
}

variable obesidade_pre {
   type discrete[3] {0, 1, 2};
}

variable outros_fatores_de_risco_pre {
   type discrete[3] {0, 1, 2};
}

variable pneumopatia_pre {
   type discrete[3] {0, 1, 2};
}

variable puerpera_pre {
   type discrete[3] {0, 1, 2};
}

variable sindrome_de_down_pre {
   type discrete[3] {0, 1, 2};
}

variable idade_pre {
   type discrete[5] {0, 1, 2, 3, 4};
}

variable cs_sexo_pre {
   type discrete[2] {0, 1};
}

variable obito_pre {
   type discrete[2] {0, 1};
}

probability (asma_pre | pneumopatia_pre) {
   (0) 0.99779 0.000355056 0.00185446;
   (1) 0.00831577 0.945976 0.0457087;
   (2) 0.480237 0.449231 0.0705325;
}
probability (cardiopatia_pre | doenca_renal_pre, diabetes_pre, idade_pre, doenca_neurologica_pre, outros_fatores_de_risco_pre, obesidade_pre) {
   (0, 0, 0, 0, 0, 0) 0.994441 1.14968e-05 0.00554719;
   (1, 0, 0, 0, 0, 0) 0.333333 0.333333 0.333333;
   (2, 0, 0, 0, 0, 0) 0.889503 0.0110497 0.0994475;
   (0, 1, 0, 0, 0, 0) 0.333333 0.333333 0.333333;
   (1, 1, 0, 0, 0, 0) 0.285714 0.428571 0.285714;
   (2, 1, 0, 0, 0, 0) 0.333333 0.333333 0.333333;
   (0, 2, 0, 0, 0, 0) 0.85997 0.00304414 0.136986;
   (1, 2, 0, 0, 0, 0) 0.333333 0.333333 0.333333;
   (2, 2, 0, 0, 0, 0) 0.5 0.142857 0.357143;
   (0, 0, 1, 0, 0, 0) 0.986205 1.22514e-05 0.0137828;
   (1, 0, 1, 0, 0, 0) 0.428571 0.285714 0.285714;
   (2, 0, 1, 0, 0, 0) 0.85 0.00833333 0.141667;
   (0, 1, 1, 0, 0, 0) 0.333333 0.333333 0.333333;
   (1, 1, 1, 0, 0, 0) 0.333333 0.333333 0.333333;
   (2, 1, 1, 0, 0, 0) 0.333333 0.333333 0.333333;
   (0, 2, 1, 0, 0, 0) 0.833594 0.003125 0.163281;
   (1, 2, 1, 0, 0, 0) 0.333333 0.333333 0.333333;
   (2, 2, 1, 0, 0, 0) 0.657895 0.0526316 0.289474;
   (0, 0, 2, 0, 0, 0) 0.965908 1.20359e-05 0.0340796;
   (1, 0, 2, 0, 0, 0) 0.428571 0.285714 0.285714;
   (2, 0, 2, 0, 0, 0) 0.827493 0.00539084 0.167116;
   (0, 1, 2, 0, 0, 0) 0.25 0.375 0.375;
   (1, 1, 2, 0, 0, 0) 0.333333 0.333333 0.333333;
   (2, 1, 2, 0, 0, 0) 0.333333 0.333333 0.333333;
   (0, 2, 2, 0, 0, 0) 0.735792 0.000906892 0.263301;
   (1, 2, 2, 0, 0, 0) 0.333333 0.333333 0.333333;
   (2, 2, 2, 0, 0, 0) 0.467742 0.0483871 0.483871;
   (0, 0, 3, 0, 0, 0) 0.926163 2.06441e-05 0.0738164;
   (1, 0, 3, 0, 0, 0) 0.285714 0.285714 0.428571;
   (2, 0, 3, 0, 0, 0) 0.763736 0.003663 0.232601;
   (0, 1, 3, 0, 0, 0) 0.2 0.2 0.6;
   (1, 1, 3, 0, 0, 0) 0.333333 0.333333 0.333333;
   (2, 1, 3, 0, 0, 0) 0.333333 0.333333 0.333333;
   (0, 2, 3, 0, 0, 0) 0.621787 0.00104191 0.377171;
   (1, 2, 3, 0, 0, 0) 0.3 0.3 0.4;
   (2, 2, 3, 0, 0, 0) 0.446429 0.0119048 0.541667;
   (0, 0, 4, 0, 0, 0) 0.84729 6.68149e-05 0.152643;
   (1, 0, 4, 0, 0, 0) 0.25 0.375 0.375;
   (2, 0, 4, 0, 0, 0) 0.593521 0.0031348 0.403344;
   (0, 1, 4, 0, 0, 0) 0.12 0.08 0.8;
   (1, 1, 4, 0, 0, 0) 0.2 0.2 0.6;
   (2, 1, 4, 0, 0, 0) 0.2 0.2 0.6;
   (0, 2, 4, 0, 0, 0) 0.46489 0.000577934 0.534532;
   (1, 2, 4, 0, 0, 0) 0.157895 0.263158 0.578947;
   (2, 2, 4, 0, 0, 0) 0.279476 0.00291121 0.717613;
   (0, 0, 0, 1, 0, 0) 0.333333 0.333333 0.333333;
   (1, 0, 0, 1, 0, 0) 0.333333 0.333333 0.333333;
   (2, 0, 0, 1, 0, 0) 0.333333 0.333333 0.333333;
   (0, 1, 0, 1, 0, 0) 0.333333 0.333333 0.333333;
   (1, 1, 0, 1, 0, 0) 0.142857 0.5 0.357143;
   (2, 1, 0, 1, 0, 0) 0.285714 0.428571 0.285714;
   (0, 2, 0, 1, 0, 0) 0.333333 0.333333 0.333333;
   (1, 2, 0, 1, 0, 0) 0.285714 0.428571 0.285714;
   (2, 2, 0, 1, 0, 0) 0.333333 0.333333 0.333333;
   (0, 0, 1, 1, 0, 0) 0.333333 0.333333 0.333333;
   (1, 0, 1, 1, 0, 0) 0.285714 0.428571 0.285714;
   (2, 0, 1, 1, 0, 0) 0.333333 0.333333 0.333333;
   (0, 1, 1, 1, 0, 0) 0.222222 0.333333 0.444444;
   (1, 1, 1, 1, 0, 0) 0.222222 0.333333 0.444444;
   (2, 1, 1, 1, 0, 0) 0.25 0.5 0.25;
   (0, 2, 1, 1, 0, 0) 0.25 0.375 0.375;
   (1, 2, 1, 1, 0, 0) 0.285714 0.285714 0.428571;
   (2, 2, 1, 1, 0, 0) 0.333333 0.333333 0.333333;
   (0, 0, 2, 1, 0, 0) 0.333333 0.333333 0.333333;
   (1, 0, 2, 1, 0, 0) 0.333333 0.333333 0.333333;
   (2, 0, 2, 1, 0, 0) 0.333333 0.333333 0.333333;
   (0, 1, 2, 1, 0, 0) 0.222222 0.333333 0.444444;
   (1, 1, 2, 1, 0, 0) 0.181818 0.454545 0.363636;
   (2, 1, 2, 1, 0, 0) 0.285714 0.428571 0.285714;
   (0, 2, 2, 1, 0, 0) 0.25 0.375 0.375;
   (1, 2, 2, 1, 0, 0) 0.25 0.375 0.375;
   (2, 2, 2, 1, 0, 0) 0.333333 0.333333 0.333333;
   (0, 0, 3, 1, 0, 0) 0.285714 0.285714 0.428571;
   (1, 0, 3, 1, 0, 0) 0.333333 0.333333 0.333333;
   (2, 0, 3, 1, 0, 0) 0.333333 0.333333 0.333333;
   (0, 1, 3, 1, 0, 0) 0.153846 0.307692 0.538462;
   (1, 1, 3, 1, 0, 0) 0.0571429 0.4 0.542857;
   (2, 1, 3, 1, 0, 0) 0.181818 0.454545 0.363636;
   (0, 2, 3, 1, 0, 0) 0.2 0.3 0.5;
   (1, 2, 3, 1, 0, 0) 0.0909091 0.272727 0.636364;
   (2, 2, 3, 1, 0, 0) 0.285714 0.285714 0.428571;
   (0, 0, 4, 1, 0, 0) 0.333333 0.222222 0.444444;
   (1, 0, 4, 1, 0, 0) 0.285714 0.285714 0.428571;
   (2, 0, 4, 1, 0, 0) 0.285714 0.285714 0.428571;
   (0, 1, 4, 1, 0, 0) 0.0740741 0.148148 0.777778;
   (1, 1, 4, 1, 0, 0) 0.03125 0.1875 0.78125;
   (2, 1, 4, 1, 0, 0) 0.153846 0.307692 0.538462;
   (0, 2, 4, 1, 0, 0) 0.0571429 0.342857 0.6;
   (1, 2, 4, 1, 0, 0) 0.0344828 0.264368 0.701149;
   (2, 2, 4, 1, 0, 0) 0.105263 0.315789 0.578947;
   (0, 0, 0, 2, 0, 0) 0.868421 0.0526316 0.0789474;
   (1, 0, 0, 2, 0, 0) 0.333333 0.333333 0.333333;
   (2, 0, 0, 2, 0, 0) 0.333333 0.333333 0.333333;
   (0, 1, 0, 2, 0, 0) 0.333333 0.333333 0.333333;
   (1, 1, 0, 2, 0, 0) 0.333333 0.333333 0.333333;
   (2, 1, 0, 2, 0, 0) 0.333333 0.333333 0.333333;
   (0, 2, 0, 2, 0, 0) 0.428571 0.285714 0.285714;
   (1, 2, 0, 2, 0, 0) 0.333333 0.333333 0.333333;
   (2, 2, 0, 2, 0, 0) 0.333333 0.333333 0.333333;
   (0, 0, 1, 2, 0, 0) 0.828571 0.0571429 0.114286;
   (1, 0, 1, 2, 0, 0) 0.333333 0.333333 0.333333;
   (2, 0, 1, 2, 0, 0) 0.333333 0.333333 0.333333;
   (0, 1, 1, 2, 0, 0) 0.333333 0.333333 0.333333;
   (1, 1, 1, 2, 0, 0) 0.333333 0.333333 0.333333;
   (2, 1, 1, 2, 0, 0) 0.333333 0.333333 0.333333;
   (0, 2, 1, 2, 0, 0) 0.25 0.25 0.5;
   (1, 2, 1, 2, 0, 0) 0.333333 0.333333 0.333333;
   (2, 2, 1, 2, 0, 0) 0.333333 0.333333 0.333333;
   (0, 0, 2, 2, 0, 0) 0.688889 0.0444444 0.266667;
   (1, 0, 2, 2, 0, 0) 0.333333 0.333333 0.333333;
   (2, 0, 2, 2, 0, 0) 0.428571 0.285714 0.285714;
   (0, 1, 2, 2, 0, 0) 0.333333 0.333333 0.333333;
   (1, 1, 2, 2, 0, 0) 0.333333 0.333333 0.333333;
   (2, 1, 2, 2, 0, 0) 0.333333 0.333333 0.333333;
   (0, 2, 2, 2, 0, 0) 0.416667 0.166667 0.416667;
   (1, 2, 2, 2, 0, 0) 0.333333 0.333333 0.333333;
   (2, 2, 2, 2, 0, 0) 0.333333 0.333333 0.333333;
   (0, 0, 3, 2, 0, 0) 0.5875 0.025 0.3875;
   (1, 0, 3, 2, 0, 0) 0.333333 0.333333 0.333333;
   (2, 0, 3, 2, 0, 0) 0.285714 0.285714 0.428571;
   (0, 1, 3, 2, 0, 0) 0.285714 0.285714 0.428571;
   (1, 1, 3, 2, 0, 0) 0.285714 0.428571 0.285714;
   (2, 1, 3, 2, 0, 0) 0.333333 0.333333 0.333333;
   (0, 2, 3, 2, 0, 0) 0.35 0.15 0.5;
   (1, 2, 3, 2, 0, 0) 0.285714 0.285714 0.428571;
   (2, 2, 3, 2, 0, 0) 0.333333 0.222222 0.444444;
   (0, 0, 4, 2, 0, 0) 0.491228 0.00328947 0.505482;
   (1, 0, 4, 2, 0, 0) 0.333333 0.333333 0.333333;
   (2, 0, 4, 2, 0, 0) 0.302326 0.0465116 0.651163;
   (0, 1, 4, 2, 0, 0) 0.230769 0.230769 0.538462;
   (1, 1, 4, 2, 0, 0) 0.0769231 0.384615 0.538462;
   (2, 1, 4, 2, 0, 0) 0.285714 0.285714 0.428571;
   (0, 2, 4, 2, 0, 0) 0.215152 0.0181818 0.766667;
   (1, 2, 4, 2, 0, 0) 0.1 0.2 0.7;
   (2, 2, 4, 2, 0, 0) 0.142857 0.0571429 0.8;
   (0, 0, 0, 0, 1, 0) 0.5 0.2 0.3;
   (1, 0, 0, 0, 1, 0) 0.333333 0.333333 0.333333;
   (2, 0, 0, 0, 1, 0) 0.333333 0.333333 0.333333;
   (0, 1, 0, 0, 1, 0) 0.333333 0.333333 0.333333;
   (1, 1, 0, 0, 1, 0) 0.333333 0.333333 0.333333;
   (2, 1, 0, 0, 1, 0) 0.333333 0.333333 0.333333;
   (0, 2, 0, 0, 1, 0) 0.333333 0.333333 0.333333;
   (1, 2, 0, 0, 1, 0) 0.333333 0.333333 0.333333;
   (2, 2, 0, 0, 1, 0) 0.333333 0.333333 0.333333;
   (0, 0, 1, 0, 1, 0) 0.375 0.25 0.375;
   (1, 0, 1, 0, 1, 0) 0.333333 0.333333 0.333333;
   (2, 0, 1, 0, 1, 0) 0.333333 0.333333 0.333333;
   (0, 1, 1, 0, 1, 0) 0.333333 0.333333 0.333333;
   (1, 1, 1, 0, 1, 0) 0.333333 0.333333 0.333333;
   (2, 1, 1, 0, 1, 0) 0.333333 0.333333 0.333333;
   (0, 2, 1, 0, 1, 0) 0.5 0.25 0.25;
   (1, 2, 1, 0, 1, 0) 0.333333 0.333333 0.333333;
   (2, 2, 1, 0, 1, 0) 0.333333 0.333333 0.333333;
   (0, 0, 2, 0, 1, 0) 0.333333 0.166667 0.5;
   (1, 0, 2, 0, 1, 0) 0.333333 0.333333 0.333333;
   (2, 0, 2, 0, 1, 0) 0.333333 0.333333 0.333333;
   (0, 1, 2, 0, 1, 0) 0.333333 0.333333 0.333333;
   (1, 1, 2, 0, 1, 0) 0.333333 0.333333 0.333333;
   (2, 1, 2, 0, 1, 0) 0.333333 0.333333 0.333333;
   (0, 2, 2, 0, 1, 0) 0.666667 0.166667 0.166667;
   (1, 2, 2, 0, 1, 0) 0.285714 0.428571 0.285714;
   (2, 2, 2, 0, 1, 0) 0.333333 0.333333 0.333333;
   (0, 0, 3, 0, 1, 0) 0.2 0.1 0.7;
   (1, 0, 3, 0, 1, 0) 0.428571 0.285714 0.285714;
   (2, 0, 3, 0, 1, 0) 0.333333 0.333333 0.333333;
   (0, 1, 3, 0, 1, 0) 0.428571 0.285714 0.285714;
   (1, 1, 3, 0, 1, 0) 0.333333 0.333333 0.333333;
   (2, 1, 3, 0, 1, 0) 0.333333 0.333333 0.333333;
   (0, 2, 3, 0, 1, 0) 0.333333 0.166667 0.5;
   (1, 2, 3, 0, 1, 0) 0.333333 0.333333 0.333333;
   (2, 2, 3, 0, 1, 0) 0.428571 0.285714 0.285714;
   (0, 0, 4, 0, 1, 0) 0.196078 0.0392157 0.764706;
   (1, 0, 4, 0, 1, 0) 0.285714 0.285714 0.428571;
   (2, 0, 4, 0, 1, 0) 0.285714 0.285714 0.428571;
   (0, 1, 4, 0, 1, 0) 0.333333 0.333333 0.333333;
   (1, 1, 4, 0, 1, 0) 0.333333 0.333333 0.333333;
   (2, 1, 4, 0, 1, 0) 0.333333 0.333333 0.333333;
   (0, 2, 4, 0, 1, 0) 0.245283 0.0754717 0.679245;
   (1, 2, 4, 0, 1, 0) 0.222222 0.333333 0.444444;
   (2, 2, 4, 0, 1, 0) 0.25 0.25 0.5;
   (0, 0, 0, 1, 1, 0) 0.333333 0.333333 0.333333;
   (1, 0, 0, 1, 1, 0) 0.333333 0.333333 0.333333;
   (2, 0, 0, 1, 1, 0) 0.333333 0.333333 0.333333;
   (0, 1, 0, 1, 1, 0) 0.25 0.5 0.25;
   (1, 1, 0, 1, 1, 0) 0.222222 0.555556 0.222222;
   (2, 1, 0, 1, 1, 0) 0.333333 0.333333 0.333333;
   (0, 2, 0, 1, 1, 0) 0.333333 0.333333 0.333333;
   (1, 2, 0, 1, 1, 0) 0.285714 0.428571 0.285714;
   (2, 2, 0, 1, 1, 0) 0.333333 0.333333 0.333333;
   (0, 0, 1, 1, 1, 0) 0.333333 0.333333 0.333333;
   (1, 0, 1, 1, 1, 0) 0.333333 0.333333 0.333333;
   (2, 0, 1, 1, 1, 0) 0.333333 0.333333 0.333333;
   (0, 1, 1, 1, 1, 0) 0.333333 0.333333 0.333333;
   (1, 1, 1, 1, 1, 0) 0.142857 0.642857 0.214286;
   (2, 1, 1, 1, 1, 0) 0.333333 0.333333 0.333333;
   (0, 2, 1, 1, 1, 0) 0.333333 0.333333 0.333333;
   (1, 2, 1, 1, 1, 0) 0.285714 0.428571 0.285714;
   (2, 2, 1, 1, 1, 0) 0.333333 0.333333 0.333333;
   (0, 0, 2, 1, 1, 0) 0.333333 0.333333 0.333333;
   (1, 0, 2, 1, 1, 0) 0.333333 0.333333 0.333333;
   (2, 0, 2, 1, 1, 0) 0.333333 0.333333 0.333333;
   (0, 1, 2, 1, 1, 0) 0.333333 0.333333 0.333333;
   (1, 1, 2, 1, 1, 0) 0.0869565 0.391304 0.521739;
   (2, 1, 2, 1, 1, 0) 0.333333 0.333333 0.333333;
   (0, 2, 2, 1, 1, 0) 0.428571 0.285714 0.285714;
   (1, 2, 2, 1, 1, 0) 0.133333 0.6 0.266667;
   (2, 2, 2, 1, 1, 0) 0.333333 0.333333 0.333333;
   (0, 0, 3, 1, 1, 0) 0.333333 0.333333 0.333333;
   (1, 0, 3, 1, 1, 0) 0.285714 0.285714 0.428571;
   (2, 0, 3, 1, 1, 0) 0.333333 0.333333 0.333333;
   (0, 1, 3, 1, 1, 0) 0.285714 0.428571 0.285714;
   (1, 1, 3, 1, 1, 0) 0.08 0.16 0.76;
   (2, 1, 3, 1, 1, 0) 0.333333 0.333333 0.333333;
   (0, 2, 3, 1, 1, 0) 0.181818 0.454545 0.363636;
   (1, 2, 3, 1, 1, 0) 0.09375 0.4375 0.46875;
   (2, 2, 3, 1, 1, 0) 0.2 0.4 0.4;
   (0, 0, 4, 1, 1, 0) 0.428571 0.285714 0.285714;
   (1, 0, 4, 1, 1, 0) 0.25 0.25 0.5;
   (2, 0, 4, 1, 1, 0) 0.333333 0.333333 0.333333;
   (0, 1, 4, 1, 1, 0) 0.222222 0.222222 0.555556;
   (1, 1, 4, 1, 1, 0) 0.0434783 0.173913 0.782609;
   (2, 1, 4, 1, 1, 0) 0.181818 0.272727 0.545455;
   (0, 2, 4, 1, 1, 0) 0.181818 0.454545 0.363636;
   (1, 2, 4, 1, 1, 0) 0.0531915 0.234043 0.712766;
   (2, 2, 4, 1, 1, 0) 0.166667 0.166667 0.666667;
   (0, 0, 0, 2, 1, 0) 0.333333 0.333333 0.333333;
   (1, 0, 0, 2, 1, 0) 0.333333 0.333333 0.333333;
   (2, 0, 0, 2, 1, 0) 0.333333 0.333333 0.333333;
   (0, 1, 0, 2, 1, 0) 0.285714 0.428571 0.285714;
   (1, 1, 0, 2, 1, 0) 0.333333 0.333333 0.333333;
   (2, 1, 0, 2, 1, 0) 0.333333 0.333333 0.333333;
   (0, 2, 0, 2, 1, 0) 0.333333 0.333333 0.333333;
   (1, 2, 0, 2, 1, 0) 0.333333 0.333333 0.333333;
   (2, 2, 0, 2, 1, 0) 0.333333 0.333333 0.333333;
   (0, 0, 1, 2, 1, 0) 0.333333 0.333333 0.333333;
   (1, 0, 1, 2, 1, 0) 0.333333 0.333333 0.333333;
   (2, 0, 1, 2, 1, 0) 0.333333 0.333333 0.333333;
   (0, 1, 1, 2, 1, 0) 0.333333 0.333333 0.333333;
   (1, 1, 1, 2, 1, 0) 0.285714 0.285714 0.428571;
   (2, 1, 1, 2, 1, 0) 0.333333 0.333333 0.333333;
   (0, 2, 1, 2, 1, 0) 0.333333 0.333333 0.333333;
   (1, 2, 1, 2, 1, 0) 0.333333 0.333333 0.333333;
   (2, 2, 1, 2, 1, 0) 0.333333 0.333333 0.333333;
   (0, 0, 2, 2, 1, 0) 0.333333 0.333333 0.333333;
   (1, 0, 2, 2, 1, 0) 0.333333 0.333333 0.333333;
   (2, 0, 2, 2, 1, 0) 0.333333 0.333333 0.333333;
   (0, 1, 2, 2, 1, 0) 0.333333 0.333333 0.333333;
   (1, 1, 2, 2, 1, 0) 0.333333 0.333333 0.333333;
   (2, 1, 2, 2, 1, 0) 0.333333 0.333333 0.333333;
   (0, 2, 2, 2, 1, 0) 0.333333 0.333333 0.333333;
   (1, 2, 2, 2, 1, 0) 0.285714 0.285714 0.428571;
   (2, 2, 2, 2, 1, 0) 0.333333 0.333333 0.333333;
   (0, 0, 3, 2, 1, 0) 0.428571 0.285714 0.285714;
   (1, 0, 3, 2, 1, 0) 0.333333 0.333333 0.333333;
   (2, 0, 3, 2, 1, 0) 0.333333 0.333333 0.333333;
   (0, 1, 3, 2, 1, 0) 0.333333 0.333333 0.333333;
   (1, 1, 3, 2, 1, 0) 0.285714 0.285714 0.428571;
   (2, 1, 3, 2, 1, 0) 0.333333 0.333333 0.333333;
   (0, 2, 3, 2, 1, 0) 0.333333 0.333333 0.333333;
   (1, 2, 3, 2, 1, 0) 0.333333 0.333333 0.333333;
   (2, 2, 3, 2, 1, 0) 0.333333 0.333333 0.333333;
   (0, 0, 4, 2, 1, 0) 0.5 0.125 0.375;
   (1, 0, 4, 2, 1, 0) 0.285714 0.285714 0.428571;
   (2, 0, 4, 2, 1, 0) 0.333333 0.333333 0.333333;
   (0, 1, 4, 2, 1, 0) 0.285714 0.285714 0.428571;
   (1, 1, 4, 2, 1, 0) 0.214286 0.285714 0.5;
   (2, 1, 4, 2, 1, 0) 0.333333 0.333333 0.333333;
   (0, 2, 4, 2, 1, 0) 0.25 0.25 0.5;
   (1, 2, 4, 2, 1, 0) 0.153846 0.230769 0.615385;
   (2, 2, 4, 2, 1, 0) 0.285714 0.285714 0.428571;
   (0, 0, 0, 0, 2, 0) 0.942257 0.00524934 0.0524934;
   (1, 0, 0, 0, 2, 0) 0.333333 0.333333 0.333333;
   (2, 0, 0, 0, 2, 0) 0.533333 0.133333 0.333333;
   (0, 1, 0, 0, 2, 0) 0.333333 0.333333 0.333333;
   (1, 1, 0, 0, 2, 0) 0.285714 0.428571 0.285714;
   (2, 1, 0, 0, 2, 0) 0.333333 0.333333 0.333333;
   (0, 2, 0, 0, 2, 0) 0.689655 0.0689655 0.241379;
   (1, 2, 0, 0, 2, 0) 0.333333 0.333333 0.333333;
   (2, 2, 0, 0, 2, 0) 0.5 0.2 0.3;
   (0, 0, 1, 0, 2, 0) 0.912186 0.00537634 0.0824373;
   (1, 0, 1, 0, 2, 0) 0.333333 0.333333 0.333333;
   (2, 0, 1, 0, 2, 0) 0.73913 0.0869565 0.173913;
   (0, 1, 1, 0, 2, 0) 0.333333 0.333333 0.333333;
   (1, 1, 1, 0, 2, 0) 0.285714 0.428571 0.285714;
   (2, 1, 1, 0, 2, 0) 0.333333 0.333333 0.333333;
   (0, 2, 1, 0, 2, 0) 0.694915 0.0508475 0.254237;
   (1, 2, 1, 0, 2, 0) 0.333333 0.333333 0.333333;
   (2, 2, 1, 0, 2, 0) 0.428571 0.285714 0.285714;
   (0, 0, 2, 0, 2, 0) 0.868627 0.00294118 0.128431;
   (1, 0, 2, 0, 2, 0) 0.285714 0.285714 0.428571;
   (2, 0, 2, 0, 2, 0) 0.684211 0.105263 0.210526;
   (0, 1, 2, 0, 2, 0) 0.428571 0.285714 0.285714;
   (1, 1, 2, 0, 2, 0) 0.333333 0.333333 0.333333;
   (2, 1, 2, 0, 2, 0) 0.333333 0.333333 0.333333;
   (0, 2, 2, 0, 2, 0) 0.681564 0.0111732 0.307263;
   (1, 2, 2, 0, 2, 0) 0.333333 0.333333 0.333333;
   (2, 2, 2, 0, 2, 0) 0.444444 0.222222 0.333333;
   (0, 0, 3, 0, 2, 0) 0.785047 0.00147565 0.213478;
   (1, 0, 3, 0, 2, 0) 0.333333 0.333333 0.333333;
   (2, 0, 3, 0, 2, 0) 0.483333 0.0333333 0.483333;
   (0, 1, 3, 0, 2, 0) 0.5 0.3 0.2;
   (1, 1, 3, 0, 2, 0) 0.333333 0.444444 0.222222;
   (2, 1, 3, 0, 2, 0) 0.25 0.25 0.5;
   (0, 2, 3, 0, 2, 0) 0.626522 0.00270636 0.370771;
   (1, 2, 3, 0, 2, 0) 0.285714 0.285714 0.428571;
   (2, 2, 3, 0, 2, 0) 0.5 0.0384615 0.461538;
   (0, 0, 4, 0, 2, 0) 0.668799 0.00208302 0.329118;
   (1, 0, 4, 0, 2, 0) 0.222222 0.222222 0.555556;
   (2, 0, 4, 0, 2, 0) 0.404669 0.0116732 0.583658;
   (0, 1, 4, 0, 2, 0) 0.52381 0.0952381 0.380952;
   (1, 1, 4, 0, 2, 0) 0.125 0.375 0.5;
   (2, 1, 4, 0, 2, 0) 0.333333 0.333333 0.333333;
   (0, 2, 4, 0, 2, 0) 0.536263 0.00350499 0.460232;
   (1, 2, 4, 0, 2, 0) 0.333333 0.2 0.466667;
   (2, 2, 4, 0, 2, 0) 0.364865 0.00675676 0.628378;
   (0, 0, 0, 1, 2, 0) 0.428571 0.285714 0.285714;
   (1, 0, 0, 1, 2, 0) 0.333333 0.333333 0.333333;
   (2, 0, 0, 1, 2, 0) 0.333333 0.333333 0.333333;
   (0, 1, 0, 1, 2, 0) 0.333333 0.333333 0.333333;
   (1, 1, 0, 1, 2, 0) 0.142857 0.714286 0.142857;
   (2, 1, 0, 1, 2, 0) 0.333333 0.333333 0.333333;
   (0, 2, 0, 1, 2, 0) 0.333333 0.333333 0.333333;
   (1, 2, 0, 1, 2, 0) 0.333333 0.333333 0.333333;
   (2, 2, 0, 1, 2, 0) 0.333333 0.333333 0.333333;
   (0, 0, 1, 1, 2, 0) 0.428571 0.285714 0.285714;
   (1, 0, 1, 1, 2, 0) 0.333333 0.333333 0.333333;
   (2, 0, 1, 1, 2, 0) 0.333333 0.333333 0.333333;
   (0, 1, 1, 1, 2, 0) 0.222222 0.555556 0.222222;
   (1, 1, 1, 1, 2, 0) 0.117647 0.705882 0.176471;
   (2, 1, 1, 1, 2, 0) 0.285714 0.285714 0.428571;
   (0, 2, 1, 1, 2, 0) 0.285714 0.285714 0.428571;
   (1, 2, 1, 1, 2, 0) 0.333333 0.333333 0.333333;
   (2, 2, 1, 1, 2, 0) 0.333333 0.333333 0.333333;
   (0, 0, 2, 1, 2, 0) 0.285714 0.428571 0.285714;
   (1, 0, 2, 1, 2, 0) 0.285714 0.428571 0.285714;
   (2, 0, 2, 1, 2, 0) 0.285714 0.428571 0.285714;
   (0, 1, 2, 1, 2, 0) 0.285714 0.428571 0.285714;
   (1, 1, 2, 1, 2, 0) 0.1 0.766667 0.133333;
   (2, 1, 2, 1, 2, 0) 0.222222 0.444444 0.333333;
   (0, 2, 2, 1, 2, 0) 0.333333 0.333333 0.333333;
   (1, 2, 2, 1, 2, 0) 0.285714 0.285714 0.428571;
   (2, 2, 2, 1, 2, 0) 0.285714 0.285714 0.428571;
   (0, 0, 3, 1, 2, 0) 0.333333 0.333333 0.333333;
   (1, 0, 3, 1, 2, 0) 0.285714 0.285714 0.428571;
   (2, 0, 3, 1, 2, 0) 0.333333 0.333333 0.333333;
   (0, 1, 3, 1, 2, 0) 0.25 0.375 0.375;
   (1, 1, 3, 1, 2, 0) 0.147059 0.558824 0.294118;
   (2, 1, 3, 1, 2, 0) 0.181818 0.545455 0.272727;
   (0, 2, 3, 1, 2, 0) 0.181818 0.272727 0.545455;
   (1, 2, 3, 1, 2, 0) 0.08 0.52 0.4;
   (2, 2, 3, 1, 2, 0) 0.2 0.4 0.4;
   (0, 0, 4, 1, 2, 0) 0.3 0.3 0.4;
   (1, 0, 4, 1, 2, 0) 0.25 0.375 0.375;
   (2, 0, 4, 1, 2, 0) 0.428571 0.285714 0.285714;
   (0, 1, 4, 1, 2, 0) 0.103448 0.37931 0.517241;
   (1, 1, 4, 1, 2, 0) 0.0357143 0.559524 0.404762;
   (2, 1, 4, 1, 2, 0) 0.117647 0.352941 0.529412;
   (0, 2, 4, 1, 2, 0) 0.125 0.375 0.5;
   (1, 2, 4, 1, 2, 0) 0.05 0.45 0.5;
   (2, 2, 4, 1, 2, 0) 0.1 0.25 0.65;
   (0, 0, 0, 2, 2, 0) 0.772727 0.0909091 0.136364;
   (1, 0, 0, 2, 2, 0) 0.333333 0.333333 0.333333;
   (2, 0, 0, 2, 2, 0) 0.428571 0.285714 0.285714;
   (0, 1, 0, 2, 2, 0) 0.333333 0.333333 0.333333;
   (1, 1, 0, 2, 2, 0) 0.333333 0.333333 0.333333;
   (2, 1, 0, 2, 2, 0) 0.333333 0.333333 0.333333;
   (0, 2, 0, 2, 2, 0) 0.428571 0.285714 0.285714;
   (1, 2, 0, 2, 2, 0) 0.333333 0.333333 0.333333;
   (2, 2, 0, 2, 2, 0) 0.333333 0.333333 0.333333;
   (0, 0, 1, 2, 2, 0) 0.736842 0.105263 0.157895;
   (1, 0, 1, 2, 2, 0) 0.333333 0.333333 0.333333;
   (2, 0, 1, 2, 2, 0) 0.428571 0.285714 0.285714;
   (0, 1, 1, 2, 2, 0) 0.333333 0.333333 0.333333;
   (1, 1, 1, 2, 2, 0) 0.285714 0.285714 0.428571;
   (2, 1, 1, 2, 2, 0) 0.333333 0.333333 0.333333;
   (0, 2, 1, 2, 2, 0) 0.285714 0.285714 0.428571;
   (1, 2, 1, 2, 2, 0) 0.333333 0.333333 0.333333;
   (2, 2, 1, 2, 2, 0) 0.285714 0.285714 0.428571;
   (0, 0, 2, 2, 2, 0) 0.684211 0.105263 0.210526;
   (1, 0, 2, 2, 2, 0) 0.333333 0.333333 0.333333;
   (2, 0, 2, 2, 2, 0) 0.333333 0.333333 0.333333;
   (0, 1, 2, 2, 2, 0) 0.333333 0.333333 0.333333;
   (1, 1, 2, 2, 2, 0) 0.333333 0.333333 0.333333;
   (2, 1, 2, 2, 2, 0) 0.333333 0.333333 0.333333;
   (0, 2, 2, 2, 2, 0) 0.222222 0.222222 0.555556;
   (1, 2, 2, 2, 2, 0) 0.333333 0.333333 0.333333;
   (2, 2, 2, 2, 2, 0) 0.333333 0.333333 0.333333;
   (0, 0, 3, 2, 2, 0) 0.693878 0.0408163 0.265306;
   (1, 0, 3, 2, 2, 0) 0.333333 0.333333 0.333333;
   (2, 0, 3, 2, 2, 0) 0.428571 0.285714 0.285714;
   (0, 1, 3, 2, 2, 0) 0.333333 0.333333 0.333333;
   (1, 1, 3, 2, 2, 0) 0.25 0.375 0.375;
   (2, 1, 3, 2, 2, 0) 0.333333 0.333333 0.333333;
   (0, 2, 3, 2, 2, 0) 0.384615 0.153846 0.461538;
   (1, 2, 3, 2, 2, 0) 0.333333 0.333333 0.333333;
   (2, 2, 3, 2, 2, 0) 0.285714 0.285714 0.428571;
   (0, 0, 4, 2, 2, 0) 0.580645 0.00744417 0.411911;
   (1, 0, 4, 2, 2, 0) 0.222222 0.222222 0.555556;
   (2, 0, 4, 2, 2, 0) 0.347826 0.0869565 0.565217;
   (0, 1, 4, 2, 2, 0) 0.125 0.25 0.625;
   (1, 1, 4, 2, 2, 0) 0.125 0.375 0.5;
   (2, 1, 4, 2, 2, 0) 0.25 0.25 0.5;
   (0, 2, 4, 2, 2, 0) 0.291209 0.010989 0.697802;
   (1, 2, 4, 2, 2, 0) 0.142857 0.285714 0.571429;
   (2, 2, 4, 2, 2, 0) 0.176471 0.117647 0.705882;
   (0, 0, 0, 0, 0, 1) 0.428571 0.285714 0.285714;
   (1, 0, 0, 0, 0, 1) 0.333333 0.333333 0.333333;
   (2, 0, 0, 0, 0, 1) 0.333333 0.333333 0.333333;
   (0, 1, 0, 0, 0, 1) 0.333333 0.333333 0.333333;
   (1, 1, 0, 0, 0, 1) 0.333333 0.333333 0.333333;
   (2, 1, 0, 0, 0, 1) 0.333333 0.333333 0.333333;
   (0, 2, 0, 0, 0, 1) 0.333333 0.333333 0.333333;
   (1, 2, 0, 0, 0, 1) 0.333333 0.333333 0.333333;
   (2, 2, 0, 0, 0, 1) 0.333333 0.333333 0.333333;
   (0, 0, 1, 0, 0, 1) 0.333333 0.333333 0.333333;
   (1, 0, 1, 0, 0, 1) 0.285714 0.285714 0.428571;
   (2, 0, 1, 0, 0, 1) 0.333333 0.333333 0.333333;
   (0, 1, 1, 0, 0, 1) 0.333333 0.333333 0.333333;
   (1, 1, 1, 0, 0, 1) 0.285714 0.428571 0.285714;
   (2, 1, 1, 0, 0, 1) 0.333333 0.333333 0.333333;
   (0, 2, 1, 0, 0, 1) 0.428571 0.285714 0.285714;
   (1, 2, 1, 0, 0, 1) 0.285714 0.285714 0.428571;
   (2, 2, 1, 0, 0, 1) 0.333333 0.333333 0.333333;
   (0, 0, 2, 0, 0, 1) 0.375 0.25 0.375;
   (1, 0, 2, 0, 0, 1) 0.333333 0.333333 0.333333;
   (2, 0, 2, 0, 0, 1) 0.333333 0.333333 0.333333;
   (0, 1, 2, 0, 0, 1) 0.333333 0.333333 0.333333;
   (1, 1, 2, 0, 0, 1) 0.285714 0.285714 0.428571;
   (2, 1, 2, 0, 0, 1) 0.333333 0.333333 0.333333;
   (0, 2, 2, 0, 0, 1) 0.285714 0.285714 0.428571;
   (1, 2, 2, 0, 0, 1) 0.285714 0.428571 0.285714;
   (2, 2, 2, 0, 0, 1) 0.333333 0.333333 0.333333;
   (0, 0, 3, 0, 0, 1) 0.375 0.25 0.375;
   (1, 0, 3, 0, 0, 1) 0.285714 0.285714 0.428571;
   (2, 0, 3, 0, 0, 1) 0.333333 0.333333 0.333333;
   (0, 1, 3, 0, 0, 1) 0.25 0.25 0.5;
   (1, 1, 3, 0, 0, 1) 0.181818 0.272727 0.545455;
   (2, 1, 3, 0, 0, 1) 0.285714 0.428571 0.285714;
   (0, 2, 3, 0, 0, 1) 0.416667 0.25 0.333333;
   (1, 2, 3, 0, 0, 1) 0.333333 0.333333 0.333333;
   (2, 2, 3, 0, 0, 1) 0.333333 0.333333 0.333333;
   (0, 0, 4, 0, 0, 1) 0.272727 0.0909091 0.636364;
   (1, 0, 4, 0, 0, 1) 0.285714 0.428571 0.285714;
   (2, 0, 4, 0, 0, 1) 0.5 0.3 0.2;
   (0, 1, 4, 0, 0, 1) 0.133333 0.133333 0.733333;
   (1, 1, 4, 0, 0, 1) 0.133333 0.2 0.666667;
   (2, 1, 4, 0, 0, 1) 0.25 0.375 0.375;
   (0, 2, 4, 0, 0, 1) 0.166667 0.233333 0.6;
   (1, 2, 4, 0, 0, 1) 0.210526 0.210526 0.578947;
   (2, 2, 4, 0, 0, 1) 0.0952381 0.142857 0.761905;
   (0, 0, 0, 1, 0, 1) 0.333333 0.333333 0.333333;
   (1, 0, 0, 1, 0, 1) 0.333333 0.333333 0.333333;
   (2, 0, 0, 1, 0, 1) 0.333333 0.333333 0.333333;
   (0, 1, 0, 1, 0, 1) 0.285714 0.285714 0.428571;
   (1, 1, 0, 1, 0, 1) 0.0540541 0.783784 0.162162;
   (2, 1, 0, 1, 0, 1) 0.166667 0.583333 0.25;
   (0, 2, 0, 1, 0, 1) 0.333333 0.333333 0.333333;
   (1, 2, 0, 1, 0, 1) 0.222222 0.444444 0.333333;
   (2, 2, 0, 1, 0, 1) 0.25 0.375 0.375;
   (0, 0, 1, 1, 0, 1) 0.333333 0.333333 0.333333;
   (1, 0, 1, 1, 0, 1) 0.285714 0.428571 0.285714;
   (2, 0, 1, 1, 0, 1) 0.333333 0.333333 0.333333;
   (0, 1, 1, 1, 0, 1) 0.285714 0.428571 0.285714;
   (1, 1, 1, 1, 0, 1) 0.0512821 0.564103 0.384615;
   (2, 1, 1, 1, 0, 1) 0.285714 0.428571 0.285714;
   (0, 2, 1, 1, 0, 1) 0.333333 0.333333 0.333333;
   (1, 2, 1, 1, 0, 1) 0.105263 0.578947 0.315789;
   (2, 2, 1, 1, 0, 1) 0.25 0.25 0.5;
   (0, 0, 2, 1, 0, 1) 0.333333 0.333333 0.333333;
   (1, 0, 2, 1, 0, 1) 0.25 0.375 0.375;
   (2, 0, 2, 1, 0, 1) 0.333333 0.333333 0.333333;
   (0, 1, 2, 1, 0, 1) 0.25 0.375 0.375;
   (1, 1, 2, 1, 0, 1) 0.0384615 0.423077 0.538462;
   (2, 1, 2, 1, 0, 1) 0.117647 0.529412 0.352941;
   (0, 2, 2, 1, 0, 1) 0.25 0.375 0.375;
   (1, 2, 2, 1, 0, 1) 0.0392157 0.54902 0.411765;
   (2, 2, 2, 1, 0, 1) 0.2 0.5 0.3;
   (0, 0, 3, 1, 0, 1) 0.333333 0.333333 0.333333;
   (1, 0, 3, 1, 0, 1) 0.333333 0.333333 0.333333;
   (2, 0, 3, 1, 0, 1) 0.285714 0.428571 0.285714;
   (0, 1, 3, 1, 0, 1) 0.333333 0.333333 0.333333;
   (1, 1, 3, 1, 0, 1) 0.0113636 0.261364 0.727273;
   (2, 1, 3, 1, 0, 1) 0.0833333 0.541667 0.375;
   (0, 2, 3, 1, 0, 1) 0.222222 0.444444 0.333333;
   (1, 2, 3, 1, 0, 1) 0.0108696 0.391304 0.597826;
   (2, 2, 3, 1, 0, 1) 0.1 0.3 0.6;
   (0, 0, 4, 1, 0, 1) 0.333333 0.333333 0.333333;
   (1, 0, 4, 1, 0, 1) 0.214286 0.285714 0.5;
   (2, 0, 4, 1, 0, 1) 0.25 0.25 0.5;
   (0, 1, 4, 1, 0, 1) 0.111111 0.166667 0.722222;
   (1, 1, 4, 1, 0, 1) 0.00544465 0.147005 0.84755;
   (2, 1, 4, 1, 0, 1) 0.0408163 0.387755 0.571429;
   (0, 2, 4, 1, 0, 1) 0.0740741 0.259259 0.666667;
   (1, 2, 4, 1, 0, 1) 0.00778816 0.292835 0.699377;
   (2, 2, 4, 1, 0, 1) 0.025 0.1875 0.7875;
   (0, 0, 0, 2, 0, 1) 0.333333 0.333333 0.333333;
   (1, 0, 0, 2, 0, 1) 0.333333 0.333333 0.333333;
   (2, 0, 0, 2, 0, 1) 0.333333 0.333333 0.333333;
   (0, 1, 0, 2, 0, 1) 0.333333 0.333333 0.333333;
   (1, 1, 0, 2, 0, 1) 0.2 0.5 0.3;
   (2, 1, 0, 2, 0, 1) 0.333333 0.333333 0.333333;
   (0, 2, 0, 2, 0, 1) 0.333333 0.333333 0.333333;
   (1, 2, 0, 2, 0, 1) 0.333333 0.333333 0.333333;
   (2, 2, 0, 2, 0, 1) 0.333333 0.333333 0.333333;
   (0, 0, 1, 2, 0, 1) 0.333333 0.333333 0.333333;
   (1, 0, 1, 2, 0, 1) 0.333333 0.333333 0.333333;
   (2, 0, 1, 2, 0, 1) 0.333333 0.333333 0.333333;
   (0, 1, 1, 2, 0, 1) 0.333333 0.333333 0.333333;
   (1, 1, 1, 2, 0, 1) 0.333333 0.333333 0.333333;
   (2, 1, 1, 2, 0, 1) 0.333333 0.333333 0.333333;
   (0, 2, 1, 2, 0, 1) 0.333333 0.333333 0.333333;
   (1, 2, 1, 2, 0, 1) 0.333333 0.333333 0.333333;
   (2, 2, 1, 2, 0, 1) 0.333333 0.333333 0.333333;
   (0, 0, 2, 2, 0, 1) 0.333333 0.333333 0.333333;
   (1, 0, 2, 2, 0, 1) 0.333333 0.333333 0.333333;
   (2, 0, 2, 2, 0, 1) 0.333333 0.333333 0.333333;
   (0, 1, 2, 2, 0, 1) 0.333333 0.333333 0.333333;
   (1, 1, 2, 2, 0, 1) 0.285714 0.428571 0.285714;
   (2, 1, 2, 2, 0, 1) 0.333333 0.333333 0.333333;
   (0, 2, 2, 2, 0, 1) 0.333333 0.333333 0.333333;
   (1, 2, 2, 2, 0, 1) 0.285714 0.285714 0.428571;
   (2, 2, 2, 2, 0, 1) 0.285714 0.285714 0.428571;
   (0, 0, 3, 2, 0, 1) 0.333333 0.333333 0.333333;
   (1, 0, 3, 2, 0, 1) 0.428571 0.285714 0.285714;
   (2, 0, 3, 2, 0, 1) 0.333333 0.333333 0.333333;
   (0, 1, 3, 2, 0, 1) 0.333333 0.333333 0.333333;
   (1, 1, 3, 2, 0, 1) 0.125 0.5 0.375;
   (2, 1, 3, 2, 0, 1) 0.222222 0.444444 0.333333;
   (0, 2, 3, 2, 0, 1) 0.333333 0.333333 0.333333;
   (1, 2, 3, 2, 0, 1) 0.153846 0.307692 0.538462;
   (2, 2, 3, 2, 0, 1) 0.285714 0.285714 0.428571;
   (0, 0, 4, 2, 0, 1) 0.375 0.25 0.375;
   (1, 0, 4, 2, 0, 1) 0.285714 0.285714 0.428571;
   (2, 0, 4, 2, 0, 1) 0.333333 0.333333 0.333333;
   (0, 1, 4, 2, 0, 1) 0.2 0.3 0.5;
   (1, 1, 4, 2, 0, 1) 0.040404 0.414141 0.545455;
   (2, 1, 4, 2, 0, 1) 0.133333 0.4 0.466667;
   (0, 2, 4, 2, 0, 1) 0.2 0.3 0.5;
   (1, 2, 4, 2, 0, 1) 0.0344828 0.258621 0.706897;
   (2, 2, 4, 2, 0, 1) 0.125 0.25 0.625;
   (0, 0, 0, 0, 1, 1) 0.333333 0.333333 0.333333;
   (1, 0, 0, 0, 1, 1) 0.333333 0.333333 0.333333;
   (2, 0, 0, 0, 1, 1) 0.333333 0.333333 0.333333;
   (0, 1, 0, 0, 1, 1) 0.333333 0.333333 0.333333;
   (1, 1, 0, 0, 1, 1) 0.333333 0.333333 0.333333;
   (2, 1, 0, 0, 1, 1) 0.333333 0.333333 0.333333;
   (0, 2, 0, 0, 1, 1) 0.333333 0.333333 0.333333;
   (1, 2, 0, 0, 1, 1) 0.285714 0.428571 0.285714;
   (2, 2, 0, 0, 1, 1) 0.333333 0.333333 0.333333;
   (0, 0, 1, 0, 1, 1) 0.333333 0.333333 0.333333;
   (1, 0, 1, 0, 1, 1) 0.333333 0.333333 0.333333;
   (2, 0, 1, 0, 1, 1) 0.333333 0.333333 0.333333;
   (0, 1, 1, 0, 1, 1) 0.428571 0.285714 0.285714;
   (1, 1, 1, 0, 1, 1) 0.333333 0.333333 0.333333;
   (2, 1, 1, 0, 1, 1) 0.333333 0.333333 0.333333;
   (0, 2, 1, 0, 1, 1) 0.333333 0.333333 0.333333;
   (1, 2, 1, 0, 1, 1) 0.285714 0.428571 0.285714;
   (2, 2, 1, 0, 1, 1) 0.333333 0.333333 0.333333;
   (0, 0, 2, 0, 1, 1) 0.333333 0.333333 0.333333;
   (1, 0, 2, 0, 1, 1) 0.333333 0.333333 0.333333;
   (2, 0, 2, 0, 1, 1) 0.333333 0.333333 0.333333;
   (0, 1, 2, 0, 1, 1) 0.333333 0.333333 0.333333;
   (1, 1, 2, 0, 1, 1) 0.25 0.25 0.5;
   (2, 1, 2, 0, 1, 1) 0.333333 0.333333 0.333333;
   (0, 2, 2, 0, 1, 1) 0.333333 0.333333 0.333333;
   (1, 2, 2, 0, 1, 1) 0.222222 0.555556 0.222222;
   (2, 2, 2, 0, 1, 1) 0.333333 0.333333 0.333333;
   (0, 0, 3, 0, 1, 1) 0.333333 0.333333 0.333333;
   (1, 0, 3, 0, 1, 1) 0.285714 0.285714 0.428571;
   (2, 0, 3, 0, 1, 1) 0.333333 0.333333 0.333333;
   (0, 1, 3, 0, 1, 1) 0.285714 0.285714 0.428571;
   (1, 1, 3, 0, 1, 1) 0.222222 0.333333 0.444444;
   (2, 1, 3, 0, 1, 1) 0.333333 0.333333 0.333333;
   (0, 2, 3, 0, 1, 1) 0.285714 0.285714 0.428571;
   (1, 2, 3, 0, 1, 1) 0.2 0.4 0.4;
   (2, 2, 3, 0, 1, 1) 0.25 0.25 0.5;
   (0, 0, 4, 0, 1, 1) 0.428571 0.285714 0.285714;
   (1, 0, 4, 0, 1, 1) 0.333333 0.333333 0.333333;
   (2, 0, 4, 0, 1, 1) 0.333333 0.333333 0.333333;
   (0, 1, 4, 0, 1, 1) 0.333333 0.333333 0.333333;
   (1, 1, 4, 0, 1, 1) 0.0909091 0.0909091 0.818182;
   (2, 1, 4, 0, 1, 1) 0.222222 0.333333 0.444444;
   (0, 2, 4, 0, 1, 1) 0.285714 0.428571 0.285714;
   (1, 2, 4, 0, 1, 1) 0.111111 0.388889 0.5;
   (2, 2, 4, 0, 1, 1) 0.181818 0.181818 0.636364;
   (0, 0, 0, 1, 1, 1) 0.333333 0.333333 0.333333;
   (1, 0, 0, 1, 1, 1) 0.25 0.5 0.25;
   (2, 0, 0, 1, 1, 1) 0.333333 0.333333 0.333333;
   (0, 1, 0, 1, 1, 1) 0.333333 0.333333 0.333333;
   (1, 1, 0, 1, 1, 1) 0.00854701 0.82906 0.162393;
   (2, 1, 0, 1, 1, 1) 0.0952381 0.52381 0.380952;
   (0, 2, 0, 1, 1, 1) 0.285714 0.285714 0.428571;
   (1, 2, 0, 1, 1, 1) 0.0454545 0.772727 0.181818;
   (2, 2, 0, 1, 1, 1) 0.222222 0.222222 0.555556;
   (0, 0, 1, 1, 1, 1) 0.333333 0.333333 0.333333;
   (1, 0, 1, 1, 1, 1) 0.25 0.25 0.5;
   (2, 0, 1, 1, 1, 1) 0.333333 0.333333 0.333333;
   (0, 1, 1, 1, 1, 1) 0.153846 0.461538 0.384615;
   (1, 1, 1, 1, 1, 1) 0.00974026 0.561688 0.428571;
   (2, 1, 1, 1, 1, 1) 0.0606061 0.636364 0.30303;
   (0, 2, 1, 1, 1, 1) 0.285714 0.428571 0.285714;
   (1, 2, 1, 1, 1, 1) 0.0150376 0.714286 0.270677;
   (2, 2, 1, 1, 1, 1) 0.153846 0.384615 0.461538;
   (0, 0, 2, 1, 1, 1) 0.333333 0.333333 0.333333;
   (1, 0, 2, 1, 1, 1) 0.222222 0.333333 0.444444;
   (2, 0, 2, 1, 1, 1) 0.285714 0.428571 0.285714;
   (0, 1, 2, 1, 1, 1) 0.222222 0.555556 0.222222;
   (1, 1, 2, 1, 1, 1) 0.00257069 0.305913 0.691517;
   (2, 1, 2, 1, 1, 1) 0.0350877 0.561404 0.403509;
   (0, 2, 2, 1, 1, 1) 0.333333 0.333333 0.333333;
   (1, 2, 2, 1, 1, 1) 0.0046729 0.595794 0.399533;
   (2, 2, 2, 1, 1, 1) 0.0714286 0.321429 0.607143;
   (0, 0, 3, 1, 1, 1) 0.333333 0.333333 0.333333;
   (1, 0, 3, 1, 1, 1) 0.181818 0.181818 0.636364;
   (2, 0, 3, 1, 1, 1) 0.333333 0.333333 0.333333;
   (0, 1, 3, 1, 1, 1) 0.133333 0.133333 0.733333;
   (1, 1, 3, 1, 1, 1) 0.00170551 0.147811 0.850483;
   (2, 1, 3, 1, 1, 1) 0.0152672 0.503817 0.480916;
   (0, 2, 3, 1, 1, 1) 0.166667 0.277778 0.555556;
   (1, 2, 3, 1, 1, 1) 0.00201884 0.459623 0.538358;
   (2, 2, 3, 1, 1, 1) 0.0298507 0.298507 0.671642;
   (0, 0, 4, 1, 1, 1) 0.25 0.25 0.5;
   (1, 0, 4, 1, 1, 1) 0.0869565 0.130435 0.782609;
   (2, 0, 4, 1, 1, 1) 0.25 0.375 0.375;
   (0, 1, 4, 1, 1, 1) 0.0588235 0.205882 0.735294;
   (1, 1, 4, 1, 1, 1) 0.000788644 0.112185 0.887027;
   (2, 1, 4, 1, 1, 1) 0.00518135 0.378238 0.61658;
   (0, 2, 4, 1, 1, 1) 0.0566038 0.339623 0.603774;
   (1, 2, 4, 1, 1, 1) 0.00183225 0.305578 0.69259;
   (2, 2, 4, 1, 1, 1) 0.00598802 0.203593 0.790419;
   (0, 0, 0, 2, 1, 1) 0.333333 0.333333 0.333333;
   (1, 0, 0, 2, 1, 1) 0.25 0.5 0.25;
   (2, 0, 0, 2, 1, 1) 0.333333 0.333333 0.333333;
   (0, 1, 0, 2, 1, 1) 0.333333 0.333333 0.333333;
   (1, 1, 0, 2, 1, 1) 0.0454545 0.863636 0.0909091;
   (2, 1, 0, 2, 1, 1) 0.285714 0.428571 0.285714;
   (0, 2, 0, 2, 1, 1) 0.333333 0.333333 0.333333;
   (1, 2, 0, 2, 1, 1) 0.285714 0.285714 0.428571;
   (2, 2, 0, 2, 1, 1) 0.333333 0.333333 0.333333;
   (0, 0, 1, 2, 1, 1) 0.333333 0.333333 0.333333;
   (1, 0, 1, 2, 1, 1) 0.333333 0.333333 0.333333;
   (2, 0, 1, 2, 1, 1) 0.333333 0.333333 0.333333;
   (0, 1, 1, 2, 1, 1) 0.333333 0.333333 0.333333;
   (1, 1, 1, 2, 1, 1) 0.08 0.68 0.24;
   (2, 1, 1, 2, 1, 1) 0.285714 0.428571 0.285714;
   (0, 2, 1, 2, 1, 1) 0.333333 0.333333 0.333333;
   (1, 2, 1, 2, 1, 1) 0.222222 0.555556 0.222222;
   (2, 2, 1, 2, 1, 1) 0.333333 0.333333 0.333333;
   (0, 0, 2, 2, 1, 1) 0.333333 0.333333 0.333333;
   (1, 0, 2, 2, 1, 1) 0.333333 0.333333 0.333333;
   (2, 0, 2, 2, 1, 1) 0.333333 0.333333 0.333333;
   (0, 1, 2, 2, 1, 1) 0.333333 0.333333 0.333333;
   (1, 1, 2, 2, 1, 1) 0.0465116 0.651163 0.302326;
   (2, 1, 2, 2, 1, 1) 0.25 0.375 0.375;
   (0, 2, 2, 2, 1, 1) 0.333333 0.333333 0.333333;
   (1, 2, 2, 2, 1, 1) 0.142857 0.285714 0.571429;
   (2, 2, 2, 2, 1, 1) 0.333333 0.333333 0.333333;
   (0, 0, 3, 2, 1, 1) 0.333333 0.333333 0.333333;
   (1, 0, 3, 2, 1, 1) 0.333333 0.333333 0.333333;
   (2, 0, 3, 2, 1, 1) 0.333333 0.333333 0.333333;
   (0, 1, 3, 2, 1, 1) 0.333333 0.333333 0.333333;
   (1, 1, 3, 2, 1, 1) 0.0240964 0.638554 0.337349;
   (2, 1, 3, 2, 1, 1) 0.222222 0.333333 0.444444;
   (0, 2, 3, 2, 1, 1) 0.333333 0.333333 0.333333;
   (1, 2, 3, 2, 1, 1) 0.0606061 0.454545 0.484848;
   (2, 2, 3, 2, 1, 1) 0.333333 0.333333 0.333333;
   (0, 0, 4, 2, 1, 1) 0.333333 0.333333 0.333333;
   (1, 0, 4, 2, 1, 1) 0.222222 0.333333 0.444444;
   (2, 0, 4, 2, 1, 1) 0.333333 0.333333 0.333333;
   (0, 1, 4, 2, 1, 1) 0.2 0.4 0.4;
   (1, 1, 4, 2, 1, 1) 0.00616333 0.474576 0.51926;
   (2, 1, 4, 2, 1, 1) 0.0487805 0.341463 0.609756;
   (0, 2, 4, 2, 1, 1) 0.25 0.25 0.5;
   (1, 2, 4, 2, 1, 1) 0.00823045 0.238683 0.753086;
   (2, 2, 4, 2, 1, 1) 0.0512821 0.307692 0.641026;
   (0, 0, 0, 0, 2, 1) 0.5 0.2 0.3;
   (1, 0, 0, 0, 2, 1) 0.333333 0.333333 0.333333;
   (2, 0, 0, 0, 2, 1) 0.333333 0.333333 0.333333;
   (0, 1, 0, 0, 2, 1) 0.333333 0.333333 0.333333;
   (1, 1, 0, 0, 2, 1) 0.222222 0.444444 0.333333;
   (2, 1, 0, 0, 2, 1) 0.333333 0.333333 0.333333;
   (0, 2, 0, 0, 2, 1) 0.333333 0.333333 0.333333;
   (1, 2, 0, 0, 2, 1) 0.333333 0.333333 0.333333;
   (2, 2, 0, 0, 2, 1) 0.333333 0.333333 0.333333;
   (0, 0, 1, 0, 2, 1) 0.375 0.25 0.375;
   (1, 0, 1, 0, 2, 1) 0.333333 0.333333 0.333333;
   (2, 0, 1, 0, 2, 1) 0.333333 0.333333 0.333333;
   (0, 1, 1, 0, 2, 1) 0.333333 0.333333 0.333333;
   (1, 1, 1, 0, 2, 1) 0.222222 0.444444 0.333333;
   (2, 1, 1, 0, 2, 1) 0.333333 0.333333 0.333333;
   (0, 2, 1, 0, 2, 1) 0.428571 0.285714 0.285714;
   (1, 2, 1, 0, 2, 1) 0.333333 0.333333 0.333333;
   (2, 2, 1, 0, 2, 1) 0.333333 0.333333 0.333333;
   (0, 0, 2, 0, 2, 1) 0.5 0.2 0.3;
   (1, 0, 2, 0, 2, 1) 0.375 0.375 0.25;
   (2, 0, 2, 0, 2, 1) 0.333333 0.333333 0.333333;
   (0, 1, 2, 0, 2, 1) 0.25 0.375 0.375;
   (1, 1, 2, 0, 2, 1) 0.285714 0.285714 0.428571;
   (2, 1, 2, 0, 2, 1) 0.333333 0.333333 0.333333;
   (0, 2, 2, 0, 2, 1) 0.333333 0.333333 0.333333;
   (1, 2, 2, 0, 2, 1) 0.333333 0.333333 0.333333;
   (2, 2, 2, 0, 2, 1) 0.285714 0.428571 0.285714;
   (0, 0, 3, 0, 2, 1) 0.6 0.133333 0.266667;
   (1, 0, 3, 0, 2, 1) 0.333333 0.333333 0.333333;
   (2, 0, 3, 0, 2, 1) 0.428571 0.285714 0.285714;
   (0, 1, 3, 0, 2, 1) 0.222222 0.333333 0.444444;
   (1, 1, 3, 0, 2, 1) 0.133333 0.666667 0.2;
   (2, 1, 3, 0, 2, 1) 0.333333 0.333333 0.333333;
   (0, 2, 3, 0, 2, 1) 0.384615 0.153846 0.461538;
   (1, 2, 3, 0, 2, 1) 0.25 0.375 0.375;
   (2, 2, 3, 0, 2, 1) 0.285714 0.285714 0.428571;
   (0, 0, 4, 0, 2, 1) 0.478261 0.0869565 0.434783;
   (1, 0, 4, 0, 2, 1) 0.222222 0.555556 0.222222;
   (2, 0, 4, 0, 2, 1) 0.333333 0.333333 0.333333;
   (0, 1, 4, 0, 2, 1) 0.047619 0.357143 0.595238;
   (1, 1, 4, 0, 2, 1) 0.0526316 0.631579 0.315789;
   (2, 1, 4, 0, 2, 1) 0.153846 0.230769 0.615385;
   (0, 2, 4, 0, 2, 1) 0.261905 0.0714286 0.666667;
   (1, 2, 4, 0, 2, 1) 0.133333 0.266667 0.6;
   (2, 2, 4, 0, 2, 1) 0.153846 0.230769 0.615385;
   (0, 0, 0, 1, 2, 1) 0.333333 0.333333 0.333333;
   (1, 0, 0, 1, 2, 1) 0.285714 0.428571 0.285714;
   (2, 0, 0, 1, 2, 1) 0.333333 0.333333 0.333333;
   (0, 1, 0, 1, 2, 1) 0.25 0.5 0.25;
   (1, 1, 0, 1, 2, 1) 0.00766284 0.915709 0.0766284;
   (2, 1, 0, 1, 2, 1) 0.111111 0.444444 0.444444;
   (0, 2, 0, 1, 2, 1) 0.333333 0.333333 0.333333;
   (1, 2, 0, 1, 2, 1) 0.111111 0.666667 0.222222;
   (2, 2, 0, 1, 2, 1) 0.222222 0.333333 0.444444;
   (0, 0, 1, 1, 2, 1) 0.428571 0.285714 0.285714;
   (1, 0, 1, 1, 2, 1) 0.285714 0.428571 0.285714;
   (2, 0, 1, 1, 2, 1) 0.333333 0.333333 0.333333;
   (0, 1, 1, 1, 2, 1) 0.333333 0.333333 0.333333;
   (1, 1, 1, 1, 2, 1) 0.00549451 0.843407 0.151099;
   (2, 1, 1, 1, 2, 1) 0.08 0.68 0.24;
   (0, 2, 1, 1, 2, 1) 0.285714 0.285714 0.428571;
   (1, 2, 1, 1, 2, 1) 0.0857143 0.542857 0.371429;
   (2, 2, 1, 1, 2, 1) 0.222222 0.444444 0.333333;
   (0, 0, 2, 1, 2, 1) 0.333333 0.333333 0.333333;
   (1, 0, 2, 1, 2, 1) 0.222222 0.555556 0.222222;
   (2, 0, 2, 1, 2, 1) 0.333333 0.333333 0.333333;
   (0, 1, 2, 1, 2, 1) 0.222222 0.555556 0.222222;
   (1, 1, 2, 1, 2, 1) 0.00395257 0.811594 0.184453;
   (2, 1, 2, 1, 2, 1) 0.0689655 0.551724 0.37931;
   (0, 2, 2, 1, 2, 1) 0.285714 0.285714 0.428571;
   (1, 2, 2, 1, 2, 1) 0.0120482 0.608434 0.379518;
   (2, 2, 2, 1, 2, 1) 0.125 0.375 0.5;
   (0, 0, 3, 1, 2, 1) 0.285714 0.428571 0.285714;
   (1, 0, 3, 1, 2, 1) 0.2 0.3 0.5;
   (2, 0, 3, 1, 2, 1) 0.25 0.375 0.375;
   (0, 1, 3, 1, 2, 1) 0.153846 0.461538 0.384615;
   (1, 1, 3, 1, 2, 1) 0.00311915 0.742982 0.253899;
   (2, 1, 3, 1, 2, 1) 0.04 0.546667 0.413333;
   (0, 2, 3, 1, 2, 1) 0.2 0.5 0.3;
   (1, 2, 3, 1, 2, 1) 0.00815661 0.587276 0.404568;
   (2, 2, 3, 1, 2, 1) 0.0384615 0.442308 0.519231;
   (0, 0, 4, 1, 2, 1) 0.285714 0.428571 0.285714;
   (1, 0, 4, 1, 2, 1) 0.0740741 0.481481 0.444444;
   (2, 0, 4, 1, 2, 1) 0.333333 0.333333 0.333333;
   (0, 1, 4, 1, 2, 1) 0.0731707 0.512195 0.414634;
   (1, 1, 4, 1, 2, 1) 0.001886 0.615465 0.382649;
   (2, 1, 4, 1, 2, 1) 0.012931 0.456897 0.530172;
   (0, 2, 4, 1, 2, 1) 0.0769231 0.192308 0.730769;
   (1, 2, 4, 1, 2, 1) 0.00336826 0.492889 0.503743;
   (2, 2, 4, 1, 2, 1) 0.00873362 0.331878 0.659389;
   (0, 0, 0, 2, 2, 1) 0.333333 0.333333 0.333333;
   (1, 0, 0, 2, 2, 1) 0.333333 0.333333 0.333333;
   (2, 0, 0, 2, 2, 1) 0.333333 0.333333 0.333333;
   (0, 1, 0, 2, 2, 1) 0.285714 0.428571 0.285714;
   (1, 1, 0, 2, 2, 1) 0.0714286 0.785714 0.142857;
   (2, 1, 0, 2, 2, 1) 0.285714 0.428571 0.285714;
   (0, 2, 0, 2, 2, 1) 0.333333 0.333333 0.333333;
   (1, 2, 0, 2, 2, 1) 0.333333 0.333333 0.333333;
   (2, 2, 0, 2, 2, 1) 0.333333 0.333333 0.333333;
   (0, 0, 1, 2, 2, 1) 0.333333 0.333333 0.333333;
   (1, 0, 1, 2, 2, 1) 0.333333 0.333333 0.333333;
   (2, 0, 1, 2, 2, 1) 0.333333 0.333333 0.333333;
   (0, 1, 1, 2, 2, 1) 0.333333 0.333333 0.333333;
   (1, 1, 1, 2, 2, 1) 0.117647 0.764706 0.117647;
   (2, 1, 1, 2, 2, 1) 0.333333 0.333333 0.333333;
   (0, 2, 1, 2, 2, 1) 0.333333 0.333333 0.333333;
   (1, 2, 1, 2, 2, 1) 0.222222 0.555556 0.222222;
   (2, 2, 1, 2, 2, 1) 0.333333 0.333333 0.333333;
   (0, 0, 2, 2, 2, 1) 0.333333 0.333333 0.333333;
   (1, 0, 2, 2, 2, 1) 0.285714 0.428571 0.285714;
   (2, 0, 2, 2, 2, 1) 0.333333 0.333333 0.333333;
   (0, 1, 2, 2, 2, 1) 0.333333 0.333333 0.333333;
   (1, 1, 2, 2, 2, 1) 0.0952381 0.761905 0.142857;
   (2, 1, 2, 2, 2, 1) 0.285714 0.428571 0.285714;
   (0, 2, 2, 2, 2, 1) 0.333333 0.333333 0.333333;
   (1, 2, 2, 2, 2, 1) 0.166667 0.416667 0.416667;
   (2, 2, 2, 2, 2, 1) 0.285714 0.285714 0.428571;
   (0, 0, 3, 2, 2, 1) 0.333333 0.333333 0.333333;
   (1, 0, 3, 2, 2, 1) 0.333333 0.333333 0.333333;
   (2, 0, 3, 2, 2, 1) 0.333333 0.333333 0.333333;
   (0, 1, 3, 2, 2, 1) 0.285714 0.285714 0.428571;
   (1, 1, 3, 2, 2, 1) 0.04 0.64 0.32;
   (2, 1, 3, 2, 2, 1) 0.285714 0.428571 0.285714;
   (0, 2, 3, 2, 2, 1) 0.375 0.25 0.375;
   (1, 2, 3, 2, 2, 1) 0.133333 0.466667 0.4;
   (2, 2, 3, 2, 2, 1) 0.2 0.3 0.5;
   (0, 0, 4, 2, 2, 1) 0.230769 0.153846 0.615385;
   (1, 0, 4, 2, 2, 1) 0.222222 0.333333 0.444444;
   (2, 0, 4, 2, 2, 1) 0.285714 0.428571 0.285714;
   (0, 1, 4, 2, 2, 1) 0.0465116 0.348837 0.604651;
   (1, 1, 4, 2, 2, 1) 0.00777202 0.492228 0.5;
   (2, 1, 4, 2, 2, 1) 0.0540541 0.351351 0.594595;
   (0, 2, 4, 2, 2, 1) 0.222222 0.222222 0.555556;
   (1, 2, 4, 2, 2, 1) 0.0114943 0.333333 0.655172;
   (2, 2, 4, 2, 2, 1) 0.0625 0.21875 0.71875;
   (0, 0, 0, 0, 0, 2) 0.862069 0.0172414 0.12069;
   (1, 0, 0, 0, 0, 2) 0.333333 0.333333 0.333333;
   (2, 0, 0, 0, 0, 2) 0.428571 0.285714 0.285714;
   (0, 1, 0, 0, 0, 2) 0.333333 0.333333 0.333333;
   (1, 1, 0, 0, 0, 2) 0.333333 0.333333 0.333333;
   (2, 1, 0, 0, 0, 2) 0.333333 0.333333 0.333333;
   (0, 2, 0, 0, 0, 2) 0.666667 0.166667 0.166667;
   (1, 2, 0, 0, 0, 2) 0.333333 0.333333 0.333333;
   (2, 2, 0, 0, 0, 2) 0.333333 0.333333 0.333333;
   (0, 0, 1, 0, 0, 2) 0.839623 0.00628931 0.154088;
   (1, 0, 1, 0, 0, 2) 0.333333 0.333333 0.333333;
   (2, 0, 1, 0, 0, 2) 0.285714 0.285714 0.428571;
   (0, 1, 1, 0, 0, 2) 0.285714 0.428571 0.285714;
   (1, 1, 1, 0, 0, 2) 0.25 0.5 0.25;
   (2, 1, 1, 0, 0, 2) 0.333333 0.333333 0.333333;
   (0, 2, 1, 0, 0, 2) 0.485714 0.0857143 0.428571;
   (1, 2, 1, 0, 0, 2) 0.333333 0.333333 0.333333;
   (2, 2, 1, 0, 0, 2) 0.333333 0.333333 0.333333;
   (0, 0, 2, 0, 0, 2) 0.772152 0.0105485 0.2173;
   (1, 0, 2, 0, 0, 2) 0.428571 0.285714 0.285714;
   (2, 0, 2, 0, 0, 2) 0.5 0.25 0.25;
   (0, 1, 2, 0, 0, 2) 0.333333 0.333333 0.333333;
   (1, 1, 2, 0, 0, 2) 0.25 0.5 0.25;
   (2, 1, 2, 0, 0, 2) 0.333333 0.333333 0.333333;
   (0, 2, 2, 0, 0, 2) 0.383562 0.0684932 0.547945;
   (1, 2, 2, 0, 0, 2) 0.222222 0.333333 0.444444;
   (2, 2, 2, 0, 0, 2) 0.444444 0.222222 0.333333;
   (0, 0, 3, 0, 0, 2) 0.656315 0.00621118 0.337474;
   (1, 0, 3, 0, 0, 2) 0.375 0.25 0.375;
   (2, 0, 3, 0, 0, 2) 0.363636 0.181818 0.454545;
   (0, 1, 3, 0, 0, 2) 0.153846 0.384615 0.461538;
   (1, 1, 3, 0, 0, 2) 0.25 0.25 0.5;
   (2, 1, 3, 0, 0, 2) 0.333333 0.333333 0.333333;
   (0, 2, 3, 0, 0, 2) 0.388889 0.00925926 0.601852;
   (1, 2, 3, 0, 0, 2) 0.285714 0.285714 0.428571;
   (2, 2, 3, 0, 0, 2) 0.1875 0.1875 0.625;
   (0, 0, 4, 0, 0, 2) 0.473002 0.00431965 0.522678;
   (1, 0, 4, 0, 0, 2) 0.285714 0.285714 0.428571;
   (2, 0, 4, 0, 0, 2) 0.1 0.1 0.8;
   (0, 1, 4, 0, 0, 2) 0.25 0.25 0.5;
   (1, 1, 4, 0, 0, 2) 0.2 0.2 0.6;
   (2, 1, 4, 0, 0, 2) 0.333333 0.333333 0.333333;
   (0, 2, 4, 0, 0, 2) 0.206897 0.00738916 0.785714;
   (1, 2, 4, 0, 0, 2) 0.181818 0.272727 0.545455;
   (2, 2, 4, 0, 0, 2) 0.195652 0.0652174 0.73913;
   (0, 0, 0, 1, 0, 2) 0.333333 0.333333 0.333333;
   (1, 0, 0, 1, 0, 2) 0.333333 0.333333 0.333333;
   (2, 0, 0, 1, 0, 2) 0.333333 0.333333 0.333333;
   (0, 1, 0, 1, 0, 2) 0.428571 0.285714 0.285714;
   (1, 1, 0, 1, 0, 2) 0.105263 0.736842 0.157895;
   (2, 1, 0, 1, 0, 2) 0.333333 0.333333 0.333333;
   (0, 2, 0, 1, 0, 2) 0.333333 0.333333 0.333333;
   (1, 2, 0, 1, 0, 2) 0.181818 0.636364 0.181818;
   (2, 2, 0, 1, 0, 2) 0.333333 0.333333 0.333333;
   (0, 0, 1, 1, 0, 2) 0.428571 0.285714 0.285714;
   (1, 0, 1, 1, 0, 2) 0.285714 0.428571 0.285714;
   (2, 0, 1, 1, 0, 2) 0.333333 0.333333 0.333333;
   (0, 1, 1, 1, 0, 2) 0.333333 0.333333 0.333333;
   (1, 1, 1, 1, 0, 2) 0.0416667 0.833333 0.125;
   (2, 1, 1, 1, 0, 2) 0.285714 0.285714 0.428571;
   (0, 2, 1, 1, 0, 2) 0.285714 0.285714 0.428571;
   (1, 2, 1, 1, 0, 2) 0.153846 0.384615 0.461538;
   (2, 2, 1, 1, 0, 2) 0.333333 0.333333 0.333333;
   (0, 0, 2, 1, 0, 2) 0.375 0.25 0.375;
   (1, 0, 2, 1, 0, 2) 0.375 0.375 0.25;
   (2, 0, 2, 1, 0, 2) 0.333333 0.333333 0.333333;
   (0, 1, 2, 1, 0, 2) 0.222222 0.333333 0.444444;
   (1, 1, 2, 1, 0, 2) 0.0454545 0.651515 0.30303;
   (2, 1, 2, 1, 0, 2) 0.222222 0.444444 0.333333;
   (0, 2, 2, 1, 0, 2) 0.333333 0.333333 0.333333;
   (1, 2, 2, 1, 0, 2) 0.0714286 0.428571 0.5;
   (2, 2, 2, 1, 0, 2) 0.285714 0.285714 0.428571;
   (0, 0, 3, 1, 0, 2) 0.285714 0.285714 0.428571;
   (1, 0, 3, 1, 0, 2) 0.25 0.25 0.5;
   (2, 0, 3, 1, 0, 2) 0.333333 0.333333 0.333333;
   (0, 1, 3, 1, 0, 2) 0.285714 0.285714 0.428571;
   (1, 1, 3, 1, 0, 2) 0.0352941 0.541176 0.423529;
   (2, 1, 3, 1, 0, 2) 0.285714 0.285714 0.428571;
   (0, 2, 3, 1, 0, 2) 0.25 0.25 0.5;
   (1, 2, 3, 1, 0, 2) 0.075 0.3 0.625;
   (2, 2, 3, 1, 0, 2) 0.25 0.25 0.5;
   (0, 0, 4, 1, 0, 2) 0.333333 0.333333 0.333333;
   (1, 0, 4, 1, 0, 2) 0.25 0.375 0.375;
   (2, 0, 4, 1, 0, 2) 0.333333 0.333333 0.333333;
   (0, 1, 4, 1, 0, 2) 0.25 0.375 0.375;
   (1, 1, 4, 1, 0, 2) 0.0322581 0.311828 0.655914;
   (2, 1, 4, 1, 0, 2) 0.222222 0.444444 0.333333;
   (0, 2, 4, 1, 0, 2) 0.222222 0.333333 0.444444;
   (1, 2, 4, 1, 0, 2) 0.0344828 0.252874 0.712644;
   (2, 2, 4, 1, 0, 2) 0.0909091 0.227273 0.681818;
   (0, 0, 0, 2, 0, 2) 0.428571 0.285714 0.285714;
   (1, 0, 0, 2, 0, 2) 0.333333 0.333333 0.333333;
   (2, 0, 0, 2, 0, 2) 0.333333 0.333333 0.333333;
   (0, 1, 0, 2, 0, 2) 0.333333 0.333333 0.333333;
   (1, 1, 0, 2, 0, 2) 0.333333 0.333333 0.333333;
   (2, 1, 0, 2, 0, 2) 0.333333 0.333333 0.333333;
   (0, 2, 0, 2, 0, 2) 0.333333 0.333333 0.333333;
   (1, 2, 0, 2, 0, 2) 0.333333 0.333333 0.333333;
   (2, 2, 0, 2, 0, 2) 0.285714 0.428571 0.285714;
   (0, 0, 1, 2, 0, 2) 0.583333 0.166667 0.25;
   (1, 0, 1, 2, 0, 2) 0.333333 0.333333 0.333333;
   (2, 0, 1, 2, 0, 2) 0.333333 0.333333 0.333333;
   (0, 1, 1, 2, 0, 2) 0.333333 0.333333 0.333333;
   (1, 1, 1, 2, 0, 2) 0.333333 0.333333 0.333333;
   (2, 1, 1, 2, 0, 2) 0.25 0.375 0.375;
   (0, 2, 1, 2, 0, 2) 0.428571 0.285714 0.285714;
   (1, 2, 1, 2, 0, 2) 0.333333 0.333333 0.333333;
   (2, 2, 1, 2, 0, 2) 0.333333 0.333333 0.333333;
   (0, 0, 2, 2, 0, 2) 0.363636 0.181818 0.454545;
   (1, 0, 2, 2, 0, 2) 0.333333 0.333333 0.333333;
   (2, 0, 2, 2, 0, 2) 0.333333 0.333333 0.333333;
   (0, 1, 2, 2, 0, 2) 0.333333 0.333333 0.333333;
   (1, 1, 2, 2, 0, 2) 0.333333 0.333333 0.333333;
   (2, 1, 2, 2, 0, 2) 0.333333 0.333333 0.333333;
   (0, 2, 2, 2, 0, 2) 0.428571 0.285714 0.285714;
   (1, 2, 2, 2, 0, 2) 0.285714 0.428571 0.285714;
   (2, 2, 2, 2, 0, 2) 0.333333 0.333333 0.333333;
   (0, 0, 3, 2, 0, 2) 0.444444 0.222222 0.333333;
   (1, 0, 3, 2, 0, 2) 0.333333 0.333333 0.333333;
   (2, 0, 3, 2, 0, 2) 0.333333 0.333333 0.333333;
   (0, 1, 3, 2, 0, 2) 0.333333 0.333333 0.333333;
   (1, 1, 3, 2, 0, 2) 0.222222 0.444444 0.333333;
   (2, 1, 3, 2, 0, 2) 0.285714 0.285714 0.428571;
   (0, 2, 3, 2, 0, 2) 0.3 0.3 0.4;
   (1, 2, 3, 2, 0, 2) 0.285714 0.428571 0.285714;
   (2, 2, 3, 2, 0, 2) 0.285714 0.285714 0.428571;
   (0, 0, 4, 2, 0, 2) 0.352941 0.117647 0.529412;
   (1, 0, 4, 2, 0, 2) 0.333333 0.333333 0.333333;
   (2, 0, 4, 2, 0, 2) 0.285714 0.285714 0.428571;
   (0, 1, 4, 2, 0, 2) 0.333333 0.333333 0.333333;
   (1, 1, 4, 2, 0, 2) 0.181818 0.363636 0.454545;
   (2, 1, 4, 2, 0, 2) 0.285714 0.285714 0.428571;
   (0, 2, 4, 2, 0, 2) 0.25 0.125 0.625;
   (1, 2, 4, 2, 0, 2) 0.181818 0.363636 0.454545;
   (2, 2, 4, 2, 0, 2) 0.285714 0.285714 0.428571;
   (0, 0, 0, 0, 1, 2) 0.5 0.25 0.25;
   (1, 0, 0, 0, 1, 2) 0.333333 0.333333 0.333333;
   (2, 0, 0, 0, 1, 2) 0.333333 0.333333 0.333333;
   (0, 1, 0, 0, 1, 2) 0.333333 0.333333 0.333333;
   (1, 1, 0, 0, 1, 2) 0.285714 0.428571 0.285714;
   (2, 1, 0, 0, 1, 2) 0.333333 0.333333 0.333333;
   (0, 2, 0, 0, 1, 2) 0.333333 0.333333 0.333333;
   (1, 2, 0, 0, 1, 2) 0.333333 0.333333 0.333333;
   (2, 2, 0, 0, 1, 2) 0.333333 0.333333 0.333333;
   (0, 0, 1, 0, 1, 2) 0.666667 0.133333 0.2;
   (1, 0, 1, 0, 1, 2) 0.333333 0.333333 0.333333;
   (2, 0, 1, 0, 1, 2) 0.333333 0.333333 0.333333;
   (0, 1, 1, 0, 1, 2) 0.333333 0.333333 0.333333;
   (1, 1, 1, 0, 1, 2) 0.25 0.5 0.25;
   (2, 1, 1, 0, 1, 2) 0.333333 0.333333 0.333333;
   (0, 2, 1, 0, 1, 2) 0.333333 0.333333 0.333333;
   (1, 2, 1, 0, 1, 2) 0.333333 0.333333 0.333333;
   (2, 2, 1, 0, 1, 2) 0.333333 0.333333 0.333333;
   (0, 0, 2, 0, 1, 2) 0.363636 0.181818 0.454545;
   (1, 0, 2, 0, 1, 2) 0.333333 0.333333 0.333333;
   (2, 0, 2, 0, 1, 2) 0.333333 0.333333 0.333333;
   (0, 1, 2, 0, 1, 2) 0.333333 0.333333 0.333333;
   (1, 1, 2, 0, 1, 2) 0.181818 0.454545 0.363636;
   (2, 1, 2, 0, 1, 2) 0.333333 0.333333 0.333333;
   (0, 2, 2, 0, 1, 2) 0.25 0.25 0.5;
   (1, 2, 2, 0, 1, 2) 0.285714 0.428571 0.285714;
   (2, 2, 2, 0, 1, 2) 0.333333 0.333333 0.333333;
   (0, 0, 3, 0, 1, 2) 0.384615 0.153846 0.461538;
   (1, 0, 3, 0, 1, 2) 0.285714 0.285714 0.428571;
   (2, 0, 3, 0, 1, 2) 0.333333 0.333333 0.333333;
   (0, 1, 3, 0, 1, 2) 0.285714 0.285714 0.428571;
   (1, 1, 3, 0, 1, 2) 0.2 0.3 0.5;
   (2, 1, 3, 0, 1, 2) 0.285714 0.428571 0.285714;
   (0, 2, 3, 0, 1, 2) 0.363636 0.181818 0.454545;
   (1, 2, 3, 0, 1, 2) 0.25 0.25 0.5;
   (2, 2, 3, 0, 1, 2) 0.285714 0.285714 0.428571;
   (0, 0, 4, 0, 1, 2) 0.411765 0.117647 0.470588;
   (1, 0, 4, 0, 1, 2) 0.285714 0.428571 0.285714;
   (2, 0, 4, 0, 1, 2) 0.25 0.25 0.5;
   (0, 1, 4, 0, 1, 2) 0.333333 0.333333 0.333333;
   (1, 1, 4, 0, 1, 2) 0.181818 0.454545 0.363636;
   (2, 1, 4, 0, 1, 2) 0.285714 0.428571 0.285714;
   (0, 2, 4, 0, 1, 2) 0.214286 0.285714 0.5;
   (1, 2, 4, 0, 1, 2) 0.166667 0.166667 0.666667;
   (2, 2, 4, 0, 1, 2) 0.333333 0.333333 0.333333;
   (0, 0, 0, 1, 1, 2) 0.333333 0.333333 0.333333;
   (1, 0, 0, 1, 1, 2) 0.285714 0.428571 0.285714;
   (2, 0, 0, 1, 1, 2) 0.333333 0.333333 0.333333;
   (0, 1, 0, 1, 1, 2) 0.285714 0.428571 0.285714;
   (1, 1, 0, 1, 1, 2) 0.0176991 0.893805 0.0884956;
   (2, 1, 0, 1, 1, 2) 0.25 0.375 0.375;
   (0, 2, 0, 1, 1, 2) 0.285714 0.428571 0.285714;
   (1, 2, 0, 1, 1, 2) 0.153846 0.538462 0.307692;
   (2, 2, 0, 1, 1, 2) 0.333333 0.333333 0.333333;
   (0, 0, 1, 1, 1, 2) 0.285714 0.428571 0.285714;
   (1, 0, 1, 1, 1, 2) 0.285714 0.428571 0.285714;
   (2, 0, 1, 1, 1, 2) 0.333333 0.333333 0.333333;
   (0, 1, 1, 1, 1, 2) 0.285714 0.428571 0.285714;
   (1, 1, 1, 1, 1, 2) 0.0113208 0.815094 0.173585;
   (2, 1, 1, 1, 1, 2) 0.166667 0.333333 0.5;
   (0, 2, 1, 1, 1, 2) 0.333333 0.333333 0.333333;
   (1, 2, 1, 1, 1, 2) 0.0666667 0.577778 0.355556;
   (2, 2, 1, 1, 1, 2) 0.333333 0.333333 0.333333;
   (0, 0, 2, 1, 1, 2) 0.333333 0.333333 0.333333;
   (1, 0, 2, 1, 1, 2) 0.375 0.25 0.375;
   (2, 0, 2, 1, 1, 2) 0.333333 0.333333 0.333333;
   (0, 1, 2, 1, 1, 2) 0.133333 0.6 0.266667;
   (1, 1, 2, 1, 1, 2) 0.00773196 0.71134 0.280928;
   (2, 1, 2, 1, 1, 2) 0.2 0.4 0.4;
   (0, 2, 2, 1, 1, 2) 0.285714 0.428571 0.285714;
   (1, 2, 2, 1, 1, 2) 0.0188679 0.40566 0.575472;
   (2, 2, 2, 1, 1, 2) 0.25 0.375 0.375;
   (0, 0, 3, 1, 1, 2) 0.333333 0.333333 0.333333;
   (1, 0, 3, 1, 1, 2) 0.222222 0.222222 0.555556;
   (2, 0, 3, 1, 1, 2) 0.333333 0.333333 0.333333;
   (0, 1, 3, 1, 1, 2) 0.153846 0.461538 0.384615;
   (1, 1, 3, 1, 1, 2) 0.00444444 0.604444 0.391111;
   (2, 1, 3, 1, 1, 2) 0.0952381 0.428571 0.47619;
   (0, 2, 3, 1, 1, 2) 0.222222 0.222222 0.555556;
   (1, 2, 3, 1, 1, 2) 0.015625 0.291667 0.692708;
   (2, 2, 3, 1, 1, 2) 0.142857 0.214286 0.642857;
   (0, 0, 4, 1, 1, 2) 0.333333 0.333333 0.333333;
   (1, 0, 4, 1, 1, 2) 0.272727 0.272727 0.454545;
   (2, 0, 4, 1, 1, 2) 0.333333 0.333333 0.333333;
   (0, 1, 4, 1, 1, 2) 0.285714 0.285714 0.428571;
   (1, 1, 4, 1, 1, 2) 0.00451467 0.376975 0.61851;
   (2, 1, 4, 1, 1, 2) 0.0606061 0.272727 0.666667;
   (0, 2, 4, 1, 1, 2) 0.133333 0.266667 0.6;
   (1, 2, 4, 1, 1, 2) 0.00761421 0.19797 0.794416;
   (2, 2, 4, 1, 1, 2) 0.0416667 0.166667 0.791667;
   (0, 0, 0, 2, 1, 2) 0.333333 0.333333 0.333333;
   (1, 0, 0, 2, 1, 2) 0.333333 0.333333 0.333333;
   (2, 0, 0, 2, 1, 2) 0.333333 0.333333 0.333333;
   (0, 1, 0, 2, 1, 2) 0.333333 0.333333 0.333333;
   (1, 1, 0, 2, 1, 2) 0.285714 0.428571 0.285714;
   (2, 1, 0, 2, 1, 2) 0.333333 0.333333 0.333333;
   (0, 2, 0, 2, 1, 2) 0.333333 0.333333 0.333333;
   (1, 2, 0, 2, 1, 2) 0.333333 0.333333 0.333333;
   (2, 2, 0, 2, 1, 2) 0.333333 0.333333 0.333333;
   (0, 0, 1, 2, 1, 2) 0.333333 0.333333 0.333333;
   (1, 0, 1, 2, 1, 2) 0.333333 0.333333 0.333333;
   (2, 0, 1, 2, 1, 2) 0.333333 0.333333 0.333333;
   (0, 1, 1, 2, 1, 2) 0.333333 0.333333 0.333333;
   (1, 1, 1, 2, 1, 2) 0.25 0.375 0.375;
   (2, 1, 1, 2, 1, 2) 0.333333 0.333333 0.333333;
   (0, 2, 1, 2, 1, 2) 0.333333 0.333333 0.333333;
   (1, 2, 1, 2, 1, 2) 0.285714 0.428571 0.285714;
   (2, 2, 1, 2, 1, 2) 0.333333 0.333333 0.333333;
   (0, 0, 2, 2, 1, 2) 0.333333 0.333333 0.333333;
   (1, 0, 2, 2, 1, 2) 0.333333 0.333333 0.333333;
   (2, 0, 2, 2, 1, 2) 0.333333 0.333333 0.333333;
   (0, 1, 2, 2, 1, 2) 0.333333 0.333333 0.333333;
   (1, 1, 2, 2, 1, 2) 0.222222 0.444444 0.333333;
   (2, 1, 2, 2, 1, 2) 0.333333 0.333333 0.333333;
   (0, 2, 2, 2, 1, 2) 0.333333 0.333333 0.333333;
   (1, 2, 2, 2, 1, 2) 0.333333 0.333333 0.333333;
   (2, 2, 2, 2, 1, 2) 0.285714 0.285714 0.428571;
   (0, 0, 3, 2, 1, 2) 0.333333 0.333333 0.333333;
   (1, 0, 3, 2, 1, 2) 0.333333 0.333333 0.333333;
   (2, 0, 3, 2, 1, 2) 0.333333 0.333333 0.333333;
   (0, 1, 3, 2, 1, 2) 0.333333 0.333333 0.333333;
   (1, 1, 3, 2, 1, 2) 0.166667 0.416667 0.416667;
   (2, 1, 3, 2, 1, 2) 0.333333 0.333333 0.333333;
   (0, 2, 3, 2, 1, 2) 0.333333 0.333333 0.333333;
   (1, 2, 3, 2, 1, 2) 0.166667 0.166667 0.666667;
   (2, 2, 3, 2, 1, 2) 0.25 0.25 0.5;
   (0, 0, 4, 2, 1, 2) 0.333333 0.333333 0.333333;
   (1, 0, 4, 2, 1, 2) 0.333333 0.333333 0.333333;
   (2, 0, 4, 2, 1, 2) 0.333333 0.333333 0.333333;
   (0, 1, 4, 2, 1, 2) 0.333333 0.333333 0.333333;
   (1, 1, 4, 2, 1, 2) 0.117647 0.411765 0.470588;
   (2, 1, 4, 2, 1, 2) 0.25 0.375 0.375;
   (0, 2, 4, 2, 1, 2) 0.333333 0.333333 0.333333;
   (1, 2, 4, 2, 1, 2) 0.0714286 0.0714286 0.857143;
   (2, 2, 4, 2, 1, 2) 0.153846 0.461538 0.384615;
   (0, 0, 0, 0, 2, 2) 0.666667 0.0952381 0.238095;
   (1, 0, 0, 0, 2, 2) 0.333333 0.333333 0.333333;
   (2, 0, 0, 0, 2, 2) 0.428571 0.285714 0.285714;
   (0, 1, 0, 0, 2, 2) 0.333333 0.333333 0.333333;
   (1, 1, 0, 0, 2, 2) 0.333333 0.333333 0.333333;
   (2, 1, 0, 0, 2, 2) 0.333333 0.333333 0.333333;
   (0, 2, 0, 0, 2, 2) 0.333333 0.333333 0.333333;
   (1, 2, 0, 0, 2, 2) 0.333333 0.333333 0.333333;
   (2, 2, 0, 0, 2, 2) 0.333333 0.333333 0.333333;
   (0, 0, 1, 0, 2, 2) 0.6875 0.0416667 0.270833;
   (1, 0, 1, 0, 2, 2) 0.333333 0.333333 0.333333;
   (2, 0, 1, 0, 2, 2) 0.5 0.25 0.25;
   (0, 1, 1, 0, 2, 2) 0.333333 0.333333 0.333333;
   (1, 1, 1, 0, 2, 2) 0.285714 0.285714 0.428571;
   (2, 1, 1, 0, 2, 2) 0.333333 0.333333 0.333333;
   (0, 2, 1, 0, 2, 2) 0.583333 0.166667 0.25;
   (1, 2, 1, 0, 2, 2) 0.333333 0.333333 0.333333;
   (2, 2, 1, 0, 2, 2) 0.428571 0.285714 0.285714;
   (0, 0, 2, 0, 2, 2) 0.784091 0.0227273 0.193182;
   (1, 0, 2, 0, 2, 2) 0.428571 0.285714 0.285714;
   (2, 0, 2, 0, 2, 2) 0.428571 0.285714 0.285714;
   (0, 1, 2, 0, 2, 2) 0.333333 0.333333 0.333333;
   (1, 1, 2, 0, 2, 2) 0.285714 0.428571 0.285714;
   (2, 1, 2, 0, 2, 2) 0.285714 0.285714 0.428571;
   (0, 2, 2, 0, 2, 2) 0.5 0.0454545 0.454545;
   (1, 2, 2, 0, 2, 2) 0.25 0.375 0.375;
   (2, 2, 2, 0, 2, 2) 0.333333 0.333333 0.333333;
   (0, 0, 3, 0, 2, 2) 0.675497 0.0198675 0.304636;
   (1, 0, 3, 0, 2, 2) 0.333333 0.333333 0.333333;
   (2, 0, 3, 0, 2, 2) 0.333333 0.333333 0.333333;
   (0, 1, 3, 0, 2, 2) 0.333333 0.333333 0.333333;
   (1, 1, 3, 0, 2, 2) 0.25 0.5 0.25;
   (2, 1, 3, 0, 2, 2) 0.333333 0.333333 0.333333;
   (0, 2, 3, 0, 2, 2) 0.422535 0.028169 0.549296;
   (1, 2, 3, 0, 2, 2) 0.2 0.4 0.4;
   (2, 2, 3, 0, 2, 2) 0.25 0.25 0.5;
   (0, 0, 4, 0, 2, 2) 0.457547 0.0141509 0.528302;
   (1, 0, 4, 0, 2, 2) 0.333333 0.333333 0.333333;
   (2, 0, 4, 0, 2, 2) 0.466667 0.133333 0.4;
   (0, 1, 4, 0, 2, 2) 0.25 0.25 0.5;
   (1, 1, 4, 0, 2, 2) 0.222222 0.222222 0.555556;
   (2, 1, 4, 0, 2, 2) 0.333333 0.333333 0.333333;
   (0, 2, 4, 0, 2, 2) 0.415 0.015 0.57;
   (1, 2, 4, 0, 2, 2) 0.166667 0.25 0.583333;
   (2, 2, 4, 0, 2, 2) 0.185185 0.0740741 0.740741;
   (0, 0, 0, 1, 2, 2) 0.333333 0.333333 0.333333;
   (1, 0, 0, 1, 2, 2) 0.333333 0.333333 0.333333;
   (2, 0, 0, 1, 2, 2) 0.333333 0.333333 0.333333;
   (0, 1, 0, 1, 2, 2) 0.333333 0.333333 0.333333;
   (1, 1, 0, 1, 2, 2) 0.0769231 0.692308 0.230769;
   (2, 1, 0, 1, 2, 2) 0.285714 0.428571 0.285714;
   (0, 2, 0, 1, 2, 2) 0.333333 0.333333 0.333333;
   (1, 2, 0, 1, 2, 2) 0.181818 0.454545 0.363636;
   (2, 2, 0, 1, 2, 2) 0.333333 0.333333 0.333333;
   (0, 0, 1, 1, 2, 2) 0.333333 0.333333 0.333333;
   (1, 0, 1, 1, 2, 2) 0.333333 0.333333 0.333333;
   (2, 0, 1, 1, 2, 2) 0.333333 0.333333 0.333333;
   (0, 1, 1, 1, 2, 2) 0.285714 0.428571 0.285714;
   (1, 1, 1, 1, 2, 2) 0.0285714 0.757143 0.214286;
   (2, 1, 1, 1, 2, 2) 0.285714 0.428571 0.285714;
   (0, 2, 1, 1, 2, 2) 0.333333 0.333333 0.333333;
   (1, 2, 1, 1, 2, 2) 0.153846 0.538462 0.307692;
   (2, 2, 1, 1, 2, 2) 0.333333 0.333333 0.333333;
   (0, 0, 2, 1, 2, 2) 0.285714 0.428571 0.285714;
   (1, 0, 2, 1, 2, 2) 0.428571 0.285714 0.285714;
   (2, 0, 2, 1, 2, 2) 0.333333 0.333333 0.333333;
   (0, 1, 2, 1, 2, 2) 0.222222 0.444444 0.333333;
   (1, 1, 2, 1, 2, 2) 0.016 0.736 0.248;
   (2, 1, 2, 1, 2, 2) 0.222222 0.444444 0.333333;
   (0, 2, 2, 1, 2, 2) 0.333333 0.333333 0.333333;
   (1, 2, 2, 1, 2, 2) 0.0810811 0.432432 0.486486;
   (2, 2, 2, 1, 2, 2) 0.25 0.5 0.25;
   (0, 0, 3, 1, 2, 2) 0.428571 0.285714 0.285714;
   (1, 0, 3, 1, 2, 2) 0.25 0.5 0.25;
   (2, 0, 3, 1, 2, 2) 0.333333 0.333333 0.333333;
   (0, 1, 3, 1, 2, 2) 0.25 0.375 0.375;
   (1, 1, 3, 1, 2, 2) 0.00913242 0.630137 0.360731;
   (2, 1, 3, 1, 2, 2) 0.166667 0.583333 0.25;
   (0, 2, 3, 1, 2, 2) 0.222222 0.444444 0.333333;
   (1, 2, 3, 1, 2, 2) 0.0178571 0.535714 0.446429;
   (2, 2, 3, 1, 2, 2) 0.133333 0.333333 0.533333;
   (0, 0, 4, 1, 2, 2) 0.285714 0.285714 0.428571;
   (1, 0, 4, 1, 2, 2) 0.285714 0.285714 0.428571;
   (2, 0, 4, 1, 2, 2) 0.285714 0.428571 0.285714;
   (0, 1, 4, 1, 2, 2) 0.142857 0.428571 0.428571;
   (1, 1, 4, 1, 2, 2) 0.00657895 0.480263 0.513158;
   (2, 1, 4, 1, 2, 2) 0.08 0.6 0.32;
   (0, 2, 4, 1, 2, 2) 0.133333 0.2 0.666667;
   (1, 2, 4, 1, 2, 2) 0.0128205 0.333333 0.653846;
   (2, 2, 4, 1, 2, 2) 0.0425532 0.255319 0.702128;
   (0, 0, 0, 2, 2, 2) 0.333333 0.333333 0.333333;
   (1, 0, 0, 2, 2, 2) 0.333333 0.333333 0.333333;
   (2, 0, 0, 2, 2, 2) 0.333333 0.333333 0.333333;
   (0, 1, 0, 2, 2, 2) 0.333333 0.333333 0.333333;
   (1, 1, 0, 2, 2, 2) 0.285714 0.428571 0.285714;
   (2, 1, 0, 2, 2, 2) 0.333333 0.333333 0.333333;
   (0, 2, 0, 2, 2, 2) 0.333333 0.333333 0.333333;
   (1, 2, 0, 2, 2, 2) 0.333333 0.333333 0.333333;
   (2, 2, 0, 2, 2, 2) 0.333333 0.333333 0.333333;
   (0, 0, 1, 2, 2, 2) 0.5 0.25 0.25;
   (1, 0, 1, 2, 2, 2) 0.333333 0.333333 0.333333;
   (2, 0, 1, 2, 2, 2) 0.333333 0.333333 0.333333;
   (0, 1, 1, 2, 2, 2) 0.333333 0.333333 0.333333;
   (1, 1, 1, 2, 2, 2) 0.25 0.375 0.375;
   (2, 1, 1, 2, 2, 2) 0.285714 0.428571 0.285714;
   (0, 2, 1, 2, 2, 2) 0.333333 0.333333 0.333333;
   (1, 2, 1, 2, 2, 2) 0.333333 0.333333 0.333333;
   (2, 2, 1, 2, 2, 2) 0.285714 0.285714 0.428571;
   (0, 0, 2, 2, 2, 2) 0.428571 0.285714 0.285714;
   (1, 0, 2, 2, 2, 2) 0.333333 0.333333 0.333333;
   (2, 0, 2, 2, 2, 2) 0.333333 0.333333 0.333333;
   (0, 1, 2, 2, 2, 2) 0.333333 0.333333 0.333333;
   (1, 1, 2, 2, 2, 2) 0.222222 0.444444 0.333333;
   (2, 1, 2, 2, 2, 2) 0.285714 0.428571 0.285714;
   (0, 2, 2, 2, 2, 2) 0.333333 0.333333 0.333333;
   (1, 2, 2, 2, 2, 2) 0.25 0.375 0.375;
   (2, 2, 2, 2, 2, 2) 0.285714 0.285714 0.428571;
   (0, 0, 3, 2, 2, 2) 0.285714 0.285714 0.428571;
   (1, 0, 3, 2, 2, 2) 0.333333 0.333333 0.333333;
   (2, 0, 3, 2, 2, 2) 0.333333 0.333333 0.333333;
   (0, 1, 3, 2, 2, 2) 0.333333 0.333333 0.333333;
   (1, 1, 3, 2, 2, 2) 0.181818 0.454545 0.363636;
   (2, 1, 3, 2, 2, 2) 0.333333 0.333333 0.333333;
   (0, 2, 3, 2, 2, 2) 0.375 0.25 0.375;
   (1, 2, 3, 2, 2, 2) 0.222222 0.333333 0.444444;
   (2, 2, 3, 2, 2, 2) 0.285714 0.285714 0.428571;
   (0, 0, 4, 2, 2, 2) 0.375 0.125 0.5;
   (1, 0, 4, 2, 2, 2) 0.285714 0.285714 0.428571;
   (2, 0, 4, 2, 2, 2) 0.333333 0.333333 0.333333;
   (0, 1, 4, 2, 2, 2) 0.222222 0.222222 0.555556;
   (1, 1, 4, 2, 2, 2) 0.0909091 0.272727 0.636364;
   (2, 1, 4, 2, 2, 2) 0.333333 0.333333 0.333333;
   (0, 2, 4, 2, 2, 2) 0.461538 0.153846 0.384615;
   (1, 2, 4, 2, 2, 2) 0.0833333 0.208333 0.708333;
   (2, 2, 4, 2, 2, 2) 0.181818 0.181818 0.636364;
}
probability (diabetes_pre | idade_pre) {
   (0) 0.99106 0.00450967 0.00443025;
   (1) 0.982868 0.00721853 0.00991353;
   (2) 0.960295 0.0137924 0.0259121;
   (3) 0.893691 0.0290239 0.0772849;
   (4) 0.705725 0.0843882 0.209887;
}
probability (doenca_hematologica_pre | doenca_renal_pre, diabetes_pre, doenca_neurologica_pre, asma_pre, doenca_hepatica_pre, sindrome_de_down_pre) {
   (0, 0, 0, 0, 0, 0) 0.999693 7.84246e-06 0.000299321;
   (1, 0, 0, 0, 0, 0) 0.642857 0.214286 0.142857;
   (2, 0, 0, 0, 0, 0) 0.989309 0.00114548 0.00954563;
   (0, 1, 0, 0, 0, 0) 0.938144 0.0309278 0.0309278;
   (1, 1, 0, 0, 0, 0) 0.285714 0.428571 0.285714;
   (2, 1, 0, 0, 0, 0) 0.777778 0.111111 0.111111;
   (0, 2, 0, 0, 0, 0) 0.997728 0.000218962 0.00205277;
   (1, 2, 0, 0, 0, 0) 0.714286 0.142857 0.142857;
   (2, 2, 0, 0, 0, 0) 0.988051 0.0029873 0.00896191;
   (0, 0, 1, 0, 0, 0) 0.789474 0.105263 0.105263;
   (1, 0, 1, 0, 0, 0) 0.444444 0.333333 0.222222;
   (2, 0, 1, 0, 0, 0) 0.428571 0.285714 0.285714;
   (0, 1, 1, 0, 0, 0) 0.5 0.25 0.25;
   (1, 1, 1, 0, 0, 0) 0.428571 0.285714 0.285714;
   (2, 1, 1, 0, 0, 0) 0.333333 0.333333 0.333333;
   (0, 2, 1, 0, 0, 0) 0.647059 0.235294 0.117647;
   (1, 2, 1, 0, 0, 0) 0.545455 0.272727 0.181818;
   (2, 2, 1, 0, 0, 0) 0.25 0.5 0.25;
   (0, 0, 2, 0, 0, 0) 0.991793 0.00252525 0.00568182;
   (1, 0, 2, 0, 0, 0) 0.428571 0.285714 0.285714;
   (2, 0, 2, 0, 0, 0) 0.933333 0.0333333 0.0333333;
   (0, 1, 2, 0, 0, 0) 0.897959 0.0408163 0.0612245;
   (1, 1, 2, 0, 0, 0) 0.428571 0.285714 0.285714;
   (2, 1, 2, 0, 0, 0) 0.555556 0.222222 0.222222;
   (0, 2, 2, 0, 0, 0) 0.991007 0.00359712 0.00539568;
   (1, 2, 2, 0, 0, 0) 0.428571 0.285714 0.285714;
   (2, 2, 2, 0, 0, 0) 0.860465 0.0465116 0.0930233;
   (0, 0, 0, 1, 0, 0) 0.692308 0.153846 0.153846;
   (1, 0, 0, 1, 0, 0) 0.428571 0.285714 0.285714;
   (2, 0, 0, 1, 0, 0) 0.428571 0.285714 0.285714;
   (0, 1, 0, 1, 0, 0) 0.5 0.333333 0.166667;
   (1, 1, 0, 1, 0, 0) 0.681818 0.227273 0.0909091;
   (2, 1, 0, 1, 0, 0) 0.428571 0.285714 0.285714;
   (0, 2, 0, 1, 0, 0) 0.789474 0.105263 0.105263;
   (1, 2, 0, 1, 0, 0) 0.647059 0.235294 0.117647;
   (2, 2, 0, 1, 0, 0) 0.444444 0.222222 0.333333;
   (0, 0, 1, 1, 0, 0) 0.333333 0.333333 0.333333;
   (1, 0, 1, 1, 0, 0) 0.333333 0.333333 0.333333;
   (2, 0, 1, 1, 0, 0) 0.333333 0.333333 0.333333;
   (0, 1, 1, 1, 0, 0) 0.5 0.25 0.25;
   (1, 1, 1, 1, 0, 0) 0.421053 0.473684 0.105263;
   (2, 1, 1, 1, 0, 0) 0.2 0.6 0.2;
   (0, 2, 1, 1, 0, 0) 0.461538 0.384615 0.153846;
   (1, 2, 1, 1, 0, 0) 0.259259 0.666667 0.0740741;
   (2, 2, 1, 1, 0, 0) 0.375 0.375 0.25;
   (0, 0, 2, 1, 0, 0) 0.333333 0.333333 0.333333;
   (1, 0, 2, 1, 0, 0) 0.333333 0.333333 0.333333;
   (2, 0, 2, 1, 0, 0) 0.428571 0.285714 0.285714;
   (0, 1, 2, 1, 0, 0) 0.428571 0.285714 0.285714;
   (1, 1, 2, 1, 0, 0) 0.5 0.3 0.2;
   (2, 1, 2, 1, 0, 0) 0.333333 0.333333 0.333333;
   (0, 2, 2, 1, 0, 0) 0.428571 0.285714 0.285714;
   (1, 2, 2, 1, 0, 0) 0.333333 0.333333 0.333333;
   (2, 2, 2, 1, 0, 0) 0.444444 0.333333 0.222222;
   (0, 0, 0, 2, 0, 0) 0.985974 0.00165017 0.0123762;
   (1, 0, 0, 2, 0, 0) 0.555556 0.222222 0.222222;
   (2, 0, 0, 2, 0, 0) 0.75 0.125 0.125;
   (0, 1, 0, 2, 0, 0) 0.555556 0.222222 0.222222;
   (1, 1, 0, 2, 0, 0) 0.333333 0.333333 0.333333;
   (2, 1, 0, 2, 0, 0) 0.333333 0.333333 0.333333;
   (0, 2, 0, 2, 0, 0) 0.984026 0.00638978 0.00958466;
   (1, 2, 0, 2, 0, 0) 0.428571 0.285714 0.285714;
   (2, 2, 0, 2, 0, 0) 0.75 0.125 0.125;
   (0, 0, 1, 2, 0, 0) 0.333333 0.333333 0.333333;
   (1, 0, 1, 2, 0, 0) 0.333333 0.333333 0.333333;
   (2, 0, 1, 2, 0, 0) 0.333333 0.333333 0.333333;
   (0, 1, 1, 2, 0, 0) 0.333333 0.333333 0.333333;
   (1, 1, 1, 2, 0, 0) 0.272727 0.545455 0.181818;
   (2, 1, 1, 2, 0, 0) 0.333333 0.333333 0.333333;
   (0, 2, 1, 2, 0, 0) 0.5 0.25 0.25;
   (1, 2, 1, 2, 0, 0) 0.333333 0.333333 0.333333;
   (2, 2, 1, 2, 0, 0) 0.333333 0.333333 0.333333;
   (0, 0, 2, 2, 0, 0) 0.777778 0.0740741 0.148148;
   (1, 0, 2, 2, 0, 0) 0.333333 0.333333 0.333333;
   (2, 0, 2, 2, 0, 0) 0.5 0.25 0.25;
   (0, 1, 2, 2, 0, 0) 0.428571 0.285714 0.285714;
   (1, 1, 2, 2, 0, 0) 0.333333 0.333333 0.333333;
   (2, 1, 2, 2, 0, 0) 0.333333 0.333333 0.333333;
   (0, 2, 2, 2, 0, 0) 0.714286 0.142857 0.142857;
   (1, 2, 2, 2, 0, 0) 0.333333 0.333333 0.333333;
   (2, 2, 2, 2, 0, 0) 0.428571 0.285714 0.285714;
   (0, 0, 0, 0, 1, 0) 0.444444 0.333333 0.222222;
   (1, 0, 0, 0, 1, 0) 0.333333 0.333333 0.333333;
   (2, 0, 0, 0, 1, 0) 0.428571 0.285714 0.285714;
   (0, 1, 0, 0, 1, 0) 0.285714 0.428571 0.285714;
   (1, 1, 0, 0, 1, 0) 0.230769 0.615385 0.153846;
   (2, 1, 0, 0, 1, 0) 0.333333 0.333333 0.333333;
   (0, 2, 0, 0, 1, 0) 0.5 0.25 0.25;
   (1, 2, 0, 0, 1, 0) 0.166667 0.583333 0.25;
   (2, 2, 0, 0, 1, 0) 0.3 0.5 0.2;
   (0, 0, 1, 0, 1, 0) 0.285714 0.428571 0.285714;
   (1, 0, 1, 0, 1, 0) 0.428571 0.285714 0.285714;
   (2, 0, 1, 0, 1, 0) 0.333333 0.333333 0.333333;
   (0, 1, 1, 0, 1, 0) 0.428571 0.285714 0.285714;
   (1, 1, 1, 0, 1, 0) 0.285714 0.428571 0.285714;
   (2, 1, 1, 0, 1, 0) 0.333333 0.333333 0.333333;
   (0, 2, 1, 0, 1, 0) 0.333333 0.333333 0.333333;
   (1, 2, 1, 0, 1, 0) 0.285714 0.428571 0.285714;
   (2, 2, 1, 0, 1, 0) 0.285714 0.428571 0.285714;
   (0, 0, 2, 0, 1, 0) 0.333333 0.333333 0.333333;
   (1, 0, 2, 0, 1, 0) 0.333333 0.333333 0.333333;
   (2, 0, 2, 0, 1, 0) 0.333333 0.333333 0.333333;
   (0, 1, 2, 0, 1, 0) 0.285714 0.428571 0.285714;
   (1, 1, 2, 0, 1, 0) 0.285714 0.428571 0.285714;
   (2, 1, 2, 0, 1, 0) 0.333333 0.333333 0.333333;
   (0, 2, 2, 0, 1, 0) 0.333333 0.333333 0.333333;
   (1, 2, 2, 0, 1, 0) 0.285714 0.428571 0.285714;
   (2, 2, 2, 0, 1, 0) 0.428571 0.285714 0.285714;
   (0, 0, 0, 1, 1, 0) 0.333333 0.333333 0.333333;
   (1, 0, 0, 1, 1, 0) 0.25 0.5 0.25;
   (2, 0, 0, 1, 1, 0) 0.333333 0.333333 0.333333;
   (0, 1, 0, 1, 1, 0) 0.428571 0.285714 0.285714;
   (1, 1, 0, 1, 1, 0) 0.222222 0.666667 0.111111;
   (2, 1, 0, 1, 1, 0) 0.25 0.5 0.25;
   (0, 2, 0, 1, 1, 0) 0.285714 0.428571 0.285714;
   (1, 2, 0, 1, 1, 0) 0.1875 0.6875 0.125;
   (2, 2, 0, 1, 1, 0) 0.25 0.5 0.25;
   (0, 0, 1, 1, 1, 0) 0.333333 0.333333 0.333333;
   (1, 0, 1, 1, 1, 0) 0.285714 0.428571 0.285714;
   (2, 0, 1, 1, 1, 0) 0.25 0.5 0.25;
   (0, 1, 1, 1, 1, 0) 0.333333 0.444444 0.222222;
   (1, 1, 1, 1, 1, 0) 0.0851064 0.851064 0.0638298;
   (2, 1, 1, 1, 1, 0) 0.222222 0.555556 0.222222;
   (0, 2, 1, 1, 1, 0) 0.285714 0.428571 0.285714;
   (1, 2, 1, 1, 1, 0) 0.0681818 0.795455 0.136364;
   (2, 2, 1, 1, 1, 0) 0.1875 0.625 0.1875;
   (0, 0, 2, 1, 1, 0) 0.333333 0.333333 0.333333;
   (1, 0, 2, 1, 1, 0) 0.333333 0.333333 0.333333;
   (2, 0, 2, 1, 1, 0) 0.333333 0.333333 0.333333;
   (0, 1, 2, 1, 1, 0) 0.428571 0.285714 0.285714;
   (1, 1, 2, 1, 1, 0) 0.1875 0.6875 0.125;
   (2, 1, 2, 1, 1, 0) 0.333333 0.333333 0.333333;
   (0, 2, 2, 1, 1, 0) 0.333333 0.333333 0.333333;
   (1, 2, 2, 1, 1, 0) 0.166667 0.666667 0.166667;
   (2, 2, 2, 1, 1, 0) 0.285714 0.428571 0.285714;
   (0, 0, 0, 2, 1, 0) 0.333333 0.333333 0.333333;
   (1, 0, 0, 2, 1, 0) 0.333333 0.333333 0.333333;
   (2, 0, 0, 2, 1, 0) 0.333333 0.333333 0.333333;
   (0, 1, 0, 2, 1, 0) 0.333333 0.333333 0.333333;
   (1, 1, 0, 2, 1, 0) 0.333333 0.333333 0.333333;
   (2, 1, 0, 2, 1, 0) 0.333333 0.333333 0.333333;
   (0, 2, 0, 2, 1, 0) 0.333333 0.333333 0.333333;
   (1, 2, 0, 2, 1, 0) 0.285714 0.428571 0.285714;
   (2, 2, 0, 2, 1, 0) 0.333333 0.333333 0.333333;
   (0, 0, 1, 2, 1, 0) 0.333333 0.333333 0.333333;
   (1, 0, 1, 2, 1, 0) 0.333333 0.333333 0.333333;
   (2, 0, 1, 2, 1, 0) 0.333333 0.333333 0.333333;
   (0, 1, 1, 2, 1, 0) 0.285714 0.428571 0.285714;
   (1, 1, 1, 2, 1, 0) 0.25 0.5 0.25;
   (2, 1, 1, 2, 1, 0) 0.333333 0.333333 0.333333;
   (0, 2, 1, 2, 1, 0) 0.333333 0.333333 0.333333;
   (1, 2, 1, 2, 1, 0) 0.333333 0.333333 0.333333;
   (2, 2, 1, 2, 1, 0) 0.333333 0.333333 0.333333;
   (0, 0, 2, 2, 1, 0) 0.333333 0.333333 0.333333;
   (1, 0, 2, 2, 1, 0) 0.333333 0.333333 0.333333;
   (2, 0, 2, 2, 1, 0) 0.333333 0.333333 0.333333;
   (0, 1, 2, 2, 1, 0) 0.333333 0.333333 0.333333;
   (1, 1, 2, 2, 1, 0) 0.285714 0.428571 0.285714;
   (2, 1, 2, 2, 1, 0) 0.333333 0.333333 0.333333;
   (0, 2, 2, 2, 1, 0) 0.333333 0.333333 0.333333;
   (1, 2, 2, 2, 1, 0) 0.333333 0.333333 0.333333;
   (2, 2, 2, 2, 1, 0) 0.333333 0.333333 0.333333;
   (0, 0, 0, 0, 2, 0) 0.940092 0.0138249 0.0460829;
   (1, 0, 0, 0, 2, 0) 0.333333 0.333333 0.333333;
   (2, 0, 0, 0, 2, 0) 0.777778 0.0740741 0.148148;
   (0, 1, 0, 0, 2, 0) 0.428571 0.285714 0.285714;
   (1, 1, 0, 0, 2, 0) 0.285714 0.285714 0.428571;
   (2, 1, 0, 0, 2, 0) 0.333333 0.333333 0.333333;
   (0, 2, 0, 0, 2, 0) 0.961905 0.0190476 0.0190476;
   (1, 2, 0, 0, 2, 0) 0.333333 0.333333 0.333333;
   (2, 2, 0, 0, 2, 0) 0.806452 0.0645161 0.129032;
   (0, 0, 1, 0, 2, 0) 0.333333 0.333333 0.333333;
   (1, 0, 1, 0, 2, 0) 0.333333 0.333333 0.333333;
   (2, 0, 1, 0, 2, 0) 0.333333 0.333333 0.333333;
   (0, 1, 1, 0, 2, 0) 0.333333 0.333333 0.333333;
   (1, 1, 1, 0, 2, 0) 0.333333 0.333333 0.333333;
   (2, 1, 1, 0, 2, 0) 0.333333 0.333333 0.333333;
   (0, 2, 1, 0, 2, 0) 0.333333 0.333333 0.333333;
   (1, 2, 1, 0, 2, 0) 0.285714 0.428571 0.285714;
   (2, 2, 1, 0, 2, 0) 0.333333 0.333333 0.333333;
   (0, 0, 2, 0, 2, 0) 0.809524 0.0952381 0.0952381;
   (1, 0, 2, 0, 2, 0) 0.333333 0.333333 0.333333;
   (2, 0, 2, 0, 2, 0) 0.5 0.25 0.25;
   (0, 1, 2, 0, 2, 0) 0.333333 0.333333 0.333333;
   (1, 1, 2, 0, 2, 0) 0.333333 0.333333 0.333333;
   (2, 1, 2, 0, 2, 0) 0.333333 0.333333 0.333333;
   (0, 2, 2, 0, 2, 0) 0.642857 0.142857 0.214286;
   (1, 2, 2, 0, 2, 0) 0.285714 0.285714 0.428571;
   (2, 2, 2, 0, 2, 0) 0.375 0.25 0.375;
   (0, 0, 0, 1, 2, 0) 0.333333 0.333333 0.333333;
   (1, 0, 0, 1, 2, 0) 0.333333 0.333333 0.333333;
   (2, 0, 0, 1, 2, 0) 0.333333 0.333333 0.333333;
   (0, 1, 0, 1, 2, 0) 0.333333 0.333333 0.333333;
   (1, 1, 0, 1, 2, 0) 0.333333 0.333333 0.333333;
   (2, 1, 0, 1, 2, 0) 0.333333 0.333333 0.333333;
   (0, 2, 0, 1, 2, 0) 0.333333 0.333333 0.333333;
   (1, 2, 0, 1, 2, 0) 0.333333 0.333333 0.333333;
   (2, 2, 0, 1, 2, 0) 0.333333 0.333333 0.333333;
   (0, 0, 1, 1, 2, 0) 0.333333 0.333333 0.333333;
   (1, 0, 1, 1, 2, 0) 0.333333 0.333333 0.333333;
   (2, 0, 1, 1, 2, 0) 0.333333 0.333333 0.333333;
   (0, 1, 1, 1, 2, 0) 0.333333 0.333333 0.333333;
   (1, 1, 1, 1, 2, 0) 0.222222 0.555556 0.222222;
   (2, 1, 1, 1, 2, 0) 0.333333 0.333333 0.333333;
   (0, 2, 1, 1, 2, 0) 0.333333 0.333333 0.333333;
   (1, 2, 1, 1, 2, 0) 0.25 0.5 0.25;
   (2, 2, 1, 1, 2, 0) 0.333333 0.333333 0.333333;
   (0, 0, 2, 1, 2, 0) 0.428571 0.285714 0.285714;
   (1, 0, 2, 1, 2, 0) 0.333333 0.333333 0.333333;
   (2, 0, 2, 1, 2, 0) 0.333333 0.333333 0.333333;
   (0, 1, 2, 1, 2, 0) 0.333333 0.333333 0.333333;
   (1, 1, 2, 1, 2, 0) 0.333333 0.333333 0.333333;
   (2, 1, 2, 1, 2, 0) 0.333333 0.333333 0.333333;
   (0, 2, 2, 1, 2, 0) 0.428571 0.285714 0.285714;
   (1, 2, 2, 1, 2, 0) 0.25 0.25 0.5;
   (2, 2, 2, 1, 2, 0) 0.333333 0.333333 0.333333;
   (0, 0, 0, 2, 2, 0) 0.6 0.2 0.2;
   (1, 0, 0, 2, 2, 0) 0.333333 0.333333 0.333333;
   (2, 0, 0, 2, 2, 0) 0.333333 0.333333 0.333333;
   (0, 1, 0, 2, 2, 0) 0.333333 0.333333 0.333333;
   (1, 1, 0, 2, 2, 0) 0.333333 0.333333 0.333333;
   (2, 1, 0, 2, 2, 0) 0.333333 0.333333 0.333333;
   (0, 2, 0, 2, 2, 0) 0.375 0.25 0.375;
   (1, 2, 0, 2, 2, 0) 0.333333 0.333333 0.333333;
   (2, 2, 0, 2, 2, 0) 0.375 0.25 0.375;
   (0, 0, 1, 2, 2, 0) 0.333333 0.333333 0.333333;
   (1, 0, 1, 2, 2, 0) 0.333333 0.333333 0.333333;
   (2, 0, 1, 2, 2, 0) 0.333333 0.333333 0.333333;
   (0, 1, 1, 2, 2, 0) 0.333333 0.333333 0.333333;
   (1, 1, 1, 2, 2, 0) 0.333333 0.333333 0.333333;
   (2, 1, 1, 2, 2, 0) 0.333333 0.333333 0.333333;
   (0, 2, 1, 2, 2, 0) 0.333333 0.333333 0.333333;
   (1, 2, 1, 2, 2, 0) 0.333333 0.333333 0.333333;
   (2, 2, 1, 2, 2, 0) 0.333333 0.333333 0.333333;
   (0, 0, 2, 2, 2, 0) 0.333333 0.333333 0.333333;
   (1, 0, 2, 2, 2, 0) 0.333333 0.333333 0.333333;
   (2, 0, 2, 2, 2, 0) 0.333333 0.333333 0.333333;
   (0, 1, 2, 2, 2, 0) 0.333333 0.333333 0.333333;
   (1, 1, 2, 2, 2, 0) 0.333333 0.333333 0.333333;
   (2, 1, 2, 2, 2, 0) 0.333333 0.333333 0.333333;
   (0, 2, 2, 2, 2, 0) 0.5 0.25 0.25;
   (1, 2, 2, 2, 2, 0) 0.333333 0.333333 0.333333;
   (2, 2, 2, 2, 2, 0) 0.25 0.25 0.5;
   (0, 0, 0, 0, 0, 1) 0.75 0.111111 0.138889;
   (1, 0, 0, 0, 0, 1) 0.444444 0.333333 0.222222;
   (2, 0, 0, 0, 0, 1) 0.333333 0.333333 0.333333;
   (0, 1, 0, 0, 0, 1) 0.5 0.2 0.3;
   (1, 1, 0, 0, 0, 1) 0.333333 0.333333 0.333333;
   (2, 1, 0, 0, 0, 1) 0.333333 0.333333 0.333333;
   (0, 2, 0, 0, 0, 1) 0.735294 0.117647 0.147059;
   (1, 2, 0, 0, 0, 1) 0.333333 0.333333 0.333333;
   (2, 2, 0, 0, 0, 1) 0.428571 0.285714 0.285714;
   (0, 0, 1, 0, 0, 1) 0.3 0.5 0.2;
   (1, 0, 1, 0, 0, 1) 0.333333 0.333333 0.333333;
   (2, 0, 1, 0, 0, 1) 0.333333 0.333333 0.333333;
   (0, 1, 1, 0, 0, 1) 0.285714 0.428571 0.285714;
   (1, 1, 1, 0, 0, 1) 0.222222 0.555556 0.222222;
   (2, 1, 1, 0, 0, 1) 0.333333 0.333333 0.333333;
   (0, 2, 1, 0, 0, 1) 0.25 0.5 0.25;
   (1, 2, 1, 0, 0, 1) 0.333333 0.333333 0.333333;
   (2, 2, 1, 0, 0, 1) 0.333333 0.333333 0.333333;
   (0, 0, 2, 0, 0, 1) 0.555556 0.222222 0.222222;
   (1, 0, 2, 0, 0, 1) 0.333333 0.333333 0.333333;
   (2, 0, 2, 0, 0, 1) 0.333333 0.333333 0.333333;
   (0, 1, 2, 0, 0, 1) 0.428571 0.285714 0.285714;
   (1, 1, 2, 0, 0, 1) 0.25 0.5 0.25;
   (2, 1, 2, 0, 0, 1) 0.333333 0.333333 0.333333;
   (0, 2, 2, 0, 0, 1) 0.5 0.25 0.25;
   (1, 2, 2, 0, 0, 1) 0.333333 0.333333 0.333333;
   (2, 2, 2, 0, 0, 1) 0.333333 0.333333 0.333333;
   (0, 0, 0, 1, 0, 1) 0.285714 0.428571 0.285714;
   (1, 0, 0, 1, 0, 1) 0.428571 0.285714 0.285714;
   (2, 0, 0, 1, 0, 1) 0.333333 0.333333 0.333333;
   (0, 1, 0, 1, 0, 1) 0.333333 0.333333 0.333333;
   (1, 1, 0, 1, 0, 1) 0.333333 0.444444 0.222222;
   (2, 1, 0, 1, 0, 1) 0.333333 0.333333 0.333333;
   (0, 2, 0, 1, 0, 1) 0.444444 0.222222 0.333333;
   (1, 2, 0, 1, 0, 1) 0.4 0.4 0.2;
   (2, 2, 0, 1, 0, 1) 0.333333 0.333333 0.333333;
   (0, 0, 1, 1, 0, 1) 0.285714 0.428571 0.285714;
   (1, 0, 1, 1, 0, 1) 0.25 0.5 0.25;
   (2, 0, 1, 1, 0, 1) 0.333333 0.333333 0.333333;
   (0, 1, 1, 1, 0, 1) 0.2 0.6 0.2;
   (1, 1, 1, 1, 0, 1) 0.0267857 0.9375 0.0357143;
   (2, 1, 1, 1, 0, 1) 0.117647 0.705882 0.176471;
   (0, 2, 1, 1, 0, 1) 0.166667 0.666667 0.166667;
   (1, 2, 1, 1, 0, 1) 0.0361446 0.927711 0.0361446;
   (2, 2, 1, 1, 0, 1) 0.142857 0.714286 0.142857;
   (0, 0, 2, 1, 0, 1) 0.333333 0.333333 0.333333;
   (1, 0, 2, 1, 0, 1) 0.333333 0.333333 0.333333;
   (2, 0, 2, 1, 0, 1) 0.333333 0.333333 0.333333;
   (0, 1, 2, 1, 0, 1) 0.333333 0.333333 0.333333;
   (1, 1, 2, 1, 0, 1) 0.111111 0.777778 0.111111;
   (2, 1, 2, 1, 0, 1) 0.333333 0.333333 0.333333;
   (0, 2, 2, 1, 0, 1) 0.333333 0.333333 0.333333;
   (1, 2, 2, 1, 0, 1) 0.3 0.4 0.3;
   (2, 2, 2, 1, 0, 1) 0.333333 0.333333 0.333333;
   (0, 0, 0, 2, 0, 1) 0.333333 0.333333 0.333333;
   (1, 0, 0, 2, 0, 1) 0.333333 0.333333 0.333333;
   (2, 0, 0, 2, 0, 1) 0.333333 0.333333 0.333333;
   (0, 1, 0, 2, 0, 1) 0.333333 0.333333 0.333333;
   (1, 1, 0, 2, 0, 1) 0.333333 0.333333 0.333333;
   (2, 1, 0, 2, 0, 1) 0.333333 0.333333 0.333333;
   (0, 2, 0, 2, 0, 1) 0.428571 0.285714 0.285714;
   (1, 2, 0, 2, 0, 1) 0.333333 0.333333 0.333333;
   (2, 2, 0, 2, 0, 1) 0.333333 0.333333 0.333333;
   (0, 0, 1, 2, 0, 1) 0.333333 0.333333 0.333333;
   (1, 0, 1, 2, 0, 1) 0.333333 0.333333 0.333333;
   (2, 0, 1, 2, 0, 1) 0.333333 0.333333 0.333333;
   (0, 1, 1, 2, 0, 1) 0.285714 0.428571 0.285714;
   (1, 1, 1, 2, 0, 1) 0.142857 0.714286 0.142857;
   (2, 1, 1, 2, 0, 1) 0.333333 0.333333 0.333333;
   (0, 2, 1, 2, 0, 1) 0.25 0.5 0.25;
   (1, 2, 1, 2, 0, 1) 0.333333 0.333333 0.333333;
   (2, 2, 1, 2, 0, 1) 0.333333 0.333333 0.333333;
   (0, 0, 2, 2, 0, 1) 0.333333 0.333333 0.333333;
   (1, 0, 2, 2, 0, 1) 0.333333 0.333333 0.333333;
   (2, 0, 2, 2, 0, 1) 0.333333 0.333333 0.333333;
   (0, 1, 2, 2, 0, 1) 0.333333 0.333333 0.333333;
   (1, 1, 2, 2, 0, 1) 0.285714 0.428571 0.285714;
   (2, 1, 2, 2, 0, 1) 0.333333 0.333333 0.333333;
   (0, 2, 2, 2, 0, 1) 0.333333 0.333333 0.333333;
   (1, 2, 2, 2, 0, 1) 0.333333 0.333333 0.333333;
   (2, 2, 2, 2, 0, 1) 0.333333 0.333333 0.333333;
   (0, 0, 0, 0, 1, 1) 0.3 0.5 0.2;
   (1, 0, 0, 0, 1, 1) 0.25 0.375 0.375;
   (2, 0, 0, 0, 1, 1) 0.333333 0.444444 0.222222;
   (0, 1, 0, 0, 1, 1) 0.375 0.375 0.25;
   (1, 1, 0, 0, 1, 1) 0.25 0.5 0.25;
   (2, 1, 0, 0, 1, 1) 0.333333 0.333333 0.333333;
   (0, 2, 0, 0, 1, 1) 0.4 0.4 0.2;
   (1, 2, 0, 0, 1, 1) 0.153846 0.692308 0.153846;
   (2, 2, 0, 0, 1, 1) 0.333333 0.333333 0.333333;
   (0, 0, 1, 0, 1, 1) 0.25 0.5 0.25;
   (1, 0, 1, 0, 1, 1) 0.105263 0.736842 0.157895;
   (2, 0, 1, 0, 1, 1) 0.333333 0.333333 0.333333;
   (0, 1, 1, 0, 1, 1) 0.153846 0.692308 0.153846;
   (1, 1, 1, 0, 1, 1) 0.049505 0.881188 0.0693069;
   (2, 1, 1, 0, 1, 1) 0.142857 0.714286 0.142857;
   (0, 2, 1, 0, 1, 1) 0.136364 0.772727 0.0909091;
   (1, 2, 1, 0, 1, 1) 0.030303 0.939394 0.030303;
   (2, 2, 1, 0, 1, 1) 0.277778 0.555556 0.166667;
   (0, 0, 2, 0, 1, 1) 0.428571 0.285714 0.285714;
   (1, 0, 2, 0, 1, 1) 0.222222 0.555556 0.222222;
   (2, 0, 2, 0, 1, 1) 0.333333 0.333333 0.333333;
   (0, 1, 2, 0, 1, 1) 0.25 0.375 0.375;
   (1, 1, 2, 0, 1, 1) 0.111111 0.722222 0.166667;
   (2, 1, 2, 0, 1, 1) 0.285714 0.428571 0.285714;
   (0, 2, 2, 0, 1, 1) 0.333333 0.333333 0.333333;
   (1, 2, 2, 0, 1, 1) 0.333333 0.5 0.166667;
   (2, 2, 2, 0, 1, 1) 0.375 0.375 0.25;
   (0, 0, 0, 1, 1, 1) 0.375 0.375 0.25;
   (1, 0, 0, 1, 1, 1) 0.333333 0.5 0.166667;
   (2, 0, 0, 1, 1, 1) 0.25 0.375 0.375;
   (0, 1, 0, 1, 1, 1) 0.142857 0.714286 0.142857;
   (1, 1, 0, 1, 1, 1) 0.179775 0.786517 0.0337079;
   (2, 1, 0, 1, 1, 1) 0.307692 0.538462 0.153846;
   (0, 2, 0, 1, 1, 1) 0.105263 0.789474 0.105263;
   (1, 2, 0, 1, 1, 1) 0.128205 0.846154 0.025641;
   (2, 2, 0, 1, 1, 1) 0.2 0.7 0.1;
   (0, 0, 1, 1, 1, 1) 0.2 0.6 0.2;
   (1, 0, 1, 1, 1, 1) 0.04 0.906667 0.0533333;
   (2, 0, 1, 1, 1, 1) 0.142857 0.714286 0.142857;
   (0, 1, 1, 1, 1, 1) 0.0239521 0.946108 0.0299401;
   (1, 1, 1, 1, 1, 1) 0.00219459 0.978898 0.0189072;
   (2, 1, 1, 1, 1, 1) 0.00471254 0.975495 0.0197926;
   (0, 2, 1, 1, 1, 1) 0.0246914 0.932099 0.0432099;
   (1, 2, 1, 1, 1, 1) 0.00262726 0.98908 0.00829228;
   (2, 2, 1, 1, 1, 1) 0.00340136 0.972789 0.0238095;
   (0, 0, 2, 1, 1, 1) 0.285714 0.285714 0.428571;
   (1, 0, 2, 1, 1, 1) 0.176471 0.647059 0.176471;
   (2, 0, 2, 1, 1, 1) 0.25 0.5 0.25;
   (0, 1, 2, 1, 1, 1) 0.12 0.8 0.08;
   (1, 1, 2, 1, 1, 1) 0.00356633 0.983595 0.0128388;
   (2, 1, 2, 1, 1, 1) 0.0215054 0.870968 0.107527;
   (0, 2, 2, 1, 1, 1) 0.153846 0.692308 0.153846;
   (1, 2, 2, 1, 1, 1) 0.0123894 0.975221 0.0123894;
   (2, 2, 2, 1, 1, 1) 0.0512821 0.897436 0.0512821;
   (0, 0, 0, 2, 1, 1) 0.333333 0.333333 0.333333;
   (1, 0, 0, 2, 1, 1) 0.285714 0.428571 0.285714;
   (2, 0, 0, 2, 1, 1) 0.333333 0.333333 0.333333;
   (0, 1, 0, 2, 1, 1) 0.25 0.5 0.25;
   (1, 1, 0, 2, 1, 1) 0.333333 0.444444 0.222222;
   (2, 1, 0, 2, 1, 1) 0.333333 0.333333 0.333333;
   (0, 2, 0, 2, 1, 1) 0.285714 0.428571 0.285714;
   (1, 2, 0, 2, 1, 1) 0.333333 0.444444 0.222222;
   (2, 2, 0, 2, 1, 1) 0.333333 0.333333 0.333333;
   (0, 0, 1, 2, 1, 1) 0.333333 0.333333 0.333333;
   (1, 0, 1, 2, 1, 1) 0.117647 0.764706 0.117647;
   (2, 0, 1, 2, 1, 1) 0.333333 0.333333 0.333333;
   (0, 1, 1, 2, 1, 1) 0.0540541 0.891892 0.0540541;
   (1, 1, 1, 2, 1, 1) 0.00323625 0.984628 0.0121359;
   (2, 1, 1, 2, 1, 1) 0.0487805 0.853659 0.097561;
   (0, 2, 1, 2, 1, 1) 0.1 0.8 0.1;
   (1, 2, 1, 2, 1, 1) 0.00576369 0.971182 0.0230548;
   (2, 2, 1, 2, 1, 1) 0.0714286 0.785714 0.142857;
   (0, 0, 2, 2, 1, 1) 0.333333 0.333333 0.333333;
   (1, 0, 2, 2, 1, 1) 0.285714 0.428571 0.285714;
   (2, 0, 2, 2, 1, 1) 0.333333 0.333333 0.333333;
   (0, 1, 2, 2, 1, 1) 0.428571 0.285714 0.285714;
   (1, 1, 2, 2, 1, 1) 0.0512821 0.871795 0.0769231;
   (2, 1, 2, 2, 1, 1) 0.181818 0.545455 0.272727;
   (0, 2, 2, 2, 1, 1) 0.285714 0.428571 0.285714;
   (1, 2, 2, 2, 1, 1) 0.0909091 0.818182 0.0909091;
   (2, 2, 2, 2, 1, 1) 0.166667 0.5 0.333333;
   (0, 0, 0, 0, 2, 1) 0.444444 0.333333 0.222222;
   (1, 0, 0, 0, 2, 1) 0.333333 0.333333 0.333333;
   (2, 0, 0, 0, 2, 1) 0.333333 0.333333 0.333333;
   (0, 1, 0, 0, 2, 1) 0.333333 0.333333 0.333333;
   (1, 1, 0, 0, 2, 1) 0.285714 0.428571 0.285714;
   (2, 1, 0, 0, 2, 1) 0.333333 0.333333 0.333333;
   (0, 2, 0, 0, 2, 1) 0.333333 0.333333 0.333333;
   (1, 2, 0, 0, 2, 1) 0.333333 0.333333 0.333333;
   (2, 2, 0, 0, 2, 1) 0.428571 0.285714 0.285714;
   (0, 0, 1, 0, 2, 1) 0.333333 0.333333 0.333333;
   (1, 0, 1, 0, 2, 1) 0.333333 0.333333 0.333333;
   (2, 0, 1, 0, 2, 1) 0.333333 0.333333 0.333333;
   (0, 1, 1, 0, 2, 1) 0.333333 0.333333 0.333333;
   (1, 1, 1, 0, 2, 1) 0.25 0.5 0.25;
   (2, 1, 1, 0, 2, 1) 0.333333 0.333333 0.333333;
   (0, 2, 1, 0, 2, 1) 0.333333 0.333333 0.333333;
   (1, 2, 1, 0, 2, 1) 0.2 0.6 0.2;
   (2, 2, 1, 0, 2, 1) 0.25 0.5 0.25;
   (0, 0, 2, 0, 2, 1) 0.333333 0.333333 0.333333;
   (1, 0, 2, 0, 2, 1) 0.333333 0.333333 0.333333;
   (2, 0, 2, 0, 2, 1) 0.333333 0.333333 0.333333;
   (0, 1, 2, 0, 2, 1) 0.333333 0.333333 0.333333;
   (1, 1, 2, 0, 2, 1) 0.333333 0.333333 0.333333;
   (2, 1, 2, 0, 2, 1) 0.333333 0.333333 0.333333;
   (0, 2, 2, 0, 2, 1) 0.333333 0.333333 0.333333;
   (1, 2, 2, 0, 2, 1) 0.333333 0.333333 0.333333;
   (2, 2, 2, 0, 2, 1) 0.333333 0.333333 0.333333;
   (0, 0, 0, 1, 2, 1) 0.333333 0.333333 0.333333;
   (1, 0, 0, 1, 2, 1) 0.333333 0.333333 0.333333;
   (2, 0, 0, 1, 2, 1) 0.333333 0.333333 0.333333;
   (0, 1, 0, 1, 2, 1) 0.333333 0.333333 0.333333;
   (1, 1, 0, 1, 2, 1) 0.333333 0.333333 0.333333;
   (2, 1, 0, 1, 2, 1) 0.333333 0.333333 0.333333;
   (0, 2, 0, 1, 2, 1) 0.333333 0.333333 0.333333;
   (1, 2, 0, 1, 2, 1) 0.333333 0.333333 0.333333;
   (2, 2, 0, 1, 2, 1) 0.333333 0.333333 0.333333;
   (0, 0, 1, 1, 2, 1) 0.333333 0.333333 0.333333;
   (1, 0, 1, 1, 2, 1) 0.333333 0.333333 0.333333;
   (2, 0, 1, 1, 2, 1) 0.333333 0.333333 0.333333;
   (0, 1, 1, 1, 2, 1) 0.222222 0.555556 0.222222;
   (1, 1, 1, 1, 2, 1) 0.0103448 0.951724 0.037931;
   (2, 1, 1, 1, 2, 1) 0.0465116 0.883721 0.0697674;
   (0, 2, 1, 1, 2, 1) 0.25 0.5 0.25;
   (1, 2, 1, 1, 2, 1) 0.0306748 0.932515 0.0368098;
   (2, 2, 1, 1, 2, 1) 0.0571429 0.771429 0.171429;
   (0, 0, 2, 1, 2, 1) 0.333333 0.333333 0.333333;
   (1, 0, 2, 1, 2, 1) 0.333333 0.333333 0.333333;
   (2, 0, 2, 1, 2, 1) 0.333333 0.333333 0.333333;
   (0, 1, 2, 1, 2, 1) 0.333333 0.333333 0.333333;
   (1, 1, 2, 1, 2, 1) 0.130435 0.73913 0.130435;
   (2, 1, 2, 1, 2, 1) 0.222222 0.444444 0.333333;
   (0, 2, 2, 1, 2, 1) 0.285714 0.285714 0.428571;
   (1, 2, 2, 1, 2, 1) 0.117647 0.705882 0.176471;
   (2, 2, 2, 1, 2, 1) 0.25 0.5 0.25;
   (0, 0, 0, 2, 2, 1) 0.333333 0.333333 0.333333;
   (1, 0, 0, 2, 2, 1) 0.333333 0.333333 0.333333;
   (2, 0, 0, 2, 2, 1) 0.333333 0.333333 0.333333;
   (0, 1, 0, 2, 2, 1) 0.333333 0.333333 0.333333;
   (1, 1, 0, 2, 2, 1) 0.333333 0.333333 0.333333;
   (2, 1, 0, 2, 2, 1) 0.333333 0.333333 0.333333;
   (0, 2, 0, 2, 2, 1) 0.333333 0.333333 0.333333;
   (1, 2, 0, 2, 2, 1) 0.333333 0.333333 0.333333;
   (2, 2, 0, 2, 2, 1) 0.333333 0.333333 0.333333;
   (0, 0, 1, 2, 2, 1) 0.333333 0.333333 0.333333;
   (1, 0, 1, 2, 2, 1) 0.428571 0.285714 0.285714;
   (2, 0, 1, 2, 2, 1) 0.333333 0.333333 0.333333;
   (0, 1, 1, 2, 2, 1) 0.333333 0.333333 0.333333;
   (1, 1, 1, 2, 2, 1) 0.142857 0.642857 0.214286;
   (2, 1, 1, 2, 2, 1) 0.285714 0.428571 0.285714;
   (0, 2, 1, 2, 2, 1) 0.333333 0.333333 0.333333;
   (1, 2, 1, 2, 2, 1) 0.142857 0.714286 0.142857;
   (2, 2, 1, 2, 2, 1) 0.25 0.5 0.25;
   (0, 0, 2, 2, 2, 1) 0.333333 0.333333 0.333333;
   (1, 0, 2, 2, 2, 1) 0.333333 0.333333 0.333333;
   (2, 0, 2, 2, 2, 1) 0.333333 0.333333 0.333333;
   (0, 1, 2, 2, 2, 1) 0.333333 0.333333 0.333333;
   (1, 1, 2, 2, 2, 1) 0.333333 0.333333 0.333333;
   (2, 1, 2, 2, 2, 1) 0.333333 0.333333 0.333333;
   (0, 2, 2, 2, 2, 1) 0.333333 0.333333 0.333333;
   (1, 2, 2, 2, 2, 1) 0.333333 0.333333 0.333333;
   (2, 2, 2, 2, 2, 1) 0.222222 0.222222 0.555556;
   (0, 0, 0, 0, 0, 2) 0.911765 0.0294118 0.0588235;
   (1, 0, 0, 0, 0, 2) 0.333333 0.333333 0.333333;
   (2, 0, 0, 0, 0, 2) 0.375 0.25 0.375;
   (0, 1, 0, 0, 0, 2) 0.333333 0.333333 0.333333;
   (1, 1, 0, 0, 0, 2) 0.333333 0.333333 0.333333;
   (2, 1, 0, 0, 0, 2) 0.333333 0.333333 0.333333;
   (0, 2, 0, 0, 0, 2) 0.764706 0.117647 0.117647;
   (1, 2, 0, 0, 0, 2) 0.333333 0.333333 0.333333;
   (2, 2, 0, 0, 0, 2) 0.333333 0.333333 0.333333;
   (0, 0, 1, 0, 0, 2) 0.333333 0.333333 0.333333;
   (1, 0, 1, 0, 0, 2) 0.333333 0.333333 0.333333;
   (2, 0, 1, 0, 0, 2) 0.333333 0.333333 0.333333;
   (0, 1, 1, 0, 0, 2) 0.333333 0.333333 0.333333;
   (1, 1, 1, 0, 0, 2) 0.333333 0.333333 0.333333;
   (2, 1, 1, 0, 0, 2) 0.333333 0.333333 0.333333;
   (0, 2, 1, 0, 0, 2) 0.333333 0.333333 0.333333;
   (1, 2, 1, 0, 0, 2) 0.333333 0.333333 0.333333;
   (2, 2, 1, 0, 0, 2) 0.333333 0.333333 0.333333;
   (0, 0, 2, 0, 0, 2) 0.5 0.25 0.25;
   (1, 0, 2, 0, 0, 2) 0.333333 0.333333 0.333333;
   (2, 0, 2, 0, 0, 2) 0.333333 0.333333 0.333333;
   (0, 1, 2, 0, 0, 2) 0.333333 0.333333 0.333333;
   (1, 1, 2, 0, 0, 2) 0.333333 0.333333 0.333333;
   (2, 1, 2, 0, 0, 2) 0.333333 0.333333 0.333333;
   (0, 2, 2, 0, 0, 2) 0.333333 0.333333 0.333333;
   (1, 2, 2, 0, 0, 2) 0.333333 0.333333 0.333333;
   (2, 2, 2, 0, 0, 2) 0.333333 0.333333 0.333333;
   (0, 0, 0, 1, 0, 2) 0.333333 0.333333 0.333333;
   (1, 0, 0, 1, 0, 2) 0.333333 0.333333 0.333333;
   (2, 0, 0, 1, 0, 2) 0.333333 0.333333 0.333333;
   (0, 1, 0, 1, 0, 2) 0.333333 0.333333 0.333333;
   (1, 1, 0, 1, 0, 2) 0.333333 0.333333 0.333333;
   (2, 1, 0, 1, 0, 2) 0.333333 0.333333 0.333333;
   (0, 2, 0, 1, 0, 2) 0.333333 0.333333 0.333333;
   (1, 2, 0, 1, 0, 2) 0.333333 0.333333 0.333333;
   (2, 2, 0, 1, 0, 2) 0.333333 0.333333 0.333333;
   (0, 0, 1, 1, 0, 2) 0.333333 0.333333 0.333333;
   (1, 0, 1, 1, 0, 2) 0.333333 0.333333 0.333333;
   (2, 0, 1, 1, 0, 2) 0.333333 0.333333 0.333333;
   (0, 1, 1, 1, 0, 2) 0.333333 0.333333 0.333333;
   (1, 1, 1, 1, 0, 2) 0.333333 0.444444 0.222222;
   (2, 1, 1, 1, 0, 2) 0.333333 0.333333 0.333333;
   (0, 2, 1, 1, 0, 2) 0.333333 0.333333 0.333333;
   (1, 2, 1, 1, 0, 2) 0.25 0.5 0.25;
   (2, 2, 1, 1, 0, 2) 0.333333 0.333333 0.333333;
   (0, 0, 2, 1, 0, 2) 0.333333 0.333333 0.333333;
   (1, 0, 2, 1, 0, 2) 0.333333 0.333333 0.333333;
   (2, 0, 2, 1, 0, 2) 0.333333 0.333333 0.333333;
   (0, 1, 2, 1, 0, 2) 0.333333 0.333333 0.333333;
   (1, 1, 2, 1, 0, 2) 0.333333 0.333333 0.333333;
   (2, 1, 2, 1, 0, 2) 0.333333 0.333333 0.333333;
   (0, 2, 2, 1, 0, 2) 0.333333 0.333333 0.333333;
   (1, 2, 2, 1, 0, 2) 0.333333 0.333333 0.333333;
   (2, 2, 2, 1, 0, 2) 0.333333 0.333333 0.333333;
   (0, 0, 0, 2, 0, 2) 0.5 0.25 0.25;
   (1, 0, 0, 2, 0, 2) 0.333333 0.333333 0.333333;
   (2, 0, 0, 2, 0, 2) 0.333333 0.333333 0.333333;
   (0, 1, 0, 2, 0, 2) 0.333333 0.333333 0.333333;
   (1, 1, 0, 2, 0, 2) 0.333333 0.333333 0.333333;
   (2, 1, 0, 2, 0, 2) 0.333333 0.333333 0.333333;
   (0, 2, 0, 2, 0, 2) 0.428571 0.285714 0.285714;
   (1, 2, 0, 2, 0, 2) 0.333333 0.333333 0.333333;
   (2, 2, 0, 2, 0, 2) 0.333333 0.333333 0.333333;
   (0, 0, 1, 2, 0, 2) 0.333333 0.333333 0.333333;
   (1, 0, 1, 2, 0, 2) 0.333333 0.333333 0.333333;
   (2, 0, 1, 2, 0, 2) 0.333333 0.333333 0.333333;
   (0, 1, 1, 2, 0, 2) 0.333333 0.333333 0.333333;
   (1, 1, 1, 2, 0, 2) 0.333333 0.333333 0.333333;
   (2, 1, 1, 2, 0, 2) 0.333333 0.333333 0.333333;
   (0, 2, 1, 2, 0, 2) 0.333333 0.333333 0.333333;
   (1, 2, 1, 2, 0, 2) 0.333333 0.333333 0.333333;
   (2, 2, 1, 2, 0, 2) 0.333333 0.333333 0.333333;
   (0, 0, 2, 2, 0, 2) 0.333333 0.333333 0.333333;
   (1, 0, 2, 2, 0, 2) 0.333333 0.333333 0.333333;
   (2, 0, 2, 2, 0, 2) 0.333333 0.333333 0.333333;
   (0, 1, 2, 2, 0, 2) 0.333333 0.333333 0.333333;
   (1, 1, 2, 2, 0, 2) 0.333333 0.333333 0.333333;
   (2, 1, 2, 2, 0, 2) 0.333333 0.333333 0.333333;
   (0, 2, 2, 2, 0, 2) 0.333333 0.333333 0.333333;
   (1, 2, 2, 2, 0, 2) 0.333333 0.333333 0.333333;
   (2, 2, 2, 2, 0, 2) 0.333333 0.333333 0.333333;
   (0, 0, 0, 0, 1, 2) 0.333333 0.333333 0.333333;
   (1, 0, 0, 0, 1, 2) 0.333333 0.333333 0.333333;
   (2, 0, 0, 0, 1, 2) 0.333333 0.333333 0.333333;
   (0, 1, 0, 0, 1, 2) 0.333333 0.333333 0.333333;
   (1, 1, 0, 0, 1, 2) 0.333333 0.333333 0.333333;
   (2, 1, 0, 0, 1, 2) 0.333333 0.333333 0.333333;
   (0, 2, 0, 0, 1, 2) 0.333333 0.333333 0.333333;
   (1, 2, 0, 0, 1, 2) 0.333333 0.333333 0.333333;
   (2, 2, 0, 0, 1, 2) 0.333333 0.333333 0.333333;
   (0, 0, 1, 0, 1, 2) 0.333333 0.333333 0.333333;
   (1, 0, 1, 0, 1, 2) 0.333333 0.333333 0.333333;
   (2, 0, 1, 0, 1, 2) 0.333333 0.333333 0.333333;
   (0, 1, 1, 0, 1, 2) 0.333333 0.333333 0.333333;
   (1, 1, 1, 0, 1, 2) 0.333333 0.333333 0.333333;
   (2, 1, 1, 0, 1, 2) 0.333333 0.333333 0.333333;
   (0, 2, 1, 0, 1, 2) 0.333333 0.333333 0.333333;
   (1, 2, 1, 0, 1, 2) 0.285714 0.428571 0.285714;
   (2, 2, 1, 0, 1, 2) 0.333333 0.333333 0.333333;
   (0, 0, 2, 0, 1, 2) 0.333333 0.333333 0.333333;
   (1, 0, 2, 0, 1, 2) 0.333333 0.333333 0.333333;
   (2, 0, 2, 0, 1, 2) 0.333333 0.333333 0.333333;
   (0, 1, 2, 0, 1, 2) 0.333333 0.333333 0.333333;
   (1, 1, 2, 0, 1, 2) 0.333333 0.333333 0.333333;
   (2, 1, 2, 0, 1, 2) 0.333333 0.333333 0.333333;
   (0, 2, 2, 0, 1, 2) 0.333333 0.333333 0.333333;
   (1, 2, 2, 0, 1, 2) 0.333333 0.333333 0.333333;
   (2, 2, 2, 0, 1, 2) 0.333333 0.333333 0.333333;
   (0, 0, 0, 1, 1, 2) 0.333333 0.333333 0.333333;
   (1, 0, 0, 1, 1, 2) 0.333333 0.333333 0.333333;
   (2, 0, 0, 1, 1, 2) 0.333333 0.333333 0.333333;
   (0, 1, 0, 1, 1, 2) 0.333333 0.333333 0.333333;
   (1, 1, 0, 1, 1, 2) 0.285714 0.428571 0.285714;
   (2, 1, 0, 1, 1, 2) 0.333333 0.333333 0.333333;
   (0, 2, 0, 1, 1, 2) 0.333333 0.333333 0.333333;
   (1, 2, 0, 1, 1, 2) 0.333333 0.333333 0.333333;
   (2, 2, 0, 1, 1, 2) 0.333333 0.333333 0.333333;
   (0, 0, 1, 1, 1, 2) 0.333333 0.333333 0.333333;
   (1, 0, 1, 1, 1, 2) 0.285714 0.428571 0.285714;
   (2, 0, 1, 1, 1, 2) 0.333333 0.333333 0.333333;
   (0, 1, 1, 1, 1, 2) 0.285714 0.428571 0.285714;
   (1, 1, 1, 1, 1, 2) 0.0337079 0.932584 0.0337079;
   (2, 1, 1, 1, 1, 2) 0.2 0.6 0.2;
   (0, 2, 1, 1, 1, 2) 0.333333 0.333333 0.333333;
   (1, 2, 1, 1, 1, 2) 0.0571429 0.857143 0.0857143;
   (2, 2, 1, 1, 1, 2) 0.25 0.5 0.25;
   (0, 0, 2, 1, 1, 2) 0.333333 0.333333 0.333333;
   (1, 0, 2, 1, 1, 2) 0.333333 0.333333 0.333333;
   (2, 0, 2, 1, 1, 2) 0.333333 0.333333 0.333333;
   (0, 1, 2, 1, 1, 2) 0.333333 0.333333 0.333333;
   (1, 1, 2, 1, 1, 2) 0.166667 0.666667 0.166667;
   (2, 1, 2, 1, 1, 2) 0.333333 0.333333 0.333333;
   (0, 2, 2, 1, 1, 2) 0.285714 0.428571 0.285714;
   (1, 2, 2, 1, 1, 2) 0.25 0.25 0.5;
   (2, 2, 2, 1, 1, 2) 0.285714 0.428571 0.285714;
   (0, 0, 0, 2, 1, 2) 0.333333 0.333333 0.333333;
   (1, 0, 0, 2, 1, 2) 0.333333 0.333333 0.333333;
   (2, 0, 0, 2, 1, 2) 0.333333 0.333333 0.333333;
   (0, 1, 0, 2, 1, 2) 0.333333 0.333333 0.333333;
   (1, 1, 0, 2, 1, 2) 0.333333 0.333333 0.333333;
   (2, 1, 0, 2, 1, 2) 0.333333 0.333333 0.333333;
   (0, 2, 0, 2, 1, 2) 0.333333 0.333333 0.333333;
   (1, 2, 0, 2, 1, 2) 0.333333 0.333333 0.333333;
   (2, 2, 0, 2, 1, 2) 0.333333 0.333333 0.333333;
   (0, 0, 1, 2, 1, 2) 0.333333 0.333333 0.333333;
   (1, 0, 1, 2, 1, 2) 0.333333 0.333333 0.333333;
   (2, 0, 1, 2, 1, 2) 0.333333 0.333333 0.333333;
   (0, 1, 1, 2, 1, 2) 0.285714 0.428571 0.285714;
   (1, 1, 1, 2, 1, 2) 0.166667 0.666667 0.166667;
   (2, 1, 1, 2, 1, 2) 0.285714 0.428571 0.285714;
   (0, 2, 1, 2, 1, 2) 0.333333 0.333333 0.333333;
   (1, 2, 1, 2, 1, 2) 0.285714 0.428571 0.285714;
   (2, 2, 1, 2, 1, 2) 0.333333 0.333333 0.333333;
   (0, 0, 2, 2, 1, 2) 0.333333 0.333333 0.333333;
   (1, 0, 2, 2, 1, 2) 0.333333 0.333333 0.333333;
   (2, 0, 2, 2, 1, 2) 0.333333 0.333333 0.333333;
   (0, 1, 2, 2, 1, 2) 0.333333 0.333333 0.333333;
   (1, 1, 2, 2, 1, 2) 0.333333 0.333333 0.333333;
   (2, 1, 2, 2, 1, 2) 0.333333 0.333333 0.333333;
   (0, 2, 2, 2, 1, 2) 0.333333 0.333333 0.333333;
   (1, 2, 2, 2, 1, 2) 0.333333 0.333333 0.333333;
   (2, 2, 2, 2, 1, 2) 0.333333 0.333333 0.333333;
   (0, 0, 0, 0, 2, 2) 0.428571 0.285714 0.285714;
   (1, 0, 0, 0, 2, 2) 0.333333 0.333333 0.333333;
   (2, 0, 0, 0, 2, 2) 0.333333 0.333333 0.333333;
   (0, 1, 0, 0, 2, 2) 0.333333 0.333333 0.333333;
   (1, 1, 0, 0, 2, 2) 0.333333 0.333333 0.333333;
   (2, 1, 0, 0, 2, 2) 0.333333 0.333333 0.333333;
   (0, 2, 0, 0, 2, 2) 0.333333 0.333333 0.333333;
   (1, 2, 0, 0, 2, 2) 0.333333 0.333333 0.333333;
   (2, 2, 0, 0, 2, 2) 0.333333 0.333333 0.333333;
   (0, 0, 1, 0, 2, 2) 0.333333 0.333333 0.333333;
   (1, 0, 1, 0, 2, 2) 0.333333 0.333333 0.333333;
   (2, 0, 1, 0, 2, 2) 0.333333 0.333333 0.333333;
   (0, 1, 1, 0, 2, 2) 0.333333 0.333333 0.333333;
   (1, 1, 1, 0, 2, 2) 0.333333 0.333333 0.333333;
   (2, 1, 1, 0, 2, 2) 0.333333 0.333333 0.333333;
   (0, 2, 1, 0, 2, 2) 0.333333 0.333333 0.333333;
   (1, 2, 1, 0, 2, 2) 0.333333 0.333333 0.333333;
   (2, 2, 1, 0, 2, 2) 0.333333 0.333333 0.333333;
   (0, 0, 2, 0, 2, 2) 0.333333 0.333333 0.333333;
   (1, 0, 2, 0, 2, 2) 0.333333 0.333333 0.333333;
   (2, 0, 2, 0, 2, 2) 0.333333 0.333333 0.333333;
   (0, 1, 2, 0, 2, 2) 0.333333 0.333333 0.333333;
   (1, 1, 2, 0, 2, 2) 0.333333 0.333333 0.333333;
   (2, 1, 2, 0, 2, 2) 0.333333 0.333333 0.333333;
   (0, 2, 2, 0, 2, 2) 0.333333 0.333333 0.333333;
   (1, 2, 2, 0, 2, 2) 0.333333 0.333333 0.333333;
   (2, 2, 2, 0, 2, 2) 0.333333 0.333333 0.333333;
   (0, 0, 0, 1, 2, 2) 0.333333 0.333333 0.333333;
   (1, 0, 0, 1, 2, 2) 0.333333 0.333333 0.333333;
   (2, 0, 0, 1, 2, 2) 0.333333 0.333333 0.333333;
   (0, 1, 0, 1, 2, 2) 0.333333 0.333333 0.333333;
   (1, 1, 0, 1, 2, 2) 0.333333 0.333333 0.333333;
   (2, 1, 0, 1, 2, 2) 0.333333 0.333333 0.333333;
   (0, 2, 0, 1, 2, 2) 0.333333 0.333333 0.333333;
   (1, 2, 0, 1, 2, 2) 0.333333 0.333333 0.333333;
   (2, 2, 0, 1, 2, 2) 0.333333 0.333333 0.333333;
   (0, 0, 1, 1, 2, 2) 0.333333 0.333333 0.333333;
   (1, 0, 1, 1, 2, 2) 0.333333 0.333333 0.333333;
   (2, 0, 1, 1, 2, 2) 0.333333 0.333333 0.333333;
   (0, 1, 1, 1, 2, 2) 0.333333 0.333333 0.333333;
   (1, 1, 1, 1, 2, 2) 0.181818 0.545455 0.272727;
   (2, 1, 1, 1, 2, 2) 0.333333 0.333333 0.333333;
   (0, 2, 1, 1, 2, 2) 0.333333 0.333333 0.333333;
   (1, 2, 1, 1, 2, 2) 0.153846 0.461538 0.384615;
   (2, 2, 1, 1, 2, 2) 0.333333 0.333333 0.333333;
   (0, 0, 2, 1, 2, 2) 0.333333 0.333333 0.333333;
   (1, 0, 2, 1, 2, 2) 0.333333 0.333333 0.333333;
   (2, 0, 2, 1, 2, 2) 0.333333 0.333333 0.333333;
   (0, 1, 2, 1, 2, 2) 0.333333 0.333333 0.333333;
   (1, 1, 2, 1, 2, 2) 0.333333 0.333333 0.333333;
   (2, 1, 2, 1, 2, 2) 0.333333 0.333333 0.333333;
   (0, 2, 2, 1, 2, 2) 0.333333 0.333333 0.333333;
   (1, 2, 2, 1, 2, 2) 0.25 0.25 0.5;
   (2, 2, 2, 1, 2, 2) 0.333333 0.333333 0.333333;
   (0, 0, 0, 2, 2, 2) 0.333333 0.333333 0.333333;
   (1, 0, 0, 2, 2, 2) 0.333333 0.333333 0.333333;
   (2, 0, 0, 2, 2, 2) 0.333333 0.333333 0.333333;
   (0, 1, 0, 2, 2, 2) 0.333333 0.333333 0.333333;
   (1, 1, 0, 2, 2, 2) 0.333333 0.333333 0.333333;
   (2, 1, 0, 2, 2, 2) 0.333333 0.333333 0.333333;
   (0, 2, 0, 2, 2, 2) 0.333333 0.333333 0.333333;
   (1, 2, 0, 2, 2, 2) 0.333333 0.333333 0.333333;
   (2, 2, 0, 2, 2, 2) 0.333333 0.333333 0.333333;
   (0, 0, 1, 2, 2, 2) 0.333333 0.333333 0.333333;
   (1, 0, 1, 2, 2, 2) 0.333333 0.333333 0.333333;
   (2, 0, 1, 2, 2, 2) 0.285714 0.428571 0.285714;
   (0, 1, 1, 2, 2, 2) 0.333333 0.333333 0.333333;
   (1, 1, 1, 2, 2, 2) 0.333333 0.333333 0.333333;
   (2, 1, 1, 2, 2, 2) 0.333333 0.333333 0.333333;
   (0, 2, 1, 2, 2, 2) 0.333333 0.333333 0.333333;
   (1, 2, 1, 2, 2, 2) 0.2 0.3 0.5;
   (2, 2, 1, 2, 2, 2) 0.333333 0.333333 0.333333;
   (0, 0, 2, 2, 2, 2) 0.333333 0.333333 0.333333;
   (1, 0, 2, 2, 2, 2) 0.333333 0.333333 0.333333;
   (2, 0, 2, 2, 2, 2) 0.333333 0.333333 0.333333;
   (0, 1, 2, 2, 2, 2) 0.333333 0.333333 0.333333;
   (1, 1, 2, 2, 2, 2) 0.333333 0.333333 0.333333;
   (2, 1, 2, 2, 2, 2) 0.333333 0.333333 0.333333;
   (0, 2, 2, 2, 2, 2) 0.333333 0.333333 0.333333;
   (1, 2, 2, 2, 2, 2) 0.285714 0.285714 0.428571;
   (2, 2, 2, 2, 2, 2) 0.125 0.125 0.75;
}
probability (doenca_hepatica_pre | imunodepressao_pre) {
   (0) 0.999159 0.000384972 0.000455757;
   (1) 0.00464883 0.981126 0.0142249;
   (2) 0.767585 0.211025 0.0213896;
}
probability (doenca_neurologica_pre | sindrome_de_down_pre) {
   (0) 0.996813 0.000259173 0.00292742;
   (1) 0.00869426 0.929941 0.061365;
   (2) 0.311787 0.585551 0.102662;
}
probability (doenca_renal_pre | diabetes_pre, asma_pre, imunodepressao_pre) {
   (0, 0, 0) 0.996704 1.8297e-05 0.00327777;
   (1, 0, 0) 0.830409 0.0818713 0.0877193;
   (2, 0, 0) 0.965349 0.000448987 0.0342023;
   (0, 1, 0) 0.48 0.24 0.28;
   (1, 1, 0) 0.114815 0.818519 0.0666667;
   (2, 1, 0) 0.186047 0.697674 0.116279;
   (0, 2, 0) 0.98539 0.00405844 0.0105519;
   (1, 2, 0) 0.37037 0.518519 0.111111;
   (2, 2, 0) 0.942029 0.0144928 0.0434783;
   (0, 0, 1) 0.431818 0.477273 0.0909091;
   (1, 0, 1) 0.109489 0.824818 0.0656934;
   (2, 0, 1) 0.142857 0.714286 0.142857;
   (0, 1, 1) 0.0747664 0.831776 0.0934579;
   (1, 1, 1) 0.00872399 0.939133 0.0521434;
   (2, 1, 1) 0.0125326 0.923935 0.0635323;
   (0, 2, 1) 0.105263 0.789474 0.105263;
   (1, 2, 1) 0.0255064 0.944486 0.0300075;
   (2, 2, 1) 0.0386473 0.891304 0.0700483;
   (0, 0, 2) 0.956866 0.00110035 0.0420335;
   (1, 0, 2) 0.285714 0.428571 0.285714;
   (2, 0, 2) 0.858911 0.0049505 0.136139;
   (0, 1, 2) 0.230769 0.384615 0.384615;
   (1, 1, 2) 0.0100091 0.842584 0.147407;
   (2, 1, 2) 0.0140515 0.683841 0.302108;
   (0, 2, 2) 0.766667 0.1 0.133333;
   (1, 2, 2) 0.0789474 0.789474 0.131579;
   (2, 2, 2) 0.176471 0.235294 0.588235;
}
probability (imunodepressao_pre | pneumopatia_pre) {
   (0) 0.993203 0.000244952 0.00655184;
   (1) 0.0101981 0.949178 0.0406237;
   (2) 0.488047 0.458935 0.0530178;
}
probability (obesidade_pre | doenca_hematologica_pre, diabetes_pre, outros_fatores_de_risco_pre) {
   (0, 0, 0) 0.997489 4.08687e-05 0.00247058;
   (1, 0, 0) 0.340426 0.382979 0.276596;
   (2, 0, 0) 0.947867 0.014218 0.0379147;
   (0, 1, 0) 0.433735 0.325301 0.240964;
   (1, 1, 0) 0.108609 0.684106 0.207285;
   (2, 1, 0) 0.315068 0.630137 0.0547945;
   (0, 2, 0) 0.974775 0.00174384 0.0234817;
   (1, 2, 0) 0.128873 0.742254 0.128873;
   (2, 2, 0) 0.608696 0.252174 0.13913;
   (0, 0, 1) 0.661417 0.0393701 0.299213;
   (1, 0, 1) 0.0952381 0.634921 0.269841;
   (2, 0, 1) 0.6 0.2 0.2;
   (0, 1, 1) 0.16 0.52 0.32;
   (1, 1, 1) 0.0087696 0.838338 0.152892;
   (2, 1, 1) 0.0529101 0.888889 0.0582011;
   (0, 2, 1) 0.569231 0.2 0.230769;
   (1, 2, 1) 0.0182007 0.888147 0.0936528;
   (2, 2, 1) 0.0595238 0.785714 0.154762;
   (0, 0, 2) 0.95292 0.0039095 0.0431709;
   (1, 0, 2) 0.217391 0.637681 0.144928;
   (2, 0, 2) 0.913043 0.0434783 0.0434783;
   (0, 1, 2) 0.233129 0.674847 0.0920245;
   (1, 1, 2) 0.0225287 0.895463 0.0820086;
   (2, 1, 2) 0.0756757 0.843243 0.0810811;
   (0, 2, 2) 0.925662 0.0133381 0.0609995;
   (1, 2, 2) 0.0309146 0.852082 0.117003;
   (2, 2, 2) 0.317757 0.53271 0.149533;
}
probability (outros_fatores_de_risco_pre | pneumopatia_pre, diabetes_pre, idade_pre, asma_pre, imunodepressao_pre) {
   (0, 0, 0, 0, 0) 0.997904 3.44612e-05 0.00206193;
   (1, 0, 0, 0, 0) 0.285714 0.285714 0.428571;
   (2, 0, 0, 0, 0) 0.675676 0.0540541 0.27027;
   (0, 1, 0, 0, 0) 0.333333 0.333333 0.333333;
   (1, 1, 0, 0, 0) 0.333333 0.333333 0.333333;
   (2, 1, 0, 0, 0) 0.333333 0.333333 0.333333;
   (0, 2, 0, 0, 0) 0.959064 0.00292398 0.0380117;
   (1, 2, 0, 0, 0) 0.333333 0.333333 0.333333;
   (2, 2, 0, 0, 0) 0.285714 0.285714 0.428571;
   (0, 0, 1, 0, 0) 0.99647 7.32923e-05 0.00345695;
   (1, 0, 1, 0, 0) 0.428571 0.285714 0.285714;
